<?xml version="1.0"?>
<opencv_storage>
<stage12>
  <maxWeakCount>100</maxWeakCount>
  <stageThreshold>-1.5032515525817871e+00</stageThreshold>
  <weakClassifiers>
    <_>
      <internalNodes>
        0 -1 33041 3.7667537108063698e-03</internalNodes>
      <leafValues>
        -3.6746180057525635e-01 2.1869516372680664e-01</leafValues></_>
    <_>
      <internalNodes>
        0 -1 1241 -1.0079400539398193e+00</internalNodes>
      <leafValues>
        4.5850762724876404e-01 -1.3549850881099701e-01</leafValues></_>
    <_>
      <internalNodes>
        0 -1 14880 -1.1794280726462603e-03</internalNodes>
      <leafValues>
        1.4095285534858704e-01 -2.5138607621192932e-01</leafValues></_>
    <_>
      <internalNodes>
        0 -1 35086 -1.6325191245414317e-04</internalNodes>
      <leafValues>
        7.5049676001071930e-02 -2.5918745994567871e-01</leafValues></_>
    <_>
      <internalNodes>
        0 -1 12534 1.5400108695030212e-01</internalNodes>
      <leafValues>
        1.2747501954436302e-02 4.8180994391441345e-01</leafValues></_>
    <_>
      <internalNodes>
        0 -1 33045 3.1070904806256294e-03</internalNodes>
      <leafValues>
        -1.4431616663932800e-01 1.6835841536521912e-01</leafValues></_>
    <_>
      <internalNodes>
        0 -1 33435 -1.1451645754277706e-02</internalNodes>
      <leafValues>
        -5.3982341289520264e-01 2.7757506817579269e-02</leafValues></_>
    <_>
      <internalNodes>
        0 -1 138 1.9649386405944824e-02</internalNodes>
      <leafValues>
        -9.7841247916221619e-02 2.0148144662380219e-01</leafValues></_>
    <_>
      <internalNodes>
        0 -1 35150 5.5091655813157558e-03</internalNodes>
      <leafValues>
        2.6511767879128456e-02 -5.0224304199218750e-01</leafValues></_>
    <_>
      <internalNodes>
        0 -1 22072 3.9036467205733061e-03</internalNodes>
      <leafValues>
        -1.0784129053354263e-01 1.5163406729698181e-01</leafValues></_>
    <_>
      <internalNodes>
        0 -1 23624 -2.6942184194922447e-03</internalNodes>
      <leafValues>
        -3.9423468708992004e-01 5.3461272269487381e-02</leafValues></_>
    <_>
      <internalNodes>
        0 -1 23624 2.0555513910949230e-03</internalNodes>
      <leafValues>
        3.3406928181648254e-02 -3.8769420981407166e-01</leafValues></_>
    <_>
      <internalNodes>
        0 -1 35115 -3.7609136779792607e-04</internalNodes>
      <leafValues>
        7.4528649449348450e-02 -1.6927793622016907e-01</leafValues></_>
    <_>
      <internalNodes>
        0 -1 30726 1.5810832381248474e-02</internalNodes>
      <leafValues>
        -9.1798581182956696e-02 2.0412226021289825e-01</leafValues></_>
    <_>
      <internalNodes>
        0 -1 28279 -1.6044536605477333e-02</internalNodes>
      <leafValues>
        1.6166158020496368e-01 -8.2279674708843231e-02</leafValues></_>
    <_>
      <internalNodes>
        0 -1 6988 -8.0928586423397064e-02</internalNodes>
      <leafValues>
        1.5798836946487427e-01 -8.5315689444541931e-02</leafValues></_>
    <_>
      <internalNodes>
        0 -1 7389 1.3415679335594177e-02</internalNodes>
      <leafValues>
        -7.5760334730148315e-02 1.7123274505138397e-01</leafValues></_>
    <_>
      <internalNodes>
        0 -1 13522 -4.8639141023159027e-02</internalNodes>
      <leafValues>
        3.0447846651077271e-01 -4.2130254209041595e-02</leafValues></_>
    <_>
      <internalNodes>
        0 -1 24319 2.0688632503151894e-03</internalNodes>
      <leafValues>
        -1.0532715171575546e-01 1.3649860024452209e-01</leafValues></_>
    <_>
      <internalNodes>
        0 -1 3063 3.7065222859382629e-03</internalNodes>
      <leafValues>
        4.2546905577182770e-02 -3.4498757123947144e-01</leafValues></_>
    <_>
      <internalNodes>
        0 -1 3065 3.4318226389586926e-03</internalNodes>
      <leafValues>
        2.8430268168449402e-02 -4.8845267295837402e-01</leafValues></_>
    <_>
      <internalNodes>
        0 -1 31751 -4.4894148595631123e-04</internalNodes>
      <leafValues>
        -1.8758851289749146e-01 6.4006261527538300e-02</leafValues></_>
    <_>
      <internalNodes>
        0 -1 31235 -4.6423468738794327e-02</internalNodes>
      <leafValues>
        3.6670592427253723e-01 -3.6558382213115692e-02</leafValues></_>
    <_>
      <internalNodes>
        0 -1 13102 -1.8171432893723249e-03</internalNodes>
      <leafValues>
        -3.3122426271438599e-01 3.6147017031908035e-02</leafValues></_>
    <_>
      <internalNodes>
        0 -1 17997 1.6719166189432144e-02</internalNodes>
      <leafValues>
        -5.7033386081457138e-02 2.2840335965156555e-01</leafValues></_>
    <_>
      <internalNodes>
        0 -1 20522 -9.6860621124505997e-03</internalNodes>
      <leafValues>
        1.9446298480033875e-01 -6.0367688536643982e-02</leafValues></_>
    <_>
      <internalNodes>
        0 -1 13102 1.5058992430567741e-03</internalNodes>
      <leafValues>
        4.2045712471008301e-02 -2.9891362786293030e-01</leafValues></_>
    <_>
      <internalNodes>
        0 -1 33943 -1.4324385672807693e-02</internalNodes>
      <leafValues>
        -4.6164721250534058e-01 2.3523598909378052e-02</leafValues></_>
    <_>
      <internalNodes>
        0 -1 28685 -3.8150041364133358e-03</internalNodes>
      <leafValues>
        1.4097058773040771e-01 -9.1430604457855225e-02</leafValues></_>
    <_>
      <internalNodes>
        0 -1 32937 8.6133265867829323e-03</internalNodes>
      <leafValues>
        3.1140692532062531e-02 -3.7751585245132446e-01</leafValues></_>
    <_>
      <internalNodes>
        0 -1 34011 -1.8931658938527107e-02</internalNodes>
      <leafValues>
        -3.5658413171768188e-01 3.0064480379223824e-02</leafValues></_>
    <_>
      <internalNodes>
        0 -1 33821 -2.9655225574970245e-02</internalNodes>
      <leafValues>
        3.3547005057334900e-01 -3.3769760280847549e-02</leafValues></_>
    <_>
      <internalNodes>
        0 -1 34120 1.3161024078726768e-02</internalNodes>
      <leafValues>
        3.2567992806434631e-02 -3.7310069799423218e-01</leafValues></_>
    <_>
      <internalNodes>
        0 -1 13784 2.1255470812320709e-02</internalNodes>
      <leafValues>
        -7.2025641798973083e-02 1.4700019359588623e-01</leafValues></_>
    <_>
      <internalNodes>
        0 -1 21237 -5.4774433374404907e-02</internalNodes>
      <leafValues>
        2.5782412290573120e-01 -5.4824080318212509e-02</leafValues></_>
    <_>
      <internalNodes>
        0 -1 10298 1.4482862316071987e-02</internalNodes>
      <leafValues>
        2.9598498716950417e-02 -3.3175772428512573e-01</leafValues></_>
    <_>
      <internalNodes>
        0 -1 10146 -1.8885916098952293e-02</internalNodes>
      <leafValues>
        2.0867797732353210e-01 -5.1564440131187439e-02</leafValues></_>
    <_>
      <internalNodes>
        0 -1 1 -3.2064572442322969e-03</internalNodes>
      <leafValues>
        -2.7410259842872620e-01 3.9379462599754333e-02</leafValues></_>
    <_>
      <internalNodes>
        0 -1 32879 3.0610684305429459e-02</internalNodes>
      <leafValues>
        1.7574217170476913e-02 -5.1030415296554565e-01</leafValues></_>
    <_>
      <internalNodes>
        0 -1 5760 -3.6680791527032852e-02</internalNodes>
      <leafValues>
        1.5503354370594025e-01 -6.1681292951107025e-02</leafValues></_>
    <_>
      <internalNodes>
        0 -1 6286 1.0535400360822678e-04</internalNodes>
      <leafValues>
        -1.1137744784355164e-01 9.0035565197467804e-02</leafValues></_>
    <_>
      <internalNodes>
        0 -1 6543 3.5972803831100464e-02</internalNodes>
      <leafValues>
        2.8425775468349457e-02 -3.8406932353973389e-01</leafValues></_>
    <_>
      <internalNodes>
        0 -1 10199 2.3445218801498413e-02</internalNodes>
      <leafValues>
        -5.7539805769920349e-02 1.6946047544479370e-01</leafValues></_>
    <_>
      <internalNodes>
        0 -1 9224 -4.9043253064155579e-02</internalNodes>
      <leafValues>
        1.2000957876443863e-01 -8.8059954345226288e-02</leafValues></_>
    <_>
      <internalNodes>
        0 -1 4573 1.6735661774873734e-02</internalNodes>
      <leafValues>
        -7.8211173415184021e-02 1.1628185212612152e-01</leafValues></_>
    <_>
      <internalNodes>
        0 -1 16160 -1.5646995976567268e-02</internalNodes>
      <leafValues>
        1.8510313332080841e-01 -5.8046452701091766e-02</leafValues></_>
    <_>
      <internalNodes>
        0 -1 34105 1.1161796748638153e-02</internalNodes>
      <leafValues>
        4.0436886250972748e-02 -2.4241736531257629e-01</leafValues></_>
    <_>
      <internalNodes>
        0 -1 34809 -1.2617590837180614e-03</internalNodes>
      <leafValues>
        8.1775553524494171e-02 -1.2250866740942001e-01</leafValues></_>
    <_>
      <internalNodes>
        0 -1 6203 -1.6227466403506696e-04</internalNodes>
      <leafValues>
        1.0949765890836716e-01 -8.0398999154567719e-02</leafValues></_>
    <_>
      <internalNodes>
        0 -1 6203 1.5620238264091313e-04</internalNodes>
      <leafValues>
        -9.2552952468395233e-02 1.1549995094537735e-01</leafValues></_>
    <_>
      <internalNodes>
        0 -1 22971 -1.4270774554461241e-03</internalNodes>
      <leafValues>
        -2.3240789771080017e-01 3.9086189121007919e-02</leafValues></_>
    <_>
      <internalNodes>
        0 -1 20699 -1.5136392903514206e-04</internalNodes>
      <leafValues>
        1.1004036664962769e-01 -9.1296166181564331e-02</leafValues></_>
    <_>
      <internalNodes>
        0 -1 30396 6.6761095076799393e-03</internalNodes>
      <leafValues>
        -5.2681218832731247e-02 1.8140937387943268e-01</leafValues></_>
    <_>
      <internalNodes>
        0 -1 33983 -5.5761169642210007e-04</internalNodes>
      <leafValues>
        -1.7205396294593811e-01 5.4784912616014481e-02</leafValues></_>
    <_>
      <internalNodes>
        0 -1 20697 1.4418736100196838e-04</internalNodes>
      <leafValues>
        -7.8395083546638489e-02 1.1323667317628860e-01</leafValues></_>
    <_>
      <internalNodes>
        0 -1 8762 -3.2326744985766709e-05</internalNodes>
      <leafValues>
        -8.1300869584083557e-02 1.0563974827528000e-01</leafValues></_>
    <_>
      <internalNodes>
        0 -1 2649 3.0046631582081318e-04</internalNodes>
      <leafValues>
        7.7279835939407349e-02 -1.2944622337818146e-01</leafValues></_>
    <_>
      <internalNodes>
        0 -1 2666 1.1024643480777740e-01</internalNodes>
      <leafValues>
        -9.1569550335407257e-02 9.1945402324199677e-02</leafValues></_>
    <_>
      <internalNodes>
        0 -1 16835 -2.4831015616655350e-02</internalNodes>
      <leafValues>
        -4.4809556007385254e-01 1.8542520701885223e-02</leafValues></_>
    <_>
      <internalNodes>
        0 -1 35217 -1.0117776691913605e-02</internalNodes>
      <leafValues>
        -3.2139128446578979e-01 2.7811054140329361e-02</leafValues></_>
    <_>
      <internalNodes>
        0 -1 34494 -5.1739853806793690e-03</internalNodes>
      <leafValues>
        1.6405589878559113e-01 -7.0738226175308228e-02</leafValues></_>
    <_>
      <internalNodes>
        0 -1 34592 6.2305517494678497e-03</internalNodes>
      <leafValues>
        -5.2430514246225357e-02 1.8722169101238251e-01</leafValues></_>
    <_>
      <internalNodes>
        0 -1 34998 -7.1576057234779000e-04</internalNodes>
      <leafValues>
        -1.7514540255069733e-01 5.4345179349184036e-02</leafValues></_>
    <_>
      <internalNodes>
        0 -1 33077 -2.4360381066799164e-02</internalNodes>
      <leafValues>
        1.8894259631633759e-01 -4.6413101255893707e-02</leafValues></_>
    <_>
      <internalNodes>
        0 -1 34739 1.7059976235032082e-03</internalNodes>
      <leafValues>
        3.0304053798317909e-02 -3.2825249433517456e-01</leafValues></_>
    <_>
      <internalNodes>
        0 -1 1882 -1.6801629215478897e-02</internalNodes>
      <leafValues>
        1.0192730277776718e-01 -8.0827295780181885e-02</leafValues></_>
    <_>
      <internalNodes>
        0 -1 875 2.3460073769092560e-01</internalNodes>
      <leafValues>
        -7.0158332586288452e-02 1.6138701140880585e-01</leafValues></_>
    <_>
      <internalNodes>
        0 -1 26552 -1.2047088239341974e-04</internalNodes>
      <leafValues>
        1.1811625212430954e-01 -7.5457200407981873e-02</leafValues></_>
    <_>
      <internalNodes>
        0 -1 9319 -6.3319867476820946e-03</internalNodes>
      <leafValues>
        -3.9486655592918396e-01 2.1513974294066429e-02</leafValues></_>
    <_>
      <internalNodes>
        0 -1 17590 -1.9730091094970703e-02</internalNodes>
      <leafValues>
        1.9932332634925842e-01 -4.4385444372892380e-02</leafValues></_>
    <_>
      <internalNodes>
        0 -1 7636 1.6437722661066800e-04</internalNodes>
      <leafValues>
        -9.6691869199275970e-02 9.0114533901214600e-02</leafValues></_>
    <_>
      <internalNodes>
        0 -1 14177 -1.5296519268304110e-03</internalNodes>
      <leafValues>
        9.2405512928962708e-02 -1.0248499363660812e-01</leafValues></_>
    <_>
      <internalNodes>
        0 -1 14877 -4.4432803988456726e-03</internalNodes>
      <leafValues>
        -5.1492166519165039e-01 1.6092680394649506e-02</leafValues></_>
    <_>
      <internalNodes>
        0 -1 11306 -5.4268497042357922e-03</internalNodes>
      <leafValues>
        1.2574842572212219e-01 -6.6262058913707733e-02</leafValues></_>
    <_>
      <internalNodes>
        0 -1 19237 1.8871372565627098e-02</internalNodes>
      <leafValues>
        -4.4784750789403915e-02 2.1574458479881287e-01</leafValues></_>
    <_>
      <internalNodes>
        0 -1 33443 7.2308089584112167e-03</internalNodes>
      <leafValues>
        2.4823246523737907e-02 -3.4545689821243286e-01</leafValues></_>
    <_>
      <internalNodes>
        0 -1 3133 -8.6940111941657960e-05</internalNodes>
      <leafValues>
        -1.5773865580558777e-01 5.0572995096445084e-02</leafValues></_>
    <_>
      <internalNodes>
        0 -1 9333 -7.0733450353145599e-02</internalNodes>
      <leafValues>
        -4.0277329087257385e-01 1.8063928931951523e-02</leafValues></_>
    <_>
      <internalNodes>
        0 -1 9825 -1.4051180332899094e-03</internalNodes>
      <leafValues>
        -2.2492137551307678e-01 3.2632615417242050e-02</leafValues></_>
    <_>
      <internalNodes>
        0 -1 22709 -5.1560241729021072e-02</internalNodes>
      <leafValues>
        -4.2558321356773376e-01 1.6625359654426575e-02</leafValues></_>
    <_>
      <internalNodes>
        0 -1 26027 -1.4891054888721555e-04</internalNodes>
      <leafValues>
        8.5505619645118713e-02 -8.9394517242908478e-02</leafValues></_>
    <_>
      <internalNodes>
        0 -1 35218 -1.1942263226956129e-03</internalNodes>
      <leafValues>
        -2.2935754060745239e-01 3.2668061554431915e-02</leafValues></_>
    <_>
      <internalNodes>
        0 -1 32718 -4.0264371782541275e-03</internalNodes>
      <leafValues>
        1.4547967910766602e-01 -5.5675256997346878e-02</leafValues></_>
    <_>
      <internalNodes>
        0 -1 30076 -1.2803298886865377e-04</internalNodes>
      <leafValues>
        9.7882770001888275e-02 -8.5433237254619598e-02</leafValues></_>
    <_>
      <internalNodes>
        0 -1 31508 -5.7959826663136482e-03</internalNodes>
      <leafValues>
        1.4999417960643768e-01 -5.2350852638483047e-02</leafValues></_>
    <_>
      <internalNodes>
        0 -1 33806 -2.6686189696192741e-02</internalNodes>
      <leafValues>
        -1.7724220454692841e-01 4.5248232781887054e-02</leafValues></_>
    <_>
      <internalNodes>
        0 -1 24785 1.5619464684277773e-03</internalNodes>
      <leafValues>
        3.7328373640775681e-02 -2.2795408964157104e-01</leafValues></_>
    <_>
      <internalNodes>
        0 -1 27024 1.7787099350243807e-03</internalNodes>
      <leafValues>
        -1.0526769608259201e-01 7.7497527003288269e-02</leafValues></_>
    <_>
      <internalNodes>
        0 -1 17995 -6.6313641145825386e-03</internalNodes>
      <leafValues>
        1.9282376766204834e-01 -5.5510759353637695e-02</leafValues></_>
    <_>
      <internalNodes>
        0 -1 6649 1.4833081513643265e-02</internalNodes>
      <leafValues>
        -9.0639479458332062e-02 9.0455770492553711e-02</leafValues></_>
    <_>
      <internalNodes>
        0 -1 14865 1.3968311250209808e-02</internalNodes>
      <leafValues>
        -5.1781173795461655e-02 1.5692807734012604e-01</leafValues></_>
    <_>
      <internalNodes>
        0 -1 1136 -5.3915162570774555e-03</internalNodes>
      <leafValues>
        1.2573625147342682e-01 -6.4213737845420837e-02</leafValues></_>
    <_>
      <internalNodes>
        0 -1 10374 -8.0968022346496582e-02</internalNodes>
      <leafValues>
        -4.6709227561950684e-01 1.8540272489190102e-02</leafValues></_>
    <_>
      <internalNodes>
        0 -1 13139 2.1500099450349808e-02</internalNodes>
      <leafValues>
        -5.9554219245910645e-02 1.4514608681201935e-01</leafValues></_>
    <_>
      <internalNodes>
        0 -1 7223 1.8914027605205774e-03</internalNodes>
      <leafValues>
        2.7316633611917496e-02 -3.1287425756454468e-01</leafValues></_>
    <_>
      <internalNodes>
        0 -1 35211 -8.4527637809514999e-03</internalNodes>
      <leafValues>
        -4.1854935884475708e-01 1.8026657402515411e-02</leafValues></_>
    <_>
      <internalNodes>
        0 -1 6664 6.6117756068706512e-02</internalNodes>
      <leafValues>
        -4.6955075114965439e-02 1.5772630274295807e-01</leafValues></_>
    <_>
      <internalNodes>
        0 -1 33119 -7.3574725538492203e-03</internalNodes>
      <leafValues>
        -5.7067918777465820e-01 1.3473866507411003e-02</leafValues></_>
    <_>
      <internalNodes>
        0 -1 34519 -1.2263016833458096e-04</internalNodes>
      <leafValues>
        9.4500117003917694e-02 -8.1498630344867706e-02</leafValues></_>
    <_>
      <internalNodes>
        0 -1 32695 -1.4186061162035912e-04</internalNodes>
      <leafValues>
        8.6007423698902130e-02 -8.5723258554935455e-02</leafValues></_></weakClassifiers></stage12>
</opencv_storage>
