<?xml version="1.0"?>
<opencv_storage>
<stage8>
  <maxWeakCount>67</maxWeakCount>
  <stageThreshold>-2.0718433856964111e+00</stageThreshold>
  <weakClassifiers>
    <_>
      <internalNodes>
        0 -1 524 -75498870 -1 -2105345 -8737 -1442141526 -257 454004623
        -8737</internalNodes>
      <leafValues>
        -4.7250652313232422e-01 4.8355019092559814e-01</leafValues></_>
    <_>
      <internalNodes>
        0 -1 65 -36865 -1104981 -2134017 -2137117 2147450879 -32773
        2147450879 -32769</internalNodes>
      <leafValues>
        -3.6196601390838623e-01 3.4126493334770203e-01</leafValues></_>
    <_>
      <internalNodes>
        0 -1 505 -274137104 -66852 -143804929 -539176748 -1349977158
        -74006 -553107457 -539160235</internalNodes>
      <leafValues>
        -3.1531950831413269e-01 3.0049189925193787e-01</leafValues></_>
    <_>
      <internalNodes>
        0 -1 807 -707243 -35825793 -2097153 -32769 -71450703 -67158019
        -16236741 -1153745089</internalNodes>
      <leafValues>
        -1.8374641239643097e-01 3.9992040395736694e-01</leafValues></_>
    <_>
      <internalNodes>
        0 -1 522 -352801280 -75966240 -526342 -4534028 720023467
        -1141229902 196806077 1610547669</internalNodes>
      <leafValues>
        -3.0394616723060608e-01 1.9164909422397614e-01</leafValues></_>
    <_>
      <internalNodes>
        0 -1 972 1349865557 273940573 -2097153 7888255 -42403503
        -41979563 -6029313 710475775</internalNodes>
      <leafValues>
        -3.3002790808677673e-01 1.9340206682682037e-01</leafValues></_>
    <_>
      <internalNodes>
        0 -1 895 -2252375 366838165 -2097153 232652789 -1344425987
        -1344426499 -1073901569 -1932660737</internalNodes>
      <leafValues>
        -2.6514065265655518e-01 2.1357940137386322e-01</leafValues></_>
    <_>
      <internalNodes>
        0 -1 136 -1373457421 -286337282 -548030477 -268508932 168214463
        -805324037 123671925 -541129659</internalNodes>
      <leafValues>
        -2.4323149025440216e-01 1.9344046711921692e-01</leafValues></_>
    <_>
      <internalNodes>
        0 -1 1100 1509940479 274464849 -8389633 5379839 -8650753
        -29435115 -1 674824191</internalNodes>
      <leafValues>
        -3.2844197750091553e-01 1.3585333526134491e-01</leafValues></_>
    <_>
      <internalNodes>
        0 -1 103 792669743 623455776 -354718206 -356276636 2138274807
        1473501740 2147448695 -42502281</internalNodes>
      <leafValues>
        -3.3725732564926147e-01 1.3204671442508698e-01</leafValues></_>
    <_>
      <internalNodes>
        0 -1 85 -873946383 -269944327 -268632067 -268646668 -1153483855
        -1375879178 -2129931 -269649963</internalNodes>
      <leafValues>
        -1.9937811791896820e-01 2.1473547816276550e-01</leafValues></_>
    <_>
      <internalNodes>
        0 -1 923 559919138 232635535 158281728 -1918894609 731820203
        263975599 161416591 266321327</internalNodes>
      <leafValues>
        -3.4269237518310547e-01 1.0333418101072311e-01</leafValues></_>
    <_>
      <internalNodes>
        0 -1 862 74470485 73159005 -533013505 167566687 -1171130288
        -67289991 -90112263 708345136</internalNodes>
      <leafValues>
        -3.1761899590492249e-01 1.2068284302949905e-01</leafValues></_>
    <_>
      <internalNodes>
        0 -1 1030 -101068579 299172181 -10616839 292937691 -201527096
        -1142976095 -1299648288 570489821</internalNodes>
      <leafValues>
        -2.4437895417213440e-01 1.4225780963897705e-01</leafValues></_>
    <_>
      <internalNodes>
        0 -1 915 -4653572 -1078459144 -18212 -539027204 -1078411287
        -1078214657 -1145323523 -1074430465</internalNodes>
      <leafValues>
        -1.0953461378812790e-01 3.1083643436431885e-01</leafValues></_>
    <_>
      <internalNodes>
        0 -1 524 782249845 59271520 -1692456128 -441840832 1538613069
        321267050 -457738379 1196237348</internalNodes>
      <leafValues>
        -3.0620458722114563e-01 1.1253667622804642e-01</leafValues></_>
    <_>
      <internalNodes>
        0 -1 78 -269753361 -336920734 -17831709 -71112224 192151551
        -279562416 2002220407 -535049</internalNodes>
      <leafValues>
        -1.3213171064853668e-01 2.5224810838699341e-01</leafValues></_>
    <_>
      <internalNodes>
        0 -1 1042 -370907872 -571668987 -79691777 1396340543 -101123103
        -604153550 -114623047 707424063</internalNodes>
      <leafValues>
        -2.0027522742748260e-01 1.6440816223621368e-01</leafValues></_>
    <_>
      <internalNodes>
        0 -1 831 -399450080 -73484 -3073 -536937219 -12928071 -138697589
        -4456453 -272695285</internalNodes>
      <leafValues>
        -1.0673467069864273e-01 3.0809357762336731e-01</leafValues></_>
    <_>
      <internalNodes>
        0 -1 566 -1430643339 -42017538 -538574849 -268527367 -1410681095
        -67141633 -1145356289 -1346429571</internalNodes>
      <leafValues>
        -1.6619057953357697e-01 1.8360278010368347e-01</leafValues></_>
    <_>
      <internalNodes>
        0 -1 505 -25551057 -286769310 -5066764 -1359243319 -550851103
        -479504 721867777 755123338</internalNodes>
      <leafValues>
        -1.7091280221939087e-01 1.7219938337802887e-01</leafValues></_>
    <_>
      <internalNodes>
        0 -1 514 -72811232 -77704 -393741 -1074080520 -1432180038
        -68493078 185252671 -838925291</internalNodes>
      <leafValues>
        -1.6972540318965912e-01 1.6715486347675323e-01</leafValues></_>
    <_>
      <internalNodes>
        0 -1 845 -52887832 486020842 -137457270 -536889857 1005845439
        1006620091 -1342210115 754789933</internalNodes>
      <leafValues>
        -1.6940857470035553e-01 1.6113881766796112e-01</leafValues></_>
    <_>
      <internalNodes>
        0 -1 65 187335170 -287586722 2145363091 -422601186 -13458061
        1342177127 -1476397453 1476117879</internalNodes>
      <leafValues>
        -1.4247561991214752e-01 1.9364097714424133e-01</leafValues></_>
    <_>
      <internalNodes>
        0 -1 19 -554631169 -1968665504 -42472449 79998670 -181449
        -445190218 -537449921 214854756</internalNodes>
      <leafValues>
        -2.7126228809356689e-01 1.1228871345520020e-01</leafValues></_>
    <_>
      <internalNodes>
        0 -1 938 -268674715 -43649 -1 -1074038273 -262147 -1 -6570053
        993728799</internalNodes>
      <leafValues>
        -1.1797475814819336e-01 2.5848144292831421e-01</leafValues></_>
    <_>
      <internalNodes>
        0 -1 804 -1363650203 -826533059 -639631873 -1342546561 -4584196
        -1076101665 1056840509 -1347805851</internalNodes>
      <leafValues>
        -2.1878004074096680e-01 1.2079688906669617e-01</leafValues></_>
    <_>
      <internalNodes>
        0 -1 1121 724562723 120547226 1962918912 -1342186541 61585835
        89629303 872371505 1207957503</internalNodes>
      <leafValues>
        -2.4328346550464630e-01 1.0817118734121323e-01</leafValues></_>
    <_>
      <internalNodes>
        0 -1 5 -274007045 -286331670 -277876769 -856890176 520355763
        -740631633 252966911 -807463577</internalNodes>
      <leafValues>
        -1.3991215825080872e-01 1.8501392006874084e-01</leafValues></_>
    <_>
      <internalNodes>
        0 -1 833 -1059134651 1090257005 -137379841 132119423 -341984403
        -67124913 -87229571 -1997731513</internalNodes>
      <leafValues>
        -1.5009556710720062e-01 1.6154251992702484e-01</leafValues></_>
    <_>
      <internalNodes>
        0 -1 713 7807008 536848319 112180270 -1347420161 251274301
        1071595455 800964045 771354095</internalNodes>
      <leafValues>
        -3.3730679750442505e-01 7.3697373270988464e-02</leafValues></_>
    <_>
      <internalNodes>
        0 -1 1107 -16790435 1463770495 -201458721 840097663 -421987320
        -550504367 -84214276 976419679</internalNodes>
      <leafValues>
        -1.7880073189735413e-01 1.3693280518054962e-01</leafValues></_>
    <_>
      <internalNodes>
        0 -1 858 -1394850448 -1124305795 -4194305 -1342539265 -17204231
        -1031 -21276675 -1439035609</internalNodes>
      <leafValues>
        -1.7839382588863373e-01 1.3122533261775970e-01</leafValues></_>
    <_>
      <internalNodes>
        0 -1 129 1873002363 792339071 1803234083 788660579 792690495
        -36765 -39085 -10782877</internalNodes>
      <leafValues>
        -1.9251844286918640e-01 1.2479913979768753e-01</leafValues></_>
    <_>
      <internalNodes>
        0 -1 807 6212268 528430549 -808833047 454819647 200691052
        -1411058893 -1129845116 1855211841</internalNodes>
      <leafValues>
        -2.0224207639694214e-01 1.1204927414655685e-01</leafValues></_>
    <_>
      <internalNodes>
        0 -1 947 -788728747 1576899797 -48382465 39681535 -104989448
        -67139448 -1147110535 -1433665681</internalNodes>
      <leafValues>
        -1.1572490632534027e-01 1.9721482694149017e-01</leafValues></_>
    <_>
      <internalNodes>
        0 -1 493 -1359331760 -50530690 -1006788627 -1392584451
        -1414909127 -268718354 1058749803 -1886453745</internalNodes>
      <leafValues>
        -1.2560872733592987e-01 1.7901293933391571e-01</leafValues></_>
    <_>
      <internalNodes>
        0 -1 280 -1416970973 -1886465478 -67649597 -1378208656
        -1356103897 -1056114 1460360565 -807660475</internalNodes>
      <leafValues>
        -2.1517287194728851e-01 1.1124272644519806e-01</leafValues></_>
    <_>
      <internalNodes>
        0 -1 771 -93658616 -536972054 1459540222 -134293783 -12583121
        -536870997 -274809939 -67155121</internalNodes>
      <leafValues>
        -8.6129046976566315e-02 2.4253472685813904e-01</leafValues></_>
    <_>
      <internalNodes>
        0 -1 852 -1104644764 -1342958088 -1073823774 1073616124
        -1146602008 -8760344 -1346501384 -1342218883</internalNodes>
      <leafValues>
        -1.7280867695808411e-01 1.1797299981117249e-01</leafValues></_>
    <_>
      <internalNodes>
        0 -1 0 -1413808405 1724579436 -9188888 -286593328 804257775
        -134610978 503281143 -671115787</internalNodes>
      <leafValues>
        -1.4826633036136627e-01 1.3514277338981628e-01</leafValues></_>
    <_>
      <internalNodes>
        0 -1 856 -4197007 -1077992432 1971174613 -1077992212 1073705973
        -1073742337 999955757 -1344319125</internalNodes>
      <leafValues>
        -9.3765221536159515e-02 2.0670001208782196e-01</leafValues></_>
    <_>
      <internalNodes>
        0 -1 708 1405145152 385508421 2073761992 737869807 194517896
        1064962799 -1086636115 654904581</internalNodes>
      <leafValues>
        -1.9302216172218323e-01 9.9031776189804077e-02</leafValues></_>
    <_>
      <internalNodes>
        0 -1 417 799701792 -1179979672 -614465565 -1080929052 732576362
        -1347911438 252843317 1307837765</internalNodes>
      <leafValues>
        -2.7284225821495056e-01 6.9624513387680054e-02</leafValues></_>
    <_>
      <internalNodes>
        0 -1 466 -319635595 -354534145 -2113601 -1359565697 -1081395215
        -1064961 1584077215 -129749</internalNodes>
      <leafValues>
        -1.1425541341304779e-01 1.7512996494770050e-01</leafValues></_>
    <_>
      <internalNodes>
        0 -1 1078 38030453 458980381 -28314121 573734239 -17899655
        -262315 -16974355 -1439631751</internalNodes>
      <leafValues>
        -2.5374418497085571e-01 7.6703220605850220e-02</leafValues></_>
    <_>
      <internalNodes>
        0 -1 127 1784359787 723724327 -820829662 1125337713 805269259
        1795108222 1878746131 -79734929</internalNodes>
      <leafValues>
        -2.4642266333103180e-01 7.7851414680480957e-02</leafValues></_>
    <_>
      <internalNodes>
        0 -1 211 -471909650 -13975644 -2250774 -1896159385 927677327
        2145120903 2012903375 -2768121</internalNodes>
      <leafValues>
        -1.3109040260314941e-01 1.4848016202449799e-01</leafValues></_>
    <_>
      <internalNodes>
        0 -1 756 -1347879135 2063515405 -52229 -604320393 -1414384756
        -622873858 -1414898323 -1433468927</internalNodes>
      <leafValues>
        -1.5036945044994354e-01 1.3185526430606842e-01</leafValues></_>
    <_>
      <internalNodes>
        0 -1 1051 1440075936 231444975 332773794 335280607 84612520
        228303516 -1662273109 683514831</internalNodes>
      <leafValues>
        -1.6361048817634583e-01 1.1575879156589508e-01</leafValues></_>
    <_>
      <internalNodes>
        0 -1 965 -715788256 -1646396306 222105648 -1648383811
        -1657488975 -1448089863 -1940287043 -1897939729</internalNodes>
      <leafValues>
        -1.0325689613819122e-01 1.8257622420787811e-01</leafValues></_>
    <_>
      <internalNodes>
        0 -1 1040 -102774427 1501386061 1062966267 22806239 -337794359
        -656570116 -71714184 -2000965717</internalNodes>
      <leafValues>
        -1.0822950303554535e-01 1.6569557785987854e-01</leafValues></_>
    <_>
      <internalNodes>
        0 -1 982 15990849 209589581 -232800257 112860501 787110432
        -102822787 -541556871 705714453</internalNodes>
      <leafValues>
        -3.3485287427902222e-01 5.3715970367193222e-02</leafValues></_>
    <_>
      <internalNodes>
        0 -1 642 -1427500459 -822402947 -539714561 -1896203137
        -1097056287 -37973 -1082385283 -1428612863</internalNodes>
      <leafValues>
        -1.5891411900520325e-01 1.0901964455842972e-01</leafValues></_>
    <_>
      <internalNodes>
        0 -1 386 -221583105 1355601128 -470287697 -451088466 -1149912849
        -1803493931 -32545 801378244</internalNodes>
      <leafValues>
        -1.5903200209140778e-01 1.0628800839185715e-01</leafValues></_>
    <_>
      <internalNodes>
        0 -1 759 1825241444 1324247126 -24593 -1879162881 -1364071832
        -83909783 -74490819 -1429532337</internalNodes>
      <leafValues>
        -1.1215742677450180e-01 1.7472693324089050e-01</leafValues></_>
    <_>
      <internalNodes>
        0 -1 855 1034974564 -1080537996 805060269 -1345684371
        -1344397448 -1073775892 -1346667047 804920417</internalNodes>
      <leafValues>
        -2.2910214960575104e-01 7.2374321520328522e-02</leafValues></_>
    <_>
      <internalNodes>
        0 -1 905 -673848480 1366150346 -135268354 -673513601 -8524821
        -144183698 268434941 -288359057</internalNodes>
      <leafValues>
        -8.3346053957939148e-02 1.9578447937965393e-01</leafValues></_>
    <_>
      <internalNodes>
        0 -1 1013 -1394846639 -579314283 -705171813 519919085 -368116260
        -1077937441 -6624775 -2013242027</internalNodes>
      <leafValues>
        -2.4345710873603821e-01 6.8326815962791443e-02</leafValues></_>
    <_>
      <internalNodes>
        0 -1 115 724740768 799942702 -13556222 1389804532 725442361
        1065023562 2003785333 -6318092</internalNodes>
      <leafValues>
        -2.2082602977752686e-01 7.4154399335384369e-02</leafValues></_>
    <_>
      <internalNodes>
        0 -1 626 -17761428 -84010147 -1296367874 2134146519 -1342260484
        -268697602 -1074087428 -42499</internalNodes>
      <leafValues>
        -7.4010118842124939e-02 2.3191238939762115e-01</leafValues></_>
    <_>
      <internalNodes>
        0 -1 77 838611602 268103262 -1216434865 -1392595026 1206664133
        1610460671 1033748137 787312334</internalNodes>
      <leafValues>
        -2.4289877712726593e-01 7.9118862748146057e-02</leafValues></_>
    <_>
      <internalNodes>
        0 -1 1 -1423252053 740869944 -556817358 -554504800 658705743
        1199553394 400782455 1974825301</internalNodes>
      <leafValues>
        -1.7571131885051727e-01 9.2026583850383759e-02</leafValues></_>
    <_>
      <internalNodes>
        0 -1 569 -822412939 -33810459 -806674759 -1348481825 -1363279979
        -537976899 -806605121 -269792161</internalNodes>
      <leafValues>
        -7.0050977170467377e-02 2.3358501493930817e-01</leafValues></_>
    <_>
      <internalNodes>
        0 -1 522 1003715308 1017977397 -592399 -1162257365 -1557774472
        2133458686 -176423583 -1519857285</internalNodes>
      <leafValues>
        -1.1043354868888855e-01 1.4347749948501587e-01</leafValues></_>
    <_>
      <internalNodes>
        0 -1 594 -487134208 -674831894 -52499759 -20120888 -1153795680
        -38279745 -1128420160 616827397</internalNodes>
      <leafValues>
        -2.4446207284927368e-01 6.6357947885990143e-02</leafValues></_>
    <_>
      <internalNodes>
        0 -1 1114 234422304 24975388 -875040791 196335983 731415200
        1409101971 1721351080 11595839</internalNodes>
      <leafValues>
        -2.5054472684860229e-01 6.1724547296762466e-02</leafValues></_></weakClassifiers></stage8>
</opencv_storage>
