<?xml version="1.0"?>
<opencv_storage>
<stage14>
  <maxWeakCount>100</maxWeakCount>
  <stageThreshold>-2.0333392620086670e+00</stageThreshold>
  <weakClassifiers>
    <_>
      <internalNodes>
        0 -1 953 -21846 -20497 -524289 -1 -20481 -16385 -16385 -1</internalNodes>
      <leafValues>
        -4.7899395227432251e-01 3.7375035881996155e-01</leafValues></_>
    <_>
      <internalNodes>
        0 -1 82 -1 -3334 -8193 -3856 -1051649 -78581520 2000123903
        -36617</internalNodes>
      <leafValues>
        -2.4785993993282318e-01 3.6679729819297791e-01</leafValues></_>
    <_>
      <internalNodes>
        0 -1 627 -15663362 -36609 452995642 -8421921 -1173832470
        -71632130 -1086668805 -1</internalNodes>
      <leafValues>
        -1.1600961536169052e-01 5.3692823648452759e-01</leafValues></_>
    <_>
      <internalNodes>
        0 -1 870 -60348 -41601 -1048577 -33313 -1141162056 -319505
        -1087750241 -1086644417</internalNodes>
      <leafValues>
        -2.0929630100727081e-01 2.3518532514572144e-01</leafValues></_>
    <_>
      <internalNodes>
        0 -1 1041 469740202 1073719983 -1350829125 534642671 -1141199121
        -1073758262 -1141113937 718273423</internalNodes>
      <leafValues>
        -2.5836515426635742e-01 1.5729825198650360e-01</leafValues></_>
    <_>
      <internalNodes>
        0 -1 429 -83887378 -67960966 -536870945 -33884931 -67391830
        -67112706 1393547215 -2108977</internalNodes>
      <leafValues>
        -5.2806332707405090e-02 4.1640374064445496e-01</leafValues></_>
    <_>
      <internalNodes>
        0 -1 82 -274268190 -6094939 -536891166 -272564225 192003971
        -68159884 -809502889 -11151544</internalNodes>
      <leafValues>
        -2.0074912905693054e-01 1.7179627716541290e-01</leafValues></_>
    <_>
      <internalNodes>
        0 -1 103 796077679 1832463908 -855955905 -2938334 2142732287
        -809285273 2147448827 -557193</internalNodes>
      <leafValues>
        -3.0270397663116455e-01 7.8913994133472443e-02</leafValues></_>
    <_>
      <internalNodes>
        0 -1 834 -29560 2147463144 -2098211 -2115108 -21284 2113521113
        -2237203 12904652</internalNodes>
      <leafValues>
        -2.1095146238803864e-01 1.5374496579170227e-01</leafValues></_>
    <_>
      <internalNodes>
        0 -1 1100 -606076929 275916119 -1025 34665335 -1048577 -316625
        -1 -1435304197</internalNodes>
      <leafValues>
        -2.0377270877361298e-01 1.3250634074211121e-01</leafValues></_>
    <_>
      <internalNodes>
        0 -1 894 -524427 1434408821 -75645666 424935423 -67110660
        -1459771184 -19039624 -2004877505</internalNodes>
      <leafValues>
        -1.6266554594039917e-01 1.4583456516265869e-01</leafValues></_>
    <_>
      <internalNodes>
        0 -1 6 -175442445 -276240478 -275779657 -272440288 -82577613
        -17567918 2134340983 -8948617</internalNodes>
      <leafValues>
        -1.5054762363433838e-01 1.4431960880756378e-01</leafValues></_>
    <_>
      <internalNodes>
        0 -1 502 -1347781392 -268513028 -1025 -2106148 -1968522566
        -89199366 -1895157571 1300955289</internalNodes>
      <leafValues>
        -1.7009191215038300e-01 1.2415775656700134e-01</leafValues></_>
    <_>
      <internalNodes>
        0 -1 968 -663464875 1610430303 -1 1073642975 -7733263 -20769
        -9699331 -1346699397</internalNodes>
      <leafValues>
        -1.4026865363121033e-01 1.4187981188297272e-01</leafValues></_>
    <_>
      <internalNodes>
        0 -1 833 -738466972 1090379823 -1179715 -811606145 -67110043
        -69215235 -3343523 -1416626345</internalNodes>
      <leafValues>
        -9.6389815211296082e-02 2.0336778461933136e-01</leafValues></_>
    <_>
      <internalNodes>
        0 -1 953 144463316 210530488 -84628438 226790816 -1394090836
        -1079185523 -12006228 41984</internalNodes>
      <leafValues>
        -2.5569617748260498e-01 7.5864866375923157e-02</leafValues></_>
    <_>
      <internalNodes>
        0 -1 771 -277691904 -859295 -67667214 -76035 -281859320
        2067431243 -277115479 -67158005</internalNodes>
      <leafValues>
        -1.0562007129192352e-01 1.8967784941196442e-01</leafValues></_>
    <_>
      <internalNodes>
        0 -1 265 -1373455565 -286330122 -2119977 -321076120 256524219
        -276108049 1338967421 -808500188</internalNodes>
      <leafValues>
        -1.9053144752979279e-01 9.9456727504730225e-02</leafValues></_>
    <_>
      <internalNodes>
        0 -1 219 -97276061 998195042 2077932386 -329758 2147430335
        728723302 1674541029 -35337</internalNodes>
      <leafValues>
        -1.5745307505130768e-01 1.2408252805471420e-01</leafValues></_>
    <_>
      <internalNodes>
        0 -1 627 149555969 989375808 607133671 922265456 1301302036
        527661671 2142468868 862978368</internalNodes>
      <leafValues>
        -3.3540314435958862e-01 4.9137525260448456e-02</leafValues></_>
    <_>
      <internalNodes>
        0 -1 672 -488641532 1165971023 -850415985 167771919 -268567496
        -33573752 -85106935 672073735</internalNodes>
      <leafValues>
        -1.4025722444057465e-01 1.1924093961715698e-01</leafValues></_>
    <_>
      <internalNodes>
        0 -1 1099 -1616923853 1068481074 2113876016 -1074014413
        597898163 -1145045762 399463283 -268435525</internalNodes>
      <leafValues>
        -1.3339483737945557e-01 1.1788436025381088e-01</leafValues></_>
    <_>
      <internalNodes>
        0 -1 505 -269549709 -66690 -174084289 -1359034163 -284496222
        -70994 -838180929 -808500153</internalNodes>
      <leafValues>
        -9.0949937701225281e-02 1.6984149813652039e-01</leafValues></_>
    <_>
      <internalNodes>
        0 -1 371 -54989073 -934507316 -16912641 -856888178 -3166241
        2130513885 -1074844929 634152452</internalNodes>
      <leafValues>
        -2.2349211573600769e-01 7.0100642740726471e-02</leafValues></_>
    <_>
      <internalNodes>
        0 -1 1006 -109126556 -1612039000 368312400 -63428 232021492
        804253167 382538101 -1380688651</internalNodes>
      <leafValues>
        -1.1629093438386917e-01 1.3473045825958252e-01</leafValues></_>
    <_>
      <internalNodes>
        0 -1 481 -285340575 -285283201 -1083200259 -1900143361
        -1345376459 -5243905 529139053 -1897262078</internalNodes>
      <leafValues>
        -1.5555466711521149e-01 9.9122114479541779e-02</leafValues></_>
    <_>
      <internalNodes>
        0 -1 0 -1346371649 -424743318 -295739152 -286591264 267370495
        1207680971 1535079923 -2140684</internalNodes>
      <leafValues>
        -1.4236406981945038e-01 1.0982566326856613e-01</leafValues></_>
    <_>
      <internalNodes>
        0 -1 79 70265387 1612835616 1728007906 -156048848 2136037183
        -29411168 1971027967 -252349343</internalNodes>
      <leafValues>
        -1.9363741576671600e-01 7.6850898563861847e-02</leafValues></_>
    <_>
      <internalNodes>
        0 -1 534 -631371094 1400373199 494485034 -134283275 -1166229585
        847953871 -633372723 1976386885</internalNodes>
      <leafValues>
        -1.4224903285503387e-01 9.7960129380226135e-02</leafValues></_>
    <_>
      <internalNodes>
        0 -1 1069 1213661196 1493106725 1400897279 149690575 -1432313720
        -88469368 -400368392 -1440044145</internalNodes>
      <leafValues>
        -1.5362615883350372e-01 9.0511411428451538e-02</leafValues></_>
    <_>
      <internalNodes>
        0 -1 1118 263135520 232763709 86471728 536867307 118534306
        94341558 293204368 29226379</internalNodes>
      <leafValues>
        -2.5198546051979065e-01 5.4962616413831711e-02</leafValues></_>
    <_>
      <internalNodes>
        0 -1 1056 424958293 522736207 -1644429315 991574879 -12651015
        -262797 -67175427 -1438975041</internalNodes>
      <leafValues>
        -1.4813768863677979e-01 8.8715918362140656e-02</leafValues></_>
    <_>
      <internalNodes>
        0 -1 129 724807475 774905971 266021411 723738915 796884771
        -61597 2071924547 -8686745</internalNodes>
      <leafValues>
        -1.9863182306289673e-01 6.4797498285770416e-02</leafValues></_>
    <_>
      <internalNodes>
        0 -1 787 -65866396 -16878340 771636764 268055644 -1343169087
        -329488 -273729047 -268479377</internalNodes>
      <leafValues>
        -6.8335056304931641e-02 1.9366079568862915e-01</leafValues></_>
    <_>
      <internalNodes>
        0 -1 4 -270532609 -286343698 2146942451 -404952346 254787519
        -286277649 1198465531 -7089</internalNodes>
      <leafValues>
        -8.3487428724765778e-02 1.5299774706363678e-01</leafValues></_>
    <_>
      <internalNodes>
        0 -1 670 -19996164 -1636003625 -1048577 -1048609 -1073741895
        -5185 -11299 -520133881</internalNodes>
      <leafValues>
        -8.8608980178833008e-02 1.4389054477214813e-01</leafValues></_>
    <_>
      <internalNodes>
        0 -1 507 -705163632 -69801251 -168952195 -436211729 -537944643
        -540094501 -537018675 -35844913</internalNodes>
      <leafValues>
        -1.1671183258295059e-01 1.1300414800643921e-01</leafValues></_>
    <_>
      <internalNodes>
        0 -1 1110 -436746161 39651919 -144769025 3203039 -286096384
        -1347629756 -122750804 536936283</internalNodes>
      <leafValues>
        -2.1255004405975342e-01 6.2260866165161133e-02</leafValues></_>
    <_>
      <internalNodes>
        0 -1 866 -438332977 360658799 -679477249 771749855 -117442959
        -44078480 -926263 725974884</internalNodes>
      <leafValues>
        -1.0218708217144012e-01 1.3152547180652618e-01</leafValues></_>
    <_>
      <internalNodes>
        0 -1 870 678227897 702357501 2147446654 515559215 -339943593
        -1174564643 -84173444 1811315027</internalNodes>
      <leafValues>
        -1.0470119118690491e-01 1.1631855368614197e-01</leafValues></_>
    <_>
      <internalNodes>
        0 -1 1026 1861963861 1566530653 -8449 1062885119 -4655752
        -5531044 -342852232 722132863</internalNodes>
      <leafValues>
        -1.2808454036712646e-01 9.5153242349624634e-02</leafValues></_>
    <_>
      <internalNodes>
        0 -1 317 -1440563679 692608544 -33562790 -810879776 726285171
        728250400 2136173941 -573221563</internalNodes>
      <leafValues>
        -1.9261352717876434e-01 6.2724135816097260e-02</leafValues></_>
    <_>
      <internalNodes>
        0 -1 789 236988720 805055604 1064972014 804929151 -1413738992
        -368647 -1074643592 -1346757072</internalNodes>
      <leafValues>
        -2.7663207054138184e-01 4.2230274528264999e-02</leafValues></_>
    <_>
      <internalNodes>
        0 -1 773 -486545878 281010863 -134218822 1403715055 -201344118
        -1816141138 -270540883 -337647025</internalNodes>
      <leafValues>
        -6.5542586147785187e-02 1.8196631968021393e-01</leafValues></_>
    <_>
      <internalNodes>
        0 -1 690 -282401792 2146098588 -1076626449 -338111011 -283398238
        -29693780 -1560631363 -1008795635</internalNodes>
      <leafValues>
        -1.1174701899290085e-01 1.0808885842561722e-01</leafValues></_>
    <_>
      <internalNodes>
        0 -1 60 1871441707 581618304 -34616014 -1393366048 1326588795
        100925138 1933931889 -168438412</internalNodes>
      <leafValues>
        -1.7446434497833252e-01 6.8709060549736023e-02</leafValues></_>
    <_>
      <internalNodes>
        0 -1 705 218046628 133148319 1420768686 -1343438922 771536365
        212700877 1037872780 76320133</internalNodes>
      <leafValues>
        -2.9753264784812927e-01 3.9048273116350174e-02</leafValues></_>
    <_>
      <internalNodes>
        0 -1 944 -352403364 -536903587 -570442258 -1677819393 -67442024
        -67122584 -1144291527 -343168437</internalNodes>
      <leafValues>
        -7.1230344474315643e-02 1.6862711310386658e-01</leafValues></_>
    <_>
      <internalNodes>
        0 -1 867 -553671452 -590527291 -4261953 135118283 -92736280
        -17183536 -131587 -1437466667</internalNodes>
      <leafValues>
        -1.2543618679046631e-01 1.0191197693347931e-01</leafValues></_>
    <_>
      <internalNodes>
        0 -1 1095 -86015998 -639668188 -1146375120 2071131647 -369147768
        -1074047185 -33599816 -122486929</internalNodes>
      <leafValues>
        -7.4120596051216125e-02 1.5743216872215271e-01</leafValues></_>
    <_>
      <internalNodes>
        0 -1 550 -1366682032 -17932929 -8406049 -1359569665 -1413661763
        -1342472195 -1684062787 -1616241295</internalNodes>
      <leafValues>
        -1.5322679281234741e-01 7.3556914925575256e-02</leafValues></_>
    <_>
      <internalNodes>
        0 -1 922 -575672015 -1618041688 -1443949232 -1111622511
        1072461301 -1074875137 492778701 -1880107985</internalNodes>
      <leafValues>
        -8.2458190619945526e-02 1.3539247214794159e-01</leafValues></_>
    <_>
      <internalNodes>
        0 -1 1115 -1459650552 31260781 -1466047864 47251455 -1426161528
        1526725692 -1431311992 1088552542</internalNodes>
      <leafValues>
        -1.8074639141559601e-01 6.2902845442295074e-02</leafValues></_>
    <_>
      <internalNodes>
        0 -1 581 -268517387 -107305 -536895749 -1677800241 -4194398
        -16777745 -544268501 -874574837</internalNodes>
      <leafValues>
        -6.1087608337402344e-02 1.8044206500053406e-01</leafValues></_>
    <_>
      <internalNodes>
        0 -1 793 -1359029043 -18985891 -69207045 -4560395 -292467
        -16778289 -1112367107 -342200239</internalNodes>
      <leafValues>
        -1.3675878942012787e-01 8.1997618079185486e-02</leafValues></_>
    <_>
      <internalNodes>
        0 -1 1100 771214559 1874718569 -16932866 -1125471746 -1074792562
        -327229807 -1 1353252860</internalNodes>
      <leafValues>
        -1.6798128187656403e-01 6.5611653029918671e-02</leafValues></_>
    <_>
      <internalNodes>
        0 -1 952 1643626532 31296521 2125289976 61470585 -67248004
        -1140871016 -74580655 -1433604255</internalNodes>
      <leafValues>
        -1.4260771870613098e-01 7.9513728618621826e-02</leafValues></_>
    <_>
      <internalNodes>
        0 -1 920 1358799104 369078151 -2012739584 -1912668786 91694469
        -1389392481 -805843635 -838996001</internalNodes>
      <leafValues>
        -1.2410292774438858e-01 8.8175319135189056e-02</leafValues></_>
    <_>
      <internalNodes>
        0 -1 718 -1376476 786331440 421148670 -1342555297 -1347768408
        -233690 -1079329608 -442829</internalNodes>
      <leafValues>
        -6.7071996629238129e-02 1.6354064643383026e-01</leafValues></_>
    <_>
      <internalNodes>
        0 -1 448 -11030974 -613206716 504380986 2138660852 1073450636
        2147446386 -138472015 -2272051</internalNodes>
      <leafValues>
        -8.8596254587173462e-02 1.2132831662893295e-01</leafValues></_>
    <_>
      <internalNodes>
        0 -1 111 585244674 721299366 1724919606 165283428 2080325411
        1073717225 1798135613 771581215</internalNodes>
      <leafValues>
        -3.3871635794639587e-01 3.2254595309495926e-02</leafValues></_>
    <_>
      <internalNodes>
        0 -1 998 -704681696 -539031250 -537919492 -13061714 -319032392
        -1612712137 -114657795 -341078225</internalNodes>
      <leafValues>
        -6.9484502077102661e-02 1.5492443740367889e-01</leafValues></_>
    <_>
      <internalNodes>
        0 -1 127 175317547 538601255 -296573952 39975783 805203787
        191593313 1677407796 2066971251</internalNodes>
      <leafValues>
        -3.0896610021591187e-01 3.3476840704679489e-02</leafValues></_>
    <_>
      <internalNodes>
        0 -1 412 -184898432 -61282847 -33780138 -3870772 2126625440
        1604448661 -21225588 613182564</internalNodes>
      <leafValues>
        -1.9947490096092224e-01 5.0695233047008514e-02</leafValues></_>
    <_>
      <internalNodes>
        0 -1 897 -826741720 -578821118 -1778683814 -537201475 -281036484
        -608194627 -1124056 -74473461</internalNodes>
      <leafValues>
        -5.9581760317087173e-02 1.8708065152168274e-01</leafValues></_>
    <_>
      <internalNodes>
        0 -1 390 -1372144013 -285303050 -10637693 -1895925684 1336557107
        -1131272 1296725543 -817101819</internalNodes>
      <leafValues>
        -1.5429019927978516e-01 6.8557634949684143e-02</leafValues></_>
    <_>
      <internalNodes>
        0 -1 20 -153355790 49583893 -554373169 -1427191299 -180996316
        -237616841 -551846051 2066311799</internalNodes>
      <leafValues>
        -1.0789813101291656e-01 9.6749082207679749e-02</leafValues></_>
    <_>
      <internalNodes>
        0 -1 5 -81071117 -537995794 -1087378537 -537070356 453127987
        2002177774 1996706679 -572783209</internalNodes>
      <leafValues>
        -9.4930455088615417e-02 1.1259590089321136e-01</leafValues></_>
    <_>
      <internalNodes>
        0 -1 796 115344501 620000631 -806354946 1023344379 -1146090896
        -1677886371 -828879027 -1434944156</internalNodes>
      <leafValues>
        -1.8511064350605011e-01 5.5826470255851746e-02</leafValues></_>
    <_>
      <internalNodes>
        0 -1 121 -499913173 -482378910 -1300986046 -145589902 2147483631
        -210829697 2113371493 -67373210</internalNodes>
      <leafValues>
        -9.1632477939128876e-02 1.1419848352670670e-01</leafValues></_>
    <_>
      <internalNodes>
        0 -1 68 838869248 1978950634 -439392769 652243174 1832520464
        485694173 1962870953 1824550106</internalNodes>
      <leafValues>
        -2.0115439593791962e-01 5.3165100514888763e-02</leafValues></_>
    <_>
      <internalNodes>
        0 -1 530 -1359337984 1005352808 -15553486 2145058262 729489292
        -1343334281 234554153 -1913568939</internalNodes>
      <leafValues>
        -1.7266884446144104e-01 5.9836350381374359e-02</leafValues></_>
    <_>
      <internalNodes>
        0 -1 292 -273745685 -13697734 -12714501 -17891876 1862967279
        -1684276485 -140286727 -572534289</internalNodes>
      <leafValues>
        -5.7033292949199677e-02 1.8572744727134705e-01</leafValues></_>
    <_>
      <internalNodes>
        0 -1 1085 215946333 475992133 -1965238594 43183999 -361043960
        -18915876 -84359048 -1439106209</internalNodes>
      <leafValues>
        -1.6673444211483002e-01 6.2098532915115356e-02</leafValues></_>
    <_>
      <internalNodes>
        0 -1 78 791309098 -475878902 -159913822 -222107422 169940835
        70680384 1416852852 1440077152</internalNodes>
      <leafValues>
        -2.0414802432060242e-01 4.8972114920616150e-02</leafValues></_>
    <_>
      <internalNodes>
        0 -1 722 -1374144976 796688237 -1342231814 249179007 -1083560012
        -8749187 -1627775160 991501362</internalNodes>
      <leafValues>
        -1.8276536464691162e-01 5.4451622068881989e-02</leafValues></_>
    <_>
      <internalNodes>
        0 -1 756 -69534880 -67326124 -264452 -269825569 -1414873108
        -16777218 -272745619 -342948789</internalNodes>
      <leafValues>
        -6.4802035689353943e-02 1.5183034539222717e-01</leafValues></_>
    <_>
      <internalNodes>
        0 -1 563 -553981220 348456269 -1096909330 -1778547493 -338034815
        -1126428047 -33697908 -1411289131</internalNodes>
      <leafValues>
        -1.1552772670984268e-01 9.1066241264343262e-02</leafValues></_>
    <_>
      <internalNodes>
        0 -1 1071 -386455520 -71365073 1991507966 540179839 -362108792
        -337044820 -89392387 -501159157</internalNodes>
      <leafValues>
        -1.1246209591627121e-01 8.7516352534294128e-02</leafValues></_>
    <_>
      <internalNodes>
        0 -1 958 -352474976 -537932550 -1644393740 -570690888 -939737863
        -1913238149 -1073794635 -973880337</internalNodes>
      <leafValues>
        -6.0802891850471497e-02 1.5797334909439087e-01</leafValues></_>
    <_>
      <internalNodes>
        0 -1 634 -277315843 1061109303 -1086406657 -1086440321
        -1348571404 -319523 -358204936 -312455</internalNodes>
      <leafValues>
        -8.6044140160083771e-02 1.0845142602920532e-01</leafValues></_>
    <_>
      <internalNodes>
        0 -1 417 -272957913 2075062894 -579897411 -6630032 -1350386822
        -1345406730 -1354768579 -538979073</internalNodes>
      <leafValues>
        -5.4160840809345245e-02 1.7368015646934509e-01</leafValues></_>
    <_>
      <internalNodes>
        0 -1 849 783294468 -1346630084 362155192 517614064 -268822440
        -1075097238 -1364575184 -1095824475</internalNodes>
      <leafValues>
        -1.8106816709041595e-01 5.2948132157325745e-02</leafValues></_>
    <_>
      <internalNodes>
        0 -1 1046 -923926240 -1233632 -697363280 1942371643 1222273457
        -75540209 -1142612499 -1467946099</internalNodes>
      <leafValues>
        -1.1532649397850037e-01 8.5540078580379486e-02</leafValues></_>
    <_>
      <internalNodes>
        0 -1 886 -394820464 -2131490424 -545742860 202497963 -726284811
        -1082414860 -570427913 149220080</internalNodes>
      <leafValues>
        -1.8519257009029388e-01 5.3390510380268097e-02</leafValues></_>
    <_>
      <internalNodes>
        0 -1 1120 -572535133 1334836492 2042597408 -856959 187607978
        -2058362950 1440981376 -50332705</internalNodes>
      <leafValues>
        -6.2080662697553635e-02 1.5857915580272675e-01</leafValues></_>
    <_>
      <internalNodes>
        0 -1 1052 -1925245696 -1886480872 -1870843824 -34208480
        162346480 -1078297393 769471929 -1912743507</internalNodes>
      <leafValues>
        -1.3991782069206238e-01 6.8444214761257172e-02</leafValues></_>
    <_>
      <internalNodes>
        0 -1 24 -277875793 -303106086 -353898768 -328218 802160383
        -18901772 -18909969 -33569585</internalNodes>
      <leafValues>
        -5.3625307977199554e-02 1.7722083628177643e-01</leafValues></_>
    <_>
      <internalNodes>
        0 -1 1121 771744513 133159562 2113904912 -1411477305 197079346
        195788103 124748930 67106235</internalNodes>
      <leafValues>
        -1.7411255836486816e-01 5.5259399116039276e-02</leafValues></_>
    <_>
      <internalNodes>
        0 -1 642 -290571695 -327391233 -5857281 -1879115281 -16826384
        -1107330645 -356237463 -280360669</internalNodes>
      <leafValues>
        -1.0314782708883286e-01 9.0846434235572815e-02</leafValues></_>
    <_>
      <internalNodes>
        0 -1 979 1172300885 526228351 -65016338 577433439 -84033164
        -85199164 -764575887 708968045</internalNodes>
      <leafValues>
        -1.3001227378845215e-01 6.9980651140213013e-02</leafValues></_>
    <_>
      <internalNodes>
        0 -1 8 -285229261 -285294865 -29376553 -1900221254 172953378
        -79105 89990421 -811842556</internalNodes>
      <leafValues>
        -1.4823371171951294e-01 6.1549097299575806e-02</leafValues></_>
    <_>
      <internalNodes>
        0 -1 671 -190174196 796955805 -1107299338 -1187734081 767329412
        -11668577 -1410352900 646261317</internalNodes>
      <leafValues>
        -2.1641273796558380e-01 4.2597100138664246e-02</leafValues></_>
    <_>
      <internalNodes>
        0 -1 706 -196948 2147366756 -1212499286 2136669948 -1342394676
        -41975953 -83032 -167784453</internalNodes>
      <leafValues>
        -4.7784004360437393e-02 2.0302918553352356e-01</leafValues></_>
    <_>
      <internalNodes>
        0 -1 7 1697842706 -987812314 -571587042 -1064868573 1564157746
        1289111866 2071147743 1196581586</internalNodes>
      <leafValues>
        -1.4693948626518250e-01 6.1149597167968750e-02</leafValues></_>
    <_>
      <internalNodes>
        0 -1 1104 251068533 675024703 -35854627 576224733 -438832060
        -268701322 -856162324 -1607401603</internalNodes>
      <leafValues>
        -2.2775918245315552e-01 3.9043422788381577e-02</leafValues></_>
    <_>
      <internalNodes>
        0 -1 210 -1147099646 755540786 126561915 -95491472 529248199
        -1171409009 1073622508 1977893313</internalNodes>
      <leafValues>
        -1.3118851184844971e-01 7.0067971944808960e-02</leafValues></_>
    <_>
      <internalNodes>
        0 -1 311 1656666992 -239288322 -111384853 -1363738882 1799175976
        1798212086 1062038831 183259219</internalNodes>
      <leafValues>
        -1.1439412087202072e-01 7.9899549484252930e-02</leafValues></_>
    <_>
      <internalNodes>
        0 -1 648 -527510332 -2077720116 -156436618 1753003733
        -1228069692 -289623051 -1359028024 546137093</internalNodes>
      <leafValues>
        -1.9240979850292206e-01 4.5205775648355484e-02</leafValues></_>
    <_>
      <internalNodes>
        0 -1 892 140020992 1576897860 -135659522 1088984424 1045530756
        -276900355 96114168 8389765</internalNodes>
      <leafValues>
        -2.3747660219669342e-01 3.5046882927417755e-02</leafValues></_></weakClassifiers></stage14>
</opencv_storage>
