<?xml version="1.0"?>
<opencv_storage>
<stage2>
  <maxWeakCount>29</maxWeakCount>
  <stageThreshold>-2.2542374134063721e+00</stageThreshold>
  <weakClassifiers>
    <_>
      <internalNodes>
        0 -1 15 -1 -16385 -1 -54273 -49217 -16385 -49153 -49153</internalNodes>
      <leafValues>
        -6.0128402709960938e-01 6.6255491971969604e-01</leafValues></_>
    <_>
      <internalNodes>
        0 -1 113 587150067 872413183 939488255 2147448831 939489279
        1073741823 2147450879 2147448831</internalNodes>
      <leafValues>
        -5.5963844060897827e-01 3.7241789698600769e-01</leafValues></_>
    <_>
      <internalNodes>
        0 -1 1100 -33554433 284974975 -1 707985407 -1 -1025 -1
        -1426391041</internalNodes>
      <leafValues>
        -3.9823418855667114e-01 4.0755450725555420e-01</leafValues></_>
    <_>
      <internalNodes>
        0 -1 505 -269811723 -65572 -16387 -205348 -1392646 -65542
        -7798787 -540261308</internalNodes>
      <leafValues>
        -3.3839577436447144e-01 4.2838394641876221e-01</leafValues></_>
    <_>
      <internalNodes>
        0 -1 81 -5570561 -274530526 -4097 -73184 2139062271 -4227209
        2147450879 -34953</internalNodes>
      <leafValues>
        -2.4587221443653107e-01 4.1602095961570740e-01</leafValues></_>
    <_>
      <internalNodes>
        0 -1 979 1356158293 276125535 -524289 808648703 -118097840
        -84279471 -67502085 -1435435141</internalNodes>
      <leafValues>
        -3.2474192976951599e-01 2.7227172255516052e-01</leafValues></_>
    <_>
      <internalNodes>
        0 -1 1055 738173731 666877935 264184081 -1342177281 603928503
        268433919 -268479193 -1342181393</internalNodes>
      <leafValues>
        -3.5146728157997131e-01 2.4661895632743835e-01</leafValues></_>
    <_>
      <internalNodes>
        0 -1 953 -570588032 -536922755 -201457665 -33562625 -268653331
        -151553 -20483 -1930645595</internalNodes>
      <leafValues>
        -2.5782793760299683e-01 3.1649965047836304e-01</leafValues></_>
    <_>
      <internalNodes>
        0 -1 127 1744777007 705638183 -272651733 -1411663513 2139045759
        1811906431 2147448695 -133</internalNodes>
      <leafValues>
        -3.6522948741912842e-01 1.9851614534854889e-01</leafValues></_>
    <_>
      <internalNodes>
        0 -1 8 -324096009 -286331137 -22785 -285284630 266809343
        -536870913 1342141951 -43161</internalNodes>
      <leafValues>
        -2.1617241203784943e-01 3.1627741456031799e-01</leafValues></_>
    <_>
      <internalNodes>
        0 -1 15 -865949168 -1969078024 -34197507 267376170 -4993423
        -1929417157 1375461137 1342162977</internalNodes>
      <leafValues>
        -2.7893540263175964e-01 2.2279351949691772e-01</leafValues></_>
    <_>
      <internalNodes>
        0 -1 862 74798165 676345119 -1 672857983 -125961136 -8651403
        -14090307 -1441775840</internalNodes>
      <leafValues>
        -3.3358338475227356e-01 1.8509604036808014e-01</leafValues></_>
    <_>
      <internalNodes>
        0 -1 676 -37882380 -235657891 -1090 -1107444745 -33702403
        -1108005499 -33706579 12947239</internalNodes>
      <leafValues>
        -2.4942204356193542e-01 2.1492418646812439e-01</leafValues></_>
    <_>
      <internalNodes>
        0 -1 113 1929561902 1313484710 -285823178 -2047300108 1534507813
        -49153 -1308651137 -2013938057</internalNodes>
      <leafValues>
        -2.0461259782314301e-01 2.3358607292175293e-01</leafValues></_>
    <_>
      <internalNodes>
        0 -1 1078 134618453 176037404 -33849353 168303676 -69835
        -4194473 -76875779 -1431293408</internalNodes>
      <leafValues>
        -3.9408040046691895e-01 1.1713467538356781e-01</leafValues></_>
    <_>
      <internalNodes>
        0 -1 507 -475208 2108997087 -142630921 -4210689 -34099203
        -33751121 -132097 -1110065</internalNodes>
      <leafValues>
        -1.4229379594326019e-01 3.0559518933296204e-01</leafValues></_>
    <_>
      <internalNodes>
        0 -1 1113 1258277919 142557295 -805314593 146724351 -335623716
        -67240673 -50923016 -1460470081</internalNodes>
      <leafValues>
        -2.1019308269023895e-01 1.8659047782421112e-01</leafValues></_>
    <_>
      <internalNodes>
        0 -1 669 -1027987104 -269598849 -537022481 -1343308305
        -1342293709 -1048577 -21295301 -1898249981</internalNodes>
      <leafValues>
        -1.8932637572288513e-01 2.1368576586246490e-01</leafValues></_>
    <_>
      <internalNodes>
        0 -1 24 -1356070929 -1465321492 -4202540 -286593182 721418235
        -138936345 2139043317 2113390069</internalNodes>
      <leafValues>
        -2.2228950262069702e-01 1.7257486283779144e-01</leafValues></_>
    <_>
      <internalNodes>
        0 -1 1121 268382515 88080171 1543453552 -1478829680 267334963
        131071983 325014832 218103295</internalNodes>
      <leafValues>
        -3.4748631715774536e-01 1.0531756281852722e-01</leafValues></_>
    <_>
      <internalNodes>
        0 -1 49 -81070157 -135728198 -1342246913 -466192 -1087064157
        -22138158 2069767639 -539016121</internalNodes>
      <leafValues>
        -1.5358562767505646e-01 2.3626281321048737e-01</leafValues></_>
    <_>
      <internalNodes>
        0 -1 685 -995578652 83668789 -436420740 -1392727060 -4214795
        -1074872363 -20571 802138541</internalNodes>
      <leafValues>
        -2.1468165516853333e-01 1.6072399914264679e-01</leafValues></_>
    <_>
      <internalNodes>
        0 -1 466 -1968304267 -293687601 -16859203 -1367602051
        -1350615051 -16779267 -1761982095 800850948</internalNodes>
      <leafValues>
        -2.6566079258918762e-01 1.2457608431577682e-01</leafValues></_>
    <_>
      <internalNodes>
        0 -1 505 -1170993366 -299319765 -423956510 -1363516731 218120581
        -304107891 -1941498618 1613962651</internalNodes>
      <leafValues>
        -2.2680151462554932e-01 1.4514067769050598e-01</leafValues></_>
    <_>
      <internalNodes>
        0 -1 879 -1493298820 -1094193 2147483391 -1208295953 -1410820376
        -1078001793 -1074775047 -1414919079</internalNodes>
      <leafValues>
        -1.8762634694576263e-01 1.7971058189868927e-01</leafValues></_>
    <_>
      <internalNodes>
        0 -1 1100 251087961 -283927369 -555782283 -1779937684 1321131901
        750672469 -185696409 1342238564</internalNodes>
      <leafValues>
        -2.6402714848518372e-01 1.2042862176895142e-01</leafValues></_>
    <_>
      <internalNodes>
        0 -1 1049 1395626240 838571967 1069380916 939343867 89723325
        397393651 1577055708 -1595342853</internalNodes>
      <leafValues>
        -1.8881887197494507e-01 1.6859628260135651e-01</leafValues></_>
    <_>
      <internalNodes>
        0 -1 1035 -33563571 488464157 -538985218 35315551 -83892024
        -1730151396 -17105960 -1472073857</internalNodes>
      <leafValues>
        -1.6639089584350586e-01 1.7542445659637451e-01</leafValues></_>
    <_>
      <internalNodes>
        0 -1 458 712650623 788148223 -1090704646 -38072322 -1342736529
        -2146457 -4243587 -4227217</internalNodes>
      <leafValues>
        -1.8865327537059784e-01 1.5214386582374573e-01</leafValues></_></weakClassifiers></stage2>
</opencv_storage>
