<?xml version="1.0"?>
<opencv_storage>
<stage3>
  <maxWeakCount>31</maxWeakCount>
  <stageThreshold>-2.1847188472747803e+00</stageThreshold>
  <weakClassifiers>
    <_>
      <internalNodes>
        0 -1 674 -1 -1 -1 -1 2147467263 -1 1073725439 1073741823</internalNodes>
      <leafValues>
        -6.6186904907226563e-01 4.4591242074966431e-01</leafValues></_>
    <_>
      <internalNodes>
        0 -1 184 -49153 -53385 -32769 -49161 2147434495 -32769 -32769
        -32777</internalNodes>
      <leafValues>
        -4.4073197245597839e-01 4.4645449519157410e-01</leafValues></_>
    <_>
      <internalNodes>
        0 -1 312 -12932422 -2555910 -147457 -197904 1064778683 -1
        2147434493 -2288316</internalNodes>
      <leafValues>
        -3.7586390972137451e-01 3.4066346287727356e-01</leafValues></_>
    <_>
      <internalNodes>
        0 -1 1100 -67117057 418799359 -1 -1996832777 -1 -262145 -1
        -1460076545</internalNodes>
      <leafValues>
        -3.9771762490272522e-01 3.2833868265151978e-01</leafValues></_>
    <_>
      <internalNodes>
        0 -1 1112 1073725371 1040170495 -1 1073725439 -69 -41
        -1073742405 -1396703233</internalNodes>
      <leafValues>
        -2.6600849628448486e-01 3.9315745234489441e-01</leafValues></_>
    <_>
      <internalNodes>
        0 -1 792 -1368126091 -98433 -6291457 -1073842177 -1073922051
        -67108865 -180227 -1078452419</internalNodes>
      <leafValues>
        -3.6478522419929504e-01 2.6254197955131531e-01</leafValues></_>
    <_>
      <internalNodes>
        0 -1 49 -282394625 -274007062 -1179649 -597280 -281542657
        -1050649 -2131969 -43707</internalNodes>
      <leafValues>
        -2.5155735015869141e-01 3.3413869142532349e-01</leafValues></_>
    <_>
      <internalNodes>
        0 -1 1056 16014677 444365695 -1 989486975 -65571 -4097 -65537
        -1430585345</internalNodes>
      <leafValues>
        -2.8448578715324402e-01 2.8297308087348938e-01</leafValues></_>
    <_>
      <internalNodes>
        0 -1 128 788475687 738144111 -35442909 -1074039957 738148223
        2147450751 2147432311 -39061</internalNodes>
      <leafValues>
        -4.4036036729812622e-01 1.4816164970397949e-01</leafValues></_>
    <_>
      <internalNodes>
        0 -1 674 -193007884 -1790931 -302055969 -1414754588 -1122110076
        1006442425 -285380932 -524222464</internalNodes>
      <leafValues>
        -2.2759234905242920e-01 3.1120225787162781e-01</leafValues></_>
    <_>
      <internalNodes>
        0 -1 998 -269538016 -536925313 -16777217 -53249 -270533379
        -1883297793 -67437059 -274157763</internalNodes>
      <leafValues>
        -2.1709610521793365e-01 2.7258008718490601e-01</leafValues></_>
    <_>
      <internalNodes>
        0 -1 5 -274530313 -324339742 -1052689 -286480912 791739383
        -272826442 2000123895 -43659</internalNodes>
      <leafValues>
        -2.0286686718463898e-01 2.7930244803428650e-01</leafValues></_>
    <_>
      <internalNodes>
        0 -1 895 -570970716 494734605 -17305601 359792607 -1392661075
        -1645376123 -1342402577 12971983</internalNodes>
      <leafValues>
        -2.7013832330703735e-01 1.9942136108875275e-01</leafValues></_>
    <_>
      <internalNodes>
        0 -1 1010 523974449 263404976 -8536707 -1342534244 1064255413
        -1342179397 805264661 -1342219139</internalNodes>
      <leafValues>
        -3.2650667428970337e-01 1.5602573752403259e-01</leafValues></_>
    <_>
      <internalNodes>
        0 -1 1029 -654320289 473798495 -403963905 1081215 -117966784
        -117769127 -84215176 -1426915477</internalNodes>
      <leafValues>
        -2.2668655216693878e-01 2.1339084208011627e-01</leafValues></_>
    <_>
      <internalNodes>
        0 -1 327 -1373688017 -1439748318 -1359008986 -1430622240
        -1342227521 -1946189825 -1392561039 -268995083</internalNodes>
      <leafValues>
        -2.6498025655746460e-01 1.7593130469322205e-01</leafValues></_>
    <_>
      <internalNodes>
        0 -1 1121 -1409289693 99351407 -100678352 -1342177281 662267155
        260044767 836638001 -268437505</internalNodes>
      <leafValues>
        -2.2637911140918732e-01 1.8240459263324738e-01</leafValues></_>
    <_>
      <internalNodes>
        0 -1 858 -270066827 -1342214529 -4194817 -1346487041 -813842451
        -268435585 -137101313 -1413865665</internalNodes>
      <leafValues>
        -1.6236425936222076e-01 2.5404530763626099e-01</leafValues></_>
    <_>
      <internalNodes>
        0 -1 184 622905888 673772968 -8677849 774030632 -1691196079
        268417010 804922737 498139261</internalNodes>
      <leafValues>
        -3.4896478056907654e-01 1.1836660653352737e-01</leafValues></_>
    <_>
      <internalNodes>
        0 -1 874 -50608811 -789380835 -1247233 -603980805 -1049123
        -28963 -68163683 -1433714431</internalNodes>
      <leafValues>
        -1.6262798011302948e-01 2.4316886067390442e-01</leafValues></_>
    <_>
      <internalNodes>
        0 -1 725 -201346174 828342255 -268749044 -1073807569 905705405
        1069546926 2146382989 266321711</internalNodes>
      <leafValues>
        -1.8275818228721619e-01 1.9362404942512512e-01</leafValues></_>
    <_>
      <internalNodes>
        0 -1 928 -1468062379 204280175 1876929499 775601007 -67897999
        -164492 -13206275 -1439138000</internalNodes>
      <leafValues>
        -2.8225073218345642e-01 1.3200332224369049e-01</leafValues></_>
    <_>
      <internalNodes>
        0 -1 1045 1568473352 460175149 2063563538 531541285 492635565
        1568634845 -84173395 -1431655251</internalNodes>
      <leafValues>
        -2.2190687060356140e-01 1.5647706389427185e-01</leafValues></_>
    <_>
      <internalNodes>
        0 -1 0 -1380515841 780856934 -268447770 -1360856080 1069547003
        -1527578834 2147439959 1308087669</internalNodes>
      <leafValues>
        -2.5392267107963562e-01 1.3966070115566254e-01</leafValues></_>
    <_>
      <internalNodes>
        0 -1 120 796864271 1748463404 -276828186 -356851722 1073708927
        1718511135 -408456331 -34082953</internalNodes>
      <leafValues>
        -2.4916538596153259e-01 1.3424380123615265e-01</leafValues></_>
    <_>
      <internalNodes>
        0 -1 312 -85626047 1611247013 -25788420 1557604109 -7491868
        1877676031 -69345530 1969647519</internalNodes>
      <leafValues>
        -1.6823481023311615e-01 1.9868424534797668e-01</leafValues></_>
    <_>
      <internalNodes>
        0 -1 494 -21037227 -34689075 -1049121 -68224867 -1230263115
        -16781705 -1610633281 -269548529</internalNodes>
      <leafValues>
        -1.1336013674736023e-01 2.9902166128158569e-01</leafValues></_>
    <_>
      <internalNodes>
        0 -1 595 2137173392 891989476 -65 748203243 1878441869
        1879043839 -538984484 784010765</internalNodes>
      <leafValues>
        -2.4266761541366577e-01 1.3181021809577942e-01</leafValues></_>
    <_>
      <internalNodes>
        0 -1 1100 -1929380257 -417485017 -1887453698 906034810
        2143287039 -1262592137 -285213185 1444079164</internalNodes>
      <leafValues>
        -2.0611560344696045e-01 1.4593188464641571e-01</leafValues></_>
    <_>
      <internalNodes>
        0 -1 792 1906733784 -1362284816 -40560647 -360729052 -19990762
        -72400972 1056628086 1853320402</internalNodes>
      <leafValues>
        -1.6442942619323730e-01 1.8134696781635284e-01</leafValues></_>
    <_>
      <internalNodes>
        0 -1 813 -1362355100 -268506835 -822624385 -1073853121
        -537182788 -1073743881 -1477563911 -1417012440</internalNodes>
      <leafValues>
        -2.1091482043266296e-01 1.4088784158229828e-01</leafValues></_></weakClassifiers></stage3>
</opencv_storage>
