<?xml version="1.0"?>
<opencv_storage>
<stage4>
  <maxWeakCount>38</maxWeakCount>
  <stageThreshold>-2.2255718708038330e+00</stageThreshold>
  <weakClassifiers>
    <_>
      <internalNodes>
        0 -1 113 872379379 1946157055 -134217729 -1 2013231103
        2147450879 -1 -32769</internalNodes>
      <leafValues>
        -6.5605527162551880e-01 2.8169789910316467e-01</leafValues></_>
    <_>
      <internalNodes>
        0 -1 1 -1 -1 -1 -1 2138535799 -1 2137487221 -559755</internalNodes>
      <leafValues>
        -5.2507609128952026e-01 3.2140389084815979e-01</leafValues></_>
    <_>
      <internalNodes>
        0 -1 299 -20561 -315601 -1 -4505809 -33509457 -1036369 -524289
        -53497</internalNodes>
      <leafValues>
        -3.4776708483695984e-01 4.7857865691184998e-01</leafValues></_>
    <_>
      <internalNodes>
        0 -1 145 -353173505 -118423561 -1 -720929 4259839 -390004745
        2136438783 -571115529</internalNodes>
      <leafValues>
        -2.8485444188117981e-01 3.8243204355239868e-01</leafValues></_>
    <_>
      <internalNodes>
        0 -1 1099 251596339 805289855 -1363410945 -1342177281
        -1073795713 -1073741825 -16826369 -1073741953</internalNodes>
      <leafValues>
        -3.6177888512611389e-01 2.7665394544601440e-01</leafValues></_>
    <_>
      <internalNodes>
        0 -1 113 1122140686 -1074562049 1006586751 1945370623 2138409775
        -786613 2146922319 2134376295</internalNodes>
      <leafValues>
        -3.6471071839332581e-01 1.9237694144248962e-01</leafValues></_>
    <_>
      <internalNodes>
        0 -1 136 790888439 -358416390 -2099209 -65538 155660791
        -1880162305 1163875701 -537045644</internalNodes>
      <leafValues>
        -3.5438048839569092e-01 2.3514662683010101e-01</leafValues></_>
    <_>
      <internalNodes>
        0 -1 996 -131 -56567 -142606337 319487775 -83887912 -84215656
        -91555078 -1433863189</internalNodes>
      <leafValues>
        -2.0801201462745667e-01 3.7505033612251282e-01</leafValues></_>
    <_>
      <internalNodes>
        0 -1 127 -218111361 -201326593 -490737985 -218103809 2013230971
        1920956287 -67110017 -134217857</internalNodes>
      <leafValues>
        -2.7767315506935120e-01 2.6504650712013245e-01</leafValues></_>
    <_>
      <internalNodes>
        0 -1 1103 -2818755 -1073750593 -9 -1075851265 -1074284133
        -1140852737 -1124090177 -1073741825</internalNodes>
      <leafValues>
        -1.6833689808845520e-01 3.5579353570938110e-01</leafValues></_>
    <_>
      <internalNodes>
        0 -1 82 -3089 -875854 -33623122 -867806 1665628079 -12426922
        2004318053 -143169673</internalNodes>
      <leafValues>
        -2.8069716691970825e-01 1.9636751711368561e-01</leafValues></_>
    <_>
      <internalNodes>
        0 -1 924 -1464198032 -1140969473 -67764225 -1073865729
        -1073752131 -1140850689 -1073840131 -1363669763</internalNodes>
      <leafValues>
        -2.9231658577919006e-01 1.9296458363533020e-01</leafValues></_>
    <_>
      <internalNodes>
        0 -1 998 -269581024 -1612766405 -25313281 -20673 -268766736
        -536870913 -39126532 -1448547459</internalNodes>
      <leafValues>
        -2.0539659261703491e-01 2.3156292736530304e-01</leafValues></_>
    <_>
      <internalNodes>
        0 -1 1 2133927703 -4718733 -268437697 -524417 -2069312103
        -17301644 -1996645189 1145624450</internalNodes>
      <leafValues>
        -1.8487371504306793e-01 2.5677159428596497e-01</leafValues></_>
    <_>
      <internalNodes>
        0 -1 356 2258935 -293538569 -603980099 -269564939 218462071
        -1431504385 268391281 -1359085516</internalNodes>
      <leafValues>
        -3.0894228816032410e-01 1.5243521332740784e-01</leafValues></_>
    <_>
      <internalNodes>
        0 -1 232 1795100207 7481599 35391006 14852863 1140525838
        1886879355 -302019484 -235409417</internalNodes>
      <leafValues>
        -3.1297969818115234e-01 1.3696797192096710e-01</leafValues></_>
    <_>
      <internalNodes>
        0 -1 659 -33493116 -92262643 -101188097 -1691844851 -184484475
        -1638433 -650051595 801799941</internalNodes>
      <leafValues>
        -2.9450929164886475e-01 1.4528113603591919e-01</leafValues></_>
    <_>
      <internalNodes>
        0 -1 747 -1430605953 -344065 -1074003969 -1208225795 -1883504661
        -1145045061 -138452995 -1348788967</internalNodes>
      <leafValues>
        -1.5174403786659241e-01 2.6268625259399414e-01</leafValues></_>
    <_>
      <internalNodes>
        0 -1 1119 788466979 1073708671 -1099199820 587120639 788468742
        1073639671 -1091060235 -1459814401</internalNodes>
      <leafValues>
        -2.9977232217788696e-01 1.2764500081539154e-01</leafValues></_>
    <_>
      <internalNodes>
        0 -1 299 -536808874 -551242862 -336631926 -12262502 670003796
        -1894795660 1141375749 2097207288</internalNodes>
      <leafValues>
        -2.2571934759616852e-01 1.6911138594150543e-01</leafValues></_>
    <_>
      <internalNodes>
        0 -1 634 -352712449 309989119 -1695383809 247073723 -285585669
        -12681217 -4571783 -1439008129</internalNodes>
      <leafValues>
        -1.9669310748577118e-01 1.9180358946323395e-01</leafValues></_>
    <_>
      <internalNodes>
        0 -1 1023 -1895846907 442449755 -573827 135937887 -1141391536
        -8398497 -67896552 -1431650485</internalNodes>
      <leafValues>
        -2.1800987422466278e-01 1.6657987236976624e-01</leafValues></_>
    <_>
      <internalNodes>
        0 -1 764 -934233976 501267773 -36061219 1040035839 1949355396
        2142533803 -122028115 1037451023</internalNodes>
      <leafValues>
        -2.3607155680656433e-01 1.3689678907394409e-01</leafValues></_>
    <_>
      <internalNodes>
        0 -1 0 804204335 -554307585 -1056769 -1414856977 1743749119
        -1900053634 1073694021 -841132780</internalNodes>
      <leafValues>
        -2.5666046142578125e-01 1.2475895881652832e-01</leafValues></_>
    <_>
      <internalNodes>
        0 -1 126 1627350655 553471023 183756974 7491182 1735872855
        1400075895 -302089360 1115156351</internalNodes>
      <leafValues>
        -3.5087403655052185e-01 8.6918719112873077e-02</leafValues></_>
    <_>
      <internalNodes>
        0 -1 813 -1360379532 -1883336579 -1073938435 -1619116579
        -1879384212 -32837 -1346732547 -1431699412</internalNodes>
      <leafValues>
        -2.3154602944850922e-01 1.3470678031444550e-01</leafValues></_>
    <_>
      <internalNodes>
        0 -1 145 -735269518 -135746118 -134742286 -50593964 -39487772
        -1757626388 -958558891 1984623693</internalNodes>
      <leafValues>
        -1.9630515575408936e-01 1.5770426392555237e-01</leafValues></_>
    <_>
      <internalNodes>
        0 -1 620 -553734514 1576203241 -354513154 -1378313 2078678702
        -25661477 -537247756 -9083385</internalNodes>
      <leafValues>
        -1.6007959842681885e-01 1.9136430323123932e-01</leafValues></_>
    <_>
      <internalNodes>
        0 -1 292 162248499 -73228142 2048387071 -549783324 171319383
        -1439779652 900157797 -841657280</internalNodes>
      <leafValues>
        -2.5569221377372742e-01 1.1665546149015427e-01</leafValues></_>
    <_>
      <internalNodes>
        0 -1 891 -2130786212 -541127603 -201352209 -1425035955
        -100941832 -1140867144 -7684616 -1442071701</internalNodes>
      <leafValues>
        -1.2839068472385406e-01 2.3652856051921844e-01</leafValues></_>
    <_>
      <internalNodes>
        0 -1 79 1793794591 -352327089 2128542335 -319621393 1945204455
        -83898757 2139060989 -260705421</internalNodes>
      <leafValues>
        -1.6607558727264404e-01 1.6842690110206604e-01</leafValues></_>
    <_>
      <internalNodes>
        0 -1 240 -421269521 855371503 -1373165393 595766887 1744785407
        -814264465 -17871237 -9277585</internalNodes>
      <leafValues>
        -1.3741177320480347e-01 1.9599260389804840e-01</leafValues></_>
    <_>
      <internalNodes>
        0 -1 928 -1359045099 -1075954593 -149505 -1425424641 -1140870351
        -8390689 -1426326215 -1442076155</internalNodes>
      <leafValues>
        -1.4253130555152893e-01 1.8405854701995850e-01</leafValues></_>
    <_>
      <internalNodes>
        0 -1 1035 -1358976435 528469071 -206062040 302689263 -5184
        -623476160 -54854968 -1442792689</internalNodes>
      <leafValues>
        -1.8559822440147400e-01 1.4738652110099792e-01</leafValues></_>
    <_>
      <internalNodes>
        0 -1 610 -1359305206 -1765241678 -268444738 -539331091
        -1892238273 -1083736388 -2048940747 -573243371</internalNodes>
      <leafValues>
        -1.8731707334518433e-01 1.3733601570129395e-01</leafValues></_>
    <_>
      <internalNodes>
        0 -1 723 -117506081 -1291952130 -1082361112 721305263 -2728995
        -17073538 -1076158725 -1413869718</internalNodes>
      <leafValues>
        -1.0135851800441742e-01 2.4783089756965637e-01</leafValues></_>
    <_>
      <internalNodes>
        0 -1 22 -234883502 846375586 -335561958 -1145327077 -211498240
        -1183797632 -160039156 610610695</internalNodes>
      <leafValues>
        -2.3895236849784851e-01 1.0686227679252625e-01</leafValues></_>
    <_>
      <internalNodes>
        0 -1 457 586812943 719261277 -1472681730 43001039 -1132785826
        -134320161 -71653268 -72110469</internalNodes>
      <leafValues>
        -2.2193117439746857e-01 1.0727918893098831e-01</leafValues></_></weakClassifiers></stage4>
</opencv_storage>
