<?xml version="1.0"?>
<opencv_storage>
<stage7>
  <maxWeakCount>59</maxWeakCount>
  <stageThreshold>-2.0908741950988770e+00</stageThreshold>
  <weakClassifiers>
    <_>
      <internalNodes>
        0 -1 506 -20561 -4247761 -1 -4243697 -20561 -16449 -65 -4243697</internalNodes>
      <leafValues>
        -5.3950661420822144e-01 3.0979156494140625e-01</leafValues></_>
    <_>
      <internalNodes>
        0 -1 24 -1 -1 -1 -1 796882807 -9 2012706677 -2187</internalNodes>
      <leafValues>
        -4.4938719272613525e-01 2.4640300869941711e-01</leafValues></_>
    <_>
      <internalNodes>
        0 -1 1112 -1073758273 1073725439 -1140850689 1073741823
        -1140867137 -1073758213 -1140850689 1073741823</internalNodes>
      <leafValues>
        -3.8771399855613708e-01 2.8133508563041687e-01</leafValues></_>
    <_>
      <internalNodes>
        0 -1 365 -320803074 -16994562 -2 -196642 65535 -387929345
        2146926591 1308456447</internalNodes>
      <leafValues>
        -2.6964500546455383e-01 3.1825536489486694e-01</leafValues></_>
    <_>
      <internalNodes>
        0 -1 111 1945335667 1945368575 2138304511 2146696703 2147446783
        -98433 -45233 -32953</internalNodes>
      <leafValues>
        -3.0000564455986023e-01 2.2775624692440033e-01</leafValues></_>
    <_>
      <internalNodes>
        0 -1 956 -50421206 1605239311 -13631489 185511855 -2052
        -536906822 -89456644 -1433862161</internalNodes>
      <leafValues>
        -2.5951266288757324e-01 2.3957408964633942e-01</leafValues></_>
    <_>
      <internalNodes>
        0 -1 246 186907639 -287116429 -1 -5702145 122779127 -269550593
        1205294453 -537037451</internalNodes>
      <leafValues>
        -3.5312345623970032e-01 1.3096332550048828e-01</leafValues></_>
    <_>
      <internalNodes>
        0 -1 127 -218109329 1929344895 -218121554 -218104065 1937729359
        1937734463 -134217873 -134217857</internalNodes>
      <leafValues>
        -2.5599718093872070e-01 2.0088669657707214e-01</leafValues></_>
    <_>
      <internalNodes>
        0 -1 988 -285581988 -128547 -12582913 -1080144419 -5308424
        -4194821 -5570568 -1425371845</internalNodes>
      <leafValues>
        -2.0601540803909302e-01 2.4596166610717773e-01</leafValues></_>
    <_>
      <internalNodes>
        0 -1 1020 -1359209387 -33808515 -8913409 -1082491585 -268828816
        -97 -459780 -1413992647</internalNodes>
      <leafValues>
        -2.9399088025093079e-01 1.4826643466949463e-01</leafValues></_>
    <_>
      <internalNodes>
        0 -1 506 -903842218 -12545392 -671154273 -45552971 22868
        -74682808 139461701 826328501</internalNodes>
      <leafValues>
        -2.5375559926033020e-01 1.7312192916870117e-01</leafValues></_>
    <_>
      <internalNodes>
        0 -1 813 -1363497604 -608260868 -16385 -1073828611 -269492225
        -8388613 -268698115 -1347811299</internalNodes>
      <leafValues>
        -2.2960790991783142e-01 1.8398340046405792e-01</leafValues></_>
    <_>
      <internalNodes>
        0 -1 102 1795140143 -226770209 2062497950 -352655617 1735622527
        1650351743 -134219915 -134744321</internalNodes>
      <leafValues>
        -2.3142564296722412e-01 1.8386842310428619e-01</leafValues></_>
    <_>
      <internalNodes>
        0 -1 1093 -268563187 -1613821153 -620777809 14581615 -1426290680
        -1997602600 -1426392920 -1439105237</internalNodes>
      <leafValues>
        -2.4094074964523315e-01 1.6497088968753815e-01</leafValues></_>
    <_>
      <internalNodes>
        0 -1 783 -589771348 -83952772 -17121542 -2220034 -1372058392
        -268468227 -1095094600 -311299</internalNodes>
      <leafValues>
        -1.4380303025245667e-01 2.6766881346702576e-01</leafValues></_>
    <_>
      <internalNodes>
        0 -1 478 706772849 -199468 -4718593 -570434315 704673277
        -1349716227 766473725 -805874315</internalNodes>
      <leafValues>
        -2.2790059447288513e-01 1.5844793617725372e-01</leafValues></_>
    <_>
      <internalNodes>
        0 -1 1104 -285261995 1543442271 -16778369 976911231 -134218412
        -10526890 -17629840 -1431109825</internalNodes>
      <leafValues>
        -1.9486267864704132e-01 1.7511625587940216e-01</leafValues></_>
    <_>
      <internalNodes>
        0 -1 131 -486560854 872415231 737348366 871866363 2079272959
        2080358399 1539271215 2078015343</internalNodes>
      <leafValues>
        -2.5660416483879089e-01 1.2886096537113190e-01</leafValues></_>
    <_>
      <internalNodes>
        0 -1 590 -98370789 -67461620 -536870913 -338723 721599419
        -269832566 -1086781955 -71364587</internalNodes>
      <leafValues>
        -1.5647678077220917e-01 2.0787417888641357e-01</leafValues></_>
    <_>
      <internalNodes>
        0 -1 45 -13631633 -81595662 -1077936210 -4541342 1174419447
        -11870045 1732736869 -807930525</internalNodes>
      <leafValues>
        -2.1724927425384521e-01 1.4603118598461151e-01</leafValues></_>
    <_>
      <internalNodes>
        0 -1 849 772816676 -1346880388 1006320568 -1359333100
        -1888874984 -49153 -1363535312 -1096151503</internalNodes>
      <leafValues>
        -3.2316377758979797e-01 9.3531444668769836e-02</leafValues></_>
    <_>
      <internalNodes>
        0 -1 24 800530195 -30419086 -8389057 -273613322 -706498663
        -1889010083 -2007131718 1163943378</internalNodes>
      <leafValues>
        -1.5588317811489105e-01 1.9411471486091614e-01</leafValues></_>
    <_>
      <internalNodes>
        0 -1 858 -1363495564 -1075926019 -8193 -1075920897 -1342177281
        -17 -66067 -1346696081</internalNodes>
      <leafValues>
        -1.3649976253509521e-01 2.3097947239875793e-01</leafValues></_>
    <_>
      <internalNodes>
        0 -1 466 1084422005 -962544524 -33685510 -842208011 154697597
        -1360332066 -1950461079 -1996720796</internalNodes>
      <leafValues>
        -2.2501976788043976e-01 1.3014060258865356e-01</leafValues></_>
    <_>
      <internalNodes>
        0 -1 950 -288168192 -2224769 -268468353 -4216897 -68116
        -536877057 -5571076 -1414814425</internalNodes>
      <leafValues>
        -1.1159832775592804e-01 2.6206928491592407e-01</leafValues></_>
    <_>
      <internalNodes>
        0 -1 1051 -838890462 2147467183 -1107318614 854523887 218039547
        -824180773 -26296833 -1297285138</internalNodes>
      <leafValues>
        -1.5616679191589355e-01 1.8172407150268555e-01</leafValues></_>
    <_>
      <internalNodes>
        0 -1 1121 251594807 805273471 -864735568 -1342515393 259988791
        1879043583 -302041097 -1392509573</internalNodes>
      <leafValues>
        -2.8954693675041199e-01 9.6753217279911041e-02</leafValues></_>
    <_>
      <internalNodes>
        0 -1 126 1652518527 1926749823 -218177858 1660124927 1920953663
        2003255166 -201917580 1937244159</internalNodes>
      <leafValues>
        -2.5191527605056763e-01 1.0713373869657516e-01</leafValues></_>
    <_>
      <internalNodes>
        0 -1 371 -202310704 -1687113099 -1140901095 1005927099
        -218052336 -15180252 2102697735 860127045</internalNodes>
      <leafValues>
        -3.1616228818893433e-01 8.9439727365970612e-02</leafValues></_>
    <_>
      <internalNodes>
        0 -1 879 788146688 -1414881285 -4194321 -1078328833 798138261
        -1327361 -8684179 -1414853569</internalNodes>
      <leafValues>
        -1.5201245248317719e-01 1.8756963312625885e-01</leafValues></_>
    <_>
      <internalNodes>
        0 -1 365 -742458624 -1047473663 1609891557 -1937637759 -83870848
        -136642720 -950971940 -1308207804</internalNodes>
      <leafValues>
        -2.0516653358936310e-01 1.3128533959388733e-01</leafValues></_>
    <_>
      <internalNodes>
        0 -1 0 -289411153 -16785921 -536883201 -5570897 1831536575
        -1405159569 -1782758844 -840657596</internalNodes>
      <leafValues>
        -2.3864887654781342e-01 1.1240765452384949e-01</leafValues></_>
    <_>
      <internalNodes>
        0 -1 1063 788405341 753814619 -27262977 168451919 -263080 -1267
        -21299720 -80040389</internalNodes>
      <leafValues>
        -1.7130382359027863e-01 1.4624352753162384e-01</leafValues></_>
    <_>
      <internalNodes>
        0 -1 514 -1968005085 -676691968 -1107296289 -571554668 3383459
        -1884633670 623513973 -847182591</internalNodes>
      <leafValues>
        -2.2218984365463257e-01 1.1281621456146240e-01</leafValues></_>
    <_>
      <internalNodes>
        0 -1 634 1794246909 440020863 -1661228289 573191158 1861766906
        -13730049 -5609988 -1439006849</internalNodes>
      <leafValues>
        -2.0114903151988983e-01 1.2179706990718842e-01</leafValues></_>
    <_>
      <internalNodes>
        0 -1 756 -357503697 -88083 -65 -33630881 -2080902409 -278625
        -1392568963 -269548285</internalNodes>
      <leafValues>
        -1.0435324162244797e-01 2.3442649841308594e-01</leafValues></_>
    <_>
      <internalNodes>
        0 -1 1078 -268480427 2136949375 -220725633 -1156169873
        -268440236 -8656053 -287801808 -1423777990</internalNodes>
      <leafValues>
        -1.5244941413402557e-01 1.5727277100086212e-01</leafValues></_>
    <_>
      <internalNodes>
        0 -1 607 1290963626 2146220732 -546725953 -38106433 1550887847
        2074668991 1702216414 1909806599</internalNodes>
      <leafValues>
        -1.9910816848278046e-01 1.2254456430673599e-01</leafValues></_>
    <_>
      <internalNodes>
        0 -1 182 -274467037 -525683918 -769 -1344228238 -1884071113
        -274006017 84361505 -841616048</internalNodes>
      <leafValues>
        -2.3798616230487823e-01 1.0026031732559204e-01</leafValues></_>
    <_>
      <internalNodes>
        0 -1 873 -1431388592 -1629741233 -4210691 -1958953553 -276824463
        -2098177 -14070487 -1423211765</internalNodes>
      <leafValues>
        -1.3317666947841644e-01 1.8046939373016357e-01</leafValues></_>
    <_>
      <internalNodes>
        0 -1 956 99304901 -1971474964 1991221806 1386347383 1308415682
        603975387 -263441 1441263372</internalNodes>
      <leafValues>
        -1.5275162458419800e-01 1.6335506737232208e-01</leafValues></_>
    <_>
      <internalNodes>
        0 -1 837 -319627264 -1879259983 -34171396 -4262553 -329531047
        -1620477826 -336623363 -285310903</internalNodes>
      <leafValues>
        -1.2229912728071213e-01 1.8670596182346344e-01</leafValues></_>
    <_>
      <internalNodes>
        0 -1 114 -335559121 1652292479 -231537430 -755962154 2061985631
        1115125623 -18090242 -201851937</internalNodes>
      <leafValues>
        -1.2264418601989746e-01 1.8701431155204773e-01</leafValues></_>
    <_>
      <internalNodes>
        0 -1 1119 217974056 1040023167 -1359057260 -1494024198 176097056
        -16844801 -621036292 -1473712193</internalNodes>
      <leafValues>
        -2.6064974069595337e-01 8.7448991835117340e-02</leafValues></_>
    <_>
      <internalNodes>
        0 -1 790 -352911617 -621133956 -1090777554 1056602807 -93626436
        -17039362 -1343332610 -1157989782</internalNodes>
      <leafValues>
        -9.6486084163188934e-02 2.3556336760520935e-01</leafValues></_>
    <_>
      <internalNodes>
        0 -1 77 813576722 905099255 -10485972 939499199 -548139260
        2104500053 -194949844 2066181894</internalNodes>
      <leafValues>
        -3.0202457308769226e-01 7.0317916572093964e-02</leafValues></_>
    <_>
      <internalNodes>
        0 -1 111 -1976063826 -1829552209 -1377886549 -1611182177
        -143157499 1003777487 1450548158 522669897</internalNodes>
      <leafValues>
        -1.4579652249813080e-01 1.4689932763576508e-01</leafValues></_>
    <_>
      <internalNodes>
        0 -1 578 -1465239685 -21171128 -33554473 -1712522031 -1383501825
        -131073 1285255549 -1935145947</internalNodes>
      <leafValues>
        -2.0540767908096313e-01 1.0192570835351944e-01</leafValues></_>
    <_>
      <internalNodes>
        0 -1 878 -224331548 -26080116 1071316367 491016132 -776603464
        -269566721 -864174591 172358415</internalNodes>
      <leafValues>
        -1.7768888175487518e-01 1.1697929352521896e-01</leafValues></_>
    <_>
      <internalNodes>
        0 -1 1010 83508541 -1627734404 -134803977 -1376109060 251608541
        -1434452868 -1342227972 -1375740867</internalNodes>
      <leafValues>
        -2.2053846716880798e-01 9.2724114656448364e-02</leafValues></_>
    <_>
      <internalNodes>
        0 -1 522 -365189462 -788871998 -536872965 -675621641 48991167
        -1426067979 -838864387 -541338425</internalNodes>
      <leafValues>
        -9.0344034135341644e-02 2.3347125947475433e-01</leafValues></_>
    <_>
      <internalNodes>
        0 -1 964 -1464283868 -1079086040 -1342357512 -1305096 1056587356
        -1074824577 211631420 -1409491350</internalNodes>
      <leafValues>
        -1.4748118817806244e-01 1.3337936997413635e-01</leafValues></_>
    <_>
      <internalNodes>
        0 -1 1117 1275012098 201277311 -958416460 986869236 921572948
        -1896050563 -1452610480 -1600065676</internalNodes>
      <leafValues>
        -2.3315022885799408e-01 8.3873771131038666e-02</leafValues></_>
    <_>
      <internalNodes>
        0 -1 980 -554763819 -604075111 -16449 331872221 -604241955
        -538974129 -89408595 -1425437939</internalNodes>
      <leafValues>
        -1.0591543465852737e-01 1.8307878077030182e-01</leafValues></_>
    <_>
      <internalNodes>
        0 -1 32 -549505753 2134851327 -537526394 2138517087 1599341572
        -70762770 1984193861 1632724102</internalNodes>
      <leafValues>
        -2.2819882631301880e-01 8.5831277072429657e-02</leafValues></_>
    <_>
      <internalNodes>
        0 -1 765 -1004476928 -141261860 -85252 -200763 -1492009169
        -147898370 -339750631 -826408959</internalNodes>
      <leafValues>
        -1.5341731905937195e-01 1.2589366734027863e-01</leafValues></_>
    <_>
      <internalNodes>
        0 -1 958 -1880185440 -1683347552 -269543176 -536985652 658492892
        268395518 -1699190408 -1481588737</internalNodes>
      <leafValues>
        -1.3999046385288239e-01 1.3636858761310577e-01</leafValues></_>
    <_>
      <internalNodes>
        0 -1 642 208412004 -1361047556 -49 -1920957400 804403509
        -1380188693 -143175355 -1901583104</internalNodes>
      <leafValues>
        -2.5618866086006165e-01 7.3203340172767639e-02</leafValues></_>
    <_>
      <internalNodes>
        0 -1 734 -285278640 -1499586689 -1441952 196655584 800878065
        -1627390217 -1073793751 -1433405849</internalNodes>
      <leafValues>
        -1.3462367653846741e-01 1.4710436761379242e-01</leafValues></_></weakClassifiers></stage7>
</opencv_storage>
