<?xml version="1.0"?>
<opencv_storage>
<stage3>
  <maxWeakCount>25</maxWeakCount>
  <stageThreshold>-2.2350711822509766e+00</stageThreshold>
  <weakClassifiers>
    <_>
      <internalNodes>
        0 -1 285 -17477 -50373 -1 -50373 -2117633 -49153 -2097153 -49281</internalNodes>
      <leafValues>
        -5.9809273481369019e-01 4.7904163599014282e-01</leafValues></_>
    <_>
      <internalNodes>
        0 -1 0 -1 -1 -1 -1 -9 -1 -32907 -526476</internalNodes>
      <leafValues>
        -4.9476155638694763e-01 4.4058108329772949e-01</leafValues></_>
    <_>
      <internalNodes>
        0 -1 1120 251596351 805273599 -33554433 -1073741825 -1 -1 -1
        -268435457</internalNodes>
      <leafValues>
        -4.3222257494926453e-01 4.0230762958526611e-01</leafValues></_>
    <_>
      <internalNodes>
        0 -1 55 -67960833 -68091905 -1 -13451333 1614872575 -1288687771
        2004353023 2003924823</internalNodes>
      <leafValues>
        -4.3231141567230225e-01 3.5996961593627930e-01</leafValues></_>
    <_>
      <internalNodes>
        0 -1 128 -83893649 -53633 -486543617 -67108993 2004842351
        2004843391 -134251649 -8388737</internalNodes>
      <leafValues>
        -3.0481174588203430e-01 3.6448189616203308e-01</leafValues></_>
    <_>
      <internalNodes>
        0 -1 265 -1977417737 -891227402 -2049 -133891 83908087
        -823331585 1442141685 -570600075</internalNodes>
      <leafValues>
        -3.9693388342857361e-01 2.5118115544319153e-01</leafValues></_>
    <_>
      <internalNodes>
        0 -1 1032 -1359324068 -33683367 -4194305 -1084335779 -268763688
        -2087 -73859112 -1173829352</internalNodes>
      <leafValues>
        -3.3845537900924683e-01 2.5107517838478088e-01</leafValues></_>
    <_>
      <internalNodes>
        0 -1 60 -193 -404029505 -4464769 -268769314 2071164791 -12583057
        -134252699 -134875803</internalNodes>
      <leafValues>
        -3.1197088956832886e-01 2.2480034828186035e-01</leafValues></_>
    <_>
      <internalNodes>
        0 -1 908 217483288 499040191 -575144001 1073676287 -556351571
        1040039855 -1073807426 706789263</internalNodes>
      <leafValues>
        -3.5238316655158997e-01 1.8717299401760101e-01</leafValues></_>
    <_>
      <internalNodes>
        0 -1 285 -33364378 1597681318 -67109249 2134615751 -1207935356
        -1382426 -180092096 1058521730</internalNodes>
      <leafValues>
        -2.7359199523925781e-01 2.6569482684135437e-01</leafValues></_>
    <_>
      <internalNodes>
        0 -1 792 -1364574347 -212993 -67110945 -1073815553 -1073741825
        -1 -1073774723 -1342304771</internalNodes>
      <leafValues>
        -2.4893663823604584e-01 2.6885473728179932e-01</leafValues></_>
    <_>
      <internalNodes>
        0 -1 1010 1040138109 1073692542 -1107345409 -1074249729
        1073709055 -1090519809 -1074054145 -1342235009</internalNodes>
      <leafValues>
        -2.7096918225288391e-01 2.2776123881340027e-01</leafValues></_>
    <_>
      <internalNodes>
        0 -1 352 715291999 -18548743 -2049 -66051 1005813247 -36865
        -1879370243 -1092235</internalNodes>
      <leafValues>
        -2.1909485757350922e-01 2.3492790758609772e-01</leafValues></_>
    <_>
      <internalNodes>
        0 -1 127 -226514321 1929323135 1646240430 16760447 2004844367
        1920952183 -135794825 1735917439</internalNodes>
      <leafValues>
        -3.2608771324157715e-01 1.5192815661430359e-01</leafValues></_>
    <_>
      <internalNodes>
        0 -1 665 -758843916 -1110136353 -524353 1069362047 -178995531
        -34293769 -34227779 802553855</internalNodes>
      <leafValues>
        -2.0625826716423035e-01 2.4775071442127228e-01</leafValues></_>
    <_>
      <internalNodes>
        0 -1 0 -268435661 -73812 -537567236 -1934426122 662001533
        -1510473931 1416987786 1144528273</internalNodes>
      <leafValues>
        -2.6546189188957214e-01 1.8432119488716125e-01</leafValues></_>
    <_>
      <internalNodes>
        0 -1 994 -318896884 -56001 -1229064193 -389569 -22479672
        -67113026 -501022936 -1431654645</internalNodes>
      <leafValues>
        -2.0512779057025909e-01 2.3470737040042877e-01</leafValues></_>
    <_>
      <internalNodes>
        0 -1 466 -2145324045 -857669897 -692229 -805778017 20131699
        -805374465 1610569077 -1879157385</internalNodes>
      <leafValues>
        -2.3642651736736298e-01 1.9837149977684021e-01</leafValues></_>
    <_>
      <internalNodes>
        0 -1 1078 -582315 2138914431 -90177537 -1145061377 -65724
        -1081377 -65924 -1426391169</internalNodes>
      <leafValues>
        -1.7331117391586304e-01 2.5781303644180298e-01</leafValues></_>
    <_>
      <internalNodes>
        0 -1 226 1928520674 855177215 -67211316 -67674117 2130128847
        -163841 -1110069 -2654378</internalNodes>
      <leafValues>
        -1.7653213441371918e-01 2.3168659210205078e-01</leafValues></_>
    <_>
      <internalNodes>
        0 -1 126 1222601343 2063572463 985333487 583204847 1937734259
        2004301687 -203428236 -135004417</internalNodes>
      <leafValues>
        -2.5633847713470459e-01 1.5532812476158142e-01</leafValues></_>
    <_>
      <internalNodes>
        0 -1 1097 -1434580480 1022310255 -1073809630 -1091387481
        -1346519546 -137363457 -88803552 -1139736783</internalNodes>
      <leafValues>
        -2.7596113085746765e-01 1.4284226298332214e-01</leafValues></_>
    <_>
      <internalNodes>
        0 -1 643 -1373440176 -1166495777 -33281 -536940585 705798073
        -4489281 -1355058179 -1359270863</internalNodes>
      <leafValues>
        -2.0744606852531433e-01 1.7793440818786621e-01</leafValues></_>
    <_>
      <internalNodes>
        0 -1 1121 805250603 671039339 -16898176 -1426182803 267729733
        752839806 -1577507470 720035359</internalNodes>
      <leafValues>
        -3.8004645705223083e-01 9.7405284643173218e-02</leafValues></_>
    <_>
      <internalNodes>
        0 -1 1110 -893428385 1358903887 -4881 16571871 -822882752
        -620771017 -622134168 -357367937</internalNodes>
      <leafValues>
        -1.8397088348865509e-01 1.8966102600097656e-01</leafValues></_></weakClassifiers></stage3>
</opencv_storage>
