<?xml version="1.0"?>
<opencv_storage>
<stage9>
  <maxWeakCount>79</maxWeakCount>
  <stageThreshold>-2.0040268898010254e+00</stageThreshold>
  <weakClassifiers>
    <_>
      <internalNodes>
        0 -1 507 -17734 -50245 -34603009 -49221 -16385 -1048577 -1 -1</internalNodes>
      <leafValues>
        -4.7019895911216736e-01 4.6428847312927246e-01</leafValues></_>
    <_>
      <internalNodes>
        0 -1 563 -17891348 -17912178 -1245188 -275972116 -89997313
        -16842753 -1 -1360003073</internalNodes>
      <leafValues>
        -3.3990597724914551e-01 3.2463103532791138e-01</leafValues></_>
    <_>
      <internalNodes>
        0 -1 60 -129 -65 -536870913 -2049 2004842359 1865902967
        2012706679 -134744201</internalNodes>
      <leafValues>
        -3.2450112700462341e-01 2.3990067839622498e-01</leafValues></_>
    <_>
      <internalNodes>
        0 -1 1120 184484911 1073741823 -570425345 -1073741825 -805308417
        -1 -1 -335544321</internalNodes>
      <leafValues>
        -3.3885791897773743e-01 2.2352653741836548e-01</leafValues></_>
    <_>
      <internalNodes>
        0 -1 412 -851969 -196609 -73729 -2244609 -805261394 -18809468
        -11141121 1943107399</internalNodes>
      <leafValues>
        -2.8083327412605286e-01 2.5307425856590271e-01</leafValues></_>
    <_>
      <internalNodes>
        0 -1 0 -1 -1 -2621441 -65537 -1207959553 -1109393409 1610577365
        -658204</internalNodes>
      <leafValues>
        -3.0915415287017822e-01 1.6816313564777374e-01</leafValues></_>
    <_>
      <internalNodes>
        0 -1 1040 -179 -612373749 -8225 298844127 -67110712 -656748328
        -84215048 -624165893</internalNodes>
      <leafValues>
        -1.2488732486963272e-01 3.5535836219787598e-01</leafValues></_>
    <_>
      <internalNodes>
        0 -1 375 539230195 -287248142 -77596673 -839072656 153188343
        -1264395 1599305077 -536906395</internalNodes>
      <leafValues>
        -2.6646521687507629e-01 1.6146185994148254e-01</leafValues></_>
    <_>
      <internalNodes>
        0 -1 1026 788404309 1065243999 -263169 1058692447 -272958192
        -32899 -80019464 -1425383429</internalNodes>
      <leafValues>
        -2.3669125139713287e-01 1.7083145678043365e-01</leafValues></_>
    <_>
      <internalNodes>
        0 -1 457 -352646561 2055162463 -1472532737 184233695 -18920886
        -303233 -92550689 -67371009</internalNodes>
      <leafValues>
        -1.9748137891292572e-01 2.0419041812419891e-01</leafValues></_>
    <_>
      <internalNodes>
        0 -1 1004 -838885214 1610549135 1375187194 869203951 67048932
        268386271 -218170376 579661743</internalNodes>
      <leafValues>
        -2.3359656333923340e-01 1.3690070807933807e-01</leafValues></_>
    <_>
      <internalNodes>
        0 -1 137 -134024269 -629085472 -536870913 -3082256 54773
        -1377543 1431655925 -572697227</internalNodes>
      <leafValues>
        -2.6089993119239807e-01 1.2979039549827576e-01</leafValues></_>
    <_>
      <internalNodes>
        0 -1 708 -220811640 1068544422 1945542906 -1376293 1585057679
        2147185647 1744767436 2143118087</internalNodes>
      <leafValues>
        -2.0473891496658325e-01 1.5765249729156494e-01</leafValues></_>
    <_>
      <internalNodes>
        0 -1 120 -352326097 1077899262 -491001153 1652228095 2003268223
        1449358719 -134479890 -134742021</internalNodes>
      <leafValues>
        -1.6948375105857849e-01 1.8981310725212097e-01</leafValues></_>
    <_>
      <internalNodes>
        0 -1 1115 -1509979123 217928975 -822752068 137945087 -16783348
        -1899034404 -352650056 -1439498373</internalNodes>
      <leafValues>
        -2.3856641352176666e-01 1.2000750750303268e-01</leafValues></_>
    <_>
      <internalNodes>
        0 -1 726 -1440579724 -19071241 -131205 -4710403 -1614839825
        -1076954209 -268730515 -1346433691</internalNodes>
      <leafValues>
        -1.8684700131416321e-01 1.5715114772319794e-01</leafValues></_>
    <_>
      <internalNodes>
        0 -1 915 -16973828 -1079505880 -1644290568 -388872 -1073857080
        -1073774593 -1073792900 -1074497699</internalNodes>
      <leafValues>
        -1.2769232690334320e-01 2.1361497044563293e-01</leafValues></_>
    <_>
      <internalNodes>
        0 -1 893 2118160056 2144776191 -2236673 -540825 -55378241
        -67175427 -68683217 1037025263</internalNodes>
      <leafValues>
        -1.6894721984863281e-01 1.6374784708023071e-01</leafValues></_>
    <_>
      <internalNodes>
        0 -1 507 444616005 524012902 -51712020 2078928494 234900096
        1072545679 223412356 217908992</internalNodes>
      <leafValues>
        -2.8246444463729858e-01 9.4793476164340973e-02</leafValues></_>
    <_>
      <internalNodes>
        0 -1 673 -94176284 -264050347 1370095087 -67114001 -536817675
        -2043913 -268445745 602892063</internalNodes>
      <leafValues>
        -1.4191156625747681e-01 2.0796705782413483e-01</leafValues></_>
    <_>
      <internalNodes>
        0 -1 1107 -42147 2080333119 -50332433 846912511 -269497792
        -151005341 -21308472 -352649393</internalNodes>
      <leafValues>
        -1.4813637733459473e-01 1.7422753572463989e-01</leafValues></_>
    <_>
      <internalNodes>
        0 -1 852 -285671428 -196676 -4311074 -1342566695 -1145425928
        -344580 -1346749912 -1078313346</internalNodes>
      <leafValues>
        -1.1499530822038651e-01 2.1845972537994385e-01</leafValues></_>
    <_>
      <internalNodes>
        0 -1 94 -1141921106 -67963934 1877932954 -9178382 1736405999
        -79203772 2009560677 -12093593</internalNodes>
      <leafValues>
        -1.9806075096130371e-01 1.2617915868759155e-01</leafValues></_>
    <_>
      <internalNodes>
        0 -1 62 712322598 -67416449 -616639009 -67965185 1783857143
        -67393573 2055208957 1626406519</internalNodes>
      <leafValues>
        -2.0330603420734406e-01 1.2910665571689606e-01</leafValues></_>
    <_>
      <internalNodes>
        0 -1 152 791363379 -1409254846 1609430963 -273097312 123805493
        -805306497 83842420 -840641420</internalNodes>
      <leafValues>
        -3.3719775080680847e-01 6.7907437682151794e-02</leafValues></_>
    <_>
      <internalNodes>
        0 -1 666 -1430603969 -78594 -1077936129 -1123147 263946239 -1
        -541360131 -1346385873</internalNodes>
      <leafValues>
        -1.0241017490625381e-01 2.4216687679290771e-01</leafValues></_>
    <_>
      <internalNodes>
        0 -1 307 -483658957 -542453728 -1610876933 -33889040 689668507
        -292888443 354371509 -842280768</internalNodes>
      <leafValues>
        -1.4533978700637817e-01 1.6511484980583191e-01</leafValues></_>
    <_>
      <internalNodes>
        0 -1 461 1660921354 855631727 -1375786326 721420235 1912538056
        2075721550 2076128073 2063563599</internalNodes>
      <leafValues>
        -2.4469356238842010e-01 9.5198869705200195e-02</leafValues></_>
    <_>
      <internalNodes>
        0 -1 976 -1459970735 -1682038945 -31981569 -1148552193
        -1363413168 -2098245 -71631567 -1422246336</internalNodes>
      <leafValues>
        -1.8625693023204803e-01 1.2073645740747452e-01</leafValues></_>
    <_>
      <internalNodes>
        0 -1 771 -597718 -67962522 -570486534 -237312037 -282884561
        -9540249 -8414791 -287477</internalNodes>
      <leafValues>
        -8.1927143037319183e-02 2.7508544921875000e-01</leafValues></_>
    <_>
      <internalNodes>
        0 -1 360 1088618274 -2002738382 2069822378 -318317471 86449135
        -1979645960 2146915817 1223192866</internalNodes>
      <leafValues>
        -1.8426612019538879e-01 1.1500240862369537e-01</leafValues></_>
    <_>
      <internalNodes>
        0 -1 126 1148915247 45555071 1253747306 1651174122 1929340495
        1684479859 -231218592 1622409063</internalNodes>
      <leafValues>
        -3.1600427627563477e-01 6.7235372960567474e-02</leafValues></_>
    <_>
      <internalNodes>
        0 -1 602 -535650265 -576025404 -1614810625 -540228588 37401403
        -273756766 226407733 -842398463</internalNodes>
      <leafValues>
        -1.7956800758838654e-01 1.1360833048820496e-01</leafValues></_>
    <_>
      <internalNodes>
        0 -1 944 -1359313832 -272757715 -1350852674 -1141766785
        -1342259204 -4101 -139575364 -1414878405</internalNodes>
      <leafValues>
        -1.4637807011604309e-01 1.4582294225692749e-01</leafValues></_>
    <_>
      <internalNodes>
        0 -1 18 -34408654 -1179452625 -67387416 -1171047813 -246371840
        -1306515196 2103803716 544568580</internalNodes>
      <leafValues>
        -3.4792280197143555e-01 5.7945922017097473e-02</leafValues></_>
    <_>
      <internalNodes>
        0 -1 129 -488642834 853501803 -222149912 1629678862 1731678191
        863989353 -176269489 2067529599</internalNodes>
      <leafValues>
        -1.7729593813419342e-01 1.1950628459453583e-01</leafValues></_>
    <_>
      <internalNodes>
        0 -1 1016 -268456107 1073684255 -100794502 599505903 -131244
        -1153 -163864 -1434719237</internalNodes>
      <leafValues>
        -1.1803375929594040e-01 1.7928537726402283e-01</leafValues></_>
    <_>
      <internalNodes>
        0 -1 242 220870453 -865273865 -33554441 -290258958 187507965
        -1363284497 230497637 -906738416</internalNodes>
      <leafValues>
        -3.0714297294616699e-01 6.3771396875381470e-02</leafValues></_>
    <_>
      <internalNodes>
        0 -1 804 -1570885772 -1158271364 -262273 -1356710787 -269525123
        -84037633 -558409859 -1347744387</internalNodes>
      <leafValues>
        -1.6418060660362244e-01 1.2219489365816116e-01</leafValues></_>
    <_>
      <internalNodes>
        0 -1 563 -235670893 -439255559 -262585 509835319 896136832
        -1078856719 2027110312 1505378506</internalNodes>
      <leafValues>
        -1.0806711763143539e-01 1.9804389774799347e-01</leafValues></_>
    <_>
      <internalNodes>
        0 -1 90 1782522379 -361765273 -1770036686 -1427180540 594228539
        1751870271 2004840805 1618342499</internalNodes>
      <leafValues>
        -2.7491736412048340e-01 7.2090551257133484e-02</leafValues></_>
    <_>
      <internalNodes>
        0 -1 1006 -1360090064 -1079103894 234819824 -650884 150874573
        -1361054721 100212028 -1376767127</internalNodes>
      <leafValues>
        -1.7004247009754181e-01 1.1110771447420120e-01</leafValues></_>
    <_>
      <internalNodes>
        0 -1 224 35783170 989544351 724766296 1570752123 2143252367
        -774329 -268480952 -539015418</internalNodes>
      <leafValues>
        -2.2989897429943085e-01 8.1898212432861328e-02</leafValues></_>
    <_>
      <internalNodes>
        0 -1 1040 -1359082842 1823352639 -902945142 1242087213 -16788656
        736354906 -10634421 553971460</internalNodes>
      <leafValues>
        -2.1102218329906464e-01 8.2236625254154205e-02</leafValues></_>
    <_>
      <internalNodes>
        0 -1 800 -286343404 -1098990033 -537002053 724500339 -1073163
        -8388969 -1090296 -1410470105</internalNodes>
      <leafValues>
        -1.1741708219051361e-01 1.5652255713939667e-01</leafValues></_>
    <_>
      <internalNodes>
        0 -1 1044 -419502775 2144217871 -25167126 862908399 -354432312
        -627279016 -84027143 -353763505</internalNodes>
      <leafValues>
        -1.0462226718664169e-01 1.6609457135200500e-01</leafValues></_>
    <_>
      <internalNodes>
        0 -1 1099 -1342231261 800798561 -1434512844 -1447383462
        258935889 -1392513361 268374389 771488095</internalNodes>
      <leafValues>
        -2.1996074914932251e-01 7.9697504639625549e-02</leafValues></_>
    <_>
      <internalNodes>
        0 -1 0 -8653509 -570571713 -19148817 -335818818 1575036789
        -1941964812 -638085606 82727957</internalNodes>
      <leafValues>
        -1.5229871869087219e-01 1.1308904737234116e-01</leafValues></_>
    <_>
      <internalNodes>
        0 -1 402 -81201901 -5717984 -135268355 -537865004 134986559
        -1417480008 359350581 -841395115</internalNodes>
      <leafValues>
        -1.7945159971714020e-01 9.7790546715259552e-02</leafValues></_>
    <_>
      <internalNodes>
        0 -1 522 -360995578 -542056036 -545595397 -538254906 -1343770689
        -1096030515 -1126197763 -571488769</internalNodes>
      <leafValues>
        -7.3186598718166351e-02 2.4111592769622803e-01</leafValues></_>
    <_>
      <internalNodes>
        0 -1 897 -2131091456 -973175510 -201351301 -117889 -134286036
        -8391701 -1915300 -291338495</internalNodes>
      <leafValues>
        -1.4866366982460022e-01 1.1693254858255386e-01</leafValues></_>
    <_>
      <internalNodes>
        0 -1 604 -533675262 -620969235 -537958705 -34828726 628374275
        -118951238 2138660949 -292929021</internalNodes>
      <leafValues>
        -1.5514771640300751e-01 1.1778405308723450e-01</leafValues></_>
    <_>
      <internalNodes>
        0 -1 1103 -76499788 838692853 -1096834053 972774653 -943808241
        -2622465 -1372342987 502397043</internalNodes>
      <leafValues>
        -1.4346107840538025e-01 1.2099606543779373e-01</leafValues></_>
    <_>
      <internalNodes>
        0 -1 1120 -180355184 -814780865 -285406720 1857748972 485702768
        2013265791 1577046008 -1124139041</internalNodes>
      <leafValues>
        -8.8612705469131470e-02 1.9782303273677826e-01</leafValues></_>
    <_>
      <internalNodes>
        0 -1 789 -1909322116 1052389215 771659770 580520959 -1364699656
        -536909829 -38127400 -1431687638</internalNodes>
      <leafValues>
        -1.8295611441135406e-01 9.3924783170223236e-02</leafValues></_>
    <_>
      <internalNodes>
        0 -1 730 239517524 -1564862598 -10750068 -1342693571 217399125
        -1343489415 1828672877 -1433764758</internalNodes>
      <leafValues>
        -1.5764945745468140e-01 1.0413584113121033e-01</leafValues></_>
    <_>
      <internalNodes>
        0 -1 1100 -50385131 1073424191 -1090630146 941817727 -16814080
        -3681 -238272 -1595867156</internalNodes>
      <leafValues>
        -2.0503073930740356e-01 8.2950524985790253e-02</leafValues></_>
    <_>
      <internalNodes>
        0 -1 217 -352343505 -235145409 2079817467 -608732930 1128262623
        -56623138 -119538179 -38275121</internalNodes>
      <leafValues>
        -6.3034258782863617e-02 2.6298269629478455e-01</leafValues></_>
    <_>
      <internalNodes>
        0 -1 127 -228593937 -244843906 1627055790 1885191931 1736390223
        1735620431 -142608770 2003303263</internalNodes>
      <leafValues>
        -1.6740092635154724e-01 9.6605345606803894e-02</leafValues></_>
    <_>
      <internalNodes>
        0 -1 962 -1342298840 -1147532288 -539291408 -2486064 -1355343252
        -1880260617 -1929660260 -1603935</internalNodes>
      <leafValues>
        -1.3755592703819275e-01 1.1921263486146927e-01</leafValues></_>
    <_>
      <internalNodes>
        0 -1 289 -622069982 -1292464513 -1048786 -810684435 2053635759
        1886571978 2011128189 1296410407</internalNodes>
      <leafValues>
        -1.3619546592235565e-01 1.2065131217241287e-01</leafValues></_>
    <_>
      <internalNodes>
        0 -1 1117 -287373557 1006337877 -16780870 -1713968202 -822425894
        1013888632 -323027816 -1460610185</internalNodes>
      <leafValues>
        -1.4122870564460754e-01 1.1868681758642197e-01</leafValues></_>
    <_>
      <internalNodes>
        0 -1 60 1329278755 -768671874 -1111782102 -269814092 -268705875
        -1748109910 -1926496852 1305441485</internalNodes>
      <leafValues>
        -8.8263809680938721e-02 1.6557946801185608e-01</leafValues></_>
    <_>
      <internalNodes>
        0 -1 42 -1343508689 -296566934 1876948291 -1410158622 154863399
        -1933115402 1171742980 -973736476</internalNodes>
      <leafValues>
        -2.2121965885162354e-01 7.6705105602741241e-02</leafValues></_>
    <_>
      <internalNodes>
        0 -1 831 -286602208 -592673291 -268461322 -1074069523 -268456305
        -578818311 -17937923 -1431699447</internalNodes>
      <leafValues>
        -1.2777355313301086e-01 1.1513835191726685e-01</leafValues></_>
    <_>
      <internalNodes>
        0 -1 23 972372600 1005665147 2080373471 872364991 492056320
        844368739 -176734907 844377860</internalNodes>
      <leafValues>
        -4.0186038613319397e-01 3.8325551897287369e-02</leafValues></_>
    <_>
      <internalNodes>
        0 -1 1023 787429377 -1398801585 -17418535 1096491 -2105792
        -305143185 -67569288 -1440093079</internalNodes>
      <leafValues>
        -1.6699419915676117e-01 8.6679160594940186e-02</leafValues></_>
    <_>
      <internalNodes>
        0 -1 718 -902640052 979513037 -1095098566 1064844498 -1346699272
        -33653185 -1413825860 -1078231110</internalNodes>
      <leafValues>
        -8.1996627151966095e-02 1.7885176837444305e-01</leafValues></_>
    <_>
      <internalNodes>
        0 -1 232 715072046 275853182 -1438871905 -1594035457 175286076
        2020507258 -470500763 -252186793</internalNodes>
      <leafValues>
        -1.8842378258705139e-01 7.9136766493320465e-02</leafValues></_>
    <_>
      <internalNodes>
        0 -1 12 -18874513 -225939661 -24722 -274286874 662142895
        1748142063 2008442671 -1384122522</internalNodes>
      <leafValues>
        -9.4790920615196228e-02 1.5170106291770935e-01</leafValues></_>
    <_>
      <internalNodes>
        0 -1 1054 -1376371403 -1363613890 -1074284072 -1342817924
        -1361090692 -1073775105 -1342233091 -1359029121</internalNodes>
      <leafValues>
        -1.6307643055915833e-01 8.9271269738674164e-02</leafValues></_>
    <_>
      <internalNodes>
        0 -1 895 -158558592 -564099153 -33573961 1069978446 -456339539
        -638608829 -33554499 -1413351473</internalNodes>
      <leafValues>
        -1.0131706297397614e-01 1.4208783209323883e-01</leafValues></_>
    <_>
      <internalNodes>
        0 -1 104 854058606 851079018 1113465354 2106578686 2134322767
        826960914 1975468896 1194706789</internalNodes>
      <leafValues>
        -2.6123568415641785e-01 5.5821418762207031e-02</leafValues></_>
    <_>
      <internalNodes>
        0 -1 822 -471138540 -2452107 -12600322 -1346437409 -872546305
        -4197379 -1342210691 -340850913</internalNodes>
      <leafValues>
        -7.5983047485351563e-02 1.9237485527992249e-01</leafValues></_>
    <_>
      <internalNodes>
        0 -1 555 -562643199 -73728171 -2097156 -197804 704769933
        -71435457 458566109 -1366655727</internalNodes>
      <leafValues>
        -1.5169864892959595e-01 1.0070239752531052e-01</leafValues></_>
    <_>
      <internalNodes>
        0 -1 888 -286645208 -1229035490 -37242891 -1366782684 -269567100
        -803932 -286597991 -1431699296</internalNodes>
      <leafValues>
        -1.6541904211044312e-01 8.3041608333587646e-02</leafValues></_>
    <_>
      <internalNodes>
        0 -1 954 -842093312 -811620566 -565032 -69583593 -4196939
        -1673795601 -184820865 -475809969</internalNodes>
      <leafValues>
        -7.6169922947883606e-02 1.8298807740211487e-01</leafValues></_>
    <_>
      <internalNodes>
        0 -1 615 83373090 2112255663 -1394336100 -4284913 2048920838
        2007646138 -1267324151 806626055</internalNodes>
      <leafValues>
        -2.7731174230575562e-01 5.0692074000835419e-02</leafValues></_>
    <_>
      <internalNodes>
        0 -1 412 1377695392 2096340990 998240214 2130608126 1054136247
        2097655098 -143183934 -1670586951</internalNodes>
      <leafValues>
        -8.3644293248653412e-02 1.6687563061714172e-01</leafValues></_></weakClassifiers></stage9>
</opencv_storage>
