<?xml version="1.0"?>
<opencv_storage>
<cascade>
  <stageType>BOOST</stageType>
  <featureType>HAAR</featureType>
  <height>16</height>
  <width>13</width>
  <stageParams>
    <boostType>GAB</boostType>
    <minHitRate>9.9500000476837158e-01</minHitRate>
    <maxFalseAlarm>5.0000000000000000e-01</maxFalseAlarm>
    <weightTrimRate>9.4999999999999996e-01</weightTrimRate>
    <maxDepth>1</maxDepth>
    <maxWeakCount>100</maxWeakCount></stageParams>
  <featureParams>
    <maxCatCount>0</maxCatCount>
    <featSize>1</featSize>
    <mode>ALL</mode></featureParams>
  <stageNum>15</stageNum>
  <stages>
    <!-- stage 0 -->
    <_>
      <maxWeakCount>15</maxWeakCount>
      <stageThreshold>-1.6744164228439331e+00</stageThreshold>
      <weakClassifiers>
        <_>
          <internalNodes>
            0 -1 39 7.0177167654037476e-02</internalNodes>
          <leafValues>
            -5.0432622432708740e-01 5.9971541166305542e-01</leafValues></_>
        <_>
          <internalNodes>
            0 -1 807 8.8270513515453786e-05</internalNodes>
          <leafValues>
            -4.9600005149841309e-01 3.6152178049087524e-01</leafValues></_>
        <_>
          <internalNodes>
            0 -1 311 8.4175705909729004e-02</internalNodes>
          <leafValues>
            -3.0746325850486755e-01 5.3600156307220459e-01</leafValues></_>
        <_>
          <internalNodes>
            0 -1 226 -8.1597681855782866e-05</internalNodes>
          <leafValues>
            2.7357456088066101e-01 -4.8141354322433472e-01</leafValues></_>
        <_>
          <internalNodes>
            0 -1 7 6.8087298423051834e-03</internalNodes>
          <leafValues>
            -3.9131632447242737e-01 3.3096224069595337e-01</leafValues></_>
        <_>
          <internalNodes>
            0 -1 207 -6.3326939940452576e-02</internalNodes>
          <leafValues>
            7.5619226694107056e-01 -1.9888381659984589e-01</leafValues></_>
        <_>
          <internalNodes>
            0 -1 382 3.6443233489990234e-02</internalNodes>
          <leafValues>
            -1.3950079679489136e-01 7.0993739366531372e-01</leafValues></_>
        <_>
          <internalNodes>
            0 -1 824 8.3511695265769958e-03</internalNodes>
          <leafValues>
            1.8325711786746979e-01 -5.2494567632675171e-01</leafValues></_>
        <_>
          <internalNodes>
            0 -1 214 -6.2273826450109482e-02</internalNodes>
          <leafValues>
            7.1988838911056519e-01 -1.1102824658155441e-01</leafValues></_>
        <_>
          <internalNodes>
            0 -1 270 -4.4477894902229309e-02</internalNodes>
          <leafValues>
            6.5786057710647583e-01 -1.4661221206188202e-01</leafValues></_>
        <_>
          <internalNodes>
            0 -1 354 -3.3607512712478638e-02</internalNodes>
          <leafValues>
            5.8177536725997925e-01 -1.0961120575666428e-01</leafValues></_>
        <_>
          <internalNodes>
            0 -1 8 -1.1235116107854992e-04</internalNodes>
          <leafValues>
            2.4736058712005615e-01 -2.3686523735523224e-01</leafValues></_>
        <_>
          <internalNodes>
            0 -1 652 -4.9482709728181362e-03</internalNodes>
          <leafValues>
            -6.7109107971191406e-01 9.1949738562107086e-02</leafValues></_>
        <_>
          <internalNodes>
            0 -1 652 4.7189593315124512e-03</internalNodes>
          <leafValues>
            8.6400985717773438e-02 -6.1253923177719116e-01</leafValues></_>
        <_>
          <internalNodes>
            0 -1 30 1.3773892819881439e-01</internalNodes>
          <leafValues>
            -1.1950770765542984e-01 4.9701851606369019e-01</leafValues></_></weakClassifiers></_>
    <!-- stage 1 -->
    <_>
      <maxWeakCount>30</maxWeakCount>
      <stageThreshold>-1.7703567743301392e+00</stageThreshold>
      <weakClassifiers>
        <_>
          <internalNodes>
            0 -1 38 9.3808323144912720e-03</internalNodes>
          <leafValues>
            -5.2382642030715942e-01 3.8295754790306091e-01</leafValues></_>
        <_>
          <internalNodes>
            0 -1 230 -5.4872936743777245e-05</internalNodes>
          <leafValues>
            2.2713176906108856e-01 -5.9063667058944702e-01</leafValues></_>
        <_>
          <internalNodes>
            0 -1 813 3.2871800940483809e-03</internalNodes>
          <leafValues>
            -4.2655375599861145e-01 2.4097920954227448e-01</leafValues></_>
        <_>
          <internalNodes>
            0 -1 209 -6.3177928328514099e-02</internalNodes>
          <leafValues>
            7.0046716928482056e-01 -1.3207964599132538e-01</leafValues></_>
        <_>
          <internalNodes>
            0 -1 285 -5.2797861397266388e-02</internalNodes>
          <leafValues>
            7.1688163280487061e-01 -1.3198891282081604e-01</leafValues></_>
        <_>
          <internalNodes>
            0 -1 235 1.5850743651390076e-01</internalNodes>
          <leafValues>
            -2.1469530463218689e-01 4.1460350155830383e-01</leafValues></_>
        <_>
          <internalNodes>
            0 -1 118 -1.6307392716407776e-01</internalNodes>
          <leafValues>
            6.5031516551971436e-01 -1.1850767582654953e-01</leafValues></_>
        <_>
          <internalNodes>
            0 -1 281 -6.6002041101455688e-02</internalNodes>
          <leafValues>
            7.5602263212203979e-01 -1.4569830894470215e-01</leafValues></_>
        <_>
          <internalNodes>
            0 -1 323 1.0911445133388042e-02</internalNodes>
          <leafValues>
            1.4723804593086243e-01 -6.6914808750152588e-01</leafValues></_>
        <_>
          <internalNodes>
            0 -1 189 -1.4361119270324707e-01</internalNodes>
          <leafValues>
            6.3083255290985107e-01 -1.3286602497100830e-01</leafValues></_>
        <_>
          <internalNodes>
            0 -1 346 -9.1070666909217834e-02</internalNodes>
          <leafValues>
            5.8065623044967651e-01 -1.2232552468776703e-01</leafValues></_>
        <_>
          <internalNodes>
            0 -1 606 6.3526364974677563e-03</internalNodes>
          <leafValues>
            1.3887485861778259e-01 -5.5023866891860962e-01</leafValues></_>
        <_>
          <internalNodes>
            0 -1 61 8.1333488225936890e-02</internalNodes>
          <leafValues>
            1.0117006301879883e-01 -5.2565443515777588e-01</leafValues></_>
        <_>
          <internalNodes>
            0 -1 597 -4.3161697685718536e-03</internalNodes>
          <leafValues>
            -6.1943483352661133e-01 9.5608107745647430e-02</leafValues></_>
        <_>
          <internalNodes>
            0 -1 538 6.4018793404102325e-02</internalNodes>
          <leafValues>
            -1.3187558948993683e-01 3.8882896304130554e-01</leafValues></_>
        <_>
          <internalNodes>
            0 -1 597 4.2006219737231731e-03</internalNodes>
          <leafValues>
            9.0269885957241058e-02 -5.1258659362792969e-01</leafValues></_>
        <_>
          <internalNodes>
            0 -1 541 -6.2753900885581970e-02</internalNodes>
          <leafValues>
            3.3041179180145264e-01 -1.4171358942985535e-01</leafValues></_>
        <_>
          <internalNodes>
            0 -1 318 -9.7480028867721558e-02</internalNodes>
          <leafValues>
            -5.3611618280410767e-01 7.9498536884784698e-02</leafValues></_>
        <_>
          <internalNodes>
            0 -1 504 -5.4361321032047272e-02</internalNodes>
          <leafValues>
            6.7223620414733887e-01 -6.7994236946105957e-02</leafValues></_>
        <_>
          <internalNodes>
            0 -1 737 -2.1560845896601677e-02</internalNodes>
          <leafValues>
            -5.5139476060867310e-01 7.7653728425502777e-02</leafValues></_>
        <_>
          <internalNodes>
            0 -1 5 2.9295971617102623e-03</internalNodes>
          <leafValues>
            -2.5009015202522278e-01 1.4652997255325317e-01</leafValues></_>
        <_>
          <internalNodes>
            0 -1 736 1.0970449075102806e-02</internalNodes>
          <leafValues>
            7.4968002736568451e-02 -5.3170377016067505e-01</leafValues></_>
        <_>
          <internalNodes>
            0 -1 503 3.5215102136135101e-02</internalNodes>
          <leafValues>
            -8.5289232432842255e-02 4.6538710594177246e-01</leafValues></_>
        <_>
          <internalNodes>
            0 -1 807 4.4436070311348885e-05</internalNodes>
          <leafValues>
            -2.4764433503150940e-01 1.4017637073993683e-01</leafValues></_>
        <_>
          <internalNodes>
            0 -1 508 -4.9582086503505707e-02</internalNodes>
          <leafValues>
            6.0659605264663696e-01 -6.2854878604412079e-02</leafValues></_>
        <_>
          <internalNodes>
            0 -1 645 -1.1330481618642807e-02</internalNodes>
          <leafValues>
            -5.7925993204116821e-01 6.7954905331134796e-02</leafValues></_>
        <_>
          <internalNodes>
            0 -1 424 -8.3305403590202332e-02</internalNodes>
          <leafValues>
            4.4666561484336853e-01 -9.0778492391109467e-02</leafValues></_>
        <_>
          <internalNodes>
            0 -1 826 -5.7283099740743637e-03</internalNodes>
          <leafValues>
            -5.1376259326934814e-01 7.5934760272502899e-02</leafValues></_>
        <_>
          <internalNodes>
            0 -1 831 -5.5069364607334137e-03</internalNodes>
          <leafValues>
            -5.0570768117904663e-01 6.1536818742752075e-02</leafValues></_>
        <_>
          <internalNodes>
            0 -1 234 -6.1757892370223999e-02</internalNodes>
          <leafValues>
            3.6427414417266846e-01 -9.7709879279136658e-02</leafValues></_></weakClassifiers></_>
    <!-- stage 2 -->
    <_>
      <maxWeakCount>49</maxWeakCount>
      <stageThreshold>-1.7992525100708008e+00</stageThreshold>
      <weakClassifiers>
        <_>
          <internalNodes>
            0 -1 2 3.1038147863000631e-03</internalNodes>
          <leafValues>
            -4.9572411179542542e-01 2.7481153607368469e-01</leafValues></_>
        <_>
          <internalNodes>
            0 -1 818 -1.1381100863218307e-02</internalNodes>
          <leafValues>
            2.6391506195068359e-01 -4.4962877035140991e-01</leafValues></_>
        <_>
          <internalNodes>
            0 -1 309 5.2537910640239716e-02</internalNodes>
          <leafValues>
            -2.6934638619422913e-01 4.4833818078041077e-01</leafValues></_>
        <_>
          <internalNodes>
            0 -1 297 -9.1257262974977493e-03</internalNodes>
          <leafValues>
            -5.7113194465637207e-01 1.6214212775230408e-01</leafValues></_>
        <_>
          <internalNodes>
            0 -1 76 -7.7930372208356857e-03</internalNodes>
          <leafValues>
            1.3338705897331238e-01 -4.2960131168365479e-01</leafValues></_>
        <_>
          <internalNodes>
            0 -1 156 1.2726366519927979e-01</internalNodes>
          <leafValues>
            -1.1364886164665222e-01 4.9194476008415222e-01</leafValues></_>
        <_>
          <internalNodes>
            0 -1 743 3.4924701321870089e-03</internalNodes>
          <leafValues>
            -2.7774420380592346e-01 2.0298939943313599e-01</leafValues></_>
        <_>
          <internalNodes>
            0 -1 277 -6.8351075053215027e-02</internalNodes>
          <leafValues>
            5.1952809095382690e-01 -1.0672100633382797e-01</leafValues></_>
        <_>
          <internalNodes>
            0 -1 383 3.6290626972913742e-02</internalNodes>
          <leafValues>
            -1.0657614469528198e-01 4.8798966407775879e-01</leafValues></_>
        <_>
          <internalNodes>
            0 -1 282 3.0824527144432068e-02</internalNodes>
          <leafValues>
            -1.3854067027568817e-01 4.7923174500465393e-01</leafValues></_>
        <_>
          <internalNodes>
            0 -1 561 -8.6866319179534912e-03</internalNodes>
          <leafValues>
            -4.5290628075599670e-01 1.0994407534599304e-01</leafValues></_>
        <_>
          <internalNodes>
            0 -1 432 2.1312925219535828e-01</internalNodes>
          <leafValues>
            -1.2036526948213577e-01 4.5208221673965454e-01</leafValues></_>
        <_>
          <internalNodes>
            0 -1 548 -1.6177885234355927e-02</internalNodes>
          <leafValues>
            -6.3689970970153809e-01 9.9315270781517029e-02</leafValues></_>
        <_>
          <internalNodes>
            0 -1 673 3.5162322223186493e-02</internalNodes>
          <leafValues>
            -1.6731950640678406e-01 2.9472938179969788e-01</leafValues></_>
        <_>
          <internalNodes>
            0 -1 556 -6.9107119925320148e-03</internalNodes>
          <leafValues>
            -4.9537983536720276e-01 1.1487686634063721e-01</leafValues></_>
        <_>
          <internalNodes>
            0 -1 158 1.9575325772166252e-02</internalNodes>
          <leafValues>
            -1.6992703080177307e-01 2.5329577922821045e-01</leafValues></_>
        <_>
          <internalNodes>
            0 -1 303 1.8061136826872826e-02</internalNodes>
          <leafValues>
            6.7123174667358398e-02 -5.5910497903823853e-01</leafValues></_>
        <_>
          <internalNodes>
            0 -1 243 3.7907794117927551e-02</internalNodes>
          <leafValues>
            -1.5839499235153198e-01 2.7397736907005310e-01</leafValues></_>
        <_>
          <internalNodes>
            0 -1 289 1.9050549715757370e-02</internalNodes>
          <leafValues>
            -1.1530116200447083e-01 3.2569590210914612e-01</leafValues></_>
        <_>
          <internalNodes>
            0 -1 330 1.2853613123297691e-02</internalNodes>
          <leafValues>
            6.6577874124050140e-02 -5.7085859775543213e-01</leafValues></_>
        <_>
          <internalNodes>
            0 -1 594 -8.1833768635988235e-03</internalNodes>
          <leafValues>
            -6.0866749286651611e-01 5.1199745386838913e-02</leafValues></_>
        <_>
          <internalNodes>
            0 -1 400 -2.5401230901479721e-02</internalNodes>
          <leafValues>
            3.3533340692520142e-01 -1.0294662415981293e-01</leafValues></_>
        <_>
          <internalNodes>
            0 -1 518 -4.3927212245762348e-03</internalNodes>
          <leafValues>
            -5.1243305206298828e-01 6.1392426490783691e-02</leafValues></_>
        <_>
          <internalNodes>
            0 -1 20 9.6470862627029419e-02</internalNodes>
          <leafValues>
            -7.1494407951831818e-02 4.7117969393730164e-01</leafValues></_>
        <_>
          <internalNodes>
            0 -1 20 -4.3321326375007629e-02</internalNodes>
          <leafValues>
            2.6523828506469727e-01 -1.2630628049373627e-01</leafValues></_>
        <_>
          <internalNodes>
            0 -1 357 -4.6777263283729553e-02</internalNodes>
          <leafValues>
            4.1036617755889893e-01 -6.7844673991203308e-02</leafValues></_>
        <_>
          <internalNodes>
            0 -1 831 5.2127577364444733e-03</internalNodes>
          <leafValues>
            7.1029312908649445e-02 -4.4484499096870422e-01</leafValues></_>
        <_>
          <internalNodes>
            0 -1 826 4.4791651889681816e-03</internalNodes>
          <leafValues>
            6.4324848353862762e-02 -3.9709907770156860e-01</leafValues></_>
        <_>
          <internalNodes>
            0 -1 786 3.6170547828078270e-03</internalNodes>
          <leafValues>
            -1.6230708360671997e-01 1.7451430857181549e-01</leafValues></_>
        <_>
          <internalNodes>
            0 -1 328 -2.8121996670961380e-02</internalNodes>
          <leafValues>
            -5.2689623832702637e-01 5.1040314137935638e-02</leafValues></_>
        <_>
          <internalNodes>
            0 -1 369 -4.5620784163475037e-02</internalNodes>
          <leafValues>
            3.5315766930580139e-01 -8.1460490822792053e-02</leafValues></_>
        <_>
          <internalNodes>
            0 -1 456 -2.1273685619235039e-02</internalNodes>
          <leafValues>
            2.6803636550903320e-01 -1.0417784750461578e-01</leafValues></_>
        <_>
          <internalNodes>
            0 -1 306 5.9774167835712433e-02</internalNodes>
          <leafValues>
            -8.6008712649345398e-02 3.3937859535217285e-01</leafValues></_>
        <_>
          <internalNodes>
            0 -1 429 -1.9885078072547913e-02</internalNodes>
          <leafValues>
            -4.0502628684043884e-01 7.7398031949996948e-02</leafValues></_>
        <_>
          <internalNodes>
            0 -1 652 -4.9250787124037743e-03</internalNodes>
          <leafValues>
            -5.9451133012771606e-01 4.1582588106393814e-02</leafValues></_>
        <_>
          <internalNodes>
            0 -1 487 1.0839029215276241e-02</internalNodes>
          <leafValues>
            -1.1826404929161072e-01 2.3270876705646515e-01</leafValues></_>
        <_>
          <internalNodes>
            0 -1 70 7.8108623623847961e-02</internalNodes>
          <leafValues>
            -1.0629722476005554e-01 2.6135048270225525e-01</leafValues></_>
        <_>
          <internalNodes>
            0 -1 97 -6.8609700538218021e-03</internalNodes>
          <leafValues>
            -5.2732950448989868e-01 5.0990201532840729e-02</leafValues></_>
        <_>
          <internalNodes>
            0 -1 97 6.7435055971145630e-03</internalNodes>
          <leafValues>
            5.1288723945617676e-02 -5.3857588768005371e-01</leafValues></_>
        <_>
          <internalNodes>
            0 -1 688 -6.1310823075473309e-03</internalNodes>
          <leafValues>
            -5.7057726383209229e-01 3.3230181783437729e-02</leafValues></_>
        <_>
          <internalNodes>
            0 -1 509 2.7013538405299187e-02</internalNodes>
          <leafValues>
            -8.4225572645664215e-02 2.5461676716804504e-01</leafValues></_>
        <_>
          <internalNodes>
            0 -1 284 -2.6727819815278053e-02</internalNodes>
          <leafValues>
            2.6278790831565857e-01 -8.5253059864044189e-02</leafValues></_>
        <_>
          <internalNodes>
            0 -1 536 3.9655506610870361e-02</internalNodes>
          <leafValues>
            -8.9374974370002747e-02 2.3616707324981689e-01</leafValues></_>
        <_>
          <internalNodes>
            0 -1 746 -1.4985377900302410e-02</internalNodes>
          <leafValues>
            -4.9882224202156067e-01 4.5483011752367020e-02</leafValues></_>
        <_>
          <internalNodes>
            0 -1 0 1.1323953367536888e-04</internalNodes>
          <leafValues>
            -2.0315136015415192e-01 1.0373189300298691e-01</leafValues></_>
        <_>
          <internalNodes>
            0 -1 325 3.3078499138355255e-02</internalNodes>
          <leafValues>
            -7.1786373853683472e-02 3.0773216485977173e-01</leafValues></_>
        <_>
          <internalNodes>
            0 -1 66 -1.7652388196438551e-03</internalNodes>
          <leafValues>
            -2.6637822389602661e-01 8.8988542556762695e-02</leafValues></_>
        <_>
          <internalNodes>
            0 -1 256 2.8825752437114716e-02</internalNodes>
          <leafValues>
            -8.3070725202560425e-02 2.7462887763977051e-01</leafValues></_>
        <_>
          <internalNodes>
            0 -1 437 2.2305920720100403e-02</internalNodes>
          <leafValues>
            4.6942856162786484e-02 -4.6639478206634521e-01</leafValues></_></weakClassifiers></_>
    <!-- stage 3 -->
    <_>
      <maxWeakCount>56</maxWeakCount>
      <stageThreshold>-1.6642429828643799e+00</stageThreshold>
      <weakClassifiers>
        <_>
          <internalNodes>
            0 -1 812 4.4530886225402355e-03</internalNodes>
          <leafValues>
            -4.1864249110221863e-01 3.1607580184936523e-01</leafValues></_>
        <_>
          <internalNodes>
            0 -1 6 8.8361334055662155e-03</internalNodes>
          <leafValues>
            -3.9892622828483582e-01 2.3778949677944183e-01</leafValues></_>
        <_>
          <internalNodes>
            0 -1 235 9.7422927618026733e-02</internalNodes>
          <leafValues>
            -2.6429957151412964e-01 2.8955119848251343e-01</leafValues></_>
        <_>
          <internalNodes>
            0 -1 226 -1.5622278442606330e-04</internalNodes>
          <leafValues>
            1.9988600909709930e-01 -4.0579283237457275e-01</leafValues></_>
        <_>
          <internalNodes>
            0 -1 109 2.8660308569669724e-02</internalNodes>
          <leafValues>
            -2.4679906666278839e-01 2.6093879342079163e-01</leafValues></_>
        <_>
          <internalNodes>
            0 -1 763 -8.8554192334413528e-03</internalNodes>
          <leafValues>
            1.3385541737079620e-01 -3.8996443152427673e-01</leafValues></_>
        <_>
          <internalNodes>
            0 -1 315 -1.2915256433188915e-02</internalNodes>
          <leafValues>
            -5.8969384431838989e-01 9.5930784940719604e-02</leafValues></_>
        <_>
          <internalNodes>
            0 -1 428 9.9449399858713150e-03</internalNodes>
          <leafValues>
            9.2502772808074951e-02 -5.7454997301101685e-01</leafValues></_>
        <_>
          <internalNodes>
            0 -1 396 2.1179787814617157e-02</internalNodes>
          <leafValues>
            -1.3429865241050720e-01 3.4884098172187805e-01</leafValues></_>
        <_>
          <internalNodes>
            0 -1 509 -2.2425595670938492e-02</internalNodes>
          <leafValues>
            3.1329321861267090e-01 -1.2958683073520660e-01</leafValues></_>
        <_>
          <internalNodes>
            0 -1 491 1.6887992620468140e-02</internalNodes>
          <leafValues>
            5.6061055511236191e-02 -6.1490267515182495e-01</leafValues></_>
        <_>
          <internalNodes>
            0 -1 40 -4.6329824253916740e-03</internalNodes>
          <leafValues>
            -5.2766329050064087e-01 7.9522244632244110e-02</leafValues></_>
        <_>
          <internalNodes>
            0 -1 337 1.1283148080110550e-02</internalNodes>
          <leafValues>
            6.4734511077404022e-02 -4.8337003588676453e-01</leafValues></_>
        <_>
          <internalNodes>
            0 -1 28 -8.4733724594116211e-02</internalNodes>
          <leafValues>
            2.8203040361404419e-01 -1.2786181271076202e-01</leafValues></_>
        <_>
          <internalNodes>
            0 -1 161 1.0294926166534424e-01</internalNodes>
          <leafValues>
            -1.2556685507297516e-01 4.1223567724227905e-01</leafValues></_>
        <_>
          <internalNodes>
            0 -1 633 1.6371186822652817e-02</internalNodes>
          <leafValues>
            4.4491402804851532e-02 -6.3673806190490723e-01</leafValues></_>
        <_>
          <internalNodes>
            0 -1 455 3.6281477659940720e-02</internalNodes>
          <leafValues>
            -1.3155362010002136e-01 2.5547108054161072e-01</leafValues></_>
        <_>
          <internalNodes>
            0 -1 375 -5.2902758121490479e-02</internalNodes>
          <leafValues>
            3.8373771309852600e-01 -7.9695828258991241e-02</leafValues></_>
        <_>
          <internalNodes>
            0 -1 503 -2.9016392305493355e-02</internalNodes>
          <leafValues>
            3.3470809459686279e-01 -1.0729722678661346e-01</leafValues></_>
        <_>
          <internalNodes>
            0 -1 326 2.0837426185607910e-02</internalNodes>
          <leafValues>
            5.6733421981334686e-02 -6.1512786149978638e-01</leafValues></_>
        <_>
          <internalNodes>
            0 -1 38 8.1300586462020874e-03</internalNodes>
          <leafValues>
            -2.4484953284263611e-01 1.2918995320796967e-01</leafValues></_>
        <_>
          <internalNodes>
            0 -1 746 1.0949062183499336e-02</internalNodes>
          <leafValues>
            6.1271119862794876e-02 -4.8729833960533142e-01</leafValues></_>
        <_>
          <internalNodes>
            0 -1 425 8.5709601640701294e-02</internalNodes>
          <leafValues>
            -1.2258242815732956e-01 2.3781029880046844e-01</leafValues></_>
        <_>
          <internalNodes>
            0 -1 431 -9.8703898489475250e-02</internalNodes>
          <leafValues>
            3.3016321063041687e-01 -1.2458818405866623e-01</leafValues></_>
        <_>
          <internalNodes>
            0 -1 739 -2.5096226483583450e-02</internalNodes>
          <leafValues>
            -5.0726348161697388e-01 6.6096648573875427e-02</leafValues></_>
        <_>
          <internalNodes>
            0 -1 404 -6.0083046555519104e-03</internalNodes>
          <leafValues>
            -3.9983469247817993e-01 6.2140334397554398e-02</leafValues></_>
        <_>
          <internalNodes>
            0 -1 406 3.2847751863300800e-03</internalNodes>
          <leafValues>
            7.2054788470268250e-02 -4.0737202763557434e-01</leafValues></_>
        <_>
          <internalNodes>
            0 -1 65 4.2531186342239380e-01</internalNodes>
          <leafValues>
            3.5261165350675583e-02 -7.1785700321197510e-01</leafValues></_>
        <_>
          <internalNodes>
            0 -1 658 1.0544693097472191e-02</internalNodes>
          <leafValues>
            -1.2650686502456665e-01 1.9406490027904510e-01</leafValues></_>
        <_>
          <internalNodes>
            0 -1 497 -3.6754816770553589e-02</internalNodes>
          <leafValues>
            3.7801611423492432e-01 -6.2104240059852600e-02</leafValues></_>
        <_>
          <internalNodes>
            0 -1 473 -5.3727369755506516e-02</internalNodes>
          <leafValues>
            2.7500611543655396e-01 -9.2620708048343658e-02</leafValues></_>
        <_>
          <internalNodes>
            0 -1 679 3.2943174242973328e-02</internalNodes>
          <leafValues>
            3.7835411727428436e-02 -6.0210222005844116e-01</leafValues></_>
        <_>
          <internalNodes>
            0 -1 686 -1.0015189647674561e-02</internalNodes>
          <leafValues>
            -4.4822567701339722e-01 4.8332683742046356e-02</leafValues></_>
        <_>
          <internalNodes>
            0 -1 33 -3.6452469229698181e-01</internalNodes>
          <leafValues>
            -5.4151582717895508e-01 4.3360773473978043e-02</leafValues></_>
        <_>
          <internalNodes>
            0 -1 97 -7.5780479237437248e-03</internalNodes>
          <leafValues>
            -6.2349659204483032e-01 3.3342439681291580e-02</leafValues></_>
        <_>
          <internalNodes>
            0 -1 558 1.6296207904815674e-02</internalNodes>
          <leafValues>
            5.3816132247447968e-02 -3.8761362433433533e-01</leafValues></_>
        <_>
          <internalNodes>
            0 -1 177 -1.7374847084283829e-02</internalNodes>
          <leafValues>
            2.1102344989776611e-01 -1.0344282537698746e-01</leafValues></_>
        <_>
          <internalNodes>
            0 -1 88 -6.2265014275908470e-03</internalNodes>
          <leafValues>
            -4.4555407762527466e-01 4.7259483486413956e-02</leafValues></_>
        <_>
          <internalNodes>
            0 -1 105 -4.4147046282887459e-03</internalNodes>
          <leafValues>
            -3.3844092488288879e-01 5.4994169622659683e-02</leafValues></_>
        <_>
          <internalNodes>
            0 -1 103 -5.5276787281036377e-01</internalNodes>
          <leafValues>
            -7.2997587919235229e-01 2.5967814028263092e-02</leafValues></_>
        <_>
          <internalNodes>
            0 -1 360 -1.0413024574518204e-02</internalNodes>
          <leafValues>
            -4.7919401526451111e-01 3.6743398755788803e-02</leafValues></_>
        <_>
          <internalNodes>
            0 -1 370 1.3504454866051674e-02</internalNodes>
          <leafValues>
            4.1911695152521133e-02 -4.8654082417488098e-01</leafValues></_>
        <_>
          <internalNodes>
            0 -1 193 6.9088526070117950e-02</internalNodes>
          <leafValues>
            -8.4724977612495422e-02 2.5297391414642334e-01</leafValues></_>
        <_>
          <internalNodes>
            0 -1 339 3.1357944011688232e-02</internalNodes>
          <leafValues>
            -6.1328440904617310e-02 3.1982040405273438e-01</leafValues></_>
        <_>
          <internalNodes>
            0 -1 350 1.8738716840744019e-02</internalNodes>
          <leafValues>
            -9.1702327132225037e-02 2.3061175644397736e-01</leafValues></_>
        <_>
          <internalNodes>
            0 -1 350 -2.8725605458021164e-02</internalNodes>
          <leafValues>
            3.2757151126861572e-01 -9.7079567611217499e-02</leafValues></_>
        <_>
          <internalNodes>
            0 -1 656 5.3649758920073509e-03</internalNodes>
          <leafValues>
            6.9528527557849884e-02 -3.0009251832962036e-01</leafValues></_>
        <_>
          <internalNodes>
            0 -1 298 3.0682565644383430e-02</internalNodes>
          <leafValues>
            -7.7566146850585938e-02 2.5611931085586548e-01</leafValues></_>
        <_>
          <internalNodes>
            0 -1 420 1.8822047859430313e-02</internalNodes>
          <leafValues>
            5.1818862557411194e-02 -4.4004499912261963e-01</leafValues></_>
        <_>
          <internalNodes>
            0 -1 808 9.6600648248568177e-05</internalNodes>
          <leafValues>
            -1.5194699168205261e-01 1.3297422230243683e-01</leafValues></_>
        <_>
          <internalNodes>
            0 -1 410 -6.8643484264612198e-03</internalNodes>
          <leafValues>
            -2.6299008727073669e-01 6.9265812635421753e-02</leafValues></_>
        <_>
          <internalNodes>
            0 -1 159 2.2533986717462540e-02</internalNodes>
          <leafValues>
            -1.2287357449531555e-01 1.5494428575038910e-01</leafValues></_>
        <_>
          <internalNodes>
            0 -1 204 -3.2815568149089813e-02</internalNodes>
          <leafValues>
            2.2885936498641968e-01 -8.6285054683685303e-02</leafValues></_>
        <_>
          <internalNodes>
            0 -1 796 1.1728762910934165e-04</internalNodes>
          <leafValues>
            -1.4071711897850037e-01 1.3111180067062378e-01</leafValues></_>
        <_>
          <internalNodes>
            0 -1 595 -1.0064900852739811e-02</internalNodes>
          <leafValues>
            -4.7023460268974304e-01 3.6774471402168274e-02</leafValues></_>
        <_>
          <internalNodes>
            0 -1 423 -7.4633277952671051e-02</internalNodes>
          <leafValues>
            3.1492507457733154e-01 -5.9966184198856354e-02</leafValues></_></weakClassifiers></_>
    <!-- stage 4 -->
    <_>
      <maxWeakCount>74</maxWeakCount>
      <stageThreshold>-1.6625133752822876e+00</stageThreshold>
      <weakClassifiers>
        <_>
          <internalNodes>
            0 -1 422 5.0082016736268997e-02</internalNodes>
          <leafValues>
            -2.1858580410480499e-01 4.3605870008468628e-01</leafValues></_>
        <_>
          <internalNodes>
            0 -1 3 5.5489987134933472e-03</internalNodes>
          <leafValues>
            -4.1928651928901672e-01 2.3161303997039795e-01</leafValues></_>
        <_>
          <internalNodes>
            0 -1 822 -2.6598363183438778e-03</internalNodes>
          <leafValues>
            1.5403138101100922e-01 -4.5718538761138916e-01</leafValues></_>
        <_>
          <internalNodes>
            0 -1 713 2.6582018472254276e-03</internalNodes>
          <leafValues>
            -3.2291758060455322e-01 1.9289563596248627e-01</leafValues></_>
        <_>
          <internalNodes>
            0 -1 283 -5.5486932396888733e-02</internalNodes>
          <leafValues>
            4.8922148346900940e-01 -1.1821051687002182e-01</leafValues></_>
        <_>
          <internalNodes>
            0 -1 280 3.3649154007434845e-02</internalNodes>
          <leafValues>
            -1.3400501012802124e-01 4.6271058917045593e-01</leafValues></_>
        <_>
          <internalNodes>
            0 -1 234 8.1722021102905273e-02</internalNodes>
          <leafValues>
            -1.1617764085531235e-01 4.9126371741294861e-01</leafValues></_>
        <_>
          <internalNodes>
            0 -1 613 7.7097050845623016e-02</internalNodes>
          <leafValues>
            -1.1265935748815536e-01 5.0659692287445068e-01</leafValues></_>
        <_>
          <internalNodes>
            0 -1 737 1.7070312052965164e-02</internalNodes>
          <leafValues>
            1.4605304598808289e-01 -5.5878090858459473e-01</leafValues></_>
        <_>
          <internalNodes>
            0 -1 59 -1.7204042524099350e-02</internalNodes>
          <leafValues>
            6.1184406280517578e-02 -3.6977434158325195e-01</leafValues></_>
        <_>
          <internalNodes>
            0 -1 448 -8.1022996455430984e-03</internalNodes>
          <leafValues>
            -5.0494360923767090e-01 8.4697566926479340e-02</leafValues></_>
        <_>
          <internalNodes>
            0 -1 276 -6.7877694964408875e-02</internalNodes>
          <leafValues>
            4.7431591153144836e-01 -7.9975880682468414e-02</leafValues></_>
        <_>
          <internalNodes>
            0 -1 381 1.9110810011625290e-02</internalNodes>
          <leafValues>
            -1.2623158097267151e-01 3.4185656905174255e-01</leafValues></_>
        <_>
          <internalNodes>
            0 -1 99 -7.1827326901257038e-03</internalNodes>
          <leafValues>
            2.3798465728759766e-01 -1.3198158144950867e-01</leafValues></_>
        <_>
          <internalNodes>
            0 -1 162 1.3172575831413269e-01</internalNodes>
          <leafValues>
            -1.4731025695800781e-01 2.5307628512382507e-01</leafValues></_>
        <_>
          <internalNodes>
            0 -1 32 7.3991809040307999e-04</internalNodes>
          <leafValues>
            -3.0143490433692932e-01 1.3221813738346100e-01</leafValues></_>
        <_>
          <internalNodes>
            0 -1 316 2.5071134790778160e-02</internalNodes>
          <leafValues>
            4.5697778463363647e-02 -6.2815856933593750e-01</leafValues></_>
        <_>
          <internalNodes>
            0 -1 130 3.4016285091638565e-02</internalNodes>
          <leafValues>
            -1.5642406046390533e-01 2.1390113234519958e-01</leafValues></_>
        <_>
          <internalNodes>
            0 -1 432 1.6678681969642639e-01</internalNodes>
          <leafValues>
            -1.0347661375999451e-01 2.9480847716331482e-01</leafValues></_>
        <_>
          <internalNodes>
            0 -1 723 1.5792194753885269e-02</internalNodes>
          <leafValues>
            -1.2446254491806030e-01 2.5397330522537231e-01</leafValues></_>
        <_>
          <internalNodes>
            0 -1 548 -1.2292049825191498e-02</internalNodes>
          <leafValues>
            -4.7330889105796814e-01 6.2744744122028351e-02</leafValues></_>
        <_>
          <internalNodes>
            0 -1 290 1.1130535975098610e-02</internalNodes>
          <leafValues>
            -1.2277874350547791e-01 2.0160955190658569e-01</leafValues></_>
        <_>
          <internalNodes>
            0 -1 814 1.2112253170926124e-04</internalNodes>
          <leafValues>
            -2.1442298591136932e-01 1.1352333426475525e-01</leafValues></_>
        <_>
          <internalNodes>
            0 -1 768 -1.3539144769310951e-02</internalNodes>
          <leafValues>
            -5.2435564994812012e-01 4.4425141066312790e-02</leafValues></_>
        <_>
          <internalNodes>
            0 -1 588 -9.9299903959035873e-03</internalNodes>
          <leafValues>
            -5.3954207897186279e-01 3.8787674158811569e-02</leafValues></_>
        <_>
          <internalNodes>
            0 -1 68 3.2954081892967224e-02</internalNodes>
          <leafValues>
            -8.7874621152877808e-02 2.7967709302902222e-01</leafValues></_>
        <_>
          <internalNodes>
            0 -1 41 5.2374629303812981e-03</internalNodes>
          <leafValues>
            6.5134488046169281e-02 -4.0842995047569275e-01</leafValues></_>
        <_>
          <internalNodes>
            0 -1 515 2.2752165794372559e-02</internalNodes>
          <leafValues>
            -8.6681976914405823e-02 2.7764654159545898e-01</leafValues></_>
        <_>
          <internalNodes>
            0 -1 304 1.8598187714815140e-02</internalNodes>
          <leafValues>
            -1.1101581901311874e-01 1.9646504521369934e-01</leafValues></_>
        <_>
          <internalNodes>
            0 -1 395 1.9589032977819443e-02</internalNodes>
          <leafValues>
            -9.0392306447029114e-02 2.4501760303974152e-01</leafValues></_>
        <_>
          <internalNodes>
            0 -1 131 7.2006089612841606e-03</internalNodes>
          <leafValues>
            4.8598065972328186e-02 -4.8027306795120239e-01</leafValues></_>
        <_>
          <internalNodes>
            0 -1 269 -6.3657537102699280e-02</internalNodes>
          <leafValues>
            4.2960703372955322e-01 -5.5699080228805542e-02</leafValues></_>
        <_>
          <internalNodes>
            0 -1 357 -3.5332296043634415e-02</internalNodes>
          <leafValues>
            3.0549758672714233e-01 -7.7526420354843140e-02</leafValues></_>
        <_>
          <internalNodes>
            0 -1 312 -1.3764449954032898e-01</internalNodes>
          <leafValues>
            4.6335506439208984e-01 -5.6008871644735336e-02</leafValues></_>
        <_>
          <internalNodes>
            0 -1 603 -5.9125511907041073e-03</internalNodes>
          <leafValues>
            2.0410229265689850e-01 -1.0440416634082794e-01</leafValues></_>
        <_>
          <internalNodes>
            0 -1 546 -2.9420267790555954e-02</internalNodes>
          <leafValues>
            -5.3620511293411255e-01 4.0534365922212601e-02</leafValues></_>
        <_>
          <internalNodes>
            0 -1 154 -3.5576485097408295e-02</internalNodes>
          <leafValues>
            2.3259417712688446e-01 -9.5095708966255188e-02</leafValues></_>
        <_>
          <internalNodes>
            0 -1 510 -8.2663148641586304e-03</internalNodes>
          <leafValues>
            -4.1354838013648987e-01 5.2784677594900131e-02</leafValues></_>
        <_>
          <internalNodes>
            0 -1 535 -3.1332582235336304e-02</internalNodes>
          <leafValues>
            2.5526607036590576e-01 -8.1964455544948578e-02</leafValues></_>
        <_>
          <internalNodes>
            0 -1 314 -3.4045957028865814e-02</internalNodes>
          <leafValues>
            -6.5021091699600220e-01 3.5195570439100266e-02</leafValues></_>
        <_>
          <internalNodes>
            0 -1 478 -4.1005913168191910e-02</internalNodes>
          <leafValues>
            3.1851246953010559e-01 -7.1343272924423218e-02</leafValues></_>
        <_>
          <internalNodes>
            0 -1 826 6.8811420351266861e-03</internalNodes>
          <leafValues>
            4.1481617838144302e-02 -5.0565296411514282e-01</leafValues></_>
        <_>
          <internalNodes>
            0 -1 751 1.5277613885700703e-02</internalNodes>
          <leafValues>
            -9.7291499376296997e-02 2.0382635295391083e-01</leafValues></_>
        <_>
          <internalNodes>
            0 -1 634 -1.1867737397551537e-02</internalNodes>
          <leafValues>
            -3.9431992173194885e-01 5.3791515529155731e-02</leafValues></_>
        <_>
          <internalNodes>
            0 -1 708 9.6213290817104280e-05</internalNodes>
          <leafValues>
            -1.4836877584457397e-01 1.3881170749664307e-01</leafValues></_>
        <_>
          <internalNodes>
            0 -1 630 -1.9822776317596436e-02</internalNodes>
          <leafValues>
            -6.3169753551483154e-01 3.0257372185587883e-02</leafValues></_>
        <_>
          <internalNodes>
            0 -1 710 -2.9896216467022896e-02</internalNodes>
          <leafValues>
            -4.7096022963523865e-01 3.3963516354560852e-02</leafValues></_>
        <_>
          <internalNodes>
            0 -1 481 1.5234461054205894e-02</internalNodes>
          <leafValues>
            -7.9922795295715332e-02 2.3004615306854248e-01</leafValues></_>
        <_>
          <internalNodes>
            0 -1 470 1.8464852124452591e-02</internalNodes>
          <leafValues>
            -8.3201318979263306e-02 2.2848898172378540e-01</leafValues></_>
        <_>
          <internalNodes>
            0 -1 831 7.6308296993374825e-03</internalNodes>
          <leafValues>
            3.9059720933437347e-02 -5.6836575269699097e-01</leafValues></_>
        <_>
          <internalNodes>
            0 -1 832 5.9216078370809555e-03</internalNodes>
          <leafValues>
            4.0796443819999695e-02 -3.9354145526885986e-01</leafValues></_>
        <_>
          <internalNodes>
            0 -1 590 -2.0855793729424477e-02</internalNodes>
          <leafValues>
            2.4139198660850525e-01 -7.7359862625598907e-02</leafValues></_>
        <_>
          <internalNodes>
            0 -1 131 -2.3572265636175871e-03</internalNodes>
          <leafValues>
            -2.2687271237373352e-01 8.0741032958030701e-02</leafValues></_>
        <_>
          <internalNodes>
            0 -1 21 9.7245007753372192e-02</internalNodes>
          <leafValues>
            -7.3104709386825562e-02 2.6934346556663513e-01</leafValues></_>
        <_>
          <internalNodes>
            0 -1 703 -1.3142023235559464e-02</internalNodes>
          <leafValues>
            2.4224729835987091e-01 -7.5653828680515289e-02</leafValues></_>
        <_>
          <internalNodes>
            0 -1 188 1.7421567440032959e-01</internalNodes>
          <leafValues>
            -8.0417931079864502e-02 2.7059903740882874e-01</leafValues></_>
        <_>
          <internalNodes>
            0 -1 5 7.2423927485942841e-03</internalNodes>
          <leafValues>
            -1.4455078542232513e-01 1.2615044414997101e-01</leafValues></_>
        <_>
          <internalNodes>
            0 -1 709 1.9070688635110855e-02</internalNodes>
          <leafValues>
            4.6992015093564987e-02 -3.5693123936653137e-01</leafValues></_>
        <_>
          <internalNodes>
            0 -1 253 6.3821198418736458e-03</internalNodes>
          <leafValues>
            6.0711808502674103e-02 -2.7400812506675720e-01</leafValues></_>
        <_>
          <internalNodes>
            0 -1 486 1.7532080411911011e-02</internalNodes>
          <leafValues>
            -8.2234315574169159e-02 2.1636968851089478e-01</leafValues></_>
        <_>
          <internalNodes>
            0 -1 170 -2.4925097823143005e-01</internalNodes>
          <leafValues>
            5.7178986072540283e-01 -2.6353912428021431e-02</leafValues></_>
        <_>
          <internalNodes>
            0 -1 85 6.2219388782978058e-03</internalNodes>
          <leafValues>
            -1.1521963030099869e-01 1.4166110754013062e-01</leafValues></_>
        <_>
          <internalNodes>
            0 -1 471 1.3716697692871094e-02</internalNodes>
          <leafValues>
            -8.5245169699192047e-02 1.9762712717056274e-01</leafValues></_>
        <_>
          <internalNodes>
            0 -1 89 -1.2070979923009872e-02</internalNodes>
          <leafValues>
            -4.6434903144836426e-01 3.8725484162569046e-02</leafValues></_>
        <_>
          <internalNodes>
            0 -1 788 3.9996368286665529e-05</internalNodes>
          <leafValues>
            -1.2272245436906815e-01 1.3192452490329742e-01</leafValues></_>
        <_>
          <internalNodes>
            0 -1 212 -1.0929021239280701e-01</internalNodes>
          <leafValues>
            2.7282878756523132e-01 -5.9157680720090866e-02</leafValues></_>
        <_>
          <internalNodes>
            0 -1 344 2.0411919802427292e-02</internalNodes>
          <leafValues>
            -6.8435654044151306e-02 2.3969756066799164e-01</leafValues></_>
        <_>
          <internalNodes>
            0 -1 512 -3.1064216047525406e-02</internalNodes>
          <leafValues>
            3.5711520910263062e-01 -4.1547868400812149e-02</leafValues></_>
        <_>
          <internalNodes>
            0 -1 823 6.6803791560232639e-03</internalNodes>
          <leafValues>
            4.1167020797729492e-02 -3.8836416602134705e-01</leafValues></_>
        <_>
          <internalNodes>
            0 -1 168 2.5161867961287498e-02</internalNodes>
          <leafValues>
            -1.3257461786270142e-01 1.1394998431205750e-01</leafValues></_>
        <_>
          <internalNodes>
            0 -1 696 1.1010447517037392e-02</internalNodes>
          <leafValues>
            -6.7468829452991486e-02 2.3279361426830292e-01</leafValues></_>
        <_>
          <internalNodes>
            0 -1 749 2.2692468017339706e-02</internalNodes>
          <leafValues>
            5.3065121173858643e-02 -3.1902208924293518e-01</leafValues></_>
        <_>
          <internalNodes>
            0 -1 333 -1.2883048504590988e-02</internalNodes>
          <leafValues>
            1.9548663496971130e-01 -8.0211907625198364e-02</leafValues></_>
        <_>
          <internalNodes>
            0 -1 242 2.0415630191564560e-02</internalNodes>
          <leafValues>
            -8.8787466287612915e-02 1.8097344040870667e-01</leafValues></_></weakClassifiers></_>
    <!-- stage 5 -->
    <_>
      <maxWeakCount>95</maxWeakCount>
      <stageThreshold>-1.6358824968338013e+00</stageThreshold>
      <weakClassifiers>
        <_>
          <internalNodes>
            0 -1 296 -1.5422402066178620e-04</internalNodes>
          <leafValues>
            1.4718173444271088e-01 -4.6550109982490540e-01</leafValues></_>
        <_>
          <internalNodes>
            0 -1 768 -1.5252620505634695e-04</internalNodes>
          <leafValues>
            1.4461509883403778e-01 -4.0154957771301270e-01</leafValues></_>
        <_>
          <internalNodes>
            0 -1 311 6.7340597510337830e-02</internalNodes>
          <leafValues>
            -2.0246838033199310e-01 2.9525801539421082e-01</leafValues></_>
        <_>
          <internalNodes>
            0 -1 60 -1.1137522757053375e-02</internalNodes>
          <leafValues>
            1.1718571186065674e-01 -4.3626219034194946e-01</leafValues></_>
        <_>
          <internalNodes>
            0 -1 504 -3.9644446223974228e-02</internalNodes>
          <leafValues>
            5.4504209756851196e-01 -8.1222414970397949e-02</leafValues></_>
        <_>
          <internalNodes>
            0 -1 504 3.1893916428089142e-02</internalNodes>
          <leafValues>
            -1.5970872342586517e-01 5.3045237064361572e-01</leafValues></_>
        <_>
          <internalNodes>
            0 -1 712 8.7023209780454636e-03</internalNodes>
          <leafValues>
            -1.8435512483119965e-01 2.4816347658634186e-01</leafValues></_>
        <_>
          <internalNodes>
            0 -1 348 -4.4399924576282501e-02</internalNodes>
          <leafValues>
            4.5035469532012939e-01 -1.1091830581426620e-01</leafValues></_>
        <_>
          <internalNodes>
            0 -1 323 7.2394320741295815e-03</internalNodes>
          <leafValues>
            9.6625462174415588e-02 -4.5067045092582703e-01</leafValues></_>
        <_>
          <internalNodes>
            0 -1 2 5.3968601860105991e-03</internalNodes>
          <leafValues>
            -2.3043616116046906e-01 1.5903009474277496e-01</leafValues></_>
        <_>
          <internalNodes>
            0 -1 395 5.4569877684116364e-02</internalNodes>
          <leafValues>
            -5.4904554039239883e-02 5.4580622911453247e-01</leafValues></_>
        <_>
          <internalNodes>
            0 -1 206 3.4246236085891724e-02</internalNodes>
          <leafValues>
            -1.0292152315378189e-01 3.4355697035789490e-01</leafValues></_>
        <_>
          <internalNodes>
            0 -1 724 5.2790794521570206e-02</internalNodes>
          <leafValues>
            6.3455149531364441e-02 -4.9696266651153564e-01</leafValues></_>
        <_>
          <internalNodes>
            0 -1 430 1.4825612306594849e-01</internalNodes>
          <leafValues>
            -9.3274421989917755e-02 3.4856030344963074e-01</leafValues></_>
        <_>
          <internalNodes>
            0 -1 155 6.6186666488647461e-02</internalNodes>
          <leafValues>
            -1.1346919089555740e-01 3.6790916323661804e-01</leafValues></_>
        <_>
          <internalNodes>
            0 -1 208 -6.1435829848051071e-02</internalNodes>
          <leafValues>
            4.3845552206039429e-01 -7.4448354542255402e-02</leafValues></_>
        <_>
          <internalNodes>
            0 -1 570 -3.6039531230926514e-02</internalNodes>
          <leafValues>
            2.2233465313911438e-01 -1.1344660073518753e-01</leafValues></_>
        <_>
          <internalNodes>
            0 -1 748 -2.1877989172935486e-02</internalNodes>
          <leafValues>
            -5.0926256179809570e-01 4.3892938643693924e-02</leafValues></_>
        <_>
          <internalNodes>
            0 -1 401 2.4506490677595139e-02</internalNodes>
          <leafValues>
            -8.6828455328941345e-02 2.7046304941177368e-01</leafValues></_>
        <_>
          <internalNodes>
            0 -1 423 1.0741030424833298e-01</internalNodes>
          <leafValues>
            -6.7785732448101044e-02 3.6410978436470032e-01</leafValues></_>
        <_>
          <internalNodes>
            0 -1 308 -4.0213145315647125e-02</internalNodes>
          <leafValues>
            2.9633122682571411e-01 -9.6415758132934570e-02</leafValues></_>
        <_>
          <internalNodes>
            0 -1 807 1.1243826011195779e-03</internalNodes>
          <leafValues>
            -1.9676077365875244e-01 1.3101819157600403e-01</leafValues></_>
        <_>
          <internalNodes>
            0 -1 268 -5.8046791702508926e-02</internalNodes>
          <leafValues>
            4.2839726805686951e-01 -5.6612592190504074e-02</leafValues></_>
        <_>
          <internalNodes>
            0 -1 615 1.4775755815207958e-02</internalNodes>
          <leafValues>
            5.4855555295944214e-02 -5.0243467092514038e-01</leafValues></_>
        <_>
          <internalNodes>
            0 -1 305 4.8052422702312469e-02</internalNodes>
          <leafValues>
            -9.6651688218116760e-02 2.7014675736427307e-01</leafValues></_>
        <_>
          <internalNodes>
            0 -1 666 -1.4110160060226917e-02</internalNodes>
          <leafValues>
            -4.9567729234695435e-01 5.1893725991249084e-02</leafValues></_>
        <_>
          <internalNodes>
            0 -1 787 1.4586137607693672e-02</internalNodes>
          <leafValues>
            -9.1553635895252228e-02 2.4382747709751129e-01</leafValues></_>
        <_>
          <internalNodes>
            0 -1 420 1.9482746720314026e-02</internalNodes>
          <leafValues>
            4.4293694198131561e-02 -5.0284230709075928e-01</leafValues></_>
        <_>
          <internalNodes>
            0 -1 262 3.6967489868402481e-02</internalNodes>
          <leafValues>
            -7.8405760228633881e-02 2.6528373360633850e-01</leafValues></_>
        <_>
          <internalNodes>
            0 -1 647 -1.4779861085116863e-02</internalNodes>
          <leafValues>
            2.7762168645858765e-01 -6.4063802361488342e-02</leafValues></_>
        <_>
          <internalNodes>
            0 -1 652 -3.4987693652510643e-03</internalNodes>
          <leafValues>
            -4.2535638809204102e-01 4.7128085047006607e-02</leafValues></_>
        <_>
          <internalNodes>
            0 -1 22 1.5663518011569977e-01</internalNodes>
          <leafValues>
            -5.6296270340681076e-02 3.5930389165878296e-01</leafValues></_>
        <_>
          <internalNodes>
            0 -1 90 -6.7219799384474754e-03</internalNodes>
          <leafValues>
            1.7719036340713501e-01 -1.1661531031131744e-01</leafValues></_>
        <_>
          <internalNodes>
            0 -1 291 4.2456099763512611e-03</internalNodes>
          <leafValues>
            4.5396424829959869e-02 -4.1069841384887695e-01</leafValues></_>
        <_>
          <internalNodes>
            0 -1 9 -1.0401936247944832e-02</internalNodes>
          <leafValues>
            -3.4684106707572937e-01 4.5912500470876694e-02</leafValues></_>
        <_>
          <internalNodes>
            0 -1 476 2.6144118979573250e-02</internalNodes>
          <leafValues>
            -7.0766776800155640e-02 2.4498060345649719e-01</leafValues></_>
        <_>
          <internalNodes>
            0 -1 347 1.1380426585674286e-02</internalNodes>
          <leafValues>
            -1.1171219497919083e-01 2.1308784186840057e-01</leafValues></_>
        <_>
          <internalNodes>
            0 -1 831 -6.8532521836459637e-03</internalNodes>
          <leafValues>
            -5.1287728548049927e-01 3.8500472903251648e-02</leafValues></_>
        <_>
          <internalNodes>
            0 -1 789 2.0257835276424885e-03</internalNodes>
          <leafValues>
            -1.2286087125539780e-01 1.3103100657463074e-01</leafValues></_>
        <_>
          <internalNodes>
            0 -1 662 5.7165544480085373e-02</internalNodes>
          <leafValues>
            -7.0468410849571228e-02 2.7269744873046875e-01</leafValues></_>
        <_>
          <internalNodes>
            0 -1 553 -4.7502866946160793e-03</internalNodes>
          <leafValues>
            -3.9994037151336670e-01 4.7138199210166931e-02</leafValues></_>
        <_>
          <internalNodes>
            0 -1 616 3.6794994957745075e-03</internalNodes>
          <leafValues>
            5.1813997328281403e-02 -3.2374596595764160e-01</leafValues></_>
        <_>
          <internalNodes>
            0 -1 0 1.3356612762436271e-03</internalNodes>
          <leafValues>
            -1.5402244031429291e-01 1.1133223772048950e-01</leafValues></_>
        <_>
          <internalNodes>
            0 -1 659 -1.7712615430355072e-02</internalNodes>
          <leafValues>
            1.5286166965961456e-01 -1.0520701855421066e-01</leafValues></_>
        <_>
          <internalNodes>
            0 -1 166 4.6647064387798309e-02</internalNodes>
          <leafValues>
            -6.3125006854534149e-02 2.7032950520515442e-01</leafValues></_>
        <_>
          <internalNodes>
            0 -1 62 1.4807069301605225e-01</internalNodes>
          <leafValues>
            4.6948172152042389e-02 -4.6172603964805603e-01</leafValues></_>
        <_>
          <internalNodes>
            0 -1 625 -1.7896061763167381e-02</internalNodes>
          <leafValues>
            -5.5427956581115723e-01 2.6566511020064354e-02</leafValues></_>
        <_>
          <internalNodes>
            0 -1 89 1.4423813670873642e-02</internalNodes>
          <leafValues>
            2.5708667933940887e-02 -5.2649497985839844e-01</leafValues></_>
        <_>
          <internalNodes>
            0 -1 400 6.1944678425788879e-02</internalNodes>
          <leafValues>
            -3.6904063075780869e-02 4.4524046778678894e-01</leafValues></_>
        <_>
          <internalNodes>
            0 -1 598 6.8046222440898418e-03</internalNodes>
          <leafValues>
            4.1383013129234314e-02 -4.4475156068801880e-01</leafValues></_>
        <_>
          <internalNodes>
            0 -1 25 -2.8975412249565125e-02</internalNodes>
          <leafValues>
            1.7107135057449341e-01 -9.1534361243247986e-02</leafValues></_>
        <_>
          <internalNodes>
            0 -1 536 -2.7318697422742844e-02</internalNodes>
          <leafValues>
            2.4132964015007019e-01 -9.4821631908416748e-02</leafValues></_>
        <_>
          <internalNodes>
            0 -1 297 7.1130674332380295e-03</internalNodes>
          <leafValues>
            5.6631993502378464e-02 -2.8842678666114807e-01</leafValues></_>
        <_>
          <internalNodes>
            0 -1 67 -3.2578958780504763e-05</internalNodes>
          <leafValues>
            1.2157107144594193e-01 -1.1979075521230698e-01</leafValues></_>
        <_>
          <internalNodes>
            0 -1 459 1.8984202295541763e-02</internalNodes>
          <leafValues>
            -1.3214080035686493e-01 1.1016177386045456e-01</leafValues></_>
        <_>
          <internalNodes>
            0 -1 755 1.5910070389509201e-02</internalNodes>
          <leafValues>
            4.8719108104705811e-02 -2.9566380381584167e-01</leafValues></_>
        <_>
          <internalNodes>
            0 -1 445 2.1211005747318268e-02</internalNodes>
          <leafValues>
            -7.3808640241622925e-02 1.9243425130844116e-01</leafValues></_>
        <_>
          <internalNodes>
            0 -1 597 -5.8416700921952724e-03</internalNodes>
          <leafValues>
            -5.2317923307418823e-01 2.7517838403582573e-02</leafValues></_>
        <_>
          <internalNodes>
            0 -1 351 2.6041323319077492e-02</internalNodes>
          <leafValues>
            -5.8053355664014816e-02 2.3901845514774323e-01</leafValues></_>
        <_>
          <internalNodes>
            0 -1 367 1.5116074122488499e-02</internalNodes>
          <leafValues>
            -7.1474947035312653e-02 1.9616091251373291e-01</leafValues></_>
        <_>
          <internalNodes>
            0 -1 447 1.3289994001388550e-01</internalNodes>
          <leafValues>
            -7.4414551258087158e-02 1.8044802546501160e-01</leafValues></_>
        <_>
          <internalNodes>
            0 -1 740 2.7878051623702049e-02</internalNodes>
          <leafValues>
            4.5968025922775269e-02 -3.6061581969261169e-01</leafValues></_>
        <_>
          <internalNodes>
            0 -1 635 2.7525732293725014e-02</internalNodes>
          <leafValues>
            2.1334666758775711e-02 -5.9846991300582886e-01</leafValues></_>
        <_>
          <internalNodes>
            0 -1 97 4.8567485064268112e-03</internalNodes>
          <leafValues>
            3.3325076103210449e-02 -3.3051756024360657e-01</leafValues></_>
        <_>
          <internalNodes>
            0 -1 198 -6.9047279655933380e-02</internalNodes>
          <leafValues>
            3.9543107151985168e-01 -3.4286312758922577e-02</leafValues></_>
        <_>
          <internalNodes>
            0 -1 106 6.5484526567161083e-03</internalNodes>
          <leafValues>
            4.1753593832254410e-02 -3.1215617060661316e-01</leafValues></_>
        <_>
          <internalNodes>
            0 -1 294 -1.2305620475672185e-04</internalNodes>
          <leafValues>
            1.0827000439167023e-01 -1.1495492607355118e-01</leafValues></_>
        <_>
          <internalNodes>
            0 -1 739 -3.0945170670747757e-02</internalNodes>
          <leafValues>
            -4.5259770750999451e-01 2.7476334944367409e-02</leafValues></_>
        <_>
          <internalNodes>
            0 -1 605 -8.9597105979919434e-03</internalNodes>
          <leafValues>
            1.9995844364166260e-01 -6.8361282348632813e-02</leafValues></_>
        <_>
          <internalNodes>
            0 -1 778 1.2619750574231148e-02</internalNodes>
          <leafValues>
            -7.1124188601970673e-02 1.8812440335750580e-01</leafValues></_>
        <_>
          <internalNodes>
            0 -1 559 -5.9602432884275913e-03</internalNodes>
          <leafValues>
            -2.4593107402324677e-01 4.9475967884063721e-02</leafValues></_>
        <_>
          <internalNodes>
            0 -1 826 -9.0267471969127655e-03</internalNodes>
          <leafValues>
            -5.4578125476837158e-01 2.0112618803977966e-02</leafValues></_>
        <_>
          <internalNodes>
            0 -1 465 2.0958023145794868e-02</internalNodes>
          <leafValues>
            -5.1689326763153076e-02 2.4432070553302765e-01</leafValues></_>
        <_>
          <internalNodes>
            0 -1 49 -2.2350323200225830e-01</internalNodes>
          <leafValues>
            5.0088644027709961e-01 -2.5766152888536453e-02</leafValues></_>
        <_>
          <internalNodes>
            0 -1 102 4.3678641319274902e-02</internalNodes>
          <leafValues>
            3.3798776566982269e-02 -3.8695147633552551e-01</leafValues></_>
        <_>
          <internalNodes>
            0 -1 135 8.3908485248684883e-03</internalNodes>
          <leafValues>
            -7.9580739140510559e-02 1.6217051446437836e-01</leafValues></_>
        <_>
          <internalNodes>
            0 -1 284 1.5400919131934643e-02</internalNodes>
          <leafValues>
            -7.7850401401519775e-02 1.6354726254940033e-01</leafValues></_>
        <_>
          <internalNodes>
            0 -1 589 -1.5459545888006687e-02</internalNodes>
          <leafValues>
            2.3409026861190796e-01 -7.5905621051788330e-02</leafValues></_>
        <_>
          <internalNodes>
            0 -1 194 -6.2473125755786896e-02</internalNodes>
          <leafValues>
            2.0137818157672882e-01 -6.9098904728889465e-02</leafValues></_>
        <_>
          <internalNodes>
            0 -1 680 -2.0073898136615753e-02</internalNodes>
          <leafValues>
            -3.8904130458831787e-01 3.3809717744588852e-02</leafValues></_>
        <_>
          <internalNodes>
            0 -1 178 1.4392846822738647e-01</internalNodes>
          <leafValues>
            -5.7193357497453690e-02 2.3182286322116852e-01</leafValues></_>
        <_>
          <internalNodes>
            0 -1 364 4.1045527905225754e-03</internalNodes>
          <leafValues>
            -9.2492580413818359e-02 1.2842006981372833e-01</leafValues></_>
        <_>
          <internalNodes>
            0 -1 271 3.3752989023923874e-02</internalNodes>
          <leafValues>
            2.1135115996003151e-02 -6.0447245836257935e-01</leafValues></_>
        <_>
          <internalNodes>
            0 -1 377 -1.6555240377783775e-02</internalNodes>
          <leafValues>
            -5.0224995613098145e-01 2.2334171459078789e-02</leafValues></_>
        <_>
          <internalNodes>
            0 -1 142 -1.7863668035715818e-03</internalNodes>
          <leafValues>
            -1.7890863120555878e-01 6.4126133918762207e-02</leafValues></_>
        <_>
          <internalNodes>
            0 -1 142 4.8907860182225704e-03</internalNodes>
          <leafValues>
            4.4211547821760178e-02 -2.9736950993537903e-01</leafValues></_>
        <_>
          <internalNodes>
            0 -1 402 -7.4867695569992065e-02</internalNodes>
          <leafValues>
            4.2431458830833435e-01 -2.9218500480055809e-02</leafValues></_>
        <_>
          <internalNodes>
            0 -1 141 2.6917662471532822e-02</internalNodes>
          <leafValues>
            -7.3224745690822601e-02 1.6175335645675659e-01</leafValues></_>
        <_>
          <internalNodes>
            0 -1 835 1.0678700171411037e-02</internalNodes>
          <leafValues>
            3.1988851726055145e-02 -4.0834155678749084e-01</leafValues></_>
        <_>
          <internalNodes>
            0 -1 36 2.6388978585600853e-03</internalNodes>
          <leafValues>
            -1.7829336225986481e-01 6.5473690629005432e-02</leafValues></_>
        <_>
          <internalNodes>
            0 -1 736 8.4900539368391037e-03</internalNodes>
          <leafValues>
            3.9910573512315750e-02 -2.9814508557319641e-01</leafValues></_>
        <_>
          <internalNodes>
            0 -1 524 -1.0729862377047539e-02</internalNodes>
          <leafValues>
            1.8533568084239960e-01 -6.8266995251178741e-02</leafValues></_>
        <_>
          <internalNodes>
            0 -1 16 -1.1169467121362686e-02</internalNodes>
          <leafValues>
            1.4470380544662476e-01 -1.0372933000326157e-01</leafValues></_>
        <_>
          <internalNodes>
            0 -1 1 -1.4173856470733881e-04</internalNodes>
          <leafValues>
            1.1020754277706146e-01 -1.0900636017322540e-01</leafValues></_>
        <_>
          <internalNodes>
            0 -1 392 -1.8041269853711128e-02</internalNodes>
          <leafValues>
            1.8520244956016541e-01 -6.1013158410787582e-02</leafValues></_></weakClassifiers></_>
    <!-- stage 6 -->
    <_>
      <maxWeakCount>100</maxWeakCount>
      <stageThreshold>-1.6558532714843750e+00</stageThreshold>
      <weakClassifiers>
        <_>
          <internalNodes>
            0 -1 230 -1.2934054248034954e-03</internalNodes>
          <leafValues>
            1.3148154318332672e-01 -4.5739558339118958e-01</leafValues></_>
        <_>
          <internalNodes>
            0 -1 813 5.5742738768458366e-03</internalNodes>
          <leafValues>
            -3.2781824469566345e-01 1.5738372504711151e-01</leafValues></_>
        <_>
          <internalNodes>
            0 -1 340 2.0513735711574554e-02</internalNodes>
          <leafValues>
            -1.6305029392242432e-01 2.8747493028640747e-01</leafValues></_>
        <_>
          <internalNodes>
            0 -1 44 -3.7539534270763397e-02</internalNodes>
          <leafValues>
            1.4432057738304138e-01 -3.0078116059303284e-01</leafValues></_>
        <_>
          <internalNodes>
            0 -1 126 -7.5706586241722107e-02</internalNodes>
          <leafValues>
            4.4379660487174988e-01 -8.1548467278480530e-02</leafValues></_>
        <_>
          <internalNodes>
            0 -1 384 3.0201202258467674e-02</internalNodes>
          <leafValues>
            -1.5899990499019623e-01 3.2277944684028625e-01</leafValues></_>
        <_>
          <internalNodes>
            0 -1 323 8.9160893112421036e-03</internalNodes>
          <leafValues>
            6.7012883722782135e-02 -5.2417451143264771e-01</leafValues></_>
        <_>
          <internalNodes>
            0 -1 557 -1.0446220636367798e-02</internalNodes>
          <leafValues>
            -4.9542215466499329e-01 2.6077596470713615e-02</leafValues></_>
        <_>
          <internalNodes>
            0 -1 214 -9.0566620230674744e-02</internalNodes>
          <leafValues>
            4.4924017786979675e-01 -6.4384356141090393e-02</leafValues></_>
        <_>
          <internalNodes>
            0 -1 122 -5.8985922485589981e-02</internalNodes>
          <leafValues>
            3.6324131488800049e-01 -1.0114394128322601e-01</leafValues></_>
        <_>
          <internalNodes>
            0 -1 151 -1.4704903587698936e-03</internalNodes>
          <leafValues>
            1.8325492739677429e-01 -1.9104622304439545e-01</leafValues></_>
        <_>
          <internalNodes>
            0 -1 162 1.9523859024047852e-01</internalNodes>
          <leafValues>
            -1.4921028912067413e-01 2.5034847855567932e-01</leafValues></_>
        <_>
          <internalNodes>
            0 -1 376 1.3847172260284424e-02</internalNodes>
          <leafValues>
            -1.1005318164825439e-01 2.6565828919410706e-01</leafValues></_>
        <_>
          <internalNodes>
            0 -1 539 9.0050190687179565e-02</internalNodes>
          <leafValues>
            -1.0032369196414948e-01 3.1114193797111511e-01</leafValues></_>
        <_>
          <internalNodes>
            0 -1 829 -4.6318268869072199e-04</internalNodes>
          <leafValues>
            1.2555615603923798e-01 -2.6239085197448730e-01</leafValues></_>
        <_>
          <internalNodes>
            0 -1 550 1.2690504081547260e-04</internalNodes>
          <leafValues>
            -2.2760267555713654e-01 9.9642731249332428e-02</leafValues></_>
        <_>
          <internalNodes>
            0 -1 434 -1.5157344751060009e-02</internalNodes>
          <leafValues>
            -5.3994745016098022e-01 4.7529563307762146e-02</leafValues></_>
        <_>
          <internalNodes>
            0 -1 457 -6.1431699432432652e-03</internalNodes>
          <leafValues>
            -3.5515156388282776e-01 5.7865891605615616e-02</leafValues></_>
        <_>
          <internalNodes>
            0 -1 584 -1.4101648703217506e-02</internalNodes>
          <leafValues>
            -4.5292624831199646e-01 4.4210698455572128e-02</leafValues></_>
        <_>
          <internalNodes>
            0 -1 687 -5.7375971227884293e-03</internalNodes>
          <leafValues>
            -3.6931577324867249e-01 5.1724594086408615e-02</leafValues></_>
        <_>
          <internalNodes>
            0 -1 208 2.0219132304191589e-02</internalNodes>
          <leafValues>
            -9.5288276672363281e-02 2.0440477132797241e-01</leafValues></_>
        <_>
          <internalNodes>
            0 -1 395 2.1951209753751755e-02</internalNodes>
          <leafValues>
            -9.5012098550796509e-02 2.5142380595207214e-01</leafValues></_>
        <_>
          <internalNodes>
            0 -1 405 1.2652842327952385e-02</internalNodes>
          <leafValues>
            -1.0127045214176178e-01 2.0595945417881012e-01</leafValues></_>
        <_>
          <internalNodes>
            0 -1 754 -1.1318086646497250e-02</internalNodes>
          <leafValues>
            -3.8961243629455566e-01 5.0739813596010208e-02</leafValues></_>
        <_>
          <internalNodes>
            0 -1 179 -2.0997799932956696e-02</internalNodes>
          <leafValues>
            -4.2076745629310608e-01 4.4434990733861923e-02</leafValues></_>
        <_>
          <internalNodes>
            0 -1 433 -2.4217271804809570e-01</internalNodes>
          <leafValues>
            3.3038887381553650e-01 -5.8113358914852142e-02</leafValues></_>
        <_>
          <internalNodes>
            0 -1 361 1.2191422283649445e-02</internalNodes>
          <leafValues>
            4.4398467987775803e-02 -4.5433998107910156e-01</leafValues></_>
        <_>
          <internalNodes>
            0 -1 35 9.8154425621032715e-02</internalNodes>
          <leafValues>
            5.1028016954660416e-02 -3.5600340366363525e-01</leafValues></_>
        <_>
          <internalNodes>
            0 -1 482 1.8162984400987625e-02</internalNodes>
          <leafValues>
            3.4803133457899094e-02 -5.0607210397720337e-01</leafValues></_>
        <_>
          <internalNodes>
            0 -1 515 1.2785334140062332e-02</internalNodes>
          <leafValues>
            -9.2816062271595001e-02 1.9339041411876678e-01</leafValues></_>
        <_>
          <internalNodes>
            0 -1 129 1.4978300780057907e-02</internalNodes>
          <leafValues>
            -1.0184697806835175e-01 1.7720799148082733e-01</leafValues></_>
        <_>
          <internalNodes>
            0 -1 620 3.5045638680458069e-02</internalNodes>
          <leafValues>
            -5.9163432568311691e-02 2.8144153952598572e-01</leafValues></_>
        <_>
          <internalNodes>
            0 -1 609 -1.6287945210933685e-02</internalNodes>
          <leafValues>
            2.0344500243663788e-01 -1.0939721763134003e-01</leafValues></_>
        <_>
          <internalNodes>
            0 -1 737 -2.0006798207759857e-02</internalNodes>
          <leafValues>
            -4.2733848094940186e-01 3.9484642446041107e-02</leafValues></_>
        <_>
          <internalNodes>
            0 -1 736 1.1412605643272400e-02</internalNodes>
          <leafValues>
            3.5052124410867691e-02 -4.5832523703575134e-01</leafValues></_>
        <_>
          <internalNodes>
            0 -1 255 8.4438212215900421e-03</internalNodes>
          <leafValues>
            4.9784142524003983e-02 -3.1309410929679871e-01</leafValues></_>
        <_>
          <internalNodes>
            0 -1 81 -3.3326603472232819e-02</internalNodes>
          <leafValues>
            1.6094021499156952e-01 -1.0132331401109695e-01</leafValues></_>
        <_>
          <internalNodes>
            0 -1 38 1.7400206997990608e-02</internalNodes>
          <leafValues>
            -1.4477090537548065e-01 1.3139642775058746e-01</leafValues></_>
        <_>
          <internalNodes>
            0 -1 175 -1.1185508966445923e-01</internalNodes>
          <leafValues>
            -3.3005404472351074e-01 4.6477124094963074e-02</leafValues></_>
        <_>
          <internalNodes>
            0 -1 303 2.4407535791397095e-02</internalNodes>
          <leafValues>
            2.5997871533036232e-02 -5.7497948408126831e-01</leafValues></_>
        <_>
          <internalNodes>
            0 -1 256 2.4576786905527115e-02</internalNodes>
          <leafValues>
            -7.6476626098155975e-02 1.9960977137088776e-01</leafValues></_>
        <_>
          <internalNodes>
            0 -1 344 1.2536555528640747e-02</internalNodes>
          <leafValues>
            -1.0182950645685196e-01 2.2273376584053040e-01</leafValues></_>
        <_>
          <internalNodes>
            0 -1 688 2.6142159476876259e-03</internalNodes>
          <leafValues>
            5.6720718741416931e-02 -2.6780980825424194e-01</leafValues></_>
        <_>
          <internalNodes>
            0 -1 439 2.4742262437939644e-02</internalNodes>
          <leafValues>
            3.9124555885791779e-02 -3.7274363636970520e-01</leafValues></_>
        <_>
          <internalNodes>
            0 -1 468 -2.6680495589971542e-02</internalNodes>
          <leafValues>
            2.5129067897796631e-01 -6.2122214585542679e-02</leafValues></_>
        <_>
          <internalNodes>
            0 -1 173 5.8492880314588547e-02</internalNodes>
          <leafValues>
            -5.5230543017387390e-02 2.6852068305015564e-01</leafValues></_>
        <_>
          <internalNodes>
            0 -1 19 -6.5342627465724945e-02</internalNodes>
          <leafValues>
            2.3983317613601685e-01 -8.2471974194049835e-02</leafValues></_>
        <_>
          <internalNodes>
            0 -1 334 2.4036752060055733e-02</internalNodes>
          <leafValues>
            2.9958009719848633e-02 -4.9686115980148315e-01</leafValues></_>
        <_>
          <internalNodes>
            0 -1 326 -2.7613442391157150e-02</internalNodes>
          <leafValues>
            -6.0157084465026855e-01 2.2880060598254204e-02</leafValues></_>
        <_>
          <internalNodes>
            0 -1 332 2.0582046359777451e-02</internalNodes>
          <leafValues>
            -7.0192992687225342e-02 2.1520112454891205e-01</leafValues></_>
        <_>
          <internalNodes>
            0 -1 623 -2.2970154881477356e-02</internalNodes>
          <leafValues>
            -4.7592312097549438e-01 3.2333608716726303e-02</leafValues></_>
        <_>
          <internalNodes>
            0 -1 108 1.2025587260723114e-01</internalNodes>
          <leafValues>
            -7.6782003045082092e-02 2.0483702421188354e-01</leafValues></_>
        <_>
          <internalNodes>
            0 -1 98 -1.0463090613484383e-02</internalNodes>
          <leafValues>
            -4.0643468499183655e-01 3.6218740046024323e-02</leafValues></_>
        <_>
          <internalNodes>
            0 -1 678 -2.4452157318592072e-02</internalNodes>
          <leafValues>
            -5.8838695287704468e-01 1.9616281613707542e-02</leafValues></_>
        <_>
          <internalNodes>
            0 -1 811 1.1503945104777813e-02</internalNodes>
          <leafValues>
            -7.0002898573875427e-02 1.8832474946975708e-01</leafValues></_>
        <_>
          <internalNodes>
            0 -1 783 -4.1284104809165001e-03</internalNodes>
          <leafValues>
            -2.2592319548130035e-01 7.2509914636611938e-02</leafValues></_>
        <_>
          <internalNodes>
            0 -1 51 9.7563400864601135e-02</internalNodes>
          <leafValues>
            -8.1470005214214325e-02 1.6980299353599548e-01</leafValues></_>
        <_>
          <internalNodes>
            0 -1 116 -9.9711991846561432e-02</internalNodes>
          <leafValues>
            -2.5559875369071960e-01 5.1496148109436035e-02</leafValues></_>
        <_>
          <internalNodes>
            0 -1 607 -2.5668190792202950e-02</internalNodes>
          <leafValues>
            -4.5070454478263855e-01 2.5835672393441200e-02</leafValues></_>
        <_>
          <internalNodes>
            0 -1 489 3.4527629613876343e-01</internalNodes>
          <leafValues>
            1.7765792086720467e-02 -6.4008885622024536e-01</leafValues></_>
        <_>
          <internalNodes>
            0 -1 138 1.5774227678775787e-02</internalNodes>
          <leafValues>
            -9.2497430741786957e-02 1.4664408564567566e-01</leafValues></_>
        <_>
          <internalNodes>
            0 -1 707 2.6467349380254745e-04</internalNodes>
          <leafValues>
            -1.3360209763050079e-01 1.3584695756435394e-01</leafValues></_>
        <_>
          <internalNodes>
            0 -1 260 1.8592547625303268e-02</internalNodes>
          <leafValues>
            2.5604180991649628e-02 -4.7975826263427734e-01</leafValues></_>
        <_>
          <internalNodes>
            0 -1 97 5.9392787516117096e-03</internalNodes>
          <leafValues>
            2.8163377195596695e-02 -3.8285011053085327e-01</leafValues></_>
        <_>
          <internalNodes>
            0 -1 147 1.1203085887245834e-04</internalNodes>
          <leafValues>
            -1.0783245414495468e-01 1.0855343192815781e-01</leafValues></_>
        <_>
          <internalNodes>
            0 -1 379 2.2350117564201355e-02</internalNodes>
          <leafValues>
            -4.8318006098270416e-02 2.3820699751377106e-01</leafValues></_>
        <_>
          <internalNodes>
            0 -1 480 -2.4081952869892120e-02</internalNodes>
          <leafValues>
            2.3237836360931396e-01 -4.6137843281030655e-02</leafValues></_>
        <_>
          <internalNodes>
            0 -1 648 3.0768350698053837e-03</internalNodes>
          <leafValues>
            6.2581211328506470e-02 -1.8836098909378052e-01</leafValues></_>
        <_>
          <internalNodes>
            0 -1 233 -6.5534427762031555e-02</internalNodes>
          <leafValues>
            2.5685027241706848e-01 -4.2775187641382217e-02</leafValues></_>
        <_>
          <internalNodes>
            0 -1 411 6.4372806809842587e-03</internalNodes>
          <leafValues>
            -6.6534258425235748e-02 2.1409869194030762e-01</leafValues></_>
        <_>
          <internalNodes>
            0 -1 554 -1.9296210259199142e-02</internalNodes>
          <leafValues>
            -3.4932798147201538e-01 3.4145385026931763e-02</leafValues></_>
        <_>
          <internalNodes>
            0 -1 660 8.2716464996337891e-02</internalNodes>
          <leafValues>
            -3.5869501531124115e-02 3.2610875368118286e-01</leafValues></_>
        <_>
          <internalNodes>
            0 -1 748 2.0033862441778183e-02</internalNodes>
          <leafValues>
            3.8310207426548004e-02 -3.7034842371940613e-01</leafValues></_>
        <_>
          <internalNodes>
            0 -1 768 6.2688346952199936e-03</internalNodes>
          <leafValues>
            3.3559739589691162e-02 -3.2684037089347839e-01</leafValues></_>
        <_>
          <internalNodes>
            0 -1 572 4.5471512712538242e-03</internalNodes>
          <leafValues>
            -7.9757817089557648e-02 1.4609837532043457e-01</leafValues></_>
        <_>
          <internalNodes>
            0 -1 12 1.6314709791913629e-03</internalNodes>
          <leafValues>
            -8.7268754839897156e-02 1.2388394773006439e-01</leafValues></_>
        <_>
          <internalNodes>
            0 -1 160 4.5546598732471466e-02</internalNodes>
          <leafValues>
            -8.8596045970916748e-02 1.3408166170120239e-01</leafValues></_>
        <_>
          <internalNodes>
            0 -1 240 8.4615088999271393e-03</internalNodes>
          <leafValues>
            -8.5950933396816254e-02 1.4262574911117554e-01</leafValues></_>
        <_>
          <internalNodes>
            0 -1 211 3.7650424242019653e-01</internalNodes>
          <leafValues>
            -1.7037553712725639e-02 6.5693837404251099e-01</leafValues></_>
        <_>
          <internalNodes>
            0 -1 77 5.6862730532884598e-02</internalNodes>
          <leafValues>
            -4.6012081205844879e-02 2.2747853398323059e-01</leafValues></_>
        <_>
          <internalNodes>
            0 -1 354 -1.8558310344815254e-02</internalNodes>
          <leafValues>
            1.5115234255790710e-01 -7.0902571082115173e-02</leafValues></_>
        <_>
          <internalNodes>
            0 -1 485 1.0381594300270081e-02</internalNodes>
          <leafValues>
            -8.3281926810741425e-02 1.9242219626903534e-01</leafValues></_>
        <_>
          <internalNodes>
            0 -1 132 1.0998411104083061e-02</internalNodes>
          <leafValues>
            2.7100943028926849e-02 -4.2007935047149658e-01</leafValues></_>
        <_>
          <internalNodes>
            0 -1 127 1.7211679369211197e-02</internalNodes>
          <leafValues>
            2.5326110422611237e-02 -4.1951566934585571e-01</leafValues></_>
        <_>
          <internalNodes>
            0 -1 174 -1.0416337288916111e-02</internalNodes>
          <leafValues>
            -1.8883170187473297e-01 5.5369254201650620e-02</leafValues></_>
        <_>
          <internalNodes>
            0 -1 810 6.5791048109531403e-03</internalNodes>
          <leafValues>
            -7.0509910583496094e-02 1.6223417222499847e-01</leafValues></_>
        <_>
          <internalNodes>
            0 -1 618 -3.5523446276783943e-03</internalNodes>
          <leafValues>
            -2.6893082261085510e-01 4.1229363530874252e-02</leafValues></_>
        <_>
          <internalNodes>
            0 -1 777 1.3408804312348366e-02</internalNodes>
          <leafValues>
            -3.9934907108545303e-02 2.7763372659683228e-01</leafValues></_>
        <_>
          <internalNodes>
            0 -1 741 7.5541557744145393e-03</internalNodes>
          <leafValues>
            -8.4557875990867615e-02 1.3152509927749634e-01</leafValues></_>
        <_>
          <internalNodes>
            0 -1 799 -1.3502622954547405e-02</internalNodes>
          <leafValues>
            -4.3990626931190491e-01 2.5678584352135658e-02</leafValues></_>
        <_>
          <internalNodes>
            0 -1 461 1.4198519056662917e-04</internalNodes>
          <leafValues>
            -1.0111926496028900e-01 1.0582037270069122e-01</leafValues></_>
        <_>
          <internalNodes>
            0 -1 500 3.4226387739181519e-02</internalNodes>
          <leafValues>
            1.9882025197148323e-02 -5.4202419519424438e-01</leafValues></_>
        <_>
          <internalNodes>
            0 -1 493 -4.8806924372911453e-02</internalNodes>
          <leafValues>
            3.0912110209465027e-01 -3.8147971034049988e-02</leafValues></_>
        <_>
          <internalNodes>
            0 -1 137 3.0585131049156189e-01</internalNodes>
          <leafValues>
            -2.1725282073020935e-02 5.0305312871932983e-01</leafValues></_>
        <_>
          <internalNodes>
            0 -1 641 1.9939552992582321e-02</internalNodes>
          <leafValues>
            2.8262292966246605e-02 -4.5122554898262024e-01</leafValues></_>
        <_>
          <internalNodes>
            0 -1 212 -1.0920003801584244e-01</internalNodes>
          <leafValues>
            2.1860808134078979e-01 -4.9081992357969284e-02</leafValues></_>
        <_>
          <internalNodes>
            0 -1 83 9.2840656638145447e-02</internalNodes>
          <leafValues>
            2.6792643591761589e-02 -4.6957796812057495e-01</leafValues></_>
        <_>
          <internalNodes>
            0 -1 287 2.0395901054143906e-02</internalNodes>
          <leafValues>
            2.0088117569684982e-02 -4.6207833290100098e-01</leafValues></_>
        <_>
          <internalNodes>
            0 -1 310 1.0444574058055878e-01</internalNodes>
          <leafValues>
            -4.5565210282802582e-02 2.2925847768783569e-01</leafValues></_>
        <_>
          <internalNodes>
            0 -1 416 -1.1094063520431519e-02</internalNodes>
          <leafValues>
            1.6285005211830139e-01 -7.7040448784828186e-02</leafValues></_></weakClassifiers></_>
    <!-- stage 7 -->
    <_>
      <maxWeakCount>100</maxWeakCount>
      <stageThreshold>-1.6756075620651245e+00</stageThreshold>
      <weakClassifiers>
        <_>
          <internalNodes>
            0 -1 419 9.2032970860600471e-03</internalNodes>
          <leafValues>
            -2.2850851714611053e-01 3.2930549979209900e-01</leafValues></_>
        <_>
          <internalNodes>
            0 -1 3 1.1970685794949532e-02</internalNodes>
          <leafValues>
            -2.4208912253379822e-01 2.2490419447422028e-01</leafValues></_>
        <_>
          <internalNodes>
            0 -1 274 -6.5803378820419312e-02</internalNodes>
          <leafValues>
            5.2984255552291870e-01 -8.4189899265766144e-02</leafValues></_>
        <_>
          <internalNodes>
            0 -1 497 1.8663339316844940e-02</internalNodes>
          <leafValues>
            -1.7198535799980164e-01 3.7578758597373962e-01</leafValues></_>
        <_>
          <internalNodes>
            0 -1 752 -1.6807116568088531e-02</internalNodes>
          <leafValues>
            1.3606096804141998e-01 -3.0838066339492798e-01</leafValues></_>
        <_>
          <internalNodes>
            0 -1 789 1.8836293020285666e-04</internalNodes>
          <leafValues>
            -2.0209658145904541e-01 1.7698290944099426e-01</leafValues></_>
        <_>
          <internalNodes>
            0 -1 72 -1.9266195595264435e-03</internalNodes>
          <leafValues>
            1.6042906045913696e-01 -1.9930677115917206e-01</leafValues></_>
        <_>
          <internalNodes>
            0 -1 233 6.1529010534286499e-02</internalNodes>
          <leafValues>
            -9.0292111039161682e-02 3.3468857407569885e-01</leafValues></_>
        <_>
          <internalNodes>
            0 -1 538 5.4381810128688812e-02</internalNodes>
          <leafValues>
            -1.0589335113763809e-01 2.9058334231376648e-01</leafValues></_>
        <_>
          <internalNodes>
            0 -1 507 3.6331120878458023e-02</internalNodes>
          <leafValues>
            -7.2239890694618225e-02 4.3482369184494019e-01</leafValues></_>
        <_>
          <internalNodes>
            0 -1 222 1.9512351602315903e-02</internalNodes>
          <leafValues>
            -1.2525768578052521e-01 2.7335420250892639e-01</leafValues></_>
        <_>
          <internalNodes>
            0 -1 585 1.7677627503871918e-02</internalNodes>
          <leafValues>
            -9.5649644732475281e-02 3.6166843771934509e-01</leafValues></_>
        <_>
          <internalNodes>
            0 -1 766 1.7562520224601030e-04</internalNodes>
          <leafValues>
            -3.0135524272918701e-01 1.0640277713537216e-01</leafValues></_>
        <_>
          <internalNodes>
            0 -1 604 -6.2389117665588856e-03</internalNodes>
          <leafValues>
            -6.0528659820556641e-01 5.1444247364997864e-02</leafValues></_>
        <_>
          <internalNodes>
            0 -1 548 1.0157266631722450e-02</internalNodes>
          <leafValues>
            5.6609932333230972e-02 -4.4144761562347412e-01</leafValues></_>
        <_>
          <internalNodes>
            0 -1 92 -1.6864886856637895e-04</internalNodes>
          <leafValues>
            8.6441092193126678e-02 -2.6309502124786377e-01</leafValues></_>
        <_>
          <internalNodes>
            0 -1 140 1.5985131263732910e-02</internalNodes>
          <leafValues>
            -1.1429745703935623e-01 1.9178360700607300e-01</leafValues></_>
        <_>
          <internalNodes>
            0 -1 307 5.1080301403999329e-02</internalNodes>
          <leafValues>
            -1.0059735178947449e-01 2.1629510819911957e-01</leafValues></_>
        <_>
          <internalNodes>
            0 -1 314 -2.0134907215833664e-02</internalNodes>
          <leafValues>
            -4.4138783216476440e-01 5.8506958186626434e-02</leafValues></_>
        <_>
          <internalNodes>
            0 -1 612 8.9645132422447205e-02</internalNodes>
          <leafValues>
            -6.3188180327415466e-02 3.8780426979064941e-01</leafValues></_>
        <_>
          <internalNodes>
            0 -1 244 3.3061377704143524e-02</internalNodes>
          <leafValues>
            4.2970314621925354e-02 -5.4169893264770508e-01</leafValues></_>
        <_>
          <internalNodes>
            0 -1 0 2.6920330710709095e-03</internalNodes>
          <leafValues>
            -1.3603083789348602e-01 1.4987419545650482e-01</leafValues></_>
        <_>
          <internalNodes>
            0 -1 297 8.6779566481709480e-03</internalNodes>
          <leafValues>
            4.3581236153841019e-02 -3.9157080650329590e-01</leafValues></_>
        <_>
          <internalNodes>
            0 -1 704 -2.3657076060771942e-02</internalNodes>
          <leafValues>
            -2.4388946592807770e-01 7.7449582517147064e-02</leafValues></_>
        <_>
          <internalNodes>
            0 -1 174 -1.7097664996981621e-02</internalNodes>
          <leafValues>
            -3.5850691795349121e-01 4.7887898981571198e-02</leafValues></_>
        <_>
          <internalNodes>
            0 -1 332 2.4629699066281319e-02</internalNodes>
          <leafValues>
            -7.0593118667602539e-02 2.8431931138038635e-01</leafValues></_>
        <_>
          <internalNodes>
            0 -1 203 4.6514205634593964e-02</internalNodes>
          <leafValues>
            -6.4495757222175598e-02 2.5385519862174988e-01</leafValues></_>
        <_>
          <internalNodes>
            0 -1 191 3.1017923727631569e-02</internalNodes>
          <leafValues>
            -8.6515307426452637e-02 2.5079467892646790e-01</leafValues></_>
        <_>
          <internalNodes>
            0 -1 341 4.6528451144695282e-02</internalNodes>
          <leafValues>
            -1.0885997861623764e-01 1.9088417291641235e-01</leafValues></_>
        <_>
          <internalNodes>
            0 -1 98 -1.2698295526206493e-02</internalNodes>
          <leafValues>
            -5.7870364189147949e-01 3.0422894284129143e-02</leafValues></_>
        <_>
          <internalNodes>
            0 -1 805 -1.5188811812549829e-04</internalNodes>
          <leafValues>
            1.2383354455232620e-01 -1.2342757731676102e-01</leafValues></_>
        <_>
          <internalNodes>
            0 -1 330 -8.9664142578840256e-03</internalNodes>
          <leafValues>
            -3.3604061603546143e-01 4.4868838042020798e-02</leafValues></_>
        <_>
          <internalNodes>
            0 -1 571 1.9496560096740723e-02</internalNodes>
          <leafValues>
            -7.5087748467922211e-02 2.1510171890258789e-01</leafValues></_>
        <_>
          <internalNodes>
            0 -1 580 -1.5399913303554058e-02</internalNodes>
          <leafValues>
            -6.7520332336425781e-01 2.5180205702781677e-02</leafValues></_>
        <_>
          <internalNodes>
            0 -1 488 1.9971832633018494e-02</internalNodes>
          <leafValues>
            -8.2124955952167511e-02 1.8872304260730743e-01</leafValues></_>
        <_>
          <internalNodes>
            0 -1 31 2.0515275001525879e-01</internalNodes>
          <leafValues>
            -6.2306709587574005e-02 2.5789040327072144e-01</leafValues></_>
        <_>
          <internalNodes>
            0 -1 148 1.9286971073597670e-03</internalNodes>
          <leafValues>
            -9.5516636967658997e-02 1.5648724138736725e-01</leafValues></_>
        <_>
          <internalNodes>
            0 -1 771 -2.8532527387142181e-02</internalNodes>
          <leafValues>
            -6.0856741666793823e-01 2.4574410170316696e-02</leafValues></_>
        <_>
          <internalNodes>
            0 -1 812 1.7036672215908766e-03</internalNodes>
          <leafValues>
            -2.0237575471401215e-01 7.1987442672252655e-02</leafValues></_>
        <_>
          <internalNodes>
            0 -1 105 -5.0518959760665894e-03</internalNodes>
          <leafValues>
            -3.5958364605903625e-01 3.7716444581747055e-02</leafValues></_>
        <_>
          <internalNodes>
            0 -1 96 -1.3708873302675784e-04</internalNodes>
          <leafValues>
            9.8990730941295624e-02 -1.5490175783634186e-01</leafValues></_>
        <_>
          <internalNodes>
            0 -1 399 2.0175013691186905e-02</internalNodes>
          <leafValues>
            -6.8876199424266815e-02 2.1392746269702911e-01</leafValues></_>
        <_>
          <internalNodes>
            0 -1 119 8.6452122777700424e-03</internalNodes>
          <leafValues>
            -7.9153880476951599e-02 1.7799606919288635e-01</leafValues></_>
        <_>
          <internalNodes>
            0 -1 10 -7.7299207448959351e-02</internalNodes>
          <leafValues>
            -3.3547016978263855e-01 4.3793812394142151e-02</leafValues></_>
        <_>
          <internalNodes>
            0 -1 104 -1.6999979561660439e-04</internalNodes>
          <leafValues>
            1.0130092501640320e-01 -1.5046882629394531e-01</leafValues></_>
        <_>
          <internalNodes>
            0 -1 645 -1.0428005829453468e-02</internalNodes>
          <leafValues>
            -4.5146590471267700e-01 3.0300516635179520e-02</leafValues></_>
        <_>
          <internalNodes>
            0 -1 519 -7.1892938576638699e-03</internalNodes>
          <leafValues>
            -5.2995342016220093e-01 2.2530077025294304e-02</leafValues></_>
        <_>
          <internalNodes>
            0 -1 785 1.6024902462959290e-02</internalNodes>
          <leafValues>
            -6.7131511867046356e-02 2.0810656249523163e-01</leafValues></_>
        <_>
          <internalNodes>
            0 -1 422 7.4366740882396698e-02</internalNodes>
          <leafValues>
            -6.4851559698581696e-02 2.3791606724262238e-01</leafValues></_>
        <_>
          <internalNodes>
            0 -1 546 -2.0876571536064148e-02</internalNodes>
          <leafValues>
            -3.4726122021675110e-01 4.2406588792800903e-02</leafValues></_>
        <_>
          <internalNodes>
            0 -1 567 7.1444317698478699e-02</internalNodes>
          <leafValues>
            -6.1851009726524353e-02 2.3767983913421631e-01</leafValues></_>
        <_>
          <internalNodes>
            0 -1 533 -2.9623579233884811e-02</internalNodes>
          <leafValues>
            2.3472811281681061e-01 -6.0742188245058060e-02</leafValues></_>
        <_>
          <internalNodes>
            0 -1 693 -1.7417950555682182e-02</internalNodes>
          <leafValues>
            -3.4363436698913574e-01 4.7041330486536026e-02</leafValues></_>
        <_>
          <internalNodes>
            0 -1 225 -1.4423034735955298e-04</internalNodes>
          <leafValues>
            1.0977658629417419e-01 -1.1982265114784241e-01</leafValues></_>
        <_>
          <internalNodes>
            0 -1 717 1.6678807139396667e-01</internalNodes>
          <leafValues>
            2.2717809304594994e-02 -5.5733996629714966e-01</leafValues></_>
        <_>
          <internalNodes>
            0 -1 830 -6.5356297418475151e-03</internalNodes>
          <leafValues>
            -4.2742884159088135e-01 2.5624779984354973e-02</leafValues></_>
        <_>
          <internalNodes>
            0 -1 514 -1.7379062250256538e-02</internalNodes>
          <leafValues>
            1.8956819176673889e-01 -6.2829948961734772e-02</leafValues></_>
        <_>
          <internalNodes>
            0 -1 803 1.0647397721186280e-04</internalNodes>
          <leafValues>
            -1.0654948651790619e-01 1.1278946697711945e-01</leafValues></_>
        <_>
          <internalNodes>
            0 -1 836 4.9812477082014084e-03</internalNodes>
          <leafValues>
            4.5332338660955429e-02 -2.9851990938186646e-01</leafValues></_>
        <_>
          <internalNodes>
            0 -1 587 -6.2903970479965210e-02</internalNodes>
          <leafValues>
            3.8193440437316895e-01 -3.2718051224946976e-02</leafValues></_>
        <_>
          <internalNodes>
            0 -1 761 1.2515650689601898e-01</internalNodes>
          <leafValues>
            2.1618235856294632e-02 -5.4844540357589722e-01</leafValues></_>
        <_>
          <internalNodes>
            0 -1 639 -4.3779678642749786e-02</internalNodes>
          <leafValues>
            3.3456438779830933e-01 -3.5926669836044312e-02</leafValues></_>
        <_>
          <internalNodes>
            0 -1 228 2.8844478074461222e-03</internalNodes>
          <leafValues>
            -1.0684818774461746e-01 1.0916931927204132e-01</leafValues></_>
        <_>
          <internalNodes>
            0 -1 417 -1.2657897546887398e-02</internalNodes>
          <leafValues>
            2.1110028028488159e-01 -7.3630616068840027e-02</leafValues></_>
        <_>
          <internalNodes>
            0 -1 226 -1.4948757365345955e-02</internalNodes>
          <leafValues>
            -3.8208574056625366e-01 3.4958858042955399e-02</leafValues></_>
        <_>
          <internalNodes>
            0 -1 564 1.9864212721586227e-02</internalNodes>
          <leafValues>
            -5.8723367750644684e-02 2.1687851846218109e-01</leafValues></_>
        <_>
          <internalNodes>
            0 -1 345 -4.1462577879428864e-02</internalNodes>
          <leafValues>
            2.7411198616027832e-01 -4.4394511729478836e-02</leafValues></_>
        <_>
          <internalNodes>
            0 -1 110 -2.1771293878555298e-01</internalNodes>
          <leafValues>
            2.2827394306659698e-01 -5.2168857306241989e-02</leafValues></_>
        <_>
          <internalNodes>
            0 -1 89 -1.6824878752231598e-02</internalNodes>
          <leafValues>
            -6.0665762424468994e-01 1.8971590325236320e-02</leafValues></_>
        <_>
          <internalNodes>
            0 -1 42 6.7958394065499306e-03</internalNodes>
          <leafValues>
            3.6224298179149628e-02 -2.8319564461708069e-01</leafValues></_>
        <_>
          <internalNodes>
            0 -1 240 1.1977948248386383e-02</internalNodes>
          <leafValues>
            -7.0950292050838470e-02 1.6790135204792023e-01</leafValues></_>
        <_>
          <internalNodes>
            0 -1 324 -3.2215990126132965e-02</internalNodes>
          <leafValues>
            3.2853424549102783e-01 -3.9734032005071640e-02</leafValues></_>
        <_>
          <internalNodes>
            0 -1 581 3.2799549400806427e-02</internalNodes>
          <leafValues>
            1.8897658213973045e-02 -6.4656162261962891e-01</leafValues></_>
        <_>
          <internalNodes>
            0 -1 363 2.6209732517600060e-02</internalNodes>
          <leafValues>
            -7.6721675693988800e-02 1.5213298797607422e-01</leafValues></_>
        <_>
          <internalNodes>
            0 -1 526 -1.1200228706002235e-02</internalNodes>
          <leafValues>
            1.7152552306652069e-01 -7.1726284921169281e-02</leafValues></_>
        <_>
          <internalNodes>
            0 -1 378 2.2837515920400620e-02</internalNodes>
          <leafValues>
            3.1081698834896088e-02 -4.1542679071426392e-01</leafValues></_>
        <_>
          <internalNodes>
            0 -1 628 -1.5821773558855057e-02</internalNodes>
          <leafValues>
            -5.5045044422149658e-01 1.6121895983815193e-02</leafValues></_>
        <_>
          <internalNodes>
            0 -1 449 2.0245308987796307e-03</internalNodes>
          <leafValues>
