<?xml version="1.0"?>
<opencv_storage>
<stage2>
  <maxWeakCount>49</maxWeakCount>
  <stageThreshold>-1.7992525100708008e+00</stageThreshold>
  <weakClassifiers>
    <_>
      <internalNodes>
        0 -1 9 3.1038147863000631e-03</internalNodes>
      <leafValues>
        -4.9572411179542542e-01 2.7481153607368469e-01</leafValues></_>
    <_>
      <internalNodes>
        0 -1 32966 -1.1381100863218307e-02</internalNodes>
      <leafValues>
        2.6391506195068359e-01 -4.4962877035140991e-01</leafValues></_>
    <_>
      <internalNodes>
        0 -1 11724 5.2537910640239716e-02</internalNodes>
      <leafValues>
        -2.6934638619422913e-01 4.4833818078041077e-01</leafValues></_>
    <_>
      <internalNodes>
        0 -1 11588 -9.1257262974977493e-03</internalNodes>
      <leafValues>
        -5.7113194465637207e-01 1.6214212775230408e-01</leafValues></_>
    <_>
      <internalNodes>
        0 -1 1852 -7.7930372208356857e-03</internalNodes>
      <leafValues>
        1.3338705897331238e-01 -4.2960131168365479e-01</leafValues></_>
    <_>
      <internalNodes>
        0 -1 4186 1.2726366519927979e-01</internalNodes>
      <leafValues>
        -1.1364886164665222e-01 4.9194476008415222e-01</leafValues></_>
    <_>
      <internalNodes>
        0 -1 31028 3.4924701321870089e-03</internalNodes>
      <leafValues>
        -2.7774420380592346e-01 2.0298939943313599e-01</leafValues></_>
    <_>
      <internalNodes>
        0 -1 11241 -6.8351075053215027e-02</internalNodes>
      <leafValues>
        5.1952809095382690e-01 -1.0672100633382797e-01</leafValues></_>
    <_>
      <internalNodes>
        0 -1 14811 3.6290626972913742e-02</internalNodes>
      <leafValues>
        -1.0657614469528198e-01 4.8798966407775879e-01</leafValues></_>
    <_>
      <internalNodes>
        0 -1 11359 3.0824527144432068e-02</internalNodes>
      <leafValues>
        -1.3854067027568817e-01 4.7923174500465393e-01</leafValues></_>
    <_>
      <internalNodes>
        0 -1 19596 -8.6866319179534912e-03</internalNodes>
      <leafValues>
        -4.5290628075599670e-01 1.0994407534599304e-01</leafValues></_>
    <_>
      <internalNodes>
        0 -1 15406 2.1312925219535828e-01</internalNodes>
      <leafValues>
        -1.2036526948213577e-01 4.5208221673965454e-01</leafValues></_>
    <_>
      <internalNodes>
        0 -1 18818 -1.6177885234355927e-02</internalNodes>
      <leafValues>
        -6.3689970970153809e-01 9.9315270781517029e-02</leafValues></_>
    <_>
      <internalNodes>
        0 -1 25737 3.5162322223186493e-02</internalNodes>
      <leafValues>
        -1.6731950640678406e-01 2.9472938179969788e-01</leafValues></_>
    <_>
      <internalNodes>
        0 -1 19179 -6.9107119925320148e-03</internalNodes>
      <leafValues>
        -4.9537983536720276e-01 1.1487686634063721e-01</leafValues></_>
    <_>
      <internalNodes>
        0 -1 4194 1.9575325772166252e-02</internalNodes>
      <leafValues>
        -1.6992703080177307e-01 2.5329577922821045e-01</leafValues></_>
    <_>
      <internalNodes>
        0 -1 11677 1.8061136826872826e-02</internalNodes>
      <leafValues>
        6.7123174667358398e-02 -5.5910497903823853e-01</leafValues></_>
    <_>
      <internalNodes>
        0 -1 8644 3.7907794117927551e-02</internalNodes>
      <leafValues>
        -1.5839499235153198e-01 2.7397736907005310e-01</leafValues></_>
    <_>
      <internalNodes>
        0 -1 11525 1.9050549715757370e-02</internalNodes>
      <leafValues>
        -1.1530116200447083e-01 3.2569590210914612e-01</leafValues></_>
    <_>
      <internalNodes>
        0 -1 12423 1.2853613123297691e-02</internalNodes>
      <leafValues>
        6.6577874124050140e-02 -5.7085859775543213e-01</leafValues></_>
    <_>
      <internalNodes>
        0 -1 21673 -8.1833768635988235e-03</internalNodes>
      <leafValues>
        -6.0866749286651611e-01 5.1199745386838913e-02</leafValues></_>
    <_>
      <internalNodes>
        0 -1 15095 -2.5401230901479721e-02</internalNodes>
      <leafValues>
        3.3533340692520142e-01 -1.0294662415981293e-01</leafValues></_>
    <_>
      <internalNodes>
        0 -1 18564 -4.3927212245762348e-03</internalNodes>
      <leafValues>
        -5.1243305206298828e-01 6.1392426490783691e-02</leafValues></_>
    <_>
      <internalNodes>
        0 -1 125 9.6470862627029419e-02</internalNodes>
      <leafValues>
        -7.1494407951831818e-02 4.7117969393730164e-01</leafValues></_>
    <_>
      <internalNodes>
        0 -1 125 -4.3321326375007629e-02</internalNodes>
      <leafValues>
        2.6523828506469727e-01 -1.2630628049373627e-01</leafValues></_>
    <_>
      <internalNodes>
        0 -1 14248 -4.6777263283729553e-02</internalNodes>
      <leafValues>
        4.1036617755889893e-01 -6.7844673991203308e-02</leafValues></_>
    <_>
      <internalNodes>
        0 -1 33039 5.2127577364444733e-03</internalNodes>
      <leafValues>
        7.1029312908649445e-02 -4.4484499096870422e-01</leafValues></_>
    <_>
      <internalNodes>
        0 -1 33019 4.4791651889681816e-03</internalNodes>
      <leafValues>
        6.4324848353862762e-02 -3.9709907770156860e-01</leafValues></_>
    <_>
      <internalNodes>
        0 -1 32352 3.6170547828078270e-03</internalNodes>
      <leafValues>
        -1.6230708360671997e-01 1.7451430857181549e-01</leafValues></_>
    <_>
      <internalNodes>
        0 -1 12188 -2.8121996670961380e-02</internalNodes>
      <leafValues>
        -5.2689623832702637e-01 5.1040314137935638e-02</leafValues></_>
    <_>
      <internalNodes>
        0 -1 14474 -4.5620784163475037e-02</internalNodes>
      <leafValues>
        3.5315766930580139e-01 -8.1460490822792053e-02</leafValues></_>
    <_>
      <internalNodes>
        0 -1 16070 -2.1273685619235039e-02</internalNodes>
      <leafValues>
        2.6803636550903320e-01 -1.0417784750461578e-01</leafValues></_>
    <_>
      <internalNodes>
        0 -1 11711 5.9774167835712433e-02</internalNodes>
      <leafValues>
        -8.6008712649345398e-02 3.3937859535217285e-01</leafValues></_>
    <_>
      <internalNodes>
        0 -1 15345 -1.9885078072547913e-02</internalNodes>
      <leafValues>
        -4.0502628684043884e-01 7.7398031949996948e-02</leafValues></_>
    <_>
      <internalNodes>
        0 -1 24417 -4.9250787124037743e-03</internalNodes>
      <leafValues>
        -5.9451133012771606e-01 4.1582588106393814e-02</leafValues></_>
    <_>
      <internalNodes>
        0 -1 17937 1.0839029215276241e-02</internalNodes>
      <leafValues>
        -1.1826404929161072e-01 2.3270876705646515e-01</leafValues></_>
    <_>
      <internalNodes>
        0 -1 1739 7.8108623623847961e-02</internalNodes>
      <leafValues>
        -1.0629722476005554e-01 2.6135048270225525e-01</leafValues></_>
    <_>
      <internalNodes>
        0 -1 2456 -6.8609700538218021e-03</internalNodes>
      <leafValues>
        -5.2732950448989868e-01 5.0990201532840729e-02</leafValues></_>
    <_>
      <internalNodes>
        0 -1 2456 6.7435055971145630e-03</internalNodes>
      <leafValues>
        5.1288723945617676e-02 -5.3857588768005371e-01</leafValues></_>
    <_>
      <internalNodes>
        0 -1 27004 -6.1310823075473309e-03</internalNodes>
      <leafValues>
        -5.7057726383209229e-01 3.3230181783437729e-02</leafValues></_>
    <_>
      <internalNodes>
        0 -1 18464 2.7013538405299187e-02</internalNodes>
      <leafValues>
        -8.4225572645664215e-02 2.5461676716804504e-01</leafValues></_>
    <_>
      <internalNodes>
        0 -1 11458 -2.6727819815278053e-02</internalNodes>
      <leafValues>
        2.6278790831565857e-01 -8.5253059864044189e-02</leafValues></_>
    <_>
      <internalNodes>
        0 -1 18719 3.9655506610870361e-02</internalNodes>
      <leafValues>
        -8.9374974370002747e-02 2.3616707324981689e-01</leafValues></_>
    <_>
      <internalNodes>
        0 -1 31064 -1.4985377900302410e-02</internalNodes>
      <leafValues>
        -4.9882224202156067e-01 4.5483011752367020e-02</leafValues></_>
    <_>
      <internalNodes>
        0 -1 1 1.1323953367536888e-04</internalNodes>
      <leafValues>
        -2.0315136015415192e-01 1.0373189300298691e-01</leafValues></_>
    <_>
      <internalNodes>
        0 -1 12046 3.3078499138355255e-02</internalNodes>
      <leafValues>
        -7.1786373853683472e-02 3.0773216485977173e-01</leafValues></_>
    <_>
      <internalNodes>
        0 -1 1374 -1.7652388196438551e-03</internalNodes>
      <leafValues>
        -2.6637822389602661e-01 8.8988542556762695e-02</leafValues></_>
    <_>
      <internalNodes>
        0 -1 10430 2.8825752437114716e-02</internalNodes>
      <leafValues>
        -8.3070725202560425e-02 2.7462887763977051e-01</leafValues></_>
    <_>
      <internalNodes>
        0 -1 15458 2.2305920720100403e-02</internalNodes>
      <leafValues>
        4.6942856162786484e-02 -4.6639478206634521e-01</leafValues></_></weakClassifiers></stage2>
</opencv_storage>
