<?xml version="1.0"?>
<opencv_storage>
<stage9>
  <maxWeakCount>100</maxWeakCount>
  <stageThreshold>-1.5065389871597290e+00</stageThreshold>
  <weakClassifiers>
    <_>
      <internalNodes>
        0 -1 13 6.9907600991427898e-03</internalNodes>
      <leafValues>
        -3.6651122570037842e-01 1.9142943620681763e-01</leafValues></_>
    <_>
      <internalNodes>
        0 -1 29884 7.1178991347551346e-03</internalNodes>
      <leafValues>
        -2.1293795108795166e-01 2.5866511464118958e-01</leafValues></_>
    <_>
      <internalNodes>
        0 -1 17488 3.2195053994655609e-02</internalNodes>
      <leafValues>
        -1.2910662591457367e-01 3.2885739207267761e-01</leafValues></_>
    <_>
      <internalNodes>
        0 -1 1049 -1.5386593528091908e-02</internalNodes>
      <leafValues>
        2.1957565844058990e-01 -1.8313258886337280e-01</leafValues></_>
    <_>
      <internalNodes>
        0 -1 1966 -6.4408284379169345e-04</internalNodes>
      <leafValues>
        6.0025516897439957e-02 -3.8402286171913147e-01</leafValues></_>
    <_>
      <internalNodes>
        0 -1 32136 -6.0820387443527579e-04</internalNodes>
      <leafValues>
        1.2516428530216217e-01 -2.6399278640747070e-01</leafValues></_>
    <_>
      <internalNodes>
        0 -1 11974 4.4937320053577423e-02</internalNodes>
      <leafValues>
        5.2596978843212128e-02 -6.3470160961151123e-01</leafValues></_>
    <_>
      <internalNodes>
        0 -1 32153 2.1225730888545513e-03</internalNodes>
      <leafValues>
        -1.4928747713565826e-01 1.5570665895938873e-01</leafValues></_>
    <_>
      <internalNodes>
        0 -1 30354 2.9143672436475754e-02</internalNodes>
      <leafValues>
        4.7199424356222153e-02 -3.3304804563522339e-01</leafValues></_>
    <_>
      <internalNodes>
        0 -1 11578 2.1662248764187098e-04</internalNodes>
      <leafValues>
        -1.9579386711120605e-01 1.1175350844860077e-01</leafValues></_>
    <_>
      <internalNodes>
        0 -1 7852 3.4848815202713013e-01</internalNodes>
      <leafValues>
        -4.8632618039846420e-02 6.6287064552307129e-01</leafValues></_>
    <_>
      <internalNodes>
        0 -1 17216 2.1228741854429245e-02</internalNodes>
      <leafValues>
        -6.2053881585597992e-02 2.6298475265502930e-01</leafValues></_>
    <_>
      <internalNodes>
        0 -1 17170 -1.3442397117614746e-02</internalNodes>
      <leafValues>
        2.5448372960090637e-01 -9.6750080585479736e-02</leafValues></_>
    <_>
      <internalNodes>
        0 -1 11630 -1.1768116615712643e-02</internalNodes>
      <leafValues>
        1.9918818771839142e-01 -1.0450932383537292e-01</leafValues></_>
    <_>
      <internalNodes>
        0 -1 8160 1.8487889319658279e-02</internalNodes>
      <leafValues>
        -1.3347379863262177e-01 1.9936205446720123e-01</leafValues></_>
    <_>
      <internalNodes>
        0 -1 19010 -8.7841097265481949e-03</internalNodes>
      <leafValues>
        2.4381366372108459e-01 -9.6523158252239227e-02</leafValues></_>
    <_>
      <internalNodes>
        0 -1 21604 -2.3259785026311874e-02</internalNodes>
      <leafValues>
        2.5399151444435120e-01 -8.0124430358409882e-02</leafValues></_>
    <_>
      <internalNodes>
        0 -1 24611 -9.7586866468191147e-03</internalNodes>
      <leafValues>
        -4.0975406765937805e-01 5.4951999336481094e-02</leafValues></_>
    <_>
      <internalNodes>
        0 -1 15331 6.5623641014099121e-02</internalNodes>
      <leafValues>
        -1.1934449523687363e-01 1.5643192827701569e-01</leafValues></_>
    <_>
      <internalNodes>
        0 -1 21857 -2.5613259524106979e-02</internalNodes>
      <leafValues>
        1.8842180073261261e-01 -1.2180387973785400e-01</leafValues></_>
    <_>
      <internalNodes>
        0 -1 31171 1.3116601854562759e-02</internalNodes>
      <leafValues>
        -1.1256358027458191e-01 2.1428650617599487e-01</leafValues></_>
    <_>
      <internalNodes>
        0 -1 12023 1.1787002906203270e-02</internalNodes>
      <leafValues>
        4.3583247810602188e-02 -5.2478146553039551e-01</leafValues></_>
    <_>
      <internalNodes>
        0 -1 32884 1.7606489127501845e-03</internalNodes>
      <leafValues>
        -1.5985594689846039e-01 1.1123061925172806e-01</leafValues></_>
    <_>
      <internalNodes>
        0 -1 15022 1.4918195083737373e-02</internalNodes>
      <leafValues>
        -9.3140795826911926e-02 1.8967497348785400e-01</leafValues></_>
    <_>
      <internalNodes>
        0 -1 32136 -1.1692240834236145e-02</internalNodes>
      <leafValues>
        -3.5620957612991333e-01 4.6200454235076904e-02</leafValues></_>
    <_>
      <internalNodes>
        0 -1 2424 1.4562108553946018e-02</internalNodes>
      <leafValues>
        -9.1044090688228607e-02 1.8324276804924011e-01</leafValues></_>
    <_>
      <internalNodes>
        0 -1 11765 -2.7631264179944992e-02</internalNodes>
      <leafValues>
        -5.3220129013061523e-01 3.0173379927873611e-02</leafValues></_>
    <_>
      <internalNodes>
        0 -1 20639 8.8529316708445549e-03</internalNodes>
      <leafValues>
        -9.4983711838722229e-02 1.7985698580741882e-01</leafValues></_>
    <_>
      <internalNodes>
        0 -1 15338 8.5889641195535660e-03</internalNodes>
      <leafValues>
        5.1288705319166183e-02 -3.2705193758010864e-01</leafValues></_>
    <_>
      <internalNodes>
        0 -1 1 1.3317911652848125e-03</internalNodes>
      <leafValues>
        -1.5886045992374420e-01 9.5836438238620758e-02</leafValues></_>
    <_>
      <internalNodes>
        0 -1 32149 -9.5697827637195587e-03</internalNodes>
      <leafValues>
        -3.6681383848190308e-01 4.4375766068696976e-02</leafValues></_>
    <_>
      <internalNodes>
        0 -1 7912 -1.1243442073464394e-02</internalNodes>
      <leafValues>
        -3.6222383379936218e-01 3.9475373923778534e-02</leafValues></_>
    <_>
      <internalNodes>
        0 -1 3714 3.0658122897148132e-01</internalNodes>
      <leafValues>
        -2.7863902971148491e-02 5.5856353044509888e-01</leafValues></_>
    <_>
      <internalNodes>
        0 -1 825 1.0938277095556259e-01</internalNodes>
      <leafValues>
        4.3289937078952789e-02 -3.4370484948158264e-01</leafValues></_>
    <_>
      <internalNodes>
        0 -1 15608 2.5270843878388405e-02</internalNodes>
      <leafValues>
        -7.1305625140666962e-02 2.1831528842449188e-01</leafValues></_>
    <_>
      <internalNodes>
        0 -1 17987 -1.5067216940224171e-02</internalNodes>
      <leafValues>
        -6.4304792881011963e-01 2.7365727350115776e-02</leafValues></_>
    <_>
      <internalNodes>
        0 -1 17852 4.2680747807025909e-02</internalNodes>
      <leafValues>
        3.1945258378982544e-02 -3.7534016370773315e-01</leafValues></_>
    <_>
      <internalNodes>
        0 -1 32920 3.1585372053086758e-03</internalNodes>
      <leafValues>
        -1.2771488726139069e-01 1.0159894078969955e-01</leafValues></_>
    <_>
      <internalNodes>
        0 -1 15219 -2.0976003259420395e-02</internalNodes>
      <leafValues>
        2.2229738533496857e-01 -6.1054386198520660e-02</leafValues></_>
    <_>
      <internalNodes>
        0 -1 11718 5.6676656007766724e-02</internalNodes>
      <leafValues>
        -8.9804455637931824e-02 2.0448340475559235e-01</leafValues></_>
    <_>
      <internalNodes>
        0 -1 31076 -2.5625586509704590e-02</internalNodes>
      <leafValues>
        -4.9963060021400452e-01 2.7728669345378876e-02</leafValues></_>
    <_>
      <internalNodes>
        0 -1 24002 -2.6100905612111092e-02</internalNodes>
      <leafValues>
        -6.7886924743652344e-01 1.6340186819434166e-02</leafValues></_>
    <_>
      <internalNodes>
        0 -1 33020 -1.0868825018405914e-02</internalNodes>
      <leafValues>
        -5.1408880949020386e-01 2.1048484370112419e-02</leafValues></_>
    <_>
      <internalNodes>
        0 -1 14023 -2.4553719907999039e-02</internalNodes>
      <leafValues>
        1.7889268696308136e-01 -7.8409656882286072e-02</leafValues></_>
    <_>
      <internalNodes>
        0 -1 17484 1.1991458944976330e-02</internalNodes>
      <leafValues>
        -7.8327052295207977e-02 1.6953465342521667e-01</leafValues></_>
    <_>
      <internalNodes>
        0 -1 33058 -6.0881734825670719e-03</internalNodes>
      <leafValues>
        -3.7659162282943726e-01 4.0657166391611099e-02</leafValues></_>
    <_>
      <internalNodes>
        0 -1 7571 3.5076212882995605e-01</internalNodes>
      <leafValues>
        -2.2712463513016701e-02 6.7681717872619629e-01</leafValues></_>
    <_>
      <internalNodes>
        0 -1 1767 -1.2991559924557805e-04</internalNodes>
      <leafValues>
        1.2266070395708084e-01 -9.9272184073925018e-02</leafValues></_>
    <_>
      <internalNodes>
        0 -1 2454 -5.8996719308197498e-03</internalNodes>
      <leafValues>
        -3.9515766501426697e-01 3.1556904315948486e-02</leafValues></_>
    <_>
      <internalNodes>
        0 -1 9906 1.0022943839430809e-02</internalNodes>
      <leafValues>
        -9.6960179507732391e-02 1.4232757687568665e-01</leafValues></_>
    <_>
      <internalNodes>
        0 -1 2768 -3.5438179969787598e-02</internalNodes>
      <leafValues>
        -5.0365626811981201e-01 2.5010487064719200e-02</leafValues></_>
    <_>
      <internalNodes>
        0 -1 21405 -1.5720676630735397e-02</internalNodes>
      <leafValues>
        1.8908284604549408e-01 -6.5634228289127350e-02</leafValues></_>
    <_>
      <internalNodes>
        0 -1 18361 -1.7575489357113838e-02</internalNodes>
      <leafValues>
        1.7264091968536377e-01 -7.9512707889080048e-02</leafValues></_>
    <_>
      <internalNodes>
        0 -1 18525 -2.9377382248640060e-02</internalNodes>
      <leafValues>
        2.6551139354705811e-01 -5.9894047677516937e-02</leafValues></_>
    <_>
      <internalNodes>
        0 -1 2302 7.1700498461723328e-02</internalNodes>
      <leafValues>
        3.6086827516555786e-02 -3.7512397766113281e-01</leafValues></_>
    <_>
      <internalNodes>
        0 -1 24609 -5.3363917395472527e-03</internalNodes>
      <leafValues>
        1.0455257445573807e-01 -1.1875482648611069e-01</leafValues></_>
    <_>
      <internalNodes>
        0 -1 21779 -1.3537453487515450e-02</internalNodes>
      <leafValues>
        1.9400307536125183e-01 -8.5593566298484802e-02</leafValues></_>
    <_>
      <internalNodes>
        0 -1 15209 -6.1222761869430542e-03</internalNodes>
      <leafValues>
        1.6991609334945679e-01 -8.9013338088989258e-02</leafValues></_>
    <_>
      <internalNodes>
        0 -1 14310 -1.8706176429986954e-02</internalNodes>
      <leafValues>
        -4.7108685970306396e-01 3.0361235141754150e-02</leafValues></_>
    <_>
      <internalNodes>
        0 -1 11758 -1.3127603568136692e-02</internalNodes>
      <leafValues>
        -4.4273874163627625e-01 2.8040168806910515e-02</leafValues></_>
    <_>
      <internalNodes>
        0 -1 505 8.5314791649580002e-03</internalNodes>
      <leafValues>
        2.4063879624009132e-02 -4.7955453395843506e-01</leafValues></_>
    <_>
      <internalNodes>
        0 -1 27033 -2.3386068642139435e-02</internalNodes>
      <leafValues>
        -4.2097029089927673e-01 2.6430638507008553e-02</leafValues></_>
    <_>
      <internalNodes>
        0 -1 7978 1.6097992658615112e-02</internalNodes>
      <leafValues>
        -8.3862915635108948e-02 1.4059759676456451e-01</leafValues></_>
    <_>
      <internalNodes>
        0 -1 33125 8.0842636525630951e-03</internalNodes>
      <leafValues>
        3.3042270690202713e-02 -3.9276435971260071e-01</leafValues></_>
    <_>
      <internalNodes>
        0 -1 32880 -1.5631172573193908e-04</internalNodes>
      <leafValues>
        1.1256069689989090e-01 -1.0992827266454697e-01</leafValues></_>
    <_>
      <internalNodes>
        0 -1 18252 8.9758172631263733e-02</internalNodes>
      <leafValues>
        -4.6251945197582245e-02 2.5412246584892273e-01</leafValues></_>
    <_>
      <internalNodes>
        0 -1 7230 -2.1526408195495605e-01</internalNodes>
      <leafValues>
        2.3995253443717957e-01 -5.2295960485935211e-02</leafValues></_>
    <_>
      <internalNodes>
        0 -1 18118 -2.9508180916309357e-02</internalNodes>
      <leafValues>
        2.3486335575580597e-01 -5.5467747151851654e-02</leafValues></_>
    <_>
      <internalNodes>
        0 -1 7469 2.2083139047026634e-02</internalNodes>
      <leafValues>
        -7.3111169040203094e-02 1.6272541880607605e-01</leafValues></_>
    <_>
      <internalNodes>
        0 -1 14538 4.5110657811164856e-02</internalNodes>
      <leafValues>
        1.4996706508100033e-02 -6.2819671630859375e-01</leafValues></_>
    <_>
      <internalNodes>
        0 -1 15149 4.0902951732277870e-03</internalNodes>
      <leafValues>
        -5.7422645390033722e-02 1.9828176498413086e-01</leafValues></_>
    <_>
      <internalNodes>
        0 -1 8123 -9.9843796342611313e-03</internalNodes>
      <leafValues>
        1.9559833407402039e-01 -5.9508070349693298e-02</leafValues></_>
    <_>
      <internalNodes>
        0 -1 155 1.2576550245285034e-01</internalNodes>
      <leafValues>
        -4.9624964594841003e-02 2.4022375047206879e-01</leafValues></_>
    <_>
      <internalNodes>
        0 -1 4947 -2.7352240681648254e-01</internalNodes>
      <leafValues>
        6.2812322378158569e-01 -1.7544576898217201e-02</leafValues></_>
    <_>
      <internalNodes>
        0 -1 950 1.6474400763399899e-04</internalNodes>
      <leafValues>
        -1.4108313620090485e-01 9.0961202979087830e-02</leafValues></_>
    <_>
      <internalNodes>
        0 -1 15482 -5.9300094842910767e-02</internalNodes>
      <leafValues>
        -7.9478275775909424e-01 1.3369535095989704e-02</leafValues></_>
    <_>
      <internalNodes>
        0 -1 32853 -1.3729432248510420e-04</internalNodes>
      <leafValues>
        1.0540846735239029e-01 -1.0224150121212006e-01</leafValues></_>
    <_>
      <internalNodes>
        0 -1 24401 -8.7695159018039703e-03</internalNodes>
      <leafValues>
        -3.4575659036636353e-01 3.0412692576646805e-02</leafValues></_>
    <_>
      <internalNodes>
        0 -1 3939 3.7142997980117798e-01</internalNodes>
      <leafValues>
        -1.8301384523510933e-02 6.1399567127227783e-01</leafValues></_>
    <_>
      <internalNodes>
        0 -1 18338 9.8487347364425659e-02</internalNodes>
      <leafValues>
        2.0729161798954010e-02 -6.3493937253952026e-01</leafValues></_>
    <_>
      <internalNodes>
        0 -1 7780 1.7879523336887360e-02</internalNodes>
      <leafValues>
        -7.6190359890460968e-02 1.4333990216255188e-01</leafValues></_>
    <_>
      <internalNodes>
        0 -1 2756 4.2383116669952869e-03</internalNodes>
      <leafValues>
        2.5018971413373947e-02 -3.9883229136466980e-01</leafValues></_>
    <_>
      <internalNodes>
        0 -1 8042 -1.4340484631247818e-04</internalNodes>
      <leafValues>
        9.1527581214904785e-02 -1.0418635606765747e-01</leafValues></_>
    <_>
      <internalNodes>
        0 -1 2456 6.7923069000244141e-03</internalNodes>
      <leafValues>
        2.3441392928361893e-02 -4.0006396174430847e-01</leafValues></_>
    <_>
      <internalNodes>
        0 -1 32973 -7.0635862648487091e-03</internalNodes>
      <leafValues>
        1.7225925624370575e-01 -5.6410033255815506e-02</leafValues></_>
    <_>
      <internalNodes>
        0 -1 31332 -1.5377028845250607e-02</internalNodes>
      <leafValues>
        -3.4160345792770386e-01 2.9922530055046082e-02</leafValues></_>
    <_>
      <internalNodes>
        0 -1 3471 3.0563274398446083e-02</internalNodes>
      <leafValues>
        1.6814110800623894e-02 -4.9175181984901428e-01</leafValues></_>
    <_>
      <internalNodes>
        0 -1 3892 2.2205825895071030e-02</internalNodes>
      <leafValues>
        -7.3301106691360474e-02 1.4636537432670593e-01</leafValues></_>
    <_>
      <internalNodes>
        0 -1 11246 1.6998207196593285e-02</internalNodes>
      <leafValues>
        -8.0370135605335236e-02 1.3669720292091370e-01</leafValues></_>
    <_>
      <internalNodes>
        0 -1 3990 4.2678443714976311e-03</internalNodes>
      <leafValues>
        -7.3114797472953796e-02 1.3373844325542450e-01</leafValues></_>
    <_>
      <internalNodes>
        0 -1 3898 7.8246258199214935e-03</internalNodes>
      <leafValues>
        2.8633939102292061e-02 -3.8131818175315857e-01</leafValues></_>
    <_>
      <internalNodes>
        0 -1 30942 -4.0400281548500061e-02</internalNodes>
      <leafValues>
        -5.7567715644836426e-01 1.4491897076368332e-02</leafValues></_>
    <_>
      <internalNodes>
        0 -1 12018 -1.1721185728674755e-04</internalNodes>
      <leafValues>
        9.2215567827224731e-02 -9.8257169127464294e-02</leafValues></_>
    <_>
      <internalNodes>
        0 -1 19133 -3.7514530122280121e-03</internalNodes>
      <leafValues>
        -2.3872037231922150e-01 4.0752913802862167e-02</leafValues></_>
    <_>
      <internalNodes>
        0 -1 21817 -8.5036065429449081e-03</internalNodes>
      <leafValues>
        1.1438141763210297e-01 -8.4175176918506622e-02</leafValues></_>
    <_>
      <internalNodes>
        0 -1 29152 4.3892120011150837e-03</internalNodes>
      <leafValues>
        -6.3442863523960114e-02 1.9065724313259125e-01</leafValues></_>
    <_>
      <internalNodes>
        0 -1 8575 -8.7317720055580139e-02</internalNodes>
      <leafValues>
        -5.3641700744628906e-01 1.9563181325793266e-02</leafValues></_>
    <_>
      <internalNodes>
        0 -1 18765 1.2729403376579285e-01</internalNodes>
      <leafValues>
        -5.6446224451065063e-02 2.1200829744338989e-01</leafValues></_>
    <_>
      <internalNodes>
        0 -1 30140 6.1136474832892418e-03</internalNodes>
      <leafValues>
        -8.8949434459209442e-02 1.2789535522460938e-01</leafValues></_>
    <_>
      <internalNodes>
        0 -1 18539 -9.2374933883547783e-03</internalNodes>
      <leafValues>
        -3.6465245485305786e-01 2.8785882517695427e-02</leafValues></_></weakClassifiers></stage9>
</opencv_storage>
