<?xml version="1.0"?>
<opencv_storage>
<stage2>
  <maxWeakCount>23</maxWeakCount>
  <stageThreshold>-2.2282609939575195e+00</stageThreshold>
  <weakClassifiers>
    <_>
      <internalNodes>
        0 -1 401 -1 2147434495 -67109889 1073691647 -655361 -327681 -1
        1073709055</internalNodes>
      <leafValues>
        -6.9475036859512329e-01 4.3797314167022705e-01</leafValues></_>
    <_>
      <internalNodes>
        0 -1 4 -1 -1 -1 -1 2004318199 -1048577 2012706677 -2188</internalNodes>
      <leafValues>
        -5.7185512781143188e-01 4.4417628645896912e-01</leafValues></_>
    <_>
      <internalNodes>
        0 -1 1049 251596479 1073692671 -16385 1073725439 218042111
        805306367 -1 -1431650385</internalNodes>
      <leafValues>
        -5.4275017976760864e-01 3.5853609442710876e-01</leafValues></_>
    <_>
      <internalNodes>
        0 -1 91 2080320127 -1 -16777217 -1 2012707703 -67108993 -32907
        -524425</internalNodes>
      <leafValues>
        -4.0611413121223450e-01 3.9730370044708252e-01</leafValues></_>
    <_>
      <internalNodes>
        0 -1 895 -33772660 -1074786305 -8585217 1073520637 -33706328
        -21793 -1362317656 -1476350324</internalNodes>
      <leafValues>
        -3.7904474139213562e-01 3.4339153766632080e-01</leafValues></_>
    <_>
      <internalNodes>
        0 -1 66 -1 -14503182 -1313281 -4983118 1865940991 -10325392
        1466398581 -8951945</internalNodes>
      <leafValues>
        -3.4246143698692322e-01 3.2603216171264648e-01</leafValues></_>
    <_>
      <internalNodes>
        0 -1 131 2011148174 1945862143 -28882 872396799 2012178287
        2147481471 2147446635 2080341871</internalNodes>
      <leafValues>
        -4.0978690981864929e-01 2.0858445763587952e-01</leafValues></_>
    <_>
      <internalNodes>
        0 -1 726 715669373 -1073955329 -1 -81923 805257215 -1073741825
        -1074053699 -1342438027</internalNodes>
      <leafValues>
        -3.5120463371276855e-01 2.3932260274887085e-01</leafValues></_>
    <_>
      <internalNodes>
        0 -1 237 -1023475073 578768511 -1431655681 544406783 1677405775
        998211135 -285262211 -218628241</internalNodes>
      <leafValues>
        -3.2129409909248352e-01 2.3360529541969299e-01</leafValues></_>
    <_>
      <internalNodes>
        0 -1 968 645795857 -1073988113 -71352321 -1610858499 -1342963851
        -281 -278723 -1363661316</internalNodes>
      <leafValues>
        -3.3179238438606262e-01 1.6096483170986176e-01</leafValues></_>
    <_>
      <internalNodes>
        0 -1 401 -638125100 -1686844597 536428306 -1007554945 -149226096
        905262868 1802582812 -519724269</internalNodes>
      <leafValues>
        -1.7671507596969604e-01 2.9944425821304321e-01</leafValues></_>
    <_>
      <internalNodes>
        0 -1 408 -1025050625 -118436130 -513 -269734170 56946175
        -18857994 -35089 -270196185</internalNodes>
      <leafValues>
        -1.6652823984622955e-01 3.3031290769577026e-01</leafValues></_>
    <_>
      <internalNodes>
        0 -1 0 1879048191 -524545 -269492225 -332033 2146435071
        -304088065 536737269 -838871563</internalNodes>
      <leafValues>
        -1.6845682263374329e-01 2.8954300284385681e-01</leafValues></_>
    <_>
      <internalNodes>
        0 -1 1115 -302003171 234737503 -1627399169 16449535 -1091576228
        -2099798824 -360776008 -1430585797</internalNodes>
      <leafValues>
        -2.1268317103385925e-01 2.0529261231422424e-01</leafValues></_>
    <_>
      <internalNodes>
        0 -1 1049 -2056343232 -1040194801 783970094 -889293914
        -1880231656 -587255825 213663672 939355003</internalNodes>
      <leafValues>
        -2.3009543120861053e-01 1.9723476469516754e-01</leafValues></_>
    <_>
      <internalNodes>
        0 -1 550 -1499433103 -83989251 -18874369 -71393795 800339771
        -35652033 1073181817 -1073785483</internalNodes>
      <leafValues>
        -2.2036737203598022e-01 1.9655670225620270e-01</leafValues></_>
    <_>
      <internalNodes>
        0 -1 4 -411566219 -288161994 -71319574 -369426526 -1916227779
        1341456370 -916464150 1203002539</internalNodes>
      <leafValues>
        -1.5495254099369049e-01 2.6920974254608154e-01</leafValues></_>
    <_>
      <internalNodes>
        0 -1 126 1660905599 717180413 -755857190 14839423 1987540602
        1467422582 -2950286 1675886207</internalNodes>
      <leafValues>
        -2.9863095283508301e-01 1.3515807688236237e-01</leafValues></_>
    <_>
      <internalNodes>
        0 -1 804 -1367687169 -1157709829 -8396801 -1073871105
        -1344348993 -16417 -1077969027 -1342238913</internalNodes>
      <leafValues>
        -1.4261718094348907e-01 2.7841603755950928e-01</leafValues></_>
    <_>
      <internalNodes>
        0 -1 419 -366951513 -559906166 1570494431 -47166577 639665551
        -86990165 894783797 -1097465</internalNodes>
      <leafValues>
        -1.7796248197555542e-01 2.0701506733894348e-01</leafValues></_>
    <_>
      <internalNodes>
        0 -1 1085 -268493487 -40961 -1358987425 1539272639 -335833776
        -8396834 -84738600 -1431651750</internalNodes>
      <leafValues>
        -1.5985909104347229e-01 2.2761298716068268e-01</leafValues></_>
    <_>
      <internalNodes>
        0 -1 1121 805244735 1073725435 1878507423 -1208025105 796881671
        -279450121 -1140893961 -1342177281</internalNodes>
      <leafValues>
        -1.9626703858375549e-01 1.6651521623134613e-01</leafValues></_>
    <_>
      <internalNodes>
        0 -1 120 -400038897 1793583739 -151868874 573193151 2003794271
        1952739165 -201392644 -72030209</internalNodes>
      <leafValues>
        -1.6377384960651398e-01 1.9741338491439819e-01</leafValues></_></weakClassifiers></stage2>
</opencv_storage>
