<?xml version="1.0"?>
<opencv_storage>
<stage5>
  <maxWeakCount>42</maxWeakCount>
  <stageThreshold>-2.1596832275390625e+00</stageThreshold>
  <weakClassifiers>
    <_>
      <internalNodes>
        0 -1 586 -1 2147467263 -262145 2147221503 -2097153 -65 -1
        2147450879</internalNodes>
      <leafValues>
        -6.3315117359161377e-01 2.8353261947631836e-01</leafValues></_>
    <_>
      <internalNodes>
        0 -1 2 -1 -1 -1 -1 2147450879 -1 2147450879 -559241</internalNodes>
      <leafValues>
        -3.5710853338241577e-01 4.8499816656112671e-01</leafValues></_>
    <_>
      <internalNodes>
        0 -1 13 -218955777 -256838657 -1 -786433 65535 -1610547211
        2004187135 2002221047</internalNodes>
      <leafValues>
        -3.6374148726463318e-01 3.4472110867500305e-01</leafValues></_>
    <_>
      <internalNodes>
        0 -1 1055 -1929400529 805289919 -1392559681 -1342177281
        805306367 -1342177281 -285213185 -268435473</internalNodes>
      <leafValues>
        -3.3339115977287292e-01 3.0911499261856079e-01</leafValues></_>
    <_>
      <internalNodes>
        0 -1 1041 -536881219 536815535 1610612735 1073725439 -353375560
        1073704639 -358810888 713359279</internalNodes>
      <leafValues>
        -2.9092830419540405e-01 3.0050480365753174e-01</leafValues></_>
    <_>
      <internalNodes>
        0 -1 132 -268435457 -1 -1 -33 268400639 -268436497 1342117365
        -2572</internalNodes>
      <leafValues>
        -2.9753351211547852e-01 2.6486942172050476e-01</leafValues></_>
    <_>
      <internalNodes>
        0 -1 82 -525313 -871693 -526345 -2891021 1263003647 -12377529
        1199010935 -559241</internalNodes>
      <leafValues>
        -2.4475581943988800e-01 2.9247784614562988e-01</leafValues></_>
    <_>
      <internalNodes>
        0 -1 121 -494935505 1920672319 -1058542866 1887435647 1937733503
        1887133567 -134218257 -134217729</internalNodes>
      <leafValues>
        -2.5482743978500366e-01 2.5538834929466248e-01</leafValues></_>
    <_>
      <internalNodes>
        0 -1 638 673333111 -17104897 -1025 -4260353 805273599
        -1073741825 -1074053635 -1342239627</internalNodes>
      <leafValues>
        -2.7160087227821350e-01 2.1813055872917175e-01</leafValues></_>
    <_>
      <internalNodes>
        0 -1 1100 -33604267 2146901855 -65537 1002110975 -34220 -32897
        -16975236 -1162150017</internalNodes>
      <leafValues>
        -2.0488962531089783e-01 2.7415350079536438e-01</leafValues></_>
    <_>
      <internalNodes>
        0 -1 2 267859767 -33573505 -1 -264265 -1387940537 -98441
        -1937787851 1147702681</internalNodes>
      <leafValues>
        -2.4527095258235931e-01 1.9849056005477905e-01</leafValues></_>
    <_>
      <internalNodes>
        0 -1 618 -1426412914 -1164394631 -1506236194 -1095045377
        -1344336708 -1342554113 -303062792 -34081499</internalNodes>
      <leafValues>
        -2.0004834234714508e-01 2.6273414492607117e-01</leafValues></_>
    <_>
      <internalNodes>
        0 -1 131 -67637265 1946123263 -1073746033 872415167 2012183547
        2147450735 -68452501 2078277247</internalNodes>
      <leafValues>
        -2.3027938604354858e-01 2.0561055839061737e-01</leafValues></_>
    <_>
      <internalNodes>
        0 -1 855 -1392894612 -1170587777 -610305 -1078304769 -33914888
        -65540 -1091035656 -1162199446</internalNodes>
      <leafValues>
        -2.4360311031341553e-01 1.8217982351779938e-01</leafValues></_>
    <_>
      <internalNodes>
        0 -1 505 -501022937 -458579270 -10487809 -807648252 1241523115
        -341136726 1162826805 -858959867</internalNodes>
      <leafValues>
        -2.6597636938095093e-01 1.6533797979354858e-01</leafValues></_>
    <_>
      <internalNodes>
        0 -1 982 -1359078059 -1074391779 -1 -1151705633 -12 -67
        -272957511 -1422259141</internalNodes>
      <leafValues>
        -2.0318438112735748e-01 2.0952349901199341e-01</leafValues></_>
    <_>
      <internalNodes>
        0 -1 586 1599273862 -7180497 2147352059 -1208665313 1394639360
        2146445156 2115022479 -1287281149</internalNodes>
      <leafValues>
        -1.4797601103782654e-01 2.7089902758598328e-01</leafValues></_>
    <_>
      <internalNodes>
        0 -1 99 846340898 1945630719 -338432033 -32769 2143768557
        -67796993 -8949937 -8945849</internalNodes>
      <leafValues>
        -2.3113873600959778e-01 1.7589588463306427e-01</leafValues></_>
    <_>
      <internalNodes>
        0 -1 372 774012787 -22897416 -549455881 -100737820 258036597
        -70320707 166675829 -855878284</internalNodes>
      <leafValues>
        -3.4598597884178162e-01 1.1236705631017685e-01</leafValues></_>
    <_>
      <internalNodes>
        0 -1 911 -838884694 536773003 167616698 -1613840433 268415998
        150970223 -16419 -1564152026</internalNodes>
      <leafValues>
        -2.0198319852352142e-01 1.9062533974647522e-01</leafValues></_>
    <_>
      <internalNodes>
        0 -1 120 -360716673 276767615 -227349762 -486801410 2004317047
        1986489687 -234954948 -201982209</internalNodes>
      <leafValues>
        -1.9325718283653259e-01 1.9836017489433289e-01</leafValues></_>
    <_>
      <internalNodes>
        0 -1 726 -1968112779 -1090715651 -1140850817 -1074227339
        -1347084363 -1078231617 -1074053779 -1359075977</internalNodes>
      <leafValues>
        -1.8708525598049164e-01 1.9212093949317932e-01</leafValues></_>
    <_>
      <internalNodes>
        0 -1 1060 -285336235 2135703071 -1 998127199 -1409287344
        -17047681 -475208 -1430716728</internalNodes>
      <leafValues>
        -2.1537528932094574e-01 1.5030881762504578e-01</leafValues></_>
    <_>
      <internalNodes>
        0 -1 429 -151263698 -72293982 1474222075 -37039269 1135581103
        -337353302 1946113445 -168692985</internalNodes>
      <leafValues>
        -1.6294243931770325e-01 1.9563040137290955e-01</leafValues></_>
    <_>
      <internalNodes>
        0 -1 347 1660881535 15925886 184477438 586809950 1736379726
        2002746743 -324139912 -34116049</internalNodes>
      <leafValues>
        -2.7483311295509338e-01 1.1838907748460770e-01</leafValues></_>
    <_>
      <internalNodes>
        0 -1 1055 2076135664 -18125201 1605624944 2129330031 -571534283
        2130698239 -1644755300 -1124074641</internalNodes>
      <leafValues>
        -1.3977126777172089e-01 2.3185548186302185e-01</leafValues></_>
    <_>
      <internalNodes>
        0 -1 1044 -285219217 536719119 989838010 19857263 1860169928
        -2004165928 -386139416 -1427243190</internalNodes>
      <leafValues>
        -1.6076180338859558e-01 1.9713254272937775e-01</leafValues></_>
    <_>
      <internalNodes>
        0 -1 1120 82773504 1048543103 -381833284 -1090863105 234816629
        802652027 -50373147 -1459683329</internalNodes>
      <leafValues>
        -3.0073186755180359e-01 1.0568630695343018e-01</leafValues></_>
    <_>
      <internalNodes>
        0 -1 13 -1049627930 -94180676 -271061386 -440600944 -246069817
        1526089614 1566022677 -863378343</internalNodes>
      <leafValues>
        -1.7998315393924713e-01 1.7194825410842896e-01</leafValues></_>
    <_>
      <internalNodes>
        0 -1 681 -365761938 -18291121 2147401727 -1348680307 213237679
        -89459525 -902091411 -1427434745</internalNodes>
      <leafValues>
        -1.3968698680400848e-01 2.1208870410919189e-01</leafValues></_>
    <_>
      <internalNodes>
        0 -1 114 1652533806 1651701127 1895755998 1391516407 1732663111
        1346731601 -253299212 -135793673</internalNodes>
      <leafValues>
        -1.9334638118743896e-01 1.4848345518112183e-01</leafValues></_>
    <_>
      <internalNodes>
        0 -1 829 -50929428 -17658812 -536936449 -35803145 -187318291
        -34473985 -538988883 -1480085561</internalNodes>
      <leafValues>
        -1.1993874609470367e-01 2.3885369300842285e-01</leafValues></_>
    <_>
      <internalNodes>
        0 -1 77 813667290 1039597567 1476181815 905969663 -132886780
        -42959035 -27210804 2115460930</internalNodes>
      <leafValues>
        -2.2467307746410370e-01 1.2207345664501190e-01</leafValues></_>
    <_>
      <internalNodes>
        0 -1 0 1799355775 -4260481 -8193 -1079447569 476936053
        -1893798913 1409242369 1152730228</internalNodes>
      <leafValues>
        -3.0839383602142334e-01 9.0216010808944702e-02</leafValues></_>
    <_>
      <internalNodes>
        0 -1 462 572684081 -591725132 -139468801 -33758212 259602933
        -1073824273 532630837 -856406928</internalNodes>
      <leafValues>
        -3.1060773134231567e-01 8.3765722811222076e-02</leafValues></_>
    <_>
      <internalNodes>
        0 -1 807 -1364283600 -1099026881 -4214851 -1985036289
        -1342718159 -1053953 -335647431 -1358221529</internalNodes>
      <leafValues>
        -1.5572638809680939e-01 1.8116328120231628e-01</leafValues></_>
    <_>
      <internalNodes>
        0 -1 652 -755828780 -923761593 -68683469 -1364352697 -1115637324
        -286113795 -898122218 577066247</internalNodes>
      <leafValues>
        -2.1016840636730194e-01 1.3022589683532715e-01</leafValues></_>
    <_>
      <internalNodes>
        0 -1 1113 704613897 536847625 -16803844 14311103 -857814964
        1157513560 -126195492 -1594819010</internalNodes>
      <leafValues>
        -2.2630074620246887e-01 1.1476190388202667e-01</leafValues></_>
    <_>
      <internalNodes>
        0 -1 126 1660889135 38759999 1258220078 578022914 1199209071
        1969700454 -369104012 -491258241</internalNodes>
      <leafValues>
        -2.6349875330924988e-01 9.3751192092895508e-02</leafValues></_>
    <_>
      <internalNodes>
        0 -1 66 -5595537 -266145246 -340066770 -139136382 -1520474257
        -150838509 1430738701 -683318713</internalNodes>
      <leafValues>
        -1.7222452163696289e-01 1.4302641153335571e-01</leafValues></_>
    <_>
      <internalNodes>
        0 -1 604 -528292337 -673783425 -549521729 -540244089 1094908591
        -338905163 1853679071 -270567673</internalNodes>
      <leafValues>
        -1.0555279999971390e-01 2.3737268149852753e-01</leafValues></_>
    <_>
      <internalNodes>
        0 -1 417 -500980989 -735149982 -10485763 -574849004 134329010
        -1346448933 -1086892575 -839531499</internalNodes>
      <leafValues>
        -1.6269522905349731e-01 1.4960981905460358e-01</leafValues></_></weakClassifiers></stage5>
</opencv_storage>
