<?xml version="1.0"?>
<opencv_storage>
<stage12>
  <maxWeakCount>100</maxWeakCount>
  <stageThreshold>-2.0115869045257568e+00</stageThreshold>
  <weakClassifiers>
    <_>
      <internalNodes>
        0 -1 524 -13631734 -1 -552599585 -8225 -80756849 -1093 -14680161
        -8289</internalNodes>
      <leafValues>
        -4.4924315810203552e-01 4.0955737233161926e-01</leafValues></_>
    <_>
      <internalNodes>
        0 -1 738 -1427570945 -285307650 -1 -1879112467 -1346633729
        -348709 -1141112833 -1879110401</internalNodes>
      <leafValues>
        -2.6977404952049255e-01 3.5264196991920471e-01</leafValues></_>
    <_>
      <internalNodes>
        0 -1 911 -709910294 -536936277 503124217 -538976257 -536870913
        -1614820353 -1 -1048577</internalNodes>
      <leafValues>
        -1.5763287246227264e-01 4.9370935559272766e-01</leafValues></_>
    <_>
      <internalNodes>
        0 -1 25 -129 -2049 -8388769 -1025 1863939895 -79693969
        1598780279 -526473</internalNodes>
      <leafValues>
        -2.2205802798271179e-01 2.3443029820919037e-01</leafValues></_>
    <_>
      <internalNodes>
        0 -1 203 -218973441 -68017933 -539041793 -9429197 1701855231
        -152031246 2012446591 2138142583</internalNodes>
      <leafValues>
        -2.3561449348926544e-01 2.0804728567600250e-01</leafValues></_>
    <_>
      <internalNodes>
        0 -1 1032 -336680 -49064 -4718625 -539010595 -5570600 -71592486
        -83165189 -83109409</internalNodes>
      <leafValues>
        -9.6438474953174591e-02 4.1155818104743958e-01</leafValues></_>
    <_>
      <internalNodes>
        0 -1 4 -1836545 -268501289 -537003521 -544277521 119682495
        -1899041793 1098862965 -536873116</internalNodes>
      <leafValues>
        -2.7391189336776733e-01 1.2436521053314209e-01</leafValues></_>
    <_>
      <internalNodes>
        0 -1 914 218039551 268382207 215694783 503316479 268385215
        1073692655 -1048577 803946379</internalNodes>
      <leafValues>
        -3.5757479071617126e-01 1.0537561774253845e-01</leafValues></_>
    <_>
      <internalNodes>
        0 -1 524 -2100296987 -635426302 552471074 -7839196 81086256
        -369088700 98894181 1124148581</internalNodes>
      <leafValues>
        -3.6322268843650818e-01 9.9459603428840637e-02</leafValues></_>
    <_>
      <internalNodes>
        0 -1 1069 1844985948 1501431832 -94511649 1498939673 -2363176
        -621078440 -72680454 -1207239797</internalNodes>
      <leafValues>
        -1.7448742687702179e-01 1.7249292135238647e-01</leafValues></_>
    <_>
      <internalNodes>
        0 -1 596 -352392466 -269213112 -5439505 -275911603 1339293611
        -895307126 -1105969 184641287</internalNodes>
      <leafValues>
        -1.6157381236553192e-01 1.6988380253314972e-01</leafValues></_>
    <_>
      <internalNodes>
        0 -1 3 1876369983 -69206473 -2105409 -807674889 1794518015
        -338214997 751792127 1081106549</internalNodes>
      <leafValues>
        -3.1518900394439697e-01 9.2206984758377075e-02</leafValues></_>
    <_>
      <internalNodes>
        0 -1 466 10551283 -319766884 -539107345 -39005955 24215547
        -1149463641 2145222525 -1610664587</internalNodes>
      <leafValues>
        -1.8539577722549438e-01 1.3552913069725037e-01</leafValues></_>
    <_>
      <internalNodes>
        0 -1 131 -201329682 1946148347 1006620426 872402167 1946122159
        1946120575 2147185483 2010869615</internalNodes>
      <leafValues>
        -2.0950701832771301e-01 1.2029201537370682e-01</leafValues></_>
    <_>
      <internalNodes>
        0 -1 261 -263271 -67191841 -67109029 1006582587 -570388736
        -1090515198 -11141355 1062477573</internalNodes>
      <leafValues>
        -2.9485613107681274e-01 7.4481785297393799e-02</leafValues></_>
    <_>
      <internalNodes>
        0 -1 879 -1359308588 -1073865714 -335873 -1077996321 801021823
        -1079267333 -5554363 732630399</internalNodes>
      <leafValues>
        -1.3175109028816223e-01 1.8504495918750763e-01</leafValues></_>
    <_>
      <internalNodes>
        0 -1 738 1572220160 -1113751583 -1076568321 -17238914 1584668569
        -1358995751 1841044925 2126184317</internalNodes>
      <leafValues>
        -1.6022045910358429e-01 1.4348728954792023e-01</leafValues></_>
    <_>
      <internalNodes>
        0 -1 1004 -1627413846 -1073763669 296661672 1001041903
        1324324064 248472298 -612831064 -1431785558</internalNodes>
      <leafValues>
        -1.6545607149600983e-01 1.3036951422691345e-01</leafValues></_>
    <_>
      <internalNodes>
        0 -1 237 1658782331 1081541215 9596159 41930495 1635215963
        1081301790 -84674449 1945632751</internalNodes>
      <leafValues>
        -2.3442307114601135e-01 9.4183243811130524e-02</leafValues></_>
    <_>
      <internalNodes>
        0 -1 862 -1359049200 -1090646402 -6569987 993704831 -1342193807
        -1074807841 -1082434103 -1951757189</internalNodes>
      <leafValues>
        -1.5799641609191895e-01 1.3427753746509552e-01</leafValues></_>
    <_>
      <internalNodes>
        0 -1 295 -135531585 -90008942 -1223705861 -576175936 254360555
        -896892280 1466660215 -572697577</internalNodes>
      <leafValues>
        -1.6355396807193756e-01 1.3390216231346130e-01</leafValues></_>
    <_>
      <internalNodes>
        0 -1 523 993701626 521285388 1043991226 2146979558 786804719
        -1073792024 1023344029 1339360293</internalNodes>
      <leafValues>
        -1.7445300519466400e-01 1.1475862562656403e-01</leafValues></_>
    <_>
      <internalNodes>
        0 -1 994 -73364 -536893319 -25168137 -33880737 -4522248
        -19137286 -81068550 -349459477</internalNodes>
      <leafValues>
        -7.0137411355972290e-02 2.7906212210655212e-01</leafValues></_>
    <_>
      <internalNodes>
        0 -1 973 -1431391148 -17151916 -788483 453659445 -1074021440
        -1293 -87507020 -1442267171</internalNodes>
      <leafValues>
        -2.2686508297920227e-01 8.4666669368743896e-02</leafValues></_>
    <_>
      <internalNodes>
        0 -1 771 -285282646 -537202774 -33849126 -70609445 -1352161142
        -361794061 -868253559 -69218229</internalNodes>
      <leafValues>
        -6.6360116004943848e-02 2.6760274171829224e-01</leafValues></_>
    <_>
      <internalNodes>
        0 -1 682 -33501300 -542576723 -18874482 -4698195 -653205756
        -5742611 -60424204 583034629</internalNodes>
      <leafValues>
        -2.1577048301696777e-01 7.4793525040149689e-02</leafValues></_>
    <_>
      <internalNodes>
        0 -1 246 -1490878601 -863962383 -3277846 -587139073 38221559
        -1364263970 256862113 -892840668</internalNodes>
      <leafValues>
        -2.1656110882759094e-01 7.6373063027858734e-02</leafValues></_>
    <_>
      <internalNodes>
        0 -1 627 -934215968 1045970788 740434170 -550470434 -1709691992
        -18317974 -142989413 -2393161</internalNodes>
      <leafValues>
        -1.0559216141700745e-01 1.5393044054508209e-01</leafValues></_>
    <_>
      <internalNodes>
        0 -1 1101 -41635 1543462239 -486674753 299584351 -134217920
        -545532213 -100733404 -1171013665</internalNodes>
      <leafValues>
        -9.0816855430603027e-02 1.6801643371582031e-01</leafValues></_>
    <_>
      <internalNodes>
        0 -1 91 711993898 853469791 11678446 842199802 1651735126
        1147140975 1920855156 1349906551</internalNodes>
      <leafValues>
        -2.3923151195049286e-01 6.4520306885242462e-02</leafValues></_>
    <_>
      <internalNodes>
        0 -1 911 -1428267243 1022163948 -908079706 665234151 670508736
        1651980179 -536903840 43327491</internalNodes>
      <leafValues>
        -1.7238420248031616e-01 8.5920520126819611e-02</leafValues></_>
    <_>
      <internalNodes>
        0 -1 1112 433900057 905801593 -207880397 402552575 -1141270769
        980635342 -1737037201 971897791</internalNodes>
      <leafValues>
        -1.6143970191478729e-01 9.4273708760738373e-02</leafValues></_>
    <_>
      <internalNodes>
        0 -1 1095 -269540318 2113875758 -2150470 1006563327 -1897267136
        -1093729094 -23396632 -1205665811</internalNodes>
      <leafValues>
        -1.3044546544551849e-01 1.1843653768301010e-01</leafValues></_>
    <_>
      <internalNodes>
        0 -1 514 -491741151 -538279808 -169871393 -571685683 -1565875285
        -22118230 2799477 -578190075</internalNodes>
      <leafValues>
        -1.3896851241588593e-01 1.0846485197544098e-01</leafValues></_>
    <_>
      <internalNodes>
        0 -1 704 -360799734 788398703 -1048820 250142703 1726968836
        1943811949 -37749912 1802894181</internalNodes>
      <leafValues>
        -1.9750122725963593e-01 7.6769389212131500e-02</leafValues></_>
    <_>
      <internalNodes>
        0 -1 558 -493716432 -1462720432 -737331 -1417149331 569579377
        -1359290401 1946113837 182351140</internalNodes>
      <leafValues>
        -1.6469016671180725e-01 8.6527973413467407e-02</leafValues></_>
    <_>
      <internalNodes>
        0 -1 120 -363928850 1081566845 853205758 1891292670 1935892590
        1715821654 -202113120 1943386087</internalNodes>
      <leafValues>
        -1.4192521572113037e-01 9.9899120628833771e-02</leafValues></_>
    <_>
      <internalNodes>
        0 -1 1055 218038305 784283567 -1934680016 -1360347893 247202869
        788225918 1224672269 251631983</internalNodes>
      <leafValues>
        -3.5043844580650330e-01 4.0794171392917633e-02</leafValues></_>
    <_>
      <internalNodes>
        0 -1 852 -21431044 -17293348 2084464282 -1078454760 -1074119688
        -385156 -1344390548 -1346750854</internalNodes>
      <leafValues>
        -8.5878491401672363e-02 1.6674107313156128e-01</leafValues></_>
    <_>
      <internalNodes>
        0 -1 701 2130231022 1039678823 -1088504068 -71975217 2074619822
        -299075 2092793518 2136564487</internalNodes>
      <leafValues>
        -1.4837916195392609e-01 9.7202464938163757e-02</leafValues></_>
    <_>
      <internalNodes>
        0 -1 581 540160930 -21434796 -6316282 -292755755 184643375
        -68534448 1340036453 201864519</internalNodes>
      <leafValues>
        -1.9418381154537201e-01 7.2141468524932861e-02</leafValues></_>
    <_>
      <internalNodes>
        0 -1 24 1872984879 -29597066 -1147150657 -442500369 120017687
        -1904220028 1170682229 -973736459</internalNodes>
      <leafValues>
        -1.9497467577457428e-01 7.0902854204177856e-02</leafValues></_>
    <_>
      <internalNodes>
        0 -1 25 1847734183 -79954384 -57453 -336499830 11206601
        -294193429 -810435160 -871858803</internalNodes>
      <leafValues>
        -1.0873205214738846e-01 1.2510077655315399e-01</leafValues></_>
    <_>
      <internalNodes>
        0 -1 944 -353713864 -1439446 -1083974258 -68024865 -1348559016
        -67129350 -1377283 -1442078133</internalNodes>
      <leafValues>
        -8.3629637956619263e-02 1.5796351432800293e-01</leafValues></_>
    <_>
      <internalNodes>
        0 -1 1032 -1360009361 -306275937 -25493969 -1388664945
        -272631694 -17909863 -24511588 780840745</internalNodes>
      <leafValues>
        -1.4480131864547729e-01 1.0329314321279526e-01</leafValues></_>
    <_>
      <internalNodes>
        0 -1 207 -424967637 -5250526 -155544931 -540057510 776331823
        -1626436117 1676111969 -706226841</internalNodes>
      <leafValues>
        -1.3104625046253204e-01 9.8145030438899994e-02</leafValues></_>
    <_>
      <internalNodes>
        0 -1 566 -2001193103 -39259088 -540024841 -35087244 799767551
        -6554371 -1090554371 -1900063255</internalNodes>
      <leafValues>
        -1.2518839538097382e-01 1.0689605772495270e-01</leafValues></_>
    <_>
      <internalNodes>
        0 -1 789 -1969601283 1052651518 -1636823302 -1216464161
        -1348956680 -604277253 -1145422344 -1079366801</internalNodes>
      <leafValues>
        -1.2425069510936737e-01 1.0309641808271408e-01</leafValues></_>
    <_>
      <internalNodes>
        0 -1 932 -285299472 -377601 -38158529 -1409335561 -268699784
        -262689 -1212236423 -1346666625</internalNodes>
      <leafValues>
        -7.4645146727561951e-02 1.7002241313457489e-01</leafValues></_>
    <_>
      <internalNodes>
        0 -1 128 1646764622 850871846 1611131502 40500302 658453323
        2067746575 1650939469 1196411727</internalNodes>
      <leafValues>
        -2.5493991374969482e-01 4.7731354832649231e-02</leafValues></_>
    <_>
      <internalNodes>
        0 -1 1050 -1908538336 -1346486674 503255280 -1434534922
        217191797 -2099283202 483270133 -1112227905</internalNodes>
      <leafValues>
        -1.7916058003902435e-01 6.8183265626430511e-02</leafValues></_>
    <_>
      <internalNodes>
        0 -1 866 -16794028 777922431 -95619587 171503535 -805871708
        -6297637 -13144304 707390728</internalNodes>
      <leafValues>
        -1.4811727404594421e-01 8.1638269126415253e-02</leafValues></_>
    <_>
      <internalNodes>
        0 -1 490 580580147 -22366168 -910174817 -688071439 170557371
        -72453867 227218789 -1647749859</internalNodes>
      <leafValues>
        -1.4065395295619965e-01 8.3005458116531372e-02</leafValues></_>
    <_>
      <internalNodes>
        0 -1 342 -500003218 1349917757 708456190 1618095854 2069925598
        2058047327 -50593793 -168558593</internalNodes>
      <leafValues>
        -7.3155991733074188e-02 1.6110618412494659e-01</leafValues></_>
    <_>
      <internalNodes>
        0 -1 9 -738283609 -164620396 -217 -5185691 1610633127 -225274652
        2002216503 -171673833</internalNodes>
      <leafValues>
        -1.6242098808288574e-01 7.9162321984767914e-02</leafValues></_>
    <_>
      <internalNodes>
        0 -1 1023 -1426081699 450834207 -302302462 60504991 -268435632
        -44046259 -134725704 -1423393943</internalNodes>
      <leafValues>
        -1.1413735151290894e-01 1.0520437359809875e-01</leafValues></_>
    <_>
      <internalNodes>
        0 -1 1108 -856536952 225402335 -289552441 268422093 -76157940
        -1342189346 -218300700 -1979123505</internalNodes>
      <leafValues>
        -1.5779383480548859e-01 7.3669314384460449e-02</leafValues></_>
    <_>
      <internalNodes>
        0 -1 907 -151068600 533513163 -1845496006 196926973 -956588604
        -19140482 -117440772 -356124825</internalNodes>
      <leafValues>
        -1.0854586213827133e-01 1.1032021790742874e-01</leafValues></_>
    <_>
      <internalNodes>
        0 -1 1069 -1897676800 -1963108087 -84271397 236607478 -50541624
        -335554096 -90972935 1806282492</internalNodes>
      <leafValues>
        -1.1055566370487213e-01 1.1004991829395294e-01</leafValues></_>
    <_>
      <internalNodes>
        0 -1 831 -454376416 -576027572 -671883785 -1390631 -881811751
        -44326547 -339475 -808778495</internalNodes>
      <leafValues>
        -9.2272169888019562e-02 1.2959852814674377e-01</leafValues></_>
    <_>
      <internalNodes>
        0 -1 750 1722214916 -1901195699 -139411508 -1366644053 178477889
        -1070465 1728214901 134742529</internalNodes>
      <leafValues>
        -2.2754786908626556e-01 5.1701858639717102e-02</leafValues></_>
    <_>
      <internalNodes>
        0 -1 678 -343219917 -340456 -201342978 -75811 -340086981
        -1393153 -71418691 -338705073</internalNodes>
      <leafValues>
        -6.1422001570463181e-02 1.8852242827415466e-01</leafValues></_>
    <_>
      <internalNodes>
        0 -1 83 724706026 -901121 -1073746218 -321157633 2102472687
        -1147450135 1873889138 -102743321</internalNodes>
      <leafValues>
        -1.4611858129501343e-01 8.1012785434722900e-02</leafValues></_>
    <_>
      <internalNodes>
        0 -1 1006 -1612 -129036 -1646454536 -392964 199958013
        -1359071746 -570458631 -1145673233</internalNodes>
      <leafValues>
        -6.4572423696517944e-02 1.8080492317676544e-01</leafValues></_>
    <_>
      <internalNodes>
        0 -1 524 788136598 636380072 -436852700 539241704 1861971311
        534449999 1744242272 -1400359358</internalNodes>
      <leafValues>
        -1.7415033280849457e-01 6.6906996071338654e-02</leafValues></_>
    <_>
      <internalNodes>
        0 -1 21 -557074 -33624338 -44056612 -1130037314 1896103832
        -1428132370 1597470553 1758291933</internalNodes>
      <leafValues>
        -1.1263922601938248e-01 1.0599599778652191e-01</leafValues></_>
    <_>
      <internalNodes>
        0 -1 921 -1359295108 -1090617751 249244190 -1074643460
        -1342539412 -295940 -1342228870 -1879699848</internalNodes>
      <leafValues>
        -1.0954134166240692e-01 1.0333284735679626e-01</leafValues></_>
    <_>
      <internalNodes>
        0 -1 855 -1461583776 -1304813794 -1882752520 -1365352833
        -1417932872 -268541985 -1427433479 -1413791875</internalNodes>
      <leafValues>
        -1.5557093918323517e-01 7.2570942342281342e-02</leafValues></_>
    <_>
      <internalNodes>
        0 -1 0 1331406779 -842604817 -184549425 -1141180417 371607483
        163229694 86594560 79978836</internalNodes>
      <leafValues>
        -2.2697740793228149e-01 4.9632653594017029e-02</leafValues></_>
    <_>
      <internalNodes>
        0 -1 454 1081246600 410652319 661793614 760375162 1885761354
        -77627574 -8962271 -8426677</internalNodes>
      <leafValues>
        -1.5454824268817902e-01 7.1695365011692047e-02</leafValues></_>
    <_>
      <internalNodes>
        0 -1 126 1660119566 981621295 -488968658 37415470 2053597810
        2004056663 -92538032 1916272511</internalNodes>
      <leafValues>
        -2.3275393247604370e-01 4.7701913863420486e-02</leafValues></_>
    <_>
      <internalNodes>
        0 -1 943 -979203936 1271181229 -21299345 1994821479 -1350186929
        -75639049 -1080180973 642166343</internalNodes>
      <leafValues>
        -1.6606689989566803e-01 6.5654002130031586e-02</leafValues></_>
    <_>
      <internalNodes>
        0 -1 843 -18940764 -1612141078 1585134058 -1342554118
        -1082212660 -1184146373 -1459637784 -1064597</internalNodes>
      <leafValues>
        -5.4619938135147095e-02 2.0159833133220673e-01</leafValues></_>
    <_>
      <internalNodes>
        0 -1 370 -201860240 -1233867122 -268451844 -1430405173
        -180326592 -211771627 1914116866 574970655</internalNodes>
      <leafValues>
        -1.5895310044288635e-01 7.0130839943885803e-02</leafValues></_>
    <_>
      <internalNodes>
        0 -1 833 -989871158 -572751027 -2753537 -810811403 1786240392
        -739281474 -1411080 -355800317</internalNodes>
      <leafValues>
        -8.4522135555744171e-02 1.3399818539619446e-01</leafValues></_>
    <_>
      <internalNodes>
        0 -1 262 790787121 -284536736 -1074438241 -539954984 263262017
        -1355874573 56578549 1308513777</internalNodes>
      <leafValues>
        -1.9511871039867401e-01 5.7674583047628403e-02</leafValues></_>
    <_>
      <internalNodes>
        0 -1 618 -269287730 -1722258440 -9391112 -135202985 -1946501398
        -1351074627 -4479508 -539185</internalNodes>
      <leafValues>
        -5.2774544805288315e-02 2.0635409653186798e-01</leafValues></_>
    <_>
      <internalNodes>
        0 -1 101 50012704 871595999 -1948405954 1072823039 1944536866
        2104766327 -683266544 912342544</internalNodes>
      <leafValues>
        -3.8392865657806396e-01 2.9647607356309891e-02</leafValues></_>
    <_>
      <internalNodes>
        0 -1 1100 -33862083 1600082263 -117442599 431675359 -151004348
        -1083281092 -25365792 -1426931969</internalNodes>
      <leafValues>
        -1.0581091046333313e-01 9.9935732781887054e-02</leafValues></_>
    <_>
      <internalNodes>
        0 -1 882 -421593535 -1426174113 -3032209 803118961 -1409585296
        -270549505 -339910703 -351577021</internalNodes>
      <leafValues>
        -8.4703959524631500e-02 1.2647807598114014e-01</leafValues></_>
    <_>
      <internalNodes>
        0 -1 417 52592642 -743833392 1574795251 -644956004 539140647
        -1312516190 455287141 -572260335</internalNodes>
      <leafValues>
        -1.7430025339126587e-01 6.0417532920837402e-02</leafValues></_>
    <_>
      <internalNodes>
        0 -1 217 -201348566 -68522306 -262010150 -108541253 1797902062
        -1204293733 1893455869 -203949057</internalNodes>
      <leafValues>
        -5.4491873830556870e-02 1.9586947560310364e-01</leafValues></_>
    <_>
      <internalNodes>
        0 -1 90 -290476246 -9444683 -1212720470 -1345330 2004836143
        -764723557 -646319123 -710422045</internalNodes>
      <leafValues>
        -8.7471678853034973e-02 1.2323029339313507e-01</leafValues></_>
    <_>
      <internalNodes>
        0 -1 203 200796718 -151193793 -2339336 1789904844 2126759178
        1866001977 -311488012 -723615992</internalNodes>
      <leafValues>
        -1.0383483767509460e-01 1.0293183475732803e-01</leafValues></_>
    <_>
      <internalNodes>
        0 -1 846 251406340 1022761016 140125244 -1107446241 1047666344
        2120431080 -38060049 634400801</internalNodes>
      <leafValues>
        -3.1091749668121338e-01 3.2808877527713776e-02</leafValues></_>
    <_>
      <internalNodes>
        0 -1 918 -421855796 -4444676 -1095883590 -269343520 -1409376596
        -19202178 -1981899282 -1073837075</internalNodes>
      <leafValues>
        -5.1740687340497971e-02 2.0148482918739319e-01</leafValues></_>
    <_>
      <internalNodes>
        0 -1 1120 16712960 1005530991 -1942117760 -1462575617 218042480
        1475837559 -185180300 -1594556545</internalNodes>
      <leafValues>
        -2.3722438514232635e-01 4.3991126120090485e-02</leafValues></_>
    <_>
      <internalNodes>
        0 -1 1048 -856757074 2147411949 -1377846618 437185519 1182659578
        218085967 -754976067 -1436504275</internalNodes>
      <leafValues>
        -1.0793939232826233e-01 9.3492262065410614e-02</leafValues></_>
    <_>
      <internalNodes>
        0 -1 402 -108341655 -72695288 -1217658881 -134232867 -1439246417
        -104268903 2087612861 -709192227</internalNodes>
      <leafValues>
        -7.1093417704105377e-02 1.3875475525856018e-01</leafValues></_>
    <_>
      <internalNodes>
        0 -1 466 -130974340 -151495728 -33695832 -1500203785 -1166872731
        -893225060 -1889585693 -356982914</internalNodes>
      <leafValues>
        -8.0027729272842407e-02 1.2364134192466736e-01</leafValues></_>
    <_>
      <internalNodes>
        0 -1 858 -1372931728 -1615962884 -556306435 -67354631
        -1078067459 -8388609 -1342513687 -1364510683</internalNodes>
      <leafValues>
        -1.0392967611551285e-01 9.5058418810367584e-02</leafValues></_>
    <_>
      <internalNodes>
        0 -1 738 1723271032 399654817 1878359732 1042294371 2109478718
        -251724068 1333675373 -65937578</internalNodes>
      <leafValues>
        -9.5396898686885834e-02 1.0256959497928619e-01</leafValues></_>
    <_>
      <internalNodes>
        0 -1 167 -1381849805 -277978576 -298106369 -648351180 194787955
        -923079944 1739552069 1288655973</internalNodes>
      <leafValues>
        -1.8022581934928894e-01 5.2393138408660889e-02</leafValues></_>
    <_>
      <internalNodes>
        0 -1 605 1527819946 2113585070 -24450049 2145976319 2130984358
        -22118621 -318652753 1904936199</internalNodes>
      <leafValues>
        -1.2304218113422394e-01 7.8959427773952484e-02</leafValues></_>
    <_>
      <internalNodes>
        0 -1 681 171112737 -555083680 1811136364 -1348944891 -274081906
        -72423238 -827884211 -368414441</internalNodes>
      <leafValues>
        -9.7130119800567627e-02 1.0092481225728989e-01</leafValues></_>
    <_>
      <internalNodes>
        0 -1 51 -277087249 -158008589 1870375790 -302977329 1329068847
        -85917914 2136175181 -268448442</internalNodes>
      <leafValues>
        -7.0602960884571075e-02 1.3316479325294495e-01</leafValues></_>
    <_>
      <internalNodes>
        0 -1 792 -1532880304 -278253736 -2107685 -1887909027 -1480897985
        -603982981 -269263515 -1965424540</internalNodes>
      <leafValues>
        -1.6451257467269897e-01 5.7990480214357376e-02</leafValues></_>
    <_>
      <internalNodes>
        0 -1 522 -13655510 -578936591 -813959686 -543504140 -1422419014
        -43014293 -536881731 -15909</internalNodes>
      <leafValues>
        -4.8125337809324265e-02 1.9473116099834442e-01</leafValues></_>
    <_>
      <internalNodes>
        0 -1 722 145885184 1709950 580397818 548944382 -1426455396
        1061124861 -1366677480 1051855658</internalNodes>
      <leafValues>
        -2.5963845849037170e-01 3.5744767636060715e-02</leafValues></_>
    <_>
      <internalNodes>
        0 -1 922 1258214909 -1363376724 -1646316184 -1402292060 -1089585
        -335585409 -286300068 -1342752659</internalNodes>
      <leafValues>
        -8.5780128836631775e-02 1.0753281414508820e-01</leafValues></_></weakClassifiers></stage12>
</opencv_storage>
