<?xml version="1.0"?>
<opencv_storage>
<stage0>
  <maxWeakCount>9</maxWeakCount>
  <stageThreshold>-2.1636514663696289e+00</stageThreshold>
  <weakClassifiers>
    <_>
      <internalNodes>
        0 -1 113 872358899 1946157055 -1 -1 2013214719 2147450879 -32769
        -32769</internalNodes>
      <leafValues>
        -7.3301136493682861e-01 6.0050517320632935e-01</leafValues></_>
    <_>
      <internalNodes>
        0 -1 0 -1 -1 -1 -1 -32905 -1 -34955 -657548</internalNodes>
      <leafValues>
        -6.3526821136474609e-01 6.1716020107269287e-01</leafValues></_>
    <_>
      <internalNodes>
        0 -1 23 -67896321 -1141130241 -1 1006582783 -143589417 871579511
        -8945793 930576215</internalNodes>
      <leafValues>
        -5.5264413356781006e-01 4.2826169729232788e-01</leafValues></_>
    <_>
      <internalNodes>
        0 -1 1121 805252919 805306367 -268435457 -1342242817 1073708927
        -1 -1 -268435457</internalNodes>
      <leafValues>
        -4.2718917131423950e-01 4.4067838788032532e-01</leafValues></_>
    <_>
      <internalNodes>
        0 -1 136 -1879834633 -268500993 -1 -65545 192378871 -1342177281
        1476359541 -35468</internalNodes>
      <leafValues>
        -3.6380147933959961e-01 4.3718135356903076e-01</leafValues></_>
    <_>
      <internalNodes>
        0 -1 127 -419484049 1660911487 -486560081 -486542337 1971287919
        2004844415 -36489 -142606753</internalNodes>
      <leafValues>
        -3.6885449290275574e-01 3.5418981313705444e-01</leafValues></_>
    <_>
      <internalNodes>
        0 -1 113 1080284686 -1091684497 599720878 851083259 242731783
        -278593665 401854260 2001127187</internalNodes>
      <leafValues>
        -4.4552716612815857e-01 2.4135144054889679e-01</leafValues></_>
    <_>
      <internalNodes>
        0 -1 727 -1431764993 -458753 -1 -65537 -1107296257 -1 -4194307
        -233987</internalNodes>
      <leafValues>
        -2.8915721178054810e-01 4.0827521681785583e-01</leafValues></_>
    <_>
      <internalNodes>
        0 -1 356 74610551 -288164779 -676347909 -352526667 58029943
        -1342242821 268392309 -1359317664</internalNodes>
      <leafValues>
        -3.9755752682685852e-01 2.4187891185283661e-01</leafValues></_></weakClassifiers></stage0>
</opencv_storage>
