<?xml version="1.0"?>
<opencv_storage>
<stage14>
  <maxWeakCount>100</maxWeakCount>
  <stageThreshold>-2.0294363498687744e+00</stageThreshold>
  <weakClassifiers>
    <_>
      <internalNodes>
        0 -1 507 -17478 -50373 -572522497 -49221 -1 -1 -1 -1</internalNodes>
      <leafValues>
        -4.5272368192672729e-01 3.8247373700141907e-01</leafValues></_>
    <_>
      <internalNodes>
        0 -1 911 -544496982 -544234870 301928696 -536872449 -1350041601
        -1346388033 -1 -1</internalNodes>
      <leafValues>
        -2.1888224780559540e-01 4.4857573509216309e-01</leafValues></_>
    <_>
      <internalNodes>
        0 -1 164 -521474322 -524243762 -280178738 -846928049 69464063
        14684151 2147448831 1338996607</internalNodes>
      <leafValues>
        -3.0321988463401794e-01 2.3030851781368256e-01</leafValues></_>
    <_>
      <internalNodes>
        0 -1 113 1946121207 1946157055 -2105345 -1 2013231103 2147450879
        -1081377 -4227265</internalNodes>
      <leafValues>
        -2.8784373402595520e-01 1.2314377725124359e-01</leafValues></_>
    <_>
      <internalNodes>
        0 -1 1 -2097153 -1057 -2081 -33562625 87521139 -4097 2017949047
        -559755</internalNodes>
      <leafValues>
        -2.0473355054855347e-01 2.4058474600315094e-01</leafValues></_>
    <_>
      <internalNodes>
        0 -1 313 -218700801 -134348033 -204801 -235537 275802031
        1888495410 1970634607 2136307527</internalNodes>
      <leafValues>
        -2.8659850358963013e-01 8.8998928666114807e-02</leafValues></_>
    <_>
      <internalNodes>
        0 -1 1069 -1828 -539015080 -33687553 -572534307 -67440424
        -553662248 -97846278 -83100741</internalNodes>
      <leafValues>
        -6.6853746771812439e-02 3.9037156105041504e-01</leafValues></_>
    <_>
      <internalNodes>
        0 -1 507 543809 489866980 -1059533122 1071901260 35654144
        -1108591070 85199360 525824</internalNodes>
      <leafValues>
        -3.1795233488082886e-01 1.0462626069784164e-01</leafValues></_>
    <_>
      <internalNodes>
        0 -1 714 -30353192 -8875651 -1406096710 -1075800321 -5601096
        -8421410 -1087722822 -5049345</internalNodes>
      <leafValues>
        -8.2502953708171844e-02 3.2474181056022644e-01</leafValues></_>
    <_>
      <internalNodes>
        0 -1 1066 -285289252 -44840 -67502593 1507792991 -268764432
        -2856 -71630856 -351600645</internalNodes>
      <leafValues>
        -1.5440994501113892e-01 1.6408509016036987e-01</leafValues></_>
    <_>
      <internalNodes>
        0 -1 1004 -1895849302 1072636546 -1331711830 984526767 116860654
        184419306 448329880 8432292</internalNodes>
      <leafValues>
        -2.9893022775650024e-01 7.6600164175033569e-02</leafValues></_>
    <_>
      <internalNodes>
        0 -1 356 538998771 -360647470 -262689 -33762315 85292535
        -1417107459 1461024245 -542297739</internalNodes>
      <leafValues>
        -2.3530472815036774e-01 1.0431239753961563e-01</leafValues></_>
    <_>
      <internalNodes>
        0 -1 103 1660103231 1895492351 1129210 1538451679 1920427895
        1611874942 1899229812 1902244647</internalNodes>
      <leafValues>
        -2.6429507136344910e-01 8.0939508974552155e-02</leafValues></_>
    <_>
      <internalNodes>
        0 -1 747 -289734657 -82435 -1 -1881174785 -4457733 -67387461
        -1076133953 -1347744677</internalNodes>
      <leafValues>
        -8.1653922796249390e-02 2.6637789607048035e-01</leafValues></_>
    <_>
      <internalNodes>
        0 -1 678 -358419973 -225188 -134217729 -27299 -1413824581
        -68425478 -1112908355 -842334207</internalNodes>
      <leafValues>
        -1.2778189778327942e-01 1.5898004174232483e-01</leafValues></_>
    <_>
      <internalNodes>
        0 -1 1 -81297625 -8389709 -20998337 -271065353 -20132867
        -18092164 -1040318995 1158206354</internalNodes>
      <leafValues>
        -1.0162433981895447e-01 1.8098065257072449e-01</leafValues></_>
    <_>
      <internalNodes>
        0 -1 1017 -16778799 -654376871 -201327617 459005951 -1032 -259
        -2834456 -1433681925</internalNodes>
      <leafValues>
        -1.0042221099138260e-01 1.8568661808967590e-01</leafValues></_>
    <_>
      <internalNodes>
        0 -1 779 -32096 497943592 -580050718 -1078264337 2145256960
        1056920462 1968861184 1887727936</internalNodes>
      <leafValues>
        -2.2805462777614594e-01 8.0744184553623199e-02</leafValues></_>
    <_>
      <internalNodes>
        0 -1 185 -14156809 -73227600 -113246786 -38104334 234945519
        -385703808 1427600757 -549097401</internalNodes>
      <leafValues>
        -1.8228206038475037e-01 1.0192658007144928e-01</leafValues></_>
    <_>
      <internalNodes>
        0 -1 457 -365493681 979306623 708504830 544958159 -352695601
        -67413185 -84218674 2050191071</internalNodes>
      <leafValues>
        -1.5966734290122986e-01 1.1467146128416061e-01</leafValues></_>
    <_>
      <internalNodes>
        0 -1 928 -1359081391 -1101128929 -42221571 723042077 -1413498959
        -1073742117 -1074037383 -1440084673</internalNodes>
      <leafValues>
        -1.5144196152687073e-01 1.1573304980993271e-01</leafValues></_>
    <_>
      <internalNodes>
        0 -1 1103 -1159427011 469704189 -1166022885 467656189
        -1342724321 -1891155713 -1393821969 972422655</internalNodes>
      <leafValues>
        -1.6048775613307953e-01 1.0115107893943787e-01</leafValues></_>
    <_>
      <internalNodes>
        0 -1 1091 -352712180 1524567112 -54608210 5176589 -336156136
        -85063656 -96797096 -1173684417</internalNodes>
      <leafValues>
        -1.7453940212726593e-01 9.6001617610454559e-02</leafValues></_>
    <_>
      <internalNodes>
        0 -1 429 -151061590 -170855486 1476318170 -574044736 -611074161
        -88018804 2004710805 -2272000</internalNodes>
      <leafValues>
        -1.2521776556968689e-01 1.3347235321998596e-01</leafValues></_>
    <_>
      <internalNodes>
        0 -1 126 -68157697 36129599 -487134530 1627070207 1937209215
        1585342287 -130547732 1935147007</internalNodes>
      <leafValues>
        -1.2696230411529541e-01 1.2370961159467697e-01</leafValues></_>
    <_>
      <internalNodes>
        0 -1 113 -1293973750 -1694547969 805263181 465565567 -159985
        -671921 2147453773 2134368225</internalNodes>
      <leafValues>
        -9.5405578613281250e-02 1.6281217336654663e-01</leafValues></_>
    <_>
      <internalNodes>
        0 -1 14 -67896385 -1624001153 -100663297 -13387969 -770640892
        975388436 -111804555 829781847</internalNodes>
      <leafValues>
        -2.3703987896442413e-01 6.9657385349273682e-02</leafValues></_>
    <_>
      <internalNodes>
        0 -1 726 -1438582913 -24199206 -1073742081 -1075513347
        -1481146369 -1078001733 -1074036739 -1346425473</internalNodes>
      <leafValues>
        -9.8184883594512939e-02 1.6199764609336853e-01</leafValues></_>
    <_>
      <internalNodes>
        0 -1 242 -1423837253 -705104899 -169904129 -6620165 255539199
        -335548417 201020925 -537045643</internalNodes>
      <leafValues>
        -1.5338081121444702e-01 1.0452100634574890e-01</leafValues></_>
    <_>
      <internalNodes>
        0 -1 911 679368800 635323749 -855642713 696815598 1405821504
        1484215134 1476285808 33562880</internalNodes>
      <leafValues>
        -2.6560166478157043e-01 5.7923417538404465e-02</leafValues></_>
    <_>
      <internalNodes>
        0 -1 1000 -16848664 -539054129 2147352575 328204271 -1008209200
        -621088326 -73466120 -1416888465</internalNodes>
      <leafValues>
        -8.0896101891994476e-02 1.9369086623191833e-01</leafValues></_>
    <_>
      <internalNodes>
        0 -1 1055 150929441 251637567 82782253 -1392848913 233637177
        788515326 150929663 -1343235089</internalNodes>
      <leafValues>
        -2.9041993618011475e-01 5.3629700094461441e-02</leafValues></_>
    <_>
      <internalNodes>
        0 -1 891 -1359039916 -80884 -76046501 -1886655015 -1409302724 -8
        -81100967 -1425277109</internalNodes>
      <leafValues>
        -8.5669964551925659e-02 1.7611217498779297e-01</leafValues></_>
    <_>
      <internalNodes>
        0 -1 498 -573919730 1609318317 -235929745 -67518561 -956265952
        -16204032 -16388284 1033383685</internalNodes>
      <leafValues>
        -2.1816352009773254e-01 7.1588017046451569e-02</leafValues></_>
    <_>
      <internalNodes>
        0 -1 723 -84222977 -17137665 712649342 712647901 -328710 -327954
        -1144291333 -1145345429</internalNodes>
      <leafValues>
        -5.7875983417034149e-02 2.4487005174160004e-01</leafValues></_>
    <_>
      <internalNodes>
        0 -1 164 989280563 507440435 -18497589 571073248 2144935688
        -1085809032 1744256841 -1258959290</internalNodes>
      <leafValues>
        -1.1593886464834213e-01 1.2177363038063049e-01</leafValues></_>
    <_>
      <internalNodes>
        0 -1 43 1811885887 -27318373 -805307137 2077949887 1841592183
        -1163252101 -907021921 -705309209</internalNodes>
      <leafValues>
        -8.9160971343517303e-02 1.4875806868076324e-01</leafValues></_>
    <_>
      <internalNodes>
        0 -1 831 -272964352 -575748690 -4238337 -4269057 -8474222
        -537137669 -5566035 -269516789</internalNodes>
      <leafValues>
        -6.4197346568107605e-02 2.0116402208805084e-01</leafValues></_>
    <_>
      <internalNodes>
        0 -1 683 984133290 1069526958 -589825 -1077956657 -273142098
        -16847106 -568984021 1058482959</internalNodes>
      <leafValues>
        -1.7742685973644257e-01 7.2720438241958618e-02</leafValues></_>
    <_>
      <internalNodes>
        0 -1 530 -94199294 -1872174237 -1238361382 -1074079126 731889546
        -1346707779 2004846072 -537673321</internalNodes>
      <leafValues>
        -8.6881853640079498e-02 1.5597710013389587e-01</leafValues></_>
    <_>
      <internalNodes>
        0 -1 390 539017011 -823074064 -109052997 -1914907439 184704827
        -829882976 1233867121 -857910203</internalNodes>
      <leafValues>
        -1.8068675696849823e-01 7.0625826716423035e-02</leafValues></_>
    <_>
      <internalNodes>
        0 -1 793 -1499300063 -268502804 -208672817 -2434159 -1079281665
        -352261 -1142818817 -1431675563</internalNodes>
      <leafValues>
        -1.6924472153186798e-01 7.4751354753971100e-02</leafValues></_>
    <_>
      <internalNodes>
        0 -1 79 1249585679 -97555753 -149007169 -119869745 2061729607
        1256893129 2147351294 -186255641</internalNodes>
      <leafValues>
        -1.1346246302127838e-01 1.1067397147417068e-01</leafValues></_>
    <_>
      <internalNodes>
        0 -1 826 1256368136 -555176064 -1572873 -9261163 1675657137
        -126025805 -995165035 549462805</internalNodes>
      <leafValues>
        -2.3502288758754730e-01 5.2722148597240448e-02</leafValues></_>
    <_>
      <internalNodes>
        0 -1 5 -100081017 -116744400 -2097347 -2495052 201391381
        -1447366914 1095001413 -993242812</internalNodes>
      <leafValues>
        -2.5531640648841858e-01 5.0786841660737991e-02</leafValues></_>
    <_>
      <internalNodes>
        0 -1 954 -823202528 -637557715 -143130632 -12930249 -570425944
        -1770260545 -331269 -139726069</internalNodes>
      <leafValues>
        -6.0878101736307144e-02 2.1341432631015778e-01</leafValues></_>
    <_>
      <internalNodes>
        0 -1 235 -1570574622 586171103 -278770097 157421423 1986486191
        -15508609 -45266 -280252561</internalNodes>
      <leafValues>
        -1.1573517322540283e-01 1.0418926924467087e-01</leafValues></_>
    <_>
      <internalNodes>
        0 -1 1044 1878994543 1068445487 -67108930 871301103 1316954632
        182078202 -84149543 -1429668017</internalNodes>
      <leafValues>
        -1.2230661511421204e-01 9.8791234195232391e-02</leafValues></_>
    <_>
      <internalNodes>
        0 -1 901 -419459985 1334732559 -538984807 181141493 2080355536
        -889806710 -604250416 -356387244</internalNodes>
      <leafValues>
        -1.2942035496234894e-01 9.0085543692111969e-02</leafValues></_>
    <_>
      <internalNodes>
        0 -1 238 1920985834 1675585067 1627309294 1648846406 2004867663
        390029151 -10518674 -142880945</internalNodes>
      <leafValues>
        -1.2914812564849854e-01 8.9367270469665527e-02</leafValues></_>
    <_>
      <internalNodes>
        0 -1 417 -1993694429 -544571184 1602059775 -575089456 187863227
        -1953582950 393425333 -537033599</internalNodes>
      <leafValues>
        -1.1615286767482758e-01 1.0091311484575272e-01</leafValues></_>
    <_>
      <internalNodes>
        0 -1 756 680590625 -1256183 -570507265 -268513977 1270235067
        -1074072614 -12626627 -1366686453</internalNodes>
      <leafValues>
        -1.0629393905401230e-01 1.1216010153293610e-01</leafValues></_>
    <_>
      <internalNodes>
        0 -1 941 -356599227 -1373762484 1572453371 722001181 -1342571968
        -67141668 -25477856 -1979666943</internalNodes>
      <leafValues>
        -1.6524355113506317e-01 7.1389853954315186e-02</leafValues></_>
    <_>
      <internalNodes>
        0 -1 994 -286342356 -536968179 -65793 -279278227 -676397864
        -23932454 -366280709 -1574730997</internalNodes>
      <leafValues>
        -8.5434392094612122e-02 1.3709434866905212e-01</leafValues></_>
    <_>
      <internalNodes>
        0 -1 797 -30769615 -84005935 -8388745 -274732259 183173109
        -1074020449 1070036989 -1431613067</internalNodes>
      <leafValues>
        -9.9071927368640900e-02 1.2167198956012726e-01</leafValues></_>
    <_>
      <internalNodes>
        0 -1 1052 -1396919248 -1932727004 -1661203020 -877420
        -1359662619 -1358962689 232723645 -1342251923</internalNodes>
      <leafValues>
        -1.2166002392768860e-01 9.2034757137298584e-02</leafValues></_>
    <_>
      <internalNodes>
        0 -1 634 -396754721 536354047 -1729989954 783963614 -290681602
        -19370242 -21358564 -281380353</internalNodes>
      <leafValues>
        -1.0574552416801453e-01 1.0681863129138947e-01</leafValues></_>
    <_>
      <internalNodes>
        0 -1 1104 -805357803 2147419743 -48764374 603717623 -268440252
        -1049227 -68092736 -1422853313</internalNodes>
      <leafValues>
        -1.1569271236658096e-01 9.7120389342308044e-02</leafValues></_>
    <_>
      <internalNodes>
        0 -1 604 -367860990 -611523996 -1658960690 -287384867 173159171
        -873966713 897525189 -1069460665</internalNodes>
      <leafValues>
        -1.4204028248786926e-01 7.5449906289577484e-02</leafValues></_>
    <_>
      <internalNodes>
        0 -1 888 -359994132 -146871074 -541851650 -1079358297 -336593236
        -306257 -273744071 -341113585</internalNodes>
      <leafValues>
        -6.6776067018508911e-02 1.6853128373622894e-01</leafValues></_>
    <_>
      <internalNodes>
        0 -1 99 586810146 1946088445 1633403948 -537272579 2122198575
        -81445066 -1436209324 -9011882</internalNodes>
      <leafValues>
        -1.7751590907573700e-01 6.4017586410045624e-02</leafValues></_>
    <_>
      <internalNodes>
        0 -1 1004 1961768970 -835015089 1235134672 16971658 -823665276
        -387015842 -39949325 -1439924437</internalNodes>
      <leafValues>
        -1.1665025353431702e-01 9.6158519387245178e-02</leafValues></_>
    <_>
      <internalNodes>
        0 -1 783 -290275666 -1103221906 -1497580450 -1359869525
        -268783954 -1425921 -1095064326 -1515122743</internalNodes>
      <leafValues>
        -6.9484002888202667e-02 1.5704904496669769e-01</leafValues></_>
    <_>
      <internalNodes>
        0 -1 1120 218039555 133128191 -589306334 -1143283715 8062064
        620756733 -438317083 -1459625985</internalNodes>
      <leafValues>
        -1.9911196827888489e-01 5.5965933948755264e-02</leafValues></_>
    <_>
      <internalNodes>
        0 -1 1016 -285231523 148440925 -1194213513 576298267 -1343226288
        -16863403 -3826840 -1976988403</internalNodes>
      <leafValues>
        -1.1959254741668701e-01 8.6703538894653320e-02</leafValues></_>
    <_>
      <internalNodes>
        0 -1 0 1786767151 -6304401 -2363409 -340199761 117254378
        -1892752401 156127509 -2065939388</internalNodes>
      <leafValues>
        -1.9468751549720764e-01 5.3210631012916565e-02</leafValues></_>
    <_>
      <internalNodes>
        0 -1 856 -17629731 -1426408996 1023217654 805217899 -1145295891
        -1073776275 -1414592133 -1411657622</internalNodes>
      <leafValues>
        -6.8299993872642517e-02 1.5057802200317383e-01</leafValues></_>
    <_>
      <internalNodes>
        0 -1 1117 -285242360 1608515367 -323162578 953875431 -966797602
        -2674600 -88146004 -118292481</internalNodes>
      <leafValues>
        -8.7813332676887512e-02 1.1927489191293716e-01</leafValues></_>
    <_>
      <internalNodes>
        0 -1 189 -104911190 -35967233 687783912 -46530964 69216032
        -1081989892 1308976439 -381345792</internalNodes>
      <leafValues>
        -1.8387979269027710e-01 5.6304223835468292e-02</leafValues></_>
    <_>
      <internalNodes>
        0 -1 12 -2099922 -528293270 -268976150 -1482015754 863322047
        573872037 2134340365 199931854</internalNodes>
      <leafValues>
        -8.9614346623420715e-02 1.1897344887256622e-01</leafValues></_>
    <_>
      <internalNodes>
        0 -1 897 -471144416 -848777460 -67125382 -1345155265 -537135956
        -1678773266 -349504723 -1414797557</internalNodes>
      <leafValues>
        -6.9710582494735718e-02 1.5323440730571747e-01</leafValues></_>
    <_>
      <internalNodes>
        0 -1 155 755121975 -928714206 -1223173142 -791096750 589396915
        -1429695268 1969714997 -912435899</internalNodes>
      <leafValues>
        -1.8397454917430878e-01 5.5328078567981720e-02</leafValues></_>
    <_>
      <internalNodes>
        0 -1 778 804794112 265035517 215746292 800460730 738069740
        732768751 -1359335704 15953157</internalNodes>
      <leafValues>
        -3.3881640434265137e-01 2.9350716620683670e-02</leafValues></_>
    <_>
      <internalNodes>
        0 -1 771 -419897302 -604049933 -134535432 -2433591 -1053578838
        -10072597 -1665234468 -67430965</internalNodes>
      <leafValues>
        -5.8295678347349167e-02 1.8086507916450500e-01</leafValues></_>
    <_>
      <internalNodes>
        0 -1 470 -252576269 -126319148 2144313165 -30085899 1675067389
        -1142711553 -403180033 -1902119570</internalNodes>
      <leafValues>
        -5.6466411799192429e-02 1.7596024274826050e-01</leafValues></_>
    <_>
      <internalNodes>
        0 -1 639 234906384 -20255272 -5373989 -86050431 732059061
        -2106453 17784589 -1367337967</internalNodes>
      <leafValues>
        -2.5338447093963623e-01 3.9345744997262955e-02</leafValues></_>
    <_>
      <internalNodes>
        0 -1 1051 -1057126742 1609543151 -1140873014 972484079 234816756
        91906018 -184615438 -1163067397</internalNodes>
      <leafValues>
        -9.5799937844276428e-02 1.0194981843233109e-01</leafValues></_>
    <_>
      <internalNodes>
        0 -1 90 117432363 -357670153 -186721654 -1566386994 124738399
        1087008530 1440445028 1088897091</internalNodes>
      <leafValues>
        -1.9608369469642639e-01 4.9715694040060043e-02</leafValues></_>
    <_>
      <internalNodes>
        0 -1 227 -84245970 1899981566 575850750 -789320761 1876359919
        1887379035 -153358084 -239600705</internalNodes>
      <leafValues>
        -6.1161205172538757e-02 1.6701617836952209e-01</leafValues></_>
    <_>
      <internalNodes>
        0 -1 822 -358421400 -269859796 -201348194 -1149071907
        -1347272855 -272647172 -1480689283 -1417019135</internalNodes>
      <leafValues>
        -1.2705700099468231e-01 7.7055841684341431e-02</leafValues></_>
    <_>
      <internalNodes>
        0 -1 237 1651975727 1887397853 855301373 1660680190 1799835246
        410465055 -361574832 1945369199</internalNodes>
      <leafValues>
        -1.7779679596424103e-01 5.3724560886621475e-02</leafValues></_>
    <_>
      <internalNodes>
        0 -1 807 -387989696 -1090640561 -544477591 732573515 788459376
        -1074271281 1731663145 170526027</internalNodes>
      <leafValues>
        -1.1409867554903030e-01 8.2683287560939789e-02</leafValues></_>
    <_>
      <internalNodes>
        0 -1 1024 -67191823 1508065357 -401 1408958327 -269488675
        -855638725 -475395 -1442730051</internalNodes>
      <leafValues>
        -8.3019301295280457e-02 1.1310636252164841e-01</leafValues></_>
    <_>
      <internalNodes>
        0 -1 796 -262209543 -83976657 -44040209 -1086763019 -1476526083
        -1351614529 -22323907 -1883291579</internalNodes>
      <leafValues>
        -6.1888210475444794e-02 1.5289518237113953e-01</leafValues></_>
    <_>
      <internalNodes>
        0 -1 1110 -268489715 201287709 -83886666 290455391 -268439992
        -289553836 -151078676 -355278897</internalNodes>
      <leafValues>
        -1.0069692879915237e-01 9.6085645258426666e-02</leafValues></_>
    <_>
      <internalNodes>
        0 -1 1010 -1098179271 -1078029218 -1896409668 -1075140104
        788352847 -1879051042 1073495420 -1342220244</internalNodes>
      <leafValues>
        -1.2603402137756348e-01 7.3052696883678436e-02</leafValues></_>
    <_>
      <internalNodes>
        0 -1 607 246971040 1595979690 -136458 -1076118651 2097429127
        1607005739 -201863250 809852675</internalNodes>
      <leafValues>
        -1.7132839560508728e-01 5.3129993379116058e-02</leafValues></_>
    <_>
      <internalNodes>
        0 -1 120 673638926 538619517 -488463222 544872062 1931899718
        1681983837 -512565344 -136971533</internalNodes>
      <leafValues>
        -1.4621478319168091e-01 6.2998764216899872e-02</leafValues></_>
    <_>
      <internalNodes>
        0 -1 626 -824275832 1012533564 1029319418 -1108333790
        -1346720536 -1090887749 -4543828 -34118155</internalNodes>
      <leafValues>
        -7.4290260672569275e-02 1.2770032882690430e-01</leafValues></_>
    <_>
      <internalNodes>
        0 -1 665 -891107228 -1396659106 -16883 -1394757651 -1577016692
        -696731907 -1074799587 549748559</internalNodes>
      <leafValues>
        -1.7406523227691650e-01 5.1316142082214355e-02</leafValues></_>
    <_>
      <internalNodes>
        0 -1 587 -386140394 -2100234878 1878597548 -1343734013
        1660321725 -1091129382 1743927112 195163439</internalNodes>
      <leafValues>
        -1.0508266836404800e-01 9.3820951879024506e-02</leafValues></_>
    <_>
      <internalNodes>
        0 -1 852 -1428146940 -1401279108 1067396792 -1885727216
        -1346487944 -12706180 805120124 -1346422145</internalNodes>
      <leafValues>
        -1.5565997362136841e-01 6.0001995414495468e-02</leafValues></_>
    <_>
      <internalNodes>
        0 -1 915 -1397453664 -1077240148 482216104 -1342570244
        1073626440 -1082228753 -1086543768 -1345038614</internalNodes>
      <leafValues>
        -1.1058133840560913e-01 8.5044153034687042e-02</leafValues></_>
    <_>
      <internalNodes>
        0 -1 80 -164634069 -98311630 995000290 -15798037 121599867
        -918281656 2004316485 -1052389017</internalNodes>
      <leafValues>
        -1.6532593965530396e-01 5.4651092737913132e-02</leafValues></_>
    <_>
      <internalNodes>
        0 -1 327 -1561687506 -563562360 855053038 -135633710 772443883
        -16791591 1890537676 -508046857</internalNodes>
      <leafValues>
        -7.3509380221366882e-02 1.2785317003726959e-01</leafValues></_>
    <_>
      <internalNodes>
        0 -1 550 572538161 -2172590 -2162727 -21301795 248477181
        -1350634756 -1887470211 -1929478795</internalNodes>
      <leafValues>
        -1.4502139389514923e-01 5.9729233384132385e-02</leafValues></_>
    <_>
      <internalNodes>
        0 -1 1121 167714816 805273451 -1934061664 -1999696859 218059029
        737802355 250566035 218096767</internalNodes>
      <leafValues>
        -2.4816705286502838e-01 3.4349933266639709e-02</leafValues></_>
    <_>
      <internalNodes>
        0 -1 42 -290738385 -956784868 1877978918 -356999946 261782885
        -1595085860 -1753783516 1171641557</internalNodes>
      <leafValues>
        -1.8072986602783203e-01 4.4797502458095551e-02</leafValues></_>
    <_>
      <internalNodes>
        0 -1 560 -268145920 1762404932 1543241542 -70470767 1526771636
        -39309440 -584761403 536899927</internalNodes>
      <leafValues>
        -1.9159834086894989e-01 4.3268095701932907e-02</leafValues></_>
    <_>
      <internalNodes>
        0 -1 935 -1392657835 -1695667444 -134627431 993882029
        -1346391072 -27329322 -277119191 -1423196625</internalNodes>
      <leafValues>
        -6.8782001733779907e-02 1.2013230472803116e-01</leafValues></_></weakClassifiers></stage14>
</opencv_storage>
