<?xml version="1.0"?>
<opencv_storage>
<stage7>
  <maxWeakCount>100</maxWeakCount>
  <stageThreshold>-1.5902098417282104e+00</stageThreshold>
  <weakClassifiers>
    <_>
      <internalNodes>
        0 -1 21622 -3.1153416633605957e-01</internalNodes>
      <leafValues>
        5.3060537576675415e-01 -2.2540429234504700e-01</leafValues></_>
    <_>
      <internalNodes>
        0 -1 1040 -1.4649896183982491e-04</internalNodes>
      <leafValues>
        1.7137916386127472e-01 -3.9433106780052185e-01</leafValues></_>
    <_>
      <internalNodes>
        0 -1 10462 -8.4728497266769409e-01</internalNodes>
      <leafValues>
        4.9561253190040588e-01 -9.0955153107643127e-02</leafValues></_>
    <_>
      <internalNodes>
        0 -1 9 -1.4075689250603318e-04</internalNodes>
      <leafValues>
        1.0658153891563416e-01 -3.2609751820564270e-01</leafValues></_>
    <_>
      <internalNodes>
        0 -1 88 -6.2003005295991898e-03</internalNodes>
      <leafValues>
        2.6751726865768433e-01 -1.4392034709453583e-01</leafValues></_>
    <_>
      <internalNodes>
        0 -1 11742 -1.2230094522237778e-01</internalNodes>
      <leafValues>
        2.5801834464073181e-01 -1.5692123770713806e-01</leafValues></_>
    <_>
      <internalNodes>
        0 -1 13453 -1.3528069853782654e-01</internalNodes>
      <leafValues>
        3.6808100342750549e-01 -8.1442974507808685e-02</leafValues></_>
    <_>
      <internalNodes>
        0 -1 4337 1.9173093140125275e-02</internalNodes>
      <leafValues>
        -1.6395486891269684e-01 1.5113894641399384e-01</leafValues></_>
    <_>
      <internalNodes>
        0 -1 35074 -9.2585803940892220e-05</internalNodes>
      <leafValues>
        8.9282229542732239e-02 -2.1866522729396820e-01</leafValues></_>
    <_>
      <internalNodes>
        0 -1 3252 7.7423191396519542e-04</internalNodes>
      <leafValues>
        5.8420132845640182e-02 -3.9986881613731384e-01</leafValues></_>
    <_>
      <internalNodes>
        0 -1 9345 6.2981741502881050e-03</internalNodes>
      <leafValues>
        4.3573617935180664e-02 -4.2216911911964417e-01</leafValues></_>
    <_>
      <internalNodes>
        0 -1 16506 2.1107308566570282e-02</internalNodes>
      <leafValues>
        -8.3672292530536652e-02 2.5931403040885925e-01</leafValues></_>
    <_>
      <internalNodes>
        0 -1 7208 2.3807121440768242e-02</internalNodes>
      <leafValues>
        -9.7849711775779724e-02 2.5530102849006653e-01</leafValues></_>
    <_>
      <internalNodes>
        0 -1 20626 -6.6476434469223022e-02</internalNodes>
      <leafValues>
        2.9457122087478638e-01 -7.2138145565986633e-02</leafValues></_>
    <_>
      <internalNodes>
        0 -1 1436 1.2270400300621986e-02</internalNodes>
      <leafValues>
        5.4529495537281036e-02 -4.6513888239860535e-01</leafValues></_>
    <_>
      <internalNodes>
        0 -1 13409 1.2325633317232132e-02</internalNodes>
      <leafValues>
        -9.6753336489200592e-02 1.9303797185420990e-01</leafValues></_>
    <_>
      <internalNodes>
        0 -1 998 1.2639234773814678e-03</internalNodes>
      <leafValues>
        6.3669152557849884e-02 -3.6418682336807251e-01</leafValues></_>
    <_>
      <internalNodes>
        0 -1 997 3.6163916811347008e-03</internalNodes>
      <leafValues>
        4.7779317945241928e-02 -3.8762125372886658e-01</leafValues></_>
    <_>
      <internalNodes>
        0 -1 33660 1.7635021358728409e-02</internalNodes>
      <leafValues>
        -6.8050749599933624e-02 2.7715995907783508e-01</leafValues></_>
    <_>
      <internalNodes>
        0 -1 901 -1.4774341881275177e-01</internalNodes>
      <leafValues>
        1.3285587728023529e-01 -1.3660538196563721e-01</leafValues></_>
    <_>
      <internalNodes>
        0 -1 3061 -1.7022415995597839e-03</internalNodes>
      <leafValues>
        -3.5718715190887451e-01 5.1415253430604935e-02</leafValues></_>
    <_>
      <internalNodes>
        0 -1 34963 1.6440773615613580e-03</internalNodes>
      <leafValues>
        -1.4058066904544830e-01 1.2938307225704193e-01</leafValues></_>
    <_>
      <internalNodes>
        0 -1 9001 1.8735550343990326e-02</internalNodes>
      <leafValues>
        -7.3963589966297150e-02 2.5585472583770752e-01</leafValues></_>
    <_>
      <internalNodes>
        0 -1 21622 -3.1261378526687622e-01</internalNodes>
      <leafValues>
        -2.4513952434062958e-01 7.1214064955711365e-02</leafValues></_>
    <_>
      <internalNodes>
        0 -1 19541 -1.5352509915828705e-01</internalNodes>
      <leafValues>
        3.2930651307106018e-01 -5.2564013749361038e-02</leafValues></_>
    <_>
      <internalNodes>
        0 -1 12325 -5.2904906624462456e-05</internalNodes>
      <leafValues>
        1.0429450869560242e-01 -1.5726734697818756e-01</leafValues></_>
    <_>
      <internalNodes>
        0 -1 22567 1.7887311987578869e-03</internalNodes>
      <leafValues>
        4.3077114969491959e-02 -3.7793219089508057e-01</leafValues></_>
    <_>
      <internalNodes>
        0 -1 17997 8.3975400775671005e-03</internalNodes>
      <leafValues>
        -8.9592114090919495e-02 2.1031206846237183e-01</leafValues></_>
    <_>
      <internalNodes>
        0 -1 9711 -1.6755534335970879e-02</internalNodes>
      <leafValues>
        2.5772106647491455e-01 -6.9445542991161346e-02</leafValues></_>
    <_>
      <internalNodes>
        0 -1 31757 2.3447566200047731e-03</internalNodes>
      <leafValues>
        3.6408286541700363e-02 -4.0726715326309204e-01</leafValues></_>
    <_>
      <internalNodes>
        0 -1 27811 -8.7945815175771713e-03</internalNodes>
      <leafValues>
        -3.4841921925544739e-01 4.0848311036825180e-02</leafValues></_>
    <_>
      <internalNodes>
        0 -1 17665 2.9129369650036097e-03</internalNodes>
      <leafValues>
        3.0341161414980888e-02 -4.1021230816841125e-01</leafValues></_>
    <_>
      <internalNodes>
        0 -1 2717 -7.0987287908792496e-03</internalNodes>
      <leafValues>
        2.0927292108535767e-01 -6.7314371466636658e-02</leafValues></_>
    <_>
      <internalNodes>
        0 -1 32909 1.9319597049616277e-04</internalNodes>
      <leafValues>
        -1.5109911561012268e-01 9.4817511737346649e-02</leafValues></_>
    <_>
      <internalNodes>
        0 -1 24785 -2.2148108109831810e-03</internalNodes>
      <leafValues>
        -3.2734635472297668e-01 3.9347499608993530e-02</leafValues></_>
    <_>
      <internalNodes>
        0 -1 15184 1.7244458198547363e-02</internalNodes>
      <leafValues>
        3.2681751996278763e-02 -3.7240436673164368e-01</leafValues></_>
    <_>
      <internalNodes>
        0 -1 1040 8.7131877080537379e-05</internalNodes>
      <leafValues>
        -7.2448484599590302e-02 2.1140895783901215e-01</leafValues></_>
    <_>
      <internalNodes>
        0 -1 3314 -1.2808351311832666e-04</internalNodes>
      <leafValues>
        8.5336647927761078e-02 -1.8042890727519989e-01</leafValues></_>
    <_>
      <internalNodes>
        0 -1 2 -1.0740131256170571e-04</internalNodes>
      <leafValues>
        1.4281277358531952e-01 -1.0020944476127625e-01</leafValues></_>
    <_>
      <internalNodes>
        0 -1 24798 3.1468579545617104e-03</internalNodes>
      <leafValues>
        3.7153605371713638e-02 -3.4714251756668091e-01</leafValues></_>
    <_>
      <internalNodes>
        0 -1 21918 1.3064072467386723e-02</internalNodes>
      <leafValues>
        -4.2850945144891739e-02 3.1142616271972656e-01</leafValues></_>
    <_>
      <internalNodes>
        0 -1 2891 -4.3521500192582607e-03</internalNodes>
      <leafValues>
        -3.6049193143844604e-01 3.3620379865169525e-02</leafValues></_>
    <_>
      <internalNodes>
        0 -1 3207 -1.2536013964563608e-03</internalNodes>
      <leafValues>
        -2.1270266175270081e-01 5.4688367992639542e-02</leafValues></_>
    <_>
      <internalNodes>
        0 -1 21687 -5.3822733461856842e-03</internalNodes>
      <leafValues>
        1.5669725835323334e-01 -7.7181473374366760e-02</leafValues></_>
    <_>
      <internalNodes>
        0 -1 285 8.4631228819489479e-03</internalNodes>
      <leafValues>
        -7.0555895566940308e-02 1.6503380239009857e-01</leafValues></_>
    <_>
      <internalNodes>
        0 -1 28714 3.2760123722255230e-03</internalNodes>
      <leafValues>
        3.7824705243110657e-02 -3.3233296871185303e-01</leafValues></_>
    <_>
      <internalNodes>
        0 -1 34901 -2.7018826454877853e-02</internalNodes>
      <leafValues>
        3.0435344576835632e-01 -4.1065979748964310e-02</leafValues></_>
    <_>
      <internalNodes>
        0 -1 19433 7.5099691748619080e-03</internalNodes>
      <leafValues>
        -8.5208982229232788e-02 1.6858088970184326e-01</leafValues></_>
    <_>
      <internalNodes>
        0 -1 3291 7.1499566547572613e-04</internalNodes>
      <leafValues>
        5.5612158030271530e-02 -2.4253472685813904e-01</leafValues></_>
    <_>
      <internalNodes>
        0 -1 2714 8.5229165852069855e-03</internalNodes>
      <leafValues>
        -5.1456402987241745e-02 2.4077074229717255e-01</leafValues></_>
    <_>
      <internalNodes>
        0 -1 24784 2.7933933306485415e-03</internalNodes>
      <leafValues>
        3.3763993531465530e-02 -3.8065665960311890e-01</leafValues></_>
    <_>
      <internalNodes>
        0 -1 26832 9.7029689641203731e-05</internalNodes>
      <leafValues>
        -9.8537862300872803e-02 1.2739931046962738e-01</leafValues></_>
    <_>
      <internalNodes>
        0 -1 34863 -9.3343830667436123e-04</internalNodes>
      <leafValues>
        -2.2018201649188995e-01 4.6889975666999817e-02</leafValues></_>
    <_>
      <internalNodes>
        0 -1 22184 6.2923128716647625e-03</internalNodes>
      <leafValues>
        -5.8269720524549484e-02 1.7624735832214355e-01</leafValues></_>
    <_>
      <internalNodes>
        0 -1 31524 1.1241999454796314e-03</internalNodes>
      <leafValues>
        -1.1870107799768448e-01 1.0146069526672363e-01</leafValues></_>
    <_>
      <internalNodes>
        0 -1 6680 -3.2011097669601440e-01</internalNodes>
      <leafValues>
        1.5408493578433990e-01 -7.3004141449928284e-02</leafValues></_>
    <_>
      <internalNodes>
        0 -1 391 -9.0930318832397461e-01</internalNodes>
      <leafValues>
        -5.1176702976226807e-01 2.6327610015869141e-02</leafValues></_>
    <_>
      <internalNodes>
        0 -1 4981 1.0825322940945625e-02</internalNodes>
      <leafValues>
        -4.7539923340082169e-02 2.0628167688846588e-01</leafValues></_>
    <_>
      <internalNodes>
        0 -1 6203 -9.5050439995247871e-05</internalNodes>
      <leafValues>
        1.1124902963638306e-01 -9.3724250793457031e-02</leafValues></_>
    <_>
      <internalNodes>
        0 -1 9008 -5.5328845046460629e-03</internalNodes>
      <leafValues>
        -2.9059842228889465e-01 3.3206105232238770e-02</leafValues></_>
    <_>
      <internalNodes>
        0 -1 15024 -1.0312360245734453e-03</internalNodes>
      <leafValues>
        -2.2756928205490112e-01 4.0237504988908768e-02</leafValues></_>
    <_>
      <internalNodes>
        0 -1 18034 -3.8814473897218704e-02</internalNodes>
      <leafValues>
        2.7317762374877930e-01 -3.6746948957443237e-02</leafValues></_>
    <_>
      <internalNodes>
        0 -1 4189 -1.1824742978205904e-04</internalNodes>
      <leafValues>
        7.4207179248332977e-02 -1.2411565333604813e-01</leafValues></_>
    <_>
      <internalNodes>
        0 -1 9437 1.9577031955122948e-02</internalNodes>
      <leafValues>
        -7.4400104582309723e-02 1.5842315554618835e-01</leafValues></_>
    <_>
      <internalNodes>
        0 -1 12835 1.2642347253859043e-02</internalNodes>
      <leafValues>
        4.2500585317611694e-02 -2.8622448444366455e-01</leafValues></_>
    <_>
      <internalNodes>
        0 -1 29998 1.4243014156818390e-02</internalNodes>
      <leafValues>
        -3.4848224371671677e-02 3.1148263812065125e-01</leafValues></_>
    <_>
      <internalNodes>
        0 -1 14324 1.2932045385241508e-02</internalNodes>
      <leafValues>
        -5.7265359908342361e-02 1.7282873392105103e-01</leafValues></_>
    <_>
      <internalNodes>
        0 -1 35215 -1.7638041172176600e-03</internalNodes>
      <leafValues>
        -2.4671375751495361e-01 4.1151385754346848e-02</leafValues></_>
    <_>
      <internalNodes>
        0 -1 28678 2.7406865265220404e-03</internalNodes>
      <leafValues>
        2.4061629548668861e-02 -3.6024934053421021e-01</leafValues></_>
    <_>
      <internalNodes>
        0 -1 29622 -4.7053307294845581e-02</internalNodes>
      <leafValues>
        2.4039727449417114e-01 -4.4074997305870056e-02</leafValues></_>
    <_>
      <internalNodes>
        0 -1 25859 1.9509207457304001e-02</internalNodes>
      <leafValues>
        2.8720522299408913e-02 -3.0909115076065063e-01</leafValues></_>
    <_>
      <internalNodes>
        0 -1 23624 2.3809703998267651e-03</internalNodes>
      <leafValues>
        3.0221128836274147e-02 -2.9378828406333923e-01</leafValues></_>
    <_>
      <internalNodes>
        0 -1 18935 -1.1377258226275444e-02</internalNodes>
      <leafValues>
        1.9427967071533203e-01 -5.1877304911613464e-02</leafValues></_>
    <_>
      <internalNodes>
        0 -1 2740 -2.8251186013221741e-02</internalNodes>
      <leafValues>
        1.5124149620532990e-01 -6.4039103686809540e-02</leafValues></_>
    <_>
      <internalNodes>
        0 -1 6203 1.3266835594549775e-04</internalNodes>
      <leafValues>
        -8.5078358650207520e-02 1.1242137104272842e-01</leafValues></_>
    <_>
      <internalNodes>
        0 -1 9263 1.7492363695055246e-03</internalNodes>
      <leafValues>
        3.7676006555557251e-02 -2.4711434543132782e-01</leafValues></_>
    <_>
      <internalNodes>
        0 -1 12257 -4.0137864649295807e-02</internalNodes>
      <leafValues>
        2.4294961988925934e-01 -3.9779435843229294e-02</leafValues></_>
    <_>
      <internalNodes>
        0 -1 3761 -1.4440810773521662e-03</internalNodes>
      <leafValues>
        -2.9185372591018677e-01 3.6945529282093048e-02</leafValues></_>
    <_>
      <internalNodes>
        0 -1 35034 1.6710415948182344e-03</internalNodes>
      <leafValues>
        -6.9977670907974243e-02 1.3092133402824402e-01</leafValues></_>
    <_>
      <internalNodes>
        0 -1 33916 1.7764287767931819e-03</internalNodes>
      <leafValues>
        -9.7427137196063995e-02 1.0180232673883438e-01</leafValues></_>
    <_>
      <internalNodes>
        0 -1 7810 -4.2902773618698120e-01</internalNodes>
      <leafValues>
        -5.9686315059661865e-01 1.5049683861434460e-02</leafValues></_>
    <_>
      <internalNodes>
        0 -1 9404 -1.5160362818278372e-04</internalNodes>
      <leafValues>
        6.4745195209980011e-02 -1.2519587576389313e-01</leafValues></_>
    <_>
      <internalNodes>
        0 -1 191 -1.6417669132351875e-02</internalNodes>
      <leafValues>
        1.9410334527492523e-01 -6.0893721878528595e-02</leafValues></_>
    <_>
      <internalNodes>
        0 -1 12375 1.7892498522996902e-02</internalNodes>
      <leafValues>
        -4.4074259698390961e-02 2.3987102508544922e-01</leafValues></_>
    <_>
      <internalNodes>
        0 -1 6 -9.3042216030880809e-04</internalNodes>
      <leafValues>
        -2.1073466539382935e-01 4.5550964772701263e-02</leafValues></_>
    <_>
      <internalNodes>
        0 -1 6 5.4656225256621838e-04</internalNodes>
      <leafValues>
        5.1985152065753937e-02 -2.0594683289527893e-01</leafValues></_>
    <_>
      <internalNodes>
        0 -1 12062 -1.2778307427652180e-04</internalNodes>
      <leafValues>
        9.1143488883972168e-02 -1.0329843312501907e-01</leafValues></_>
    <_>
      <internalNodes>
        0 -1 20165 -1.2556817382574081e-02</internalNodes>
      <leafValues>
        -3.4996840357780457e-01 2.5874892249703407e-02</leafValues></_>
    <_>
      <internalNodes>
        0 -1 13114 7.6056085526943207e-03</internalNodes>
      <leafValues>
        1.9765436649322510e-02 -3.9134392142295837e-01</leafValues></_>
    <_>
      <internalNodes>
        0 -1 34696 1.6924628289416432e-04</internalNodes>
      <leafValues>
        -1.1512182652950287e-01 6.8570271134376526e-02</leafValues></_>
    <_>
      <internalNodes>
        0 -1 24387 1.8267967971041799e-03</internalNodes>
      <leafValues>
        -8.2530580461025238e-02 9.4705961644649506e-02</leafValues></_>
    <_>
      <internalNodes>
        0 -1 29871 -1.1773168109357357e-02</internalNodes>
      <leafValues>
        2.4568215012550354e-01 -3.3444661647081375e-02</leafValues></_>
    <_>
      <internalNodes>
        0 -1 35218 -7.3541677556931973e-04</internalNodes>
      <leafValues>
        -1.8439878523349762e-01 4.5054275542497635e-02</leafValues></_>
    <_>
      <internalNodes>
        0 -1 35074 1.6238958050962538e-04</internalNodes>
      <leafValues>
        -5.7202078402042389e-02 1.3418863713741302e-01</leafValues></_>
    <_>
      <internalNodes>
        0 -1 16947 3.4272741526365280e-02</internalNodes>
      <leafValues>
        1.9240858033299446e-02 -4.0989601612091064e-01</leafValues></_>
    <_>
      <internalNodes>
        0 -1 21808 -1.2013543397188187e-02</internalNodes>
      <leafValues>
        1.1360111832618713e-01 -7.0286445319652557e-02</leafValues></_>
    <_>
      <internalNodes>
        0 -1 33999 2.0335527136921883e-02</internalNodes>
      <leafValues>
        2.1305764093995094e-02 -3.5679203271865845e-01</leafValues></_>
    <_>
      <internalNodes>
        0 -1 34668 2.0020781084895134e-03</internalNodes>
      <leafValues>
        -6.9354347884654999e-02 1.0863009840250015e-01</leafValues></_>
    <_>
      <internalNodes>
        0 -1 6600 6.6029526293277740e-02</internalNodes>
      <leafValues>
        -5.2080117166042328e-02 1.5176399052143097e-01</leafValues></_>
    <_>
      <internalNodes>
        0 -1 21043 1.0106513509526849e-03</internalNodes>
      <leafValues>
        4.1772693395614624e-02 -1.7472682893276215e-01</leafValues></_></weakClassifiers></stage7>
</opencv_storage>
