<?xml version="1.0"?>
<opencv_storage>
<stage2>
  <maxWeakCount>56</maxWeakCount>
  <stageThreshold>-1.8006219863891602e+00</stageThreshold>
  <weakClassifiers>
    <_>
      <internalNodes>
        0 -1 1650 -6.9284403324127197e-01</internalNodes>
      <leafValues>
        5.6867504119873047e-01 -3.0647891759872437e-01</leafValues></_>
    <_>
      <internalNodes>
        0 -1 3384 1.2036707252264023e-02</internalNodes>
      <leafValues>
        -4.4134080410003662e-01 2.8870230913162231e-01</leafValues></_>
    <_>
      <internalNodes>
        0 -1 24 1.2550668325275183e-03</internalNodes>
      <leafValues>
        1.5353289246559143e-01 -5.9931391477584839e-01</leafValues></_>
    <_>
      <internalNodes>
        0 -1 1 4.0475476998835802e-04</internalNodes>
      <leafValues>
        1.8817131221294403e-01 -4.9378985166549683e-01</leafValues></_>
    <_>
      <internalNodes>
        0 -1 28625 3.2542921602725983e-02</internalNodes>
      <leafValues>
        -3.2160919904708862e-01 2.7519935369491577e-01</leafValues></_>
    <_>
      <internalNodes>
        0 -1 12835 -1.8113046884536743e-02</internalNodes>
      <leafValues>
        -6.1668425798416138e-01 1.1504394561052322e-01</leafValues></_>
    <_>
      <internalNodes>
        0 -1 3207 -6.5072011202573776e-03</internalNodes>
      <leafValues>
        -5.9188485145568848e-01 2.9872780665755272e-02</leafValues></_>
    <_>
      <internalNodes>
        0 -1 17665 2.6573988143354654e-03</internalNodes>
      <leafValues>
        1.3220164179801941e-01 -5.6169480085372925e-01</leafValues></_>
    <_>
      <internalNodes>
        0 -1 328 -8.2596391439437866e-02</internalNodes>
      <leafValues>
        1.7889748513698578e-01 -2.7598804235458374e-01</leafValues></_>
    <_>
      <internalNodes>
        0 -1 23272 -1.2668591737747192e-01</internalNodes>
      <leafValues>
        3.4168550372123718e-01 -1.3880504667758942e-01</leafValues></_>
    <_>
      <internalNodes>
        0 -1 19676 -1.1325076222419739e-01</internalNodes>
      <leafValues>
        4.4239845871925354e-01 -1.2784349918365479e-01</leafValues></_>
    <_>
      <internalNodes>
        0 -1 35218 -7.4699515243992209e-04</internalNodes>
      <leafValues>
        -3.3080992102622986e-01 1.4681057631969452e-01</leafValues></_>
    <_>
      <internalNodes>
        0 -1 9415 1.2121685780584812e-02</internalNodes>
      <leafValues>
        4.7475855797529221e-02 -5.3022336959838867e-01</leafValues></_>
    <_>
      <internalNodes>
        0 -1 997 4.6716397628188133e-03</internalNodes>
      <leafValues>
        6.9736950099468231e-02 -5.2193498611450195e-01</leafValues></_>
    <_>
      <internalNodes>
        0 -1 2912 -1.3530282303690910e-02</internalNodes>
      <leafValues>
        -6.3078474998474121e-01 4.9952644854784012e-02</leafValues></_>
    <_>
      <internalNodes>
        0 -1 22583 6.2264297157526016e-03</internalNodes>
      <leafValues>
        5.2361756563186646e-02 -5.1672631502151489e-01</leafValues></_>
    <_>
      <internalNodes>
        0 -1 21144 -3.6958202719688416e-01</internalNodes>
      <leafValues>
        5.9982126951217651e-01 -5.0994079560041428e-02</leafValues></_>
    <_>
      <internalNodes>
        0 -1 1650 -6.9262719154357910e-01</internalNodes>
      <leafValues>
        -2.8319454193115234e-01 1.1430915445089340e-01</leafValues></_>
    <_>
      <internalNodes>
        0 -1 33821 1.2879591435194016e-02</internalNodes>
      <leafValues>
        -1.2796509265899658e-01 2.3554439842700958e-01</leafValues></_>
    <_>
      <internalNodes>
        0 -1 6649 -2.0703256130218506e-02</internalNodes>
      <leafValues>
        1.8769186735153198e-01 -1.6709968447685242e-01</leafValues></_>
    <_>
      <internalNodes>
        0 -1 9406 7.5155366212129593e-03</internalNodes>
      <leafValues>
        7.7294640243053436e-02 -5.0371623039245605e-01</leafValues></_>
    <_>
      <internalNodes>
        0 -1 18057 1.7520046234130859e-01</internalNodes>
      <leafValues>
        -7.0527754724025726e-02 4.7809758782386780e-01</leafValues></_>
    <_>
      <internalNodes>
        0 -1 3327 1.8956743180751801e-02</internalNodes>
      <leafValues>
        5.5244944989681244e-02 -5.7110214233398438e-01</leafValues></_>
    <_>
      <internalNodes>
        0 -1 17715 3.5025414079427719e-02</internalNodes>
      <leafValues>
        -9.2287220060825348e-02 4.0879783034324646e-01</leafValues></_>
    <_>
      <internalNodes>
        0 -1 2167 -2.0914025604724884e-02</internalNodes>
      <leafValues>
        -5.3436452150344849e-01 5.3128194063901901e-02</leafValues></_>
    <_>
      <internalNodes>
        0 -1 3061 -9.2807190958410501e-04</internalNodes>
      <leafValues>
        -2.8481867909431458e-01 8.1531494855880737e-02</leafValues></_>
    <_>
      <internalNodes>
        0 -1 2915 -6.9814212620258331e-03</internalNodes>
      <leafValues>
        1.8304166197776794e-01 -1.2859402596950531e-01</leafValues></_>
    <_>
      <internalNodes>
        0 -1 2717 -5.0825616344809532e-03</internalNodes>
      <leafValues>
        2.3460327088832855e-01 -9.9916473031044006e-02</leafValues></_>
    <_>
      <internalNodes>
        0 -1 29017 -6.8701584823429585e-03</internalNodes>
      <leafValues>
        -4.4310119748115540e-01 5.5130120366811752e-02</leafValues></_>
    <_>
      <internalNodes>
        0 -1 28742 9.5565123483538628e-03</internalNodes>
      <leafValues>
        5.0727978348731995e-02 -4.6373602747917175e-01</leafValues></_>
    <_>
      <internalNodes>
        0 -1 10298 -1.3607143424451351e-02</internalNodes>
      <leafValues>
        -3.5823321342468262e-01 5.6947533041238785e-02</leafValues></_>
    <_>
      <internalNodes>
        0 -1 24785 -2.4772279430180788e-03</internalNodes>
      <leafValues>
        -3.9345315098762512e-01 4.7478258609771729e-02</leafValues></_>
    <_>
      <internalNodes>
        0 -1 24785 1.4665394555777311e-03</internalNodes>
      <leafValues>
        6.4154036343097687e-02 -3.0576676130294800e-01</leafValues></_>
    <_>
      <internalNodes>
        0 -1 35181 5.6941024959087372e-03</internalNodes>
      <leafValues>
        4.5160412788391113e-02 -3.6457389593124390e-01</leafValues></_>
    <_>
      <internalNodes>
        0 -1 22549 9.6402289345860481e-03</internalNodes>
      <leafValues>
        -1.0393818467855453e-01 1.6683049499988556e-01</leafValues></_>
    <_>
      <internalNodes>
        0 -1 30472 -1.5738919377326965e-02</internalNodes>
      <leafValues>
        1.8170309066772461e-01 -9.3616172671318054e-02</leafValues></_>
    <_>
      <internalNodes>
        0 -1 12653 -3.1687840819358826e-02</internalNodes>
      <leafValues>
        3.0720785260200500e-01 -5.8990254998207092e-02</leafValues></_>
    <_>
      <internalNodes>
        0 -1 35131 8.7239164859056473e-03</internalNodes>
      <leafValues>
        3.4904610365629196e-02 -5.4083281755447388e-01</leafValues></_>
    <_>
      <internalNodes>
        0 -1 22225 4.2041979730129242e-02</internalNodes>
      <leafValues>
        -7.7209532260894775e-02 2.4669201672077179e-01</leafValues></_>
    <_>
      <internalNodes>
        0 -1 2447 1.8469333648681641e-02</internalNodes>
      <leafValues>
        3.2932016998529434e-02 -5.3427642583847046e-01</leafValues></_>
    <_>
      <internalNodes>
        0 -1 2746 -2.1434143185615540e-02</internalNodes>
      <leafValues>
        -4.7923439741134644e-01 3.1583093106746674e-02</leafValues></_>
    <_>
      <internalNodes>
        0 -1 19660 1.8993590027093887e-02</internalNodes>
      <leafValues>
        -6.4953126013278961e-02 2.8019401431083679e-01</leafValues></_>
    <_>
      <internalNodes>
        0 -1 28706 6.8839564919471741e-03</internalNodes>
      <leafValues>
        5.5621735751628876e-02 -2.8114044666290283e-01</leafValues></_>
    <_>
      <internalNodes>
        0 -1 30281 -9.0522575192153454e-04</internalNodes>
      <leafValues>
        -2.0497587323188782e-01 7.6561272144317627e-02</leafValues></_>
    <_>
      <internalNodes>
        0 -1 19248 -8.9913439005613327e-03</internalNodes>
      <leafValues>
        2.3115079104900360e-01 -6.9279842078685760e-02</leafValues></_>
    <_>
      <internalNodes>
        0 -1 28342 1.1757429689168930e-02</internalNodes>
      <leafValues>
        -9.1799430549144745e-02 1.5453262627124786e-01</leafValues></_>
    <_>
      <internalNodes>
        0 -1 26845 3.6249358672648668e-03</internalNodes>
      <leafValues>
        4.0910959243774414e-02 -3.3707296848297119e-01</leafValues></_>
    <_>
      <internalNodes>
        0 -1 30293 -6.0674443375319242e-04</internalNodes>
      <leafValues>
        -2.0618054270744324e-01 6.9635637104511261e-02</leafValues></_>
    <_>
      <internalNodes>
        0 -1 20601 7.5050592422485352e-03</internalNodes>
      <leafValues>
        -8.2291997969150543e-02 1.8864205479621887e-01</leafValues></_>
    <_>
      <internalNodes>
        0 -1 3252 4.5299681369215250e-04</internalNodes>
      <leafValues>
        6.6999606788158417e-02 -2.2800298035144806e-01</leafValues></_>
    <_>
      <internalNodes>
        0 -1 30278 -8.8159821461886168e-04</internalNodes>
      <leafValues>
        -2.0163206756114960e-01 7.5289882719516754e-02</leafValues></_>
    <_>
      <internalNodes>
        0 -1 30577 6.6402363590896130e-03</internalNodes>
      <leafValues>
        4.4105548411607742e-02 -3.4180676937103271e-01</leafValues></_>
    <_>
      <internalNodes>
        0 -1 2493 -3.4400425851345062e-02</internalNodes>
      <leafValues>
        1.9805178046226501e-01 -8.0134332180023193e-02</leafValues></_>
    <_>
      <internalNodes>
        0 -1 17806 5.7247228920459747e-02</internalNodes>
      <leafValues>
        -6.6593125462532043e-02 2.0627535879611969e-01</leafValues></_>
    <_>
      <internalNodes>
        0 -1 20280 1.3005201704800129e-02</internalNodes>
      <leafValues>
        2.7090243995189667e-02 -5.3929144144058228e-01</leafValues></_>
    <_>
      <internalNodes>
        0 -1 65 1.1239195009693503e-03</internalNodes>
      <leafValues>
        7.8323572874069214e-02 -1.7041176557540894e-01</leafValues></_></weakClassifiers></stage2>
</opencv_storage>
