<?xml version="1.0"?>
<opencv_storage>
<stage17>
  <maxWeakCount>100</maxWeakCount>
  <stageThreshold>-1.4647380113601685e+00</stageThreshold>
  <weakClassifiers>
    <_>
      <internalNodes>
        0 -1 34236 -7.4522450566291809e-02</internalNodes>
      <leafValues>
        3.0404624342918396e-01 -1.7675429582595825e-01</leafValues></_>
    <_>
      <internalNodes>
        0 -1 3333 -2.6100873947143555e-03</internalNodes>
      <leafValues>
        1.3662515580654144e-01 -3.1171390414237976e-01</leafValues></_>
    <_>
      <internalNodes>
        0 -1 33627 6.8686786107718945e-03</internalNodes>
      <leafValues>
        -1.1853282153606415e-01 1.9762402772903442e-01</leafValues></_>
    <_>
      <internalNodes>
        0 -1 2156 -1.3047538232058287e-04</internalNodes>
      <leafValues>
        1.0103266686201096e-01 -2.1054196357727051e-01</leafValues></_>
    <_>
      <internalNodes>
        0 -1 2157 -2.7527813799679279e-03</internalNodes>
      <leafValues>
        -3.0606490373611450e-01 7.6614327728748322e-02</leafValues></_>
    <_>
      <internalNodes>
        0 -1 33648 8.6549837142229080e-03</internalNodes>
      <leafValues>
        -1.4223326742649078e-01 1.8668819963932037e-01</leafValues></_>
    <_>
      <internalNodes>
        0 -1 34921 -2.1311002783477306e-03</internalNodes>
      <leafValues>
        1.7515215277671814e-01 -1.0721829533576965e-01</leafValues></_>
    <_>
      <internalNodes>
        0 -1 541 -1.6208291344810277e-04</internalNodes>
      <leafValues>
        6.3426919281482697e-02 -2.1696232259273529e-01</leafValues></_>
    <_>
      <internalNodes>
        0 -1 3460 -2.6171918958425522e-02</internalNodes>
      <leafValues>
        2.3977798223495483e-01 -7.3644347488880157e-02</leafValues></_>
    <_>
      <internalNodes>
        0 -1 24903 6.6910465247929096e-03</internalNodes>
      <leafValues>
        -1.0027302056550980e-01 1.9070982933044434e-01</leafValues></_>
    <_>
      <internalNodes>
        0 -1 6543 -2.1029558032751083e-02</internalNodes>
      <leafValues>
        -3.5127848386764526e-01 6.8753868341445923e-02</leafValues></_>
    <_>
      <internalNodes>
        0 -1 132 -5.7086334563791752e-03</internalNodes>
      <leafValues>
        1.4311315119266510e-01 -1.1676173657178879e-01</leafValues></_>
    <_>
      <internalNodes>
        0 -1 17302 -1.8863435834646225e-02</internalNodes>
      <leafValues>
        2.1962270140647888e-01 -5.6320417672395706e-02</leafValues></_>
    <_>
      <internalNodes>
        0 -1 22275 -6.4939879812300205e-03</internalNodes>
      <leafValues>
        1.5632037818431854e-01 -9.3367867171764374e-02</leafValues></_>
    <_>
      <internalNodes>
        0 -1 34652 1.9649663590826094e-04</internalNodes>
      <leafValues>
        -1.4713005721569061e-01 9.7842961549758911e-02</leafValues></_>
    <_>
      <internalNodes>
        0 -1 6796 8.7254904210567474e-03</internalNodes>
      <leafValues>
        1.1214120313525200e-02 -4.8010078072547913e-01</leafValues></_>
    <_>
      <internalNodes>
        0 -1 18357 -6.5009194612503052e-01</internalNodes>
      <leafValues>
        3.4925228357315063e-01 -3.1142545863986015e-02</leafValues></_>
    <_>
      <internalNodes>
        0 -1 31479 3.4519019536674023e-03</internalNodes>
      <leafValues>
        -8.3166860044002533e-02 1.7225854098796844e-01</leafValues></_>
    <_>
      <internalNodes>
        0 -1 1 1.2227047700434923e-03</internalNodes>
      <leafValues>
        4.0371660143136978e-02 -3.3949625492095947e-01</leafValues></_>
    <_>
      <internalNodes>
        0 -1 17533 -1.1657185852527618e-02</internalNodes>
      <leafValues>
        -3.9726346731185913e-01 2.3790553212165833e-02</leafValues></_>
    <_>
      <internalNodes>
        0 -1 23249 -1.4906886965036392e-02</internalNodes>
      <leafValues>
        2.0733083784580231e-01 -5.6906770914793015e-02</leafValues></_>
    <_>
      <internalNodes>
        0 -1 20995 1.3044957071542740e-02</internalNodes>
      <leafValues>
        -7.2818182408809662e-02 1.6084790229797363e-01</leafValues></_>
    <_>
      <internalNodes>
        0 -1 28498 4.4470666907727718e-03</internalNodes>
      <leafValues>
        -1.0354467481374741e-01 1.1587443202733994e-01</leafValues></_>
    <_>
      <internalNodes>
        0 -1 9404 -1.7637654673308134e-04</internalNodes>
      <leafValues>
        7.6240465044975281e-02 -1.4910639822483063e-01</leafValues></_>
    <_>
      <internalNodes>
        0 -1 24839 -1.4105780050158501e-02</internalNodes>
      <leafValues>
        -5.2916115522384644e-01 1.8524385988712311e-02</leafValues></_>
    <_>
      <internalNodes>
        0 -1 5978 -9.2283869162201881e-03</internalNodes>
      <leafValues>
        1.2572085857391357e-01 -8.0195657908916473e-02</leafValues></_>
    <_>
      <internalNodes>
        0 -1 6882 -5.5327735841274261e-02</internalNodes>
      <leafValues>
        -4.9165508151054382e-01 1.8093312159180641e-02</leafValues></_>
    <_>
      <internalNodes>
        0 -1 32742 3.1196027994155884e-03</internalNodes>
      <leafValues>
        -1.0609620064496994e-01 8.9299120008945465e-02</leafValues></_>
    <_>
      <internalNodes>
        0 -1 30454 -2.2694915533065796e-03</internalNodes>
      <leafValues>
        1.2144058942794800e-01 -1.0335593670606613e-01</leafValues></_>
    <_>
      <internalNodes>
        0 -1 33980 1.3801374007016420e-04</internalNodes>
      <leafValues>
        -8.6846441030502319e-02 1.1688234657049179e-01</leafValues></_>
    <_>
      <internalNodes>
        0 -1 33980 -1.2110902753192931e-04</internalNodes>
      <leafValues>
        1.1953424662351608e-01 -8.7310209870338440e-02</leafValues></_>
    <_>
      <internalNodes>
        0 -1 2902 -4.4018318876624107e-03</internalNodes>
      <leafValues>
        1.6583323478698730e-01 -5.8119069784879684e-02</leafValues></_>
    <_>
      <internalNodes>
        0 -1 10298 -1.6029234975576401e-02</internalNodes>
      <leafValues>
        -3.6920192837715149e-01 3.0197205021977425e-02</leafValues></_>
    <_>
      <internalNodes>
        0 -1 2987 8.0120544880628586e-03</internalNodes>
      <leafValues>
        -1.3443666696548462e-01 7.0390544831752777e-02</leafValues></_>
    <_>
      <internalNodes>
        0 -1 9168 -7.3784478008747101e-03</internalNodes>
      <leafValues>
        -2.8783804178237915e-01 3.8643985986709595e-02</leafValues></_>
    <_>
      <internalNodes>
        0 -1 22184 9.4180200248956680e-03</internalNodes>
      <leafValues>
        -4.8812408000230789e-02 1.9668434560298920e-01</leafValues></_>
    <_>
      <internalNodes>
        0 -1 2692 -3.0628150328993797e-02</internalNodes>
      <leafValues>
        1.5809485316276550e-01 -8.0855540931224823e-02</leafValues></_>
    <_>
      <internalNodes>
        0 -1 5375 -8.1037446856498718e-02</internalNodes>
      <leafValues>
        -3.7979084253311157e-01 2.3185065016150475e-02</leafValues></_>
    <_>
      <internalNodes>
        0 -1 7223 -1.7280487809330225e-03</internalNodes>
      <leafValues>
        -3.2154318690299988e-01 2.5975240394473076e-02</leafValues></_>
    <_>
      <internalNodes>
        0 -1 674 7.5673893094062805e-02</internalNodes>
      <leafValues>
        -3.4715261310338974e-02 2.6062166690826416e-01</leafValues></_>
    <_>
      <internalNodes>
        0 -1 4252 -3.8167815655469894e-03</internalNodes>
      <leafValues>
        1.0908774286508560e-01 -9.4415418803691864e-02</leafValues></_>
    <_>
      <internalNodes>
        0 -1 33673 1.4677178114652634e-04</internalNodes>
      <leafValues>
        -7.2470590472221375e-02 1.2029349803924561e-01</leafValues></_>
    <_>
      <internalNodes>
        0 -1 35215 -1.2576031731441617e-03</internalNodes>
      <leafValues>
        -2.4316069483757019e-01 4.5215323567390442e-02</leafValues></_>
    <_>
      <internalNodes>
        0 -1 35181 6.1691422015428543e-03</internalNodes>
      <leafValues>
        2.4329423904418945e-02 -3.2566225528717041e-01</leafValues></_>
    <_>
      <internalNodes>
        0 -1 3251 1.1093971878290176e-01</internalNodes>
      <leafValues>
        1.0875128209590912e-02 -6.8816900253295898e-01</leafValues></_>
    <_>
      <internalNodes>
        0 -1 30291 3.4739889670163393e-03</internalNodes>
      <leafValues>
        2.5668542832136154e-02 -3.0289229750633240e-01</leafValues></_>
    <_>
      <internalNodes>
        0 -1 9620 -5.9801805764436722e-02</internalNodes>
      <leafValues>
        1.2680177390575409e-01 -6.4765870571136475e-02</leafValues></_>
    <_>
      <internalNodes>
        0 -1 22643 2.1280057728290558e-02</internalNodes>
      <leafValues>
        -5.3937550634145737e-02 1.7280952632427216e-01</leafValues></_>
    <_>
      <internalNodes>
        0 -1 20601 9.3035176396369934e-03</internalNodes>
      <leafValues>
        -6.3132934272289276e-02 1.4651437103748322e-01</leafValues></_>
    <_>
      <internalNodes>
        0 -1 24805 1.0504717938601971e-02</internalNodes>
      <leafValues>
        2.5422453880310059e-02 -3.7350171804428101e-01</leafValues></_>
    <_>
      <internalNodes>
        0 -1 29609 8.7682127952575684e-02</internalNodes>
      <leafValues>
        1.7326097935438156e-02 -4.4612064957618713e-01</leafValues></_>
    <_>
      <internalNodes>
        0 -1 21048 9.6632167696952820e-03</internalNodes>
      <leafValues>
        2.2219981998205185e-02 -3.4520289301872253e-01</leafValues></_>
    <_>
      <internalNodes>
        0 -1 12525 -1.7435319721698761e-02</internalNodes>
      <leafValues>
        2.0117722451686859e-01 -4.9722492694854736e-02</leafValues></_>
    <_>
      <internalNodes>
        0 -1 22450 9.3018468469381332e-03</internalNodes>
      <leafValues>
        -5.9060279279947281e-02 1.3719631731510162e-01</leafValues></_>
    <_>
      <internalNodes>
        0 -1 22567 -1.6039009205996990e-03</internalNodes>
      <leafValues>
        -2.6161095499992371e-01 3.1009085476398468e-02</leafValues></_>
    <_>
      <internalNodes>
        0 -1 557 -1.8811650807037950e-03</internalNodes>
      <leafValues>
        6.8665325641632080e-02 -1.2067886441946030e-01</leafValues></_>
    <_>
      <internalNodes>
        0 -1 1749 -4.4739607255905867e-04</internalNodes>
      <leafValues>
        -6.5596215426921844e-02 1.2147276103496552e-01</leafValues></_>
    <_>
      <internalNodes>
        0 -1 12256 4.8939832486212254e-03</internalNodes>
      <leafValues>
        -7.1033626794815063e-02 1.3530325889587402e-01</leafValues></_>
    <_>
      <internalNodes>
        0 -1 19150 -2.7981750667095184e-02</internalNodes>
      <leafValues>
        2.2407075762748718e-01 -3.4927185624837875e-02</leafValues></_>
    <_>
      <internalNodes>
        0 -1 2534 3.7720710039138794e-02</internalNodes>
      <leafValues>
        2.3741813376545906e-02 -3.5081899166107178e-01</leafValues></_>
    <_>
      <internalNodes>
        0 -1 996 -1.4485347492154688e-04</internalNodes>
      <leafValues>
        9.7004219889640808e-02 -8.5093222558498383e-02</leafValues></_>
    <_>
      <internalNodes>
        0 -1 7629 -1.3381522148847580e-04</internalNodes>
      <leafValues>
        1.0531617701053619e-01 -9.0271465480327606e-02</leafValues></_>
    <_>
      <internalNodes>
        0 -1 22567 1.0099738137796521e-03</internalNodes>
      <leafValues>
        3.8388568907976151e-02 -2.1239395439624786e-01</leafValues></_>
    <_>
      <internalNodes>
        0 -1 33738 5.6194886565208435e-03</internalNodes>
      <leafValues>
        -1.0170809924602509e-01 7.2202220559120178e-02</leafValues></_>
    <_>
      <internalNodes>
        0 -1 22875 -1.4812374114990234e-01</internalNodes>
      <leafValues>
        2.7926957607269287e-01 -3.3355455845594406e-02</leafValues></_>
    <_>
      <internalNodes>
        0 -1 25340 7.4374517425894737e-03</internalNodes>
      <leafValues>
        -6.1571545898914337e-02 1.2559966742992401e-01</leafValues></_>
    <_>
      <internalNodes>
        0 -1 17026 -3.2638877630233765e-02</internalNodes>
      <leafValues>
        1.7451399564743042e-01 -4.3041851371526718e-02</leafValues></_>
    <_>
      <internalNodes>
        0 -1 421 -3.9203801751136780e-01</internalNodes>
      <leafValues>
        1.2961108982563019e-01 -6.8784371018409729e-02</leafValues></_>
    <_>
      <internalNodes>
        0 -1 35183 3.4428755752742290e-03</internalNodes>
      <leafValues>
        -5.8000262826681137e-02 1.3700959086418152e-01</leafValues></_>
    <_>
      <internalNodes>
        0 -1 19433 -2.4922002106904984e-02</internalNodes>
      <leafValues>
        1.7744353413581848e-01 -4.1810460388660431e-02</leafValues></_>
    <_>
      <internalNodes>
        0 -1 33435 -1.5008717775344849e-02</internalNodes>
      <leafValues>
        -4.4523146748542786e-01 1.9034862518310547e-02</leafValues></_>
    <_>
      <internalNodes>
        0 -1 2529 2.2627957514487207e-04</internalNodes>
      <leafValues>
        7.3456555604934692e-02 -1.0881356894969940e-01</leafValues></_>
    <_>
      <internalNodes>
        0 -1 10630 -1.0234268847852945e-03</internalNodes>
      <leafValues>
        7.3365949094295502e-02 -1.1180478334426880e-01</leafValues></_>
    <_>
      <internalNodes>
        0 -1 2100 -4.5796227641403675e-04</internalNodes>
      <leafValues>
        -6.5890870988368988e-02 1.3060231506824493e-01</leafValues></_>
    <_>
      <internalNodes>
        0 -1 33735 -9.6144871786236763e-03</internalNodes>
      <leafValues>
        1.3720893859863281e-01 -5.4403632879257202e-02</leafValues></_>
    <_>
      <internalNodes>
        0 -1 6 -1.8320169765502214e-03</internalNodes>
      <leafValues>
        -3.4252452850341797e-01 2.0186088979244232e-02</leafValues></_>
    <_>
      <internalNodes>
        0 -1 24045 -5.9816107153892517e-02</internalNodes>
      <leafValues>
        2.9294642806053162e-01 -2.4769892916083336e-02</leafValues></_>
    <_>
      <internalNodes>
        0 -1 6 5.7658553123474121e-04</internalNodes>
      <leafValues>
        3.8634516298770905e-02 -1.8659031391143799e-01</leafValues></_>
    <_>
      <internalNodes>
        0 -1 20281 -1.8588589504361153e-02</internalNodes>
      <leafValues>
        -5.0801384449005127e-01 1.3163249939680099e-02</leafValues></_>
    <_>
      <internalNodes>
        0 -1 30003 1.2412772048264742e-03</internalNodes>
      <leafValues>
        -8.5594594478607178e-02 7.8709319233894348e-02</leafValues></_>
    <_>
      <internalNodes>
        0 -1 33770 4.4134953059256077e-03</internalNodes>
      <leafValues>
        -4.1350342333316803e-02 1.5393927693367004e-01</leafValues></_>
    <_>
      <internalNodes>
        0 -1 10289 7.5483955442905426e-03</internalNodes>
      <leafValues>
        2.0228305831551552e-02 -3.1952649354934692e-01</leafValues></_>
    <_>
      <internalNodes>
        0 -1 24068 5.1394548267126083e-02</internalNodes>
      <leafValues>
        -1.8144607543945313e-02 3.7530145049095154e-01</leafValues></_>
    <_>
      <internalNodes>
        0 -1 30293 1.7731485422700644e-03</internalNodes>
      <leafValues>
        2.4130158126354218e-02 -2.6775547862052917e-01</leafValues></_>
    <_>
      <internalNodes>
        0 -1 5782 -3.3310076687484980e-03</internalNodes>
      <leafValues>
        1.1993629485368729e-01 -5.2612185478210449e-02</leafValues></_>
    <_>
      <internalNodes>
        0 -1 5553 7.1196788921952248e-03</internalNodes>
      <leafValues>
        -4.7614719718694687e-02 1.5697212517261505e-01</leafValues></_>
    <_>
      <internalNodes>
        0 -1 34654 -2.3688322398811579e-03</internalNodes>
      <leafValues>
        -2.8650602698326111e-01 2.3516444489359856e-02</leafValues></_>
    <_>
      <internalNodes>
        0 -1 33943 -1.5258300118148327e-03</internalNodes>
      <leafValues>
        7.0528276264667511e-02 -1.0187742859125137e-01</leafValues></_>
    <_>
      <internalNodes>
        0 -1 30271 2.2780809085816145e-03</internalNodes>
      <leafValues>
        -7.8332975506782532e-02 9.5220066606998444e-02</leafValues></_>
    <_>
      <internalNodes>
        0 -1 5044 1.0819716379046440e-02</internalNodes>
      <leafValues>
        -5.5098343640565872e-02 1.1432476341724396e-01</leafValues></_>
    <_>
      <internalNodes>
        0 -1 13824 7.2876410558819771e-04</internalNodes>
      <leafValues>
        4.4332578778266907e-02 -1.5170274674892426e-01</leafValues></_>
    <_>
      <internalNodes>
        0 -1 1806 -3.1548395752906799e-01</internalNodes>
      <leafValues>
        -5.7945269346237183e-01 1.1128329671919346e-02</leafValues></_>
    <_>
      <internalNodes>
        0 -1 33563 1.6576785128563643e-04</internalNodes>
      <leafValues>
        -1.0165770351886749e-01 6.1599519103765488e-02</leafValues></_>
    <_>
      <internalNodes>
        0 -1 33818 6.1756926588714123e-03</internalNodes>
      <leafValues>
        -5.8579821139574051e-02 1.2027549743652344e-01</leafValues></_>
    <_>
      <internalNodes>
        0 -1 24755 5.4109273478388786e-03</internalNodes>
      <leafValues>
        2.2126765921711922e-02 -2.9418337345123291e-01</leafValues></_>
    <_>
      <internalNodes>
        0 -1 19517 -9.1963298618793488e-03</internalNodes>
      <leafValues>
        1.5765105187892914e-01 -4.4238477945327759e-02</leafValues></_>
    <_>
      <internalNodes>
        0 -1 20038 1.4734023716300726e-04</internalNodes>
      <leafValues>
        -7.0305600762367249e-02 9.9980592727661133e-02</leafValues></_>
    <_>
      <internalNodes>
        0 -1 3299 7.8655825927853584e-04</internalNodes>
      <leafValues>
        3.6076679825782776e-02 -1.8845851719379425e-01</leafValues></_>
    <_>
      <internalNodes>
        0 -1 3299 -3.6039797123521566e-04</internalNodes>
      <leafValues>
        -5.3285315632820129e-02 1.4891164004802704e-01</leafValues></_>
    <_>
      <internalNodes>
        0 -1 24749 1.0991561430273578e-04</internalNodes>
      <leafValues>
        -6.9728620350360870e-02 9.8157651722431183e-02</leafValues></_></weakClassifiers></stage17>
</opencv_storage>
