<?xml version="1.0"?>
<opencv_storage>
<stage3>
  <maxWeakCount>63</maxWeakCount>
  <stageThreshold>-1.7373116016387939e+00</stageThreshold>
  <weakClassifiers>
    <_>
      <internalNodes>
        0 -1 14871 7.0117659866809845e-02</internalNodes>
      <leafValues>
        -3.8474944233894348e-01 4.1080382466316223e-01</leafValues></_>
    <_>
      <internalNodes>
        0 -1 103 -1.2924961745738983e-02</internalNodes>
      <leafValues>
        2.4204109609127045e-01 -4.0877920389175415e-01</leafValues></_>
    <_>
      <internalNodes>
        0 -1 23587 -9.0947136282920837e-02</internalNodes>
      <leafValues>
        3.9045575261116028e-01 -2.5589579343795776e-01</leafValues></_>
    <_>
      <internalNodes>
        0 -1 127 -3.3691078424453735e-03</internalNodes>
      <leafValues>
        2.1602062880992889e-01 -3.1829619407653809e-01</leafValues></_>
    <_>
      <internalNodes>
        0 -1 3759 -3.5833283327519894e-03</internalNodes>
      <leafValues>
        -6.0869675874710083e-01 1.1610749363899231e-01</leafValues></_>
    <_>
      <internalNodes>
        0 -1 7429 -8.4604583680629730e-02</internalNodes>
      <leafValues>
        1.4118173718452454e-01 -2.9585668444633484e-01</leafValues></_>
    <_>
      <internalNodes>
        0 -1 3755 5.6692259386181831e-04</internalNodes>
      <leafValues>
        1.4506688714027405e-01 -4.3822553753852844e-01</leafValues></_>
    <_>
      <internalNodes>
        0 -1 1431 1.5668645501136780e-03</internalNodes>
      <leafValues>
        9.2234671115875244e-02 -4.7509211301803589e-01</leafValues></_>
    <_>
      <internalNodes>
        0 -1 1430 4.9049444496631622e-03</internalNodes>
      <leafValues>
        6.3730202615261078e-02 -5.5625426769256592e-01</leafValues></_>
    <_>
      <internalNodes>
        0 -1 23259 1.7789599299430847e-01</internalNodes>
      <leafValues>
        -9.5554582774639130e-02 5.0095885992050171e-01</leafValues></_>
    <_>
      <internalNodes>
        0 -1 18678 -4.8625695705413818e-01</internalNodes>
      <leafValues>
        5.5949020385742188e-01 -6.1681304126977921e-02</leafValues></_>
    <_>
      <internalNodes>
        0 -1 34208 -1.8857406685128808e-03</internalNodes>
      <leafValues>
        -5.1999479532241821e-01 5.8701362460851669e-02</leafValues></_>
    <_>
      <internalNodes>
        0 -1 2161 3.7412953097373247e-03</internalNodes>
      <leafValues>
        7.1715131402015686e-02 -4.6122345328330994e-01</leafValues></_>
    <_>
      <internalNodes>
        0 -1 22985 -4.4618258252739906e-03</internalNodes>
      <leafValues>
        -5.2904456853866577e-01 6.1092060059309006e-02</leafValues></_>
    <_>
      <internalNodes>
        0 -1 22595 3.8778553716838360e-03</internalNodes>
      <leafValues>
        8.1769019365310669e-02 -4.5043385028839111e-01</leafValues></_>
    <_>
      <internalNodes>
        0 -1 32922 -3.4518154279794544e-05</internalNodes>
      <leafValues>
        -2.8844317793846130e-01 1.1800677329301834e-01</leafValues></_>
    <_>
      <internalNodes>
        0 -1 18057 -7.7898070216178894e-02</internalNodes>
      <leafValues>
        3.4552255272865295e-01 -1.1443264037370682e-01</leafValues></_>
    <_>
      <internalNodes>
        0 -1 15410 6.5661743283271790e-02</internalNodes>
      <leafValues>
        -7.5098648667335510e-02 4.4553720951080322e-01</leafValues></_>
    <_>
      <internalNodes>
        0 -1 3083 -8.1836711615324020e-03</internalNodes>
      <leafValues>
        2.0492412149906158e-01 -1.4544114470481873e-01</leafValues></_>
    <_>
      <internalNodes>
        0 -1 27088 -2.5869308039546013e-02</internalNodes>
      <leafValues>
        2.5597631931304932e-01 -1.2281832098960876e-01</leafValues></_>
    <_>
      <internalNodes>
        0 -1 33983 -1.4736091252416372e-03</internalNodes>
      <leafValues>
        -4.1931477189064026e-01 7.6040424406528473e-02</leafValues></_>
    <_>
      <internalNodes>
        0 -1 33983 1.5684879617765546e-03</internalNodes>
      <leafValues>
        7.5795620679855347e-02 -3.9637279510498047e-01</leafValues></_>
    <_>
      <internalNodes>
        0 -1 3253 3.5965279676020145e-04</internalNodes>
      <leafValues>
        9.7717523574829102e-02 -2.8951507806777954e-01</leafValues></_>
    <_>
      <internalNodes>
        0 -1 3063 2.7941670268774033e-03</internalNodes>
      <leafValues>
        6.1550706624984741e-02 -4.4162434339523315e-01</leafValues></_>
    <_>
      <internalNodes>
        0 -1 0 1.1458125663921237e-03</internalNodes>
      <leafValues>
        5.6074593216180801e-02 -4.5886278152465820e-01</leafValues></_>
    <_>
      <internalNodes>
        0 -1 2700 2.0858743228018284e-03</internalNodes>
      <leafValues>
        6.8384438753128052e-02 -3.4527722001075745e-01</leafValues></_>
    <_>
      <internalNodes>
        0 -1 33740 1.0861903429031372e-02</internalNodes>
      <leafValues>
        -1.4798478782176971e-01 1.7380887269973755e-01</leafValues></_>
    <_>
      <internalNodes>
        0 -1 6445 -2.1004067733883858e-02</internalNodes>
      <leafValues>
        1.6611121594905853e-01 -1.4898538589477539e-01</leafValues></_>
    <_>
      <internalNodes>
        0 -1 20022 2.6555782184004784e-02</internalNodes>
      <leafValues>
        -6.6828586161136627e-02 3.3951061964035034e-01</leafValues></_>
    <_>
      <internalNodes>
        0 -1 3217 -3.4020093153230846e-05</internalNodes>
      <leafValues>
        -2.4392029643058777e-01 1.0359682887792587e-01</leafValues></_>
    <_>
      <internalNodes>
        0 -1 15022 -5.0885612145066261e-03</internalNodes>
      <leafValues>
        -5.6861114501953125e-01 3.9825547486543655e-02</leafValues></_>
    <_>
      <internalNodes>
        0 -1 1885 1.7222657799720764e-02</internalNodes>
      <leafValues>
        -7.5281001627445221e-02 3.3228665590286255e-01</leafValues></_>
    <_>
      <internalNodes>
        0 -1 9351 -8.3312559872865677e-03</internalNodes>
      <leafValues>
        -4.8754876852035522e-01 5.3401157259941101e-02</leafValues></_>
    <_>
      <internalNodes>
        0 -1 17028 -3.4153483808040619e-02</internalNodes>
      <leafValues>
        1.8561349809169769e-01 -1.2010745704174042e-01</leafValues></_>
    <_>
      <internalNodes>
        0 -1 9164 -8.4637049585580826e-03</internalNodes>
      <leafValues>
        -6.4633786678314209e-01 3.2468132674694061e-02</leafValues></_>
    <_>
      <internalNodes>
        0 -1 17029 5.2063353359699249e-02</internalNodes>
      <leafValues>
        -6.9979831576347351e-02 2.9871734976768494e-01</leafValues></_>
    <_>
      <internalNodes>
        0 -1 7685 6.1520733870565891e-03</internalNodes>
      <leafValues>
        -1.5397138893604279e-01 1.3682514429092407e-01</leafValues></_>
    <_>
      <internalNodes>
        0 -1 31775 -3.5529476590454578e-03</internalNodes>
      <leafValues>
        -4.1655060648918152e-01 4.2033486068248749e-02</leafValues></_>
    <_>
      <internalNodes>
        0 -1 9892 9.0285278856754303e-03</internalNodes>
      <leafValues>
        5.7786285877227783e-02 -3.1109732389450073e-01</leafValues></_>
    <_>
      <internalNodes>
        0 -1 147 5.2282519638538361e-02</internalNodes>
      <leafValues>
        -6.3498280942440033e-02 2.9763919115066528e-01</leafValues></_>
    <_>
      <internalNodes>
        0 -1 720 -5.4836623370647430e-02</internalNodes>
      <leafValues>
        2.3862008750438690e-01 -6.8301752209663391e-02</leafValues></_>
    <_>
      <internalNodes>
        0 -1 24250 -4.2150940746068954e-02</internalNodes>
      <leafValues>
        4.2944326996803284e-01 -3.8197543472051620e-02</leafValues></_>
    <_>
      <internalNodes>
        0 -1 22523 -2.3108189925551414e-03</internalNodes>
      <leafValues>
        -3.9461085200309753e-01 4.8276189714670181e-02</leafValues></_>
    <_>
      <internalNodes>
        0 -1 4239 -3.7157479673624039e-03</internalNodes>
      <leafValues>
        1.3080574572086334e-01 -1.2902510166168213e-01</leafValues></_>
    <_>
      <internalNodes>
        0 -1 34108 -1.1040981858968735e-02</internalNodes>
      <leafValues>
        -3.9752182364463806e-01 3.8116727024316788e-02</leafValues></_>
    <_>
      <internalNodes>
        0 -1 15451 -9.0832680463790894e-02</internalNodes>
      <leafValues>
        2.5709918141365051e-01 -6.5454535186290741e-02</leafValues></_>
    <_>
      <internalNodes>
        0 -1 12600 4.3246898800134659e-02</internalNodes>
      <leafValues>
        -9.0779751539230347e-02 1.9802550971508026e-01</leafValues></_>
    <_>
      <internalNodes>
        0 -1 22567 -1.3993473257869482e-03</internalNodes>
      <leafValues>
        -2.5753891468048096e-01 5.9217438101768494e-02</leafValues></_>
    <_>
      <internalNodes>
        0 -1 35215 -4.3073645792901516e-04</internalNodes>
      <leafValues>
        -1.9767244160175323e-01 7.3787972331047058e-02</leafValues></_>
    <_>
      <internalNodes>
        0 -1 33940 1.0781004093587399e-03</internalNodes>
      <leafValues>
        6.4233995974063873e-02 -2.5199419260025024e-01</leafValues></_>
    <_>
      <internalNodes>
        0 -1 33661 1.9463289529085159e-02</internalNodes>
      <leafValues>
        -6.3589379191398621e-02 2.6772654056549072e-01</leafValues></_>
    <_>
      <internalNodes>
        0 -1 31776 4.1502695530653000e-03</internalNodes>
      <leafValues>
        4.4169340282678604e-02 -3.5854756832122803e-01</leafValues></_>
    <_>
      <internalNodes>
        0 -1 2182 -9.9797975271940231e-03</internalNodes>
      <leafValues>
        1.9574970006942749e-01 -7.4458323419094086e-02</leafValues></_>
    <_>
      <internalNodes>
        0 -1 1431 -1.1015727650374174e-03</internalNodes>
      <leafValues>
        -2.5606939196586609e-01 5.7347703725099564e-02</leafValues></_>
    <_>
      <internalNodes>
        0 -1 392 3.2281644642353058e-02</internalNodes>
      <leafValues>
        -5.2943415939807892e-02 2.7262899279594421e-01</leafValues></_>
    <_>
      <internalNodes>
        0 -1 12558 -1.6991162672638893e-02</internalNodes>
      <leafValues>
        1.6163183748722076e-01 -1.1049964278936386e-01</leafValues></_>
    <_>
      <internalNodes>
        0 -1 26845 -5.2239908836781979e-03</internalNodes>
      <leafValues>
        -5.1966410875320435e-01 3.0848287045955658e-02</leafValues></_>
    <_>
      <internalNodes>
        0 -1 30291 -2.2917443420737982e-03</internalNodes>
      <leafValues>
        -2.6502439379692078e-01 5.4054293781518936e-02</leafValues></_>
    <_>
      <internalNodes>
        0 -1 26175 4.8135019838809967e-02</internalNodes>
      <leafValues>
        -3.4485377371311188e-02 4.4145047664642334e-01</leafValues></_>
    <_>
      <internalNodes>
        0 -1 11611 -1.6421701759099960e-02</internalNodes>
      <leafValues>
        1.4274770021438599e-01 -1.0557978600263596e-01</leafValues></_>
    <_>
      <internalNodes>
        0 -1 1434 -7.7450671233236790e-04</internalNodes>
      <leafValues>
        1.1218658089637756e-01 -1.1996444314718246e-01</leafValues></_>
    <_>
      <internalNodes>
        0 -1 30030 7.9457350075244904e-03</internalNodes>
      <leafValues>
        -1.0027293860912323e-01 1.3215872645378113e-01</leafValues></_>
    <_>
      <internalNodes>
        0 -1 34559 -1.8909223377704620e-02</internalNodes>
      <leafValues>
        1.6148895025253296e-01 -9.9328763782978058e-02</leafValues></_></weakClassifiers></stage3>
</opencv_storage>
