<?xml version="1.0"?>
<opencv_storage>
<stage15>
  <maxWeakCount>100</maxWeakCount>
  <stageThreshold>-1.8077079057693481e+00</stageThreshold>
  <weakClassifiers>
    <_>
      <internalNodes>
        0 -1 586 -8650753 2147221407 -1 2145255415 2141388783 2143223783
        -1 2010087183</internalNodes>
      <leafValues>
        -3.7424150109291077e-01 3.4967929124832153e-02</leafValues></_>
    <_>
      <internalNodes>
        0 -1 4 -1 -1 -14680577 -513 17003519 -3407873 2001171829 -34971</internalNodes>
      <leafValues>
        -2.6285514235496521e-01 1.4248964190483093e-01</leafValues></_>
    <_>
      <internalNodes>
        0 -1 1036 -84225827 2147353831 -8650753 2113830879 -83953444
        -16787009 -84346120 838926319</internalNodes>
      <leafValues>
        -2.3189850151538849e-01 1.3707065582275391e-01</leafValues></_>
    <_>
      <internalNodes>
        0 -1 360 9617407 -2137988654 -46153745 -573514795 22363135
        -1416430597 2012697085 1342010725</internalNodes>
      <leafValues>
        -1.6311389207839966e-01 1.6562619805335999e-01</leafValues></_>
    <_>
      <internalNodes>
        0 -1 284 -10945537 -2312641 -1025 -131457 1342226095 -23021250
        2086010879 -2263713</internalNodes>
      <leafValues>
        -1.0150355845689774e-01 2.2790530323982239e-01</leafValues></_>
    <_>
      <internalNodes>
        0 -1 420 975219370 -8339640 -302530817 -543621297 541638587
        -3358745 2101739503 2000975621</internalNodes>
      <leafValues>
        -1.7484875023365021e-01 1.2747696042060852e-01</leafValues></_>
    <_>
      <internalNodes>
        0 -1 78 -268436689 -338714321 -13781741 -2361361 1124545319
        -1928596286 1431794037 1979184631</internalNodes>
      <leafValues>
        -2.2212535142898560e-01 8.1284575164318085e-02</leafValues></_>
    <_>
      <internalNodes>
        0 -1 1120 161415435 1073680351 -584068713 802877439 256573807
        -273946145 -318767618 -1459617793</internalNodes>
      <leafValues>
        -1.9158336520195007e-01 1.0008955746889114e-01</leafValues></_>
    <_>
      <internalNodes>
        0 -1 901 -287857660 1326419215 -8408135 52158333 -2118276 -4370
        -88113640 -359923841</internalNodes>
      <leafValues>
        -1.2092977017164230e-01 1.4595174789428711e-01</leafValues></_>
    <_>
      <internalNodes>
        0 -1 1042 1876879136 2113865519 -8194 2138711871 262493680
        536836896 -22290948 706932523</internalNodes>
      <leafValues>
        -1.7151845991611481e-01 8.6655586957931519e-02</leafValues></_>
    <_>
      <internalNodes>
        0 -1 127 -220206353 -75510677 1653287439 -1032073601 1734299503
        2000373807 -8422033 -134217905</internalNodes>
      <leafValues>
        -1.4836739003658295e-01 9.8887987434864044e-02</leafValues></_>
    <_>
      <internalNodes>
        0 -1 566 715190777 -35074884 -134225927 -35857155 262758395
        -83524 1067144701 230379605</internalNodes>
      <leafValues>
        -1.5844294428825378e-01 9.7388446331024170e-02</leafValues></_>
    <_>
      <internalNodes>
        0 -1 1100 -41131 2147424095 -37750017 869957599 -1082112
        -134234193 -553845928 -1145323521</internalNodes>
      <leafValues>
        -9.6398159861564636e-02 1.5949787199497223e-01</leafValues></_>
    <_>
      <internalNodes>
        0 -1 555 -558301323 -68131 -612373515 -671229483 -1911529833
        -328725 391215095 -1998957293</internalNodes>
      <leafValues>
        -1.1758270859718323e-01 1.1635217070579529e-01</leafValues></_>
    <_>
      <internalNodes>
        0 -1 684 -495011036 -295039355 -878891092 -1347617939 237223785
        -269605970 -73703571 168371983</internalNodes>
      <leafValues>
        -1.2677127122879028e-01 1.1014446616172791e-01</leafValues></_>
    <_>
      <internalNodes>
        0 -1 111 871572450 1006531583 668010095 -574751809 2147446703
        -116243 -11702451 2137553751</internalNodes>
      <leafValues>
        -1.7575491964817047e-01 7.1561463177204132e-02</leafValues></_>
    <_>
      <internalNodes>
        0 -1 185 -812909841 -38864150 -148381341 -1411714858 184611775
        -897003324 1466388853 -841092761</internalNodes>
      <leafValues>
        -1.3308396935462952e-01 1.0043428838253021e-01</leafValues></_>
    <_>
      <internalNodes>
        0 -1 706 -357373426 2121931055 2112012286 -1344652289
        -1892804968 763047775 -1079363860 -436874999</internalNodes>
      <leafValues>
        -1.0676413029432297e-01 1.2355230748653412e-01</leafValues></_>
    <_>
      <internalNodes>
        0 -1 140 -419234841 -1061099280 -9453586 -2052801458 2326447
        -1364148742 2002204093 -1903398426</internalNodes>
      <leafValues>
        -1.0645817220211029e-01 1.1440189182758331e-01</leafValues></_>
    <_>
      <internalNodes>
        0 -1 1063 786331740 268392552 2096398335 -1344643841 -173476
        -79703508 -71631236 982157883</internalNodes>
      <leafValues>
        -1.4408120512962341e-01 7.8863307833671570e-02</leafValues></_>
    <_>
      <internalNodes>
        0 -1 949 1728490680 2144120759 -134742209 -1654835 2116344989
        2144010170 -218892509 969129901</internalNodes>
      <leafValues>
        -1.2573276460170746e-01 9.3771107494831085e-02</leafValues></_>
    <_>
      <internalNodes>
        0 -1 833 -924923316 -570653105 -244469464 -806697499 587184041
        -536894833 -135577775 176898819</internalNodes>
      <leafValues>
        -1.1430490761995316e-01 1.0860222578048706e-01</leafValues></_>
    <_>
      <internalNodes>
        0 -1 0 2111306751 -263169 -539100673 -1376513 368570111
        -1346503173 2014336241 -34015755</internalNodes>
      <leafValues>
        -1.2475381046533585e-01 9.4668105244636536e-02</leafValues></_>
    <_>
      <internalNodes>
        0 -1 730 -2031682731 -822560516 -46140579 -1346349223 334855025
        -2364423 2139061537 -1969536665</internalNodes>
      <leafValues>
        -1.1126934736967087e-01 1.0746143013238907e-01</leafValues></_>
    <_>
      <internalNodes>
        0 -1 928 -1360119467 -1367987339 -2115075 -1413857409
        -1413498015 -283809 -1882040012 -1440184280</internalNodes>
      <leafValues>
        -1.6508038341999054e-01 6.9777101278305054e-02</leafValues></_>
    <_>
      <internalNodes>
        0 -1 1036 -645009490 -1729108562 -1166709076 449422732
        -612377617 201284286 -239078505 -370431464</internalNodes>
      <leafValues>
        -6.7575745284557343e-02 1.7174576222896576e-01</leafValues></_>
    <_>
      <internalNodes>
        0 -1 1117 268373003 201270063 -354752278 177910623 1336890894
        1318012630 -322241336 -1464270849</internalNodes>
      <leafValues>
        -1.8933798372745514e-01 6.2251977622509003e-02</leafValues></_>
    <_>
      <internalNodes>
        0 -1 56 1408238250 -61145089 635251496 -16842753 2064648704
        -15712491 -48764160 2013294417</internalNodes>
      <leafValues>
        -2.0954832434654236e-01 5.4076541215181351e-02</leafValues></_>
    <_>
      <internalNodes>
        0 -1 618 -352394582 -1103575463 531273950 -827703609 788507016
        738147113 -539057860 -303676297</internalNodes>
      <leafValues>
        -9.5741569995880127e-02 1.1344847083091736e-01</leafValues></_>
    <_>
      <internalNodes>
        0 -1 126 1794854462 6243423 1919609499 1645476606 1667196522
        2003788550 -228065698 1936195583</internalNodes>
      <leafValues>
        -1.5795032680034637e-01 6.4691327512264252e-02</leafValues></_>
    <_>
      <internalNodes>
        0 -1 702 -2101432116 -1138098 -1343279476 -1349846035 335131529
        -134253649 1677671881 1856077639</internalNodes>
      <leafValues>
        -1.0540553182363510e-01 9.4639405608177185e-02</leafValues></_>
    <_>
      <internalNodes>
        0 -1 390 -1373438109 -861364112 -570446125 -1906560575
        1325555491 -607476984 1292064101 -858172095</internalNodes>
      <leafValues>
        -1.5801672637462616e-01 6.4032830297946930e-02</leafValues></_>
    <_>
      <internalNodes>
        0 -1 130 -470580242 854941543 -882963922 602074287 1942953967
        2140879339 -269808311 1866811963</internalNodes>
      <leafValues>
        -1.4036490023136139e-01 7.3293089866638184e-02</leafValues></_>
    <_>
      <internalNodes>
        0 -1 958 -271667552 -1089589302 1061133536 -537260822 736081387
        267086303 -1140870664 -1549635701</internalNodes>
      <leafValues>
        -9.1983295977115631e-02 1.0714181512594223e-01</leafValues></_>
    <_>
      <internalNodes>
        0 -1 1032 -1392878572 805177432 -543165953 -1959245347
        -268797616 -4473214 -20252560 704645128</internalNodes>
      <leafValues>
        -2.4173778295516968e-01 4.0350046008825302e-02</leafValues></_>
    <_>
      <internalNodes>
        0 -1 813 -1431668888 -1145121306 -205671109 -1080373223
        -1879343491 -1075864615 -1348502171 -1433728755</internalNodes>
      <leafValues>
        -1.1180026829242706e-01 8.9692637324333191e-02</leafValues></_>
    <_>
      <internalNodes>
        0 -1 446 586285122 719896543 266239279 1039466365 796861986
        2144419819 2128117513 1047625591</internalNodes>
      <leafValues>
        -2.6488125324249268e-01 3.7637706845998764e-02</leafValues></_>
    <_>
      <internalNodes>
        0 -1 790 -16842753 -25265040 -1346567494 -1097181697 -1363268680
        -4195587 -1342820772 -1359323313</internalNodes>
      <leafValues>
        -5.9609115123748779e-02 1.7901982367038727e-01</leafValues></_>
    <_>
      <internalNodes>
        0 -1 1121 201273899 234819163 -1942910974 -1428253586 142281531
        176103149 75436096 1155517563</internalNodes>
      <leafValues>
        -2.1454244852066040e-01 4.7151319682598114e-02</leafValues></_>
    <_>
      <internalNodes>
        0 -1 1016 -892338347 1048517471 -252330505 49293749 -268454656
        -70537713 -342483168 -1433760209</internalNodes>
      <leafValues>
        -1.2122830003499985e-01 8.0894403159618378e-02</leafValues></_>
    <_>
      <internalNodes>
        0 -1 472 -212675260 1944876811 -2103731 869103363 -486474240
        -80826857 2101477319 549483783</internalNodes>
      <leafValues>
        -1.5872277319431305e-01 5.8641288429498672e-02</leafValues></_>
    <_>
      <internalNodes>
        0 -1 771 -285285718 -111122 452411386 -134594561 -1356092501
        -1420874385 -268509235 -405809713</internalNodes>
      <leafValues>
        -4.7818318009376526e-02 2.0161879062652588e-01</leafValues></_>
    <_>
      <internalNodes>
        0 -1 863 -24447664 -1160610 -17041425 -18191220 -1096744963
        -541541 -1141392387 -1970337283</internalNodes>
      <leafValues>
        -9.7671993076801300e-02 9.7342416644096375e-02</leafValues></_>
    <_>
      <internalNodes>
        0 -1 360 -671060480 2116063333 -46287096 583552330 644270693
        2623972 264055655 -1468378518</internalNodes>
      <leafValues>
        -1.0864110291004181e-01 8.9650861918926239e-02</leafValues></_>
    <_>
      <internalNodes>
        0 -1 353 36207057 -134437512 -136580609 -537864739 19428345
        -272704839 948982237 -593735343</internalNodes>
      <leafValues>
        -1.8478743731975555e-01 5.3654290735721588e-02</leafValues></_>
    <_>
      <internalNodes>
        0 -1 72 -471974104 -1561084289 -41177172 804257775 1130789822
        585260839 1376142157 1262843719</internalNodes>
      <leafValues>
        -1.2264705449342728e-01 8.0263443291187286e-02</leafValues></_>
    <_>
      <internalNodes>
        0 -1 115 1915937326 807026756 1212557510 116558574 1985295179
        290652162 1462204231 1976525047</internalNodes>
      <leafValues>
        -1.9715209305286407e-01 4.8031132668256760e-02</leafValues></_>
    <_>
      <internalNodes>
        0 -1 1097 -1899626464 2107587343 -1838178132 -1142228505
        193856836 -68204422 -701563888 -1162149953</internalNodes>
      <leafValues>
        -1.1795776337385178e-01 7.6725780963897705e-02</leafValues></_>
    <_>
      <internalNodes>
        0 -1 666 -357893139 -72418228 -34603537 -808526375 800226235
        -268481141 -1413775363 -1346665429</internalNodes>
      <leafValues>
        -5.5185768753290176e-02 1.5954566001892090e-01</leafValues></_>
    <_>
      <internalNodes>
        0 -1 514 -356999134 -67469312 1509651967 -1620519832 -1975868501
        -1140939556 291238325 -843116475</internalNodes>
      <leafValues>
        -1.0424058884382248e-01 8.6272992193698883e-02</leafValues></_>
    <_>
      <internalNodes>
        0 -1 1006 -272705288 -34952596 671061208 -653112 -1883587079
        -1343260673 -1126203907 -1108148225</internalNodes>
      <leafValues>
        -5.6926779448986053e-02 1.5279719233512878e-01</leafValues></_>
    <_>
      <internalNodes>
        0 -1 913 251601474 265225167 16497258 47120267 -138988657
        1070532591 -16813815 545648455</internalNodes>
      <leafValues>
        -1.9504481554031372e-01 4.6946324408054352e-02</leafValues></_>
    <_>
      <internalNodes>
        0 -1 167 -275827909 -544451002 -549510337 -539310652 134354534
        -1371932168 545599857 1308578117</internalNodes>
      <leafValues>
        -1.5396201610565186e-01 5.6680578738451004e-02</leafValues></_>
    <_>
      <internalNodes>
        0 -1 4 1843593207 -50430102 -1590456 -1381171737 1605148449
        148682414 -846392342 1301608938</internalNodes>
      <leafValues>
        -7.0575878024101257e-02 1.4070716500282288e-01</leafValues></_>
    <_>
      <internalNodes>
        0 -1 348 1215531759 778789710 573638826 709078651 -886108465
        -1625617842 -3188018 -344196277</internalNodes>
      <leafValues>
        -8.5414171218872070e-02 9.6713982522487640e-02</leafValues></_>
    <_>
      <internalNodes>
        0 -1 61 790898475 -42096918 -201614593 -672608538 125857071
        -17258463 1315910443 -1044000681</internalNodes>
      <leafValues>
        -9.6127688884735107e-02 8.8406540453433990e-02</leafValues></_>
    <_>
      <internalNodes>
        0 -1 909 -2191572 -5330312 1073152232 -537261529 -67134532
        -1074039298 -16797288 -420502907</internalNodes>
      <leafValues>
        -5.8258261531591415e-02 1.4161412417888641e-01</leafValues></_>
    <_>
      <internalNodes>
        0 -1 1103 175475768 83172668 -1762154598 -1208328209 -2108708852
        -17317897 -1461852139 754054365</internalNodes>
      <leafValues>
        -1.2060830742120743e-01 6.8859383463859558e-02</leafValues></_>
    <_>
      <internalNodes>
        0 -1 1071 -419525329 1870463023 -352592417 58342511 -950090624
        -877708214 -18285479 -349635745</internalNodes>
      <leafValues>
        -9.0805605053901672e-02 9.6026457846164703e-02</leafValues></_>
    <_>
      <internalNodes>
        0 -1 28 -123686878 1927029458 -706498734 -100804889 201331252
        -827528472 1359303941 -539736684</internalNodes>
      <leafValues>
        -1.8059134483337402e-01 4.5409087091684341e-02</leafValues></_>
    <_>
      <internalNodes>
        0 -1 36 -252002458 -231702648 -403329268 1303437294 1836056555
        -1405043023 2139031309 1339905807</internalNodes>
      <leafValues>
        -7.5400426983833313e-02 1.1815462261438370e-01</leafValues></_>
    <_>
      <internalNodes>
        0 -1 582 -31445760 -6680373 -897597825 -69276451 -16371964
        -5251329 -11080761 583168263</internalNodes>
      <leafValues>
        -1.2166819721460342e-01 6.9600448012351990e-02</leafValues></_>
    <_>
      <internalNodes>
        0 -1 24 787693439 2105316470 -279183361 -272973569 153552502
        -842246056 -704948875 -319524363</internalNodes>
      <leafValues>
        -1.6229628026485443e-01 5.1099695265293121e-02</leafValues></_>
    <_>
      <internalNodes>
        0 -1 211 -487020882 -2608317 1202129422 -1355087905 2081782699
        -569609719 1685017957 -271231226</internalNodes>
      <leafValues>
        -1.2268454581499100e-01 6.7825175821781158e-02</leafValues></_>
    <_>
      <internalNodes>
        0 -1 217 -68443646 -104882050 1792486110 -71121749 1265617919
        -1696890114 1911505129 -34082353</internalNodes>
      <leafValues>
        -5.5052991956472397e-02 1.4609237015247345e-01</leafValues></_>
    <_>
      <internalNodes>
        0 -1 831 782286880 -875949788 -1783161649 -1901429555
        -1426136564 1067001084 -1112631287 -2104868863</internalNodes>
      <leafValues>
        -1.2905119359493256e-01 6.2100566923618317e-02</leafValues></_>
    <_>
      <internalNodes>
        0 -1 708 -83972438 1507290639 -1711823942 -1611130905 1598439050
        268331755 -20092211 -270531837</internalNodes>
      <leafValues>
        -8.6767703294754028e-02 9.3563117086887360e-02</leafValues></_>
    <_>
      <internalNodes>
        0 -1 1110 -338705139 532633725 -25175122 509280071 -268514228
        -83917740 -87102388 -217384129</internalNodes>
      <leafValues>
        -8.1525005400180817e-02 9.9770344793796539e-02</leafValues></_>
    <_>
      <internalNodes>
        0 -1 664 -255673836 -859961618 -1073742339 -1397899360 25182133
        -39543534 2129607576 571553092</internalNodes>
      <leafValues>
        -1.3613779842853546e-01 5.7534519582986832e-02</leafValues></_>
    <_>
      <internalNodes>
        0 -1 954 -34934932 -537950402 -605552720 -345217 -342379286
        -2024808482 -268439105 -475005025</internalNodes>
      <leafValues>
        -4.2321063578128815e-02 1.8315114080905914e-01</leafValues></_>
    <_>
      <internalNodes>
        0 -1 595 2141859564 1069034222 2141847487 1874837247 1903963300
        -13631569 -1066099504 885989637</internalNodes>
      <leafValues>
        -1.5599018335342407e-01 4.8517201095819473e-02</leafValues></_>
    <_>
      <internalNodes>
        0 -1 922 -553648771 -1627501107 -1889594982 -1346724115
        -1074065985 -1075839267 -1346671505 -1409573650</internalNodes>
      <leafValues>
        -5.6172225624322891e-02 1.4482431113719940e-01</leafValues></_>
    <_>
      <internalNodes>
        0 -1 714 -94701336 1027242831 1056619486 -5099525 -1951482918
        1073490092 -1365591880 -543825</internalNodes>
      <leafValues>
        -4.4922865927219391e-02 1.6614219546318054e-01</leafValues></_>
    <_>
      <internalNodes>
        0 -1 317 -299900925 -72375046 1442796767 -67452707 -1893293173
        -5357910 1181439461 -839532059</internalNodes>
      <leafValues>
        -8.0303683876991272e-02 9.6230193972587585e-02</leafValues></_>
    <_>
      <internalNodes>
        0 -1 103 545008174 810667135 15607866 1114832607 1095984230
        2119384954 1930682436 1907749751</internalNodes>
      <leafValues>
        -1.5152774751186371e-01 5.4607313126325607e-02</leafValues></_>
    <_>
      <internalNodes>
        0 -1 734 -363938250 -17033346 -213019 -1080513219 729754609
        -16676 -337683123 -1442053787</internalNodes>
      <leafValues>
        -9.2086680233478546e-02 8.2602977752685547e-02</leafValues></_>
    <_>
      <internalNodes>
        0 -1 792 713176152 -1614259098 -271169 -293948545 -1346430115
        -1077937670 -1342481035 -1430633115</internalNodes>
      <leafValues>
        -1.4927272498607635e-01 5.6160744279623032e-02</leafValues></_>
    <_>
      <internalNodes>
        0 -1 756 -91562207 -272323 1739587295 -1111558291 -273417282
        -1330633 -140558871 -3162037</internalNodes>
      <leafValues>
        -4.4264867901802063e-02 1.7053119838237762e-01</leafValues></_>
    <_>
      <internalNodes>
        0 -1 722 141690924 614080378 -1714275622 167914459 -1952838452
        997342181 -67454872 713572010</internalNodes>
      <leafValues>
        -2.0120969414710999e-01 3.7420690059661865e-02</leafValues></_>
    <_>
      <internalNodes>
        0 -1 630 -553977236 -537257353 -1615455522 -3138305 -356860164
        -16795726 -1049928 -263941</internalNodes>
      <leafValues>
        -4.0953654795885086e-02 2.1235679090023041e-01</leafValues></_>
    <_>
      <internalNodes>
        0 -1 10 2139008814 964867759 1070596061 -1617625105 167783948
        -1094029812 1964332885 939816213</internalNodes>
      <leafValues>
        -1.8679942190647125e-01 4.0910281240940094e-02</leafValues></_>
    <_>
      <internalNodes>
        0 -1 530 -1074601434 1067196457 -1082483746 -1615692073
        -1883529298 -1348473746 -1146105347 -38414939</internalNodes>
      <leafValues>
        -6.8210750818252563e-02 1.1424051225185394e-01</leafValues></_>
    <_>
      <internalNodes>
        0 -1 518 -875367836 -369823449 -1208373522 -271777841 -207580504
        -426723548 2138658637 255948615</internalNodes>
      <leafValues>
        -1.0083328187465668e-01 7.6905913650989532e-02</leafValues></_>
    <_>
      <internalNodes>
        0 -1 1029 -1358976217 777964643 -362831250 34258807 -825508352
        2122300796 -413286572 -368972277</internalNodes>
      <leafValues>
        -1.1698462069034576e-01 6.4245931804180145e-02</leafValues></_>
    <_>
      <internalNodes>
        0 -1 1060 788270149 2139893325 -1090524355 -1290133795
        -405215132 -6595720 -12780360 789072336</internalNodes>
      <leafValues>
        -1.4528208971023560e-01 5.0960302352905273e-02</leafValues></_>
    <_>
      <internalNodes>
        0 -1 330 1262161422 1715079757 91687642 1539132655 2146315823
        1998285980 1373351688 -167892860</internalNodes>
      <leafValues>
        -1.2726578116416931e-01 5.7625744491815567e-02</leafValues></_>
    <_>
      <internalNodes>
        0 -1 1046 -285430750 -29487666 534511100 -604854497 721040400
        -1073778818 380136824 -1465864913</internalNodes>
      <leafValues>
        -9.6563138067722321e-02 7.7179029583930969e-02</leafValues></_>
    <_>
      <internalNodes>
        0 -1 915 147334312 715661600 1045830392 -1379775256 728639240
        258939343 635383996 -1381745346</internalNodes>
      <leafValues>
        -1.7152009904384613e-01 4.1503366082906723e-02</leafValues></_>
    <_>
      <internalNodes>
        0 -1 1095 -37837280 2147363854 -4478358 988970359 -942287950
        -10851653 -1426072328 -102498305</internalNodes>
      <leafValues>
        -5.5257223546504974e-02 1.2794692814350128e-01</leafValues></_>
    <_>
      <internalNodes>
        0 -1 1076 -1362360288 265889295 -1681382920 -1376603794
        1050288684 733970396 769277044 -1396900353</internalNodes>
      <leafValues>
        -1.4891156554222107e-01 4.8498898744583130e-02</leafValues></_>
    <_>
      <internalNodes>
        0 -1 352 536883232 -2036141316 -704655079 -447030864 179314033
        -387268897 176624741 149422192</internalNodes>
      <leafValues>
        -2.8278967738151550e-01 2.4795355275273323e-02</leafValues></_>
    <_>
      <internalNodes>
        0 -1 719 -833421334 2138849263 767043146 800202239 -1344651336
        -1102488 -134334245 -1342488765</internalNodes>
      <leafValues>
        -6.2109086662530899e-02 1.1439821124076843e-01</leafValues></_>
    <_>
      <internalNodes>
        0 -1 102 -341137906 1594877986 -19528558 -1327325082 1732727679
        1534808622 -716966444 1358423523</internalNodes>
      <leafValues>
        -1.0276811569929123e-01 6.8404972553253174e-02</leafValues></_>
    <_>
      <internalNodes>
        0 -1 1042 -1092674562 -1075051658 -67219760 -1433258207
        -1901149221 -1082132320 -640519727 -209113616</internalNodes>
      <leafValues>
        -6.8646684288978577e-02 9.9570974707603455e-02</leafValues></_>
    <_>
      <internalNodes>
        0 -1 994 -152375732 -604363259 -172567556 -68019859 -155282362
        -36712737 -17892486 -475339025</internalNodes>
      <leafValues>
        -6.9962203502655029e-02 1.0645624995231628e-01</leafValues></_>
    <_>
      <internalNodes>
        0 -1 703 678568608 519218309 667692598 916766661 1751398912
        2112995239 1995322884 536879873</internalNodes>
      <leafValues>
        -2.5686529278755188e-01 2.6973618194460869e-02</leafValues></_>
    <_>
      <internalNodes>
        0 -1 569 1653748598 -293540092 1028958998 -1897365680 67533666
        -268807220 -1758374539 -862404331</internalNodes>
      <leafValues>
        -1.3609032332897186e-01 4.8795532435178757e-02</leafValues></_>
    <_>
      <internalNodes>
        0 -1 870 -1495597220 -1226166194 1441528235 -1145428737
        -1348543562 -643297 -83886083 -1347699393</internalNodes>
      <leafValues>
        -6.3517019152641296e-02 1.1728165298700333e-01</leafValues></_>
    <_>
      <internalNodes>
        0 -1 284 411511328 -635746322 -822095234 1408821758 -1369619850
        -268461647 -1300282250 1815796660</internalNodes>
      <leafValues>
        -1.0125333815813065e-01 6.9887533783912659e-02</leafValues></_>
    <_>
      <internalNodes>
        0 -1 586 2123264648 -1153552539 -42467333 -134217745 -14863357
        -537559687 1628919055 -1153980425</internalNodes>
      <leafValues>
        -5.2808918058872223e-02 1.2455242872238159e-01</leafValues></_></weakClassifiers></stage15>
</opencv_storage>
