<?xml version="1.0"?>
<opencv_storage>
<stage11>
  <maxWeakCount>100</maxWeakCount>
  <stageThreshold>-2.0642709732055664e+00</stageThreshold>
  <weakClassifiers>
    <_>
      <internalNodes>
        0 -1 524 -83891702 -1 -536879105 -545 -1439978870 -1026
        1259327375 -8225</internalNodes>
      <leafValues>
        -4.8581647872924805e-01 3.7415716052055359e-01</leafValues></_>
    <_>
      <internalNodes>
        0 -1 948 -20565 -2117713 -1 -1 -1074810961 -1073763393
        -1343254577 -1343246353</internalNodes>
      <leafValues>
        -2.7575525641441345e-01 3.4873092174530029e-01</leafValues></_>
    <_>
      <internalNodes>
        0 -1 873 -176852651 2102743381 -9437185 1040187391 -80611024
        -67560075 -83820741 993755007</internalNodes>
      <leafValues>
        -2.4762989580631256e-01 3.0538091063499451e-01</leafValues></_>
    <_>
      <internalNodes>
        0 -1 93 -36993 2138008354 -54497 -2137312 2147450879 -36938
        2147450879 -34825</internalNodes>
      <leafValues>
        -2.6100948452949524e-01 2.2538702189922333e-01</leafValues></_>
    <_>
      <internalNodes>
        0 -1 419 -12910683 -67334 -538978337 -77616 -1358257494 -3481416
        1193084831 -2146219</internalNodes>
      <leafValues>
        -1.9719803333282471e-01 2.0394024252891541e-01</leafValues></_>
    <_>
      <internalNodes>
        0 -1 1100 -8225 284628351 -2097153 1613567 -72351745 -4246787
        -71303169 -1430585345</internalNodes>
      <leafValues>
        -2.0724365115165710e-01 1.8516354262828827e-01</leafValues></_>
    <_>
      <internalNodes>
        0 -1 1036 -33711651 433914029 -2081 433971167 -67241251
        -1073877543 -1073872902 416088029</internalNodes>
      <leafValues>
        -2.3192082345485687e-01 1.4342385530471802e-01</leafValues></_>
    <_>
      <internalNodes>
        0 -1 524 589305028 538995232 -1557388800 631283296 1602510117
        573317161 -1259260559 1162108960</internalNodes>
      <leafValues>
        -4.3224996328353882e-01 6.2034275382757187e-02</leafValues></_>
    <_>
      <internalNodes>
        0 -1 63 -273943557 -269815070 -33575966 -271650576 788774847
        -16584496 2004309495 -10496777</internalNodes>
      <leafValues>
        -1.6699689626693726e-01 1.9141766428947449e-01</leafValues></_>
    <_>
      <internalNodes>
        0 -1 808 -51380739 -583051947 -545325057 1574927871 -6295075
        -5243457 -1050145 -2146483961</internalNodes>
      <leafValues>
        -1.3705316185951233e-01 2.2510573267936707e-01</leafValues></_>
    <_>
      <internalNodes>
        0 -1 246 -1364542479 -286327554 -35866625 -268637060 252652539
        -16450 265225727 -805370875</internalNodes>
      <leafValues>
        -1.7598173022270203e-01 1.6249859333038330e-01</leafValues></_>
    <_>
      <internalNodes>
        0 -1 1042 -336731360 1400185125 -4456449 1920102207 -90639943
        -931636878 -97853959 1747644207</internalNodes>
      <leafValues>
        -1.7047041654586792e-01 1.6997896134853363e-01</leafValues></_>
    <_>
      <internalNodes>
        0 -1 127 724773411 588982051 -885972477 -351163549 2134863743
        2147433342 2142977911 -8650881</internalNodes>
      <leafValues>
        -3.4929868578910828e-01 7.3194108903408051e-02</leafValues></_>
    <_>
      <internalNodes>
        0 -1 675 -335565012 502738757 1878896398 163315663 -33691207
        -50465288 -1346520311 134348591</internalNodes>
      <leafValues>
        -1.8465465307235718e-01 1.4061404764652252e-01</leafValues></_>
    <_>
      <internalNodes>
        0 -1 771 -9772534 -329886 -604505858 -72190780 -12866678
        -616825461 -282088531 -30449</internalNodes>
      <leafValues>
        -8.0885499715805054e-02 2.9758033156394958e-01</leafValues></_>
    <_>
      <internalNodes>
        0 -1 1099 263958819 263173394 500764688 -1077936142 589509555
        -1610617466 398406963 -805308417</internalNodes>
      <leafValues>
        -2.2567194700241089e-01 1.0665814578533173e-01</leafValues></_>
    <_>
      <internalNodes>
        0 -1 466 -1364320911 -16859969 -2179107 -1359213473 -1362219215
        -1099009 263135101 -1346763776</internalNodes>
      <leafValues>
        -2.0565499365329742e-01 1.1484754085540771e-01</leafValues></_>
    <_>
      <internalNodes>
        0 -1 522 -67129856 2033834176 -524806 -4534028 -1437880661
        -1149356814 733982141 1608466629</internalNodes>
      <leafValues>
        -1.5345917642116547e-01 1.4084829390048981e-01</leafValues></_>
    <_>
      <internalNodes>
        0 -1 582 -1427450668 -16851233 -67617 -81953 -1102401632 -1025
        -18171201 -202505465</internalNodes>
      <leafValues>
        -1.2946617603302002e-01 1.6465885937213898e-01</leafValues></_>
    <_>
      <internalNodes>
        0 -1 1069 1258012780 1356398607 2053111807 3690975 -491083608
        -88375144 -98379335 -1440026641</internalNodes>
      <leafValues>
        -1.6042394936084747e-01 1.3084530830383301e-01</leafValues></_>
    <_>
      <internalNodes>
        0 -1 915 -197916 -1145142088 -1646315302 -1610739656 -1141260616
        -1075175491 -1141131140 -1074496257</internalNodes>
      <leafValues>
        -9.9853210151195526e-02 2.0607830584049225e-01</leafValues></_>
    <_>
      <internalNodes>
        0 -1 776 754917408 1073721341 1969170984 -33558578 1065328637
        1073723391 1031728557 12953549</internalNodes>
      <leafValues>
        -2.9714599251747131e-01 6.9302946329116821e-02</leafValues></_>
    <_>
      <internalNodes>
        0 -1 90 -269488341 -273952990 -293342 -299700256 724793207
        1057375056 2003269493 -526473</internalNodes>
      <leafValues>
        -1.6775880753993988e-01 1.2154118716716766e-01</leafValues></_>
    <_>
      <internalNodes>
        0 -1 1082 -553657251 861886335 -201599537 454716767 -83952304
        -4263559 -147128328 -92602497</internalNodes>
      <leafValues>
        -1.3342866301536560e-01 1.5127928555011749e-01</leafValues></_>
    <_>
      <internalNodes>
        0 -1 605 2128149464 2072831981 -277741569 1559555788 2145337325
        2147384799 -8470625 2147355205</internalNodes>
      <leafValues>
        -1.7418433725833893e-01 1.0887385904788971e-01</leafValues></_>
    <_>
      <internalNodes>
        0 -1 4 -286605317 -286343446 -281486 -291577100 258681835
        -1343504898 928978807 -268498953</internalNodes>
      <leafValues>
        -1.5741632878780365e-01 1.2232179194688797e-01</leafValues></_>
    <_>
      <internalNodes>
        0 -1 642 -324791212 -268617729 -1187841 -1376075777 -1083326607
        -1797 -354601539 -1440081917</internalNodes>
      <leafValues>
        -1.5021313726902008e-01 1.2278889119625092e-01</leafValues></_>
    <_>
      <internalNodes>
        0 -1 1102 -2133622583 424215621 -67175425 23137365 -1055281
        -1611449618 -67108869 134279519</internalNodes>
      <leafValues>
        -2.2631680965423584e-01 8.0951131880283356e-02</leafValues></_>
    <_>
      <internalNodes>
        0 -1 948 13389908 63266128 2002596607 155288133 1674643933
        -288408631 -562222147 1518406928</internalNodes>
      <leafValues>
        -1.5578812360763550e-01 1.0958367586135864e-01</leafValues></_>
    <_>
      <internalNodes>
        0 -1 1045 1566507168 536850349 2147423506 1071641406 293148041
        2143266223 -143655121 571338671</internalNodes>
      <leafValues>
        -1.8884147703647614e-01 9.1771490871906281e-02</leafValues></_>
    <_>
      <internalNodes>
        0 -1 390 -274026141 -269567234 -67256913 -855712561 -284512597
        -70337282 755635567 -812706801</internalNodes>
      <leafValues>
        -9.8508097231388092e-02 1.7641928791999817e-01</leafValues></_>
    <_>
      <internalNodes>
        0 -1 402 2133491057 -1118104 -134217729 -2171668 -1087702477
        -67175686 705328123 -808497127</internalNodes>
      <leafValues>
        -1.1880675703287125e-01 1.6108293831348419e-01</leafValues></_>
    <_>
      <internalNodes>
        0 -1 855 -1080000672 -1075048996 -1612824835 -1073799831
        -1080147972 -1074025474 -1342300727 802822248</internalNodes>
      <leafValues>
        -1.8033289909362793e-01 9.2713102698326111e-02</leafValues></_>
    <_>
      <internalNodes>
        0 -1 574 -120914804 -991410044 -69271825 -92209202 -423969372
        -696214791 -1073762641 550315013</internalNodes>
      <leafValues>
        -2.3299421370029449e-01 7.1440570056438446e-02</leafValues></_>
    <_>
      <internalNodes>
        0 -1 822 -1342538452 -277171859 -1342195714 -1346572547 -6672503
        -67389649 -3260547 -1364261617</internalNodes>
      <leafValues>
        -1.0590964555740356e-01 1.6215527057647705e-01</leafValues></_>
    <_>
      <internalNodes>
        0 -1 93 187608706 -374099235 805299904 -34080001 -1086345353
        2097131260 -33981 1979578489</internalNodes>
      <leafValues>
        -1.1836350709199905e-01 1.4183625578880310e-01</leafValues></_>
    <_>
      <internalNodes>
        0 -1 109 707930674 670625522 791752571 -268515610 2134843171
        1054851063 2139062173 -33859977</internalNodes>
      <leafValues>
        -2.5993120670318604e-01 6.4385265111923218e-02</leafValues></_>
    <_>
      <internalNodes>
        0 -1 972 83038293 5574149 -136314881 1113463 -53399535 -60852363
        -76513283 -1441726604</internalNodes>
      <leafValues>
        -2.6732277870178223e-01 5.9002690017223358e-02</leafValues></_>
    <_>
      <internalNodes>
        0 -1 924 -288336779 -50305 -25427969 -1142993153 -4325648
        -1073741841 -13926403 -1078259841</internalNodes>
      <leafValues>
        -9.1966792941093445e-02 1.8284983932971954e-01</leafValues></_>
    <_>
      <internalNodes>
        0 -1 873 182094370 -2063713393 -1225980913 -2110114193 618534857
        980870123 720328548 -1370212863</internalNodes>
      <leafValues>
        -1.8459735810756683e-01 8.1448659300804138e-02</leafValues></_>
    <_>
      <internalNodes>
        0 -1 958 -67175256 -1615951480 -46264168 -545350860 1274461421
        267273595 1031780733 -2116843217</internalNodes>
      <leafValues>
        -9.4472117722034454e-02 1.6215637326240540e-01</leafValues></_>
    <_>
      <internalNodes>
        0 -1 106 -1419005718 -1054106 1801137186 -272959248 997146603
        2071867258 2002745317 -2332825</internalNodes>
      <leafValues>
        -1.5470279753208160e-01 9.8580323159694672e-02</leafValues></_>
    <_>
      <internalNodes>
        0 -1 741 -1461780619 1836414335 -269754369 704315359 -627098603
        -33089 -1195761831 -350536601</internalNodes>
      <leafValues>
        -1.0258104652166367e-01 1.4341667294502258e-01</leafValues></_>
    <_>
      <internalNodes>
        0 -1 1 -274012245 1752099234 -1850381 -700121184 924966483
        -2100241 390295935 -36342315</internalNodes>
      <leafValues>
        -1.2306822836399078e-01 1.2304294109344482e-01</leafValues></_>
    <_>
      <internalNodes>
        0 -1 725 -239618646 901736431 -1900304500 -1912656465 1979659959
        199226799 1506758829 266325039</internalNodes>
      <leafValues>
        -1.4466391503810883e-01 9.7766257822513580e-02</leafValues></_>
    <_>
      <internalNodes>
        0 -1 982 -1459727275 2145322109 2057158655 -1622516257
        -1147470344 -335545091 -5570567 -1423827619</internalNodes>
      <leafValues>
        -1.4047385752201080e-01 1.0178779810667038e-01</leafValues></_>
    <_>
      <internalNodes>
        0 -1 410 2028480528 1303176951 -271647027 -2063818521 2112298869
        1341845463 -268681219 651046606</internalNodes>
      <leafValues>
        -2.1210958063602448e-01 6.6523842513561249e-02</leafValues></_>
    <_>
      <internalNodes>
        0 -1 718 -286195868 1071267697 -1187369218 1070742107
        -1075265620 -507987 -1078285832 -1342611617</internalNodes>
      <leafValues>
        -7.9444035887718201e-02 1.7724871635437012e-01</leafValues></_>
    <_>
      <internalNodes>
        0 -1 1046 -269515488 -273742550 -16777992 -204034114 1289321888
        -1950664258 -1073767939 -1465849041</internalNodes>
      <leafValues>
        -1.1248774826526642e-01 1.2198438495397568e-01</leafValues></_>
    <_>
      <internalNodes>
        0 -1 524 -1356710095 1408952360 817572490 2091780896 -204062351
        506413035 -173666228 -1467415475</internalNodes>
      <leafValues>
        -1.3537432253360748e-01 9.8931372165679932e-02</leafValues></_>
    <_>
      <internalNodes>
        0 -1 342 706358786 7343216 -116267486 -329236640 721365583
        -50414993 -705273500 -437952651</internalNodes>
      <leafValues>
        -2.8901031613349915e-01 4.7496236860752106e-02</leafValues></_>
    <_>
      <internalNodes>
        0 -1 478 -1348838543 1877924982 -538976257 -33891236 -1414848651
        -335563858 195763581 -1880488651</internalNodes>
      <leafValues>
        -1.5311717987060547e-01 8.4254331886768341e-02</leafValues></_>
    <_>
      <internalNodes>
        0 -1 1029 -589309873 1907583 -337725510 1310719 -117520192
        -666052032 -355410312 -355336373</internalNodes>
      <leafValues>
        -1.2818881869316101e-01 1.0099309682846069e-01</leafValues></_>
    <_>
      <internalNodes>
        0 -1 813 -337718812 -67178883 -268485042 -1360077329 -273559
        -1073809716 -335644163 -1349841913</internalNodes>
      <leafValues>
        -8.3353877067565918e-02 1.4987280964851379e-01</leafValues></_>
    <_>
      <internalNodes>
        0 -1 52 -1436381006 -891094022 1232120823 -923731214 -1087920335
        -541065294 -75555548 1288455508</internalNodes>
      <leafValues>
        -2.2667753696441650e-01 5.6245259940624237e-02</leafValues></_>
    <_>
      <internalNodes>
        0 -1 831 -832115680 -671089666 -134234113 -134283539 -4195335
        -101739025 -262243 -343175157</internalNodes>
      <leafValues>
        -6.5641701221466064e-02 2.0134702324867249e-01</leafValues></_>
    <_>
      <internalNodes>
        0 -1 609 207498308 149720812 -286335517 -1445134344 973061509
        687729916 -148282 80596773</internalNodes>
      <leafValues>
        -2.3428103327751160e-01 5.4253932088613510e-02</leafValues></_>
    <_>
      <internalNodes>
        0 -1 954 -269024 -536899730 -33598542 -7162957 -6232 -1611137793
        -205522945 -202119313</internalNodes>
      <leafValues>
        -5.2813969552516937e-02 2.5156053900718689e-01</leafValues></_>
    <_>
      <internalNodes>
        0 -1 888 -425932768 -16851868 2147474414 -1275953281 -268764243
        -1409586498 -356877348 -1433788407</internalNodes>
      <leafValues>
        -1.3906902074813843e-01 9.4341076910495758e-02</leafValues></_>
    <_>
      <internalNodes>
        0 -1 1100 -35651971 -283574422 -27280001 -1700626642 -911343729
        1593097077 -71303169 806403452</internalNodes>
      <leafValues>
        -1.8067550659179688e-01 7.1920856833457947e-02</leafValues></_>
    <_>
      <internalNodes>
        0 -1 137 -1299539077 -294778688 1505737503 -134435356 1059844563
        -85213194 2139062047 -60225</internalNodes>
      <leafValues>
        -8.8828727602958679e-02 1.4919441938400269e-01</leafValues></_>
    <_>
      <internalNodes>
        0 -1 1121 632269090 33548171 -1932041968 -1375735153 163455267
        219609423 606998561 268416763</internalNodes>
      <leafValues>
        -2.3249624669551849e-01 5.7847306132316589e-02</leafValues></_>
    <_>
      <internalNodes>
        0 -1 947 -123775900 456098845 1043279290 169017183 -71304064
        -1095071572 -1441899680 -1442787721</internalNodes>
      <leafValues>
        -1.5873290598392487e-01 8.1395857036113739e-02</leafValues></_>
    <_>
      <internalNodes>
        0 -1 207 668608294 858483232 -1074820574 -1297422752 791182687
        -1375584512 124984673 -268872363</internalNodes>
      <leafValues>
        -1.8998886644840240e-01 6.3651151955127716e-02</leafValues></_>
    <_>
      <internalNodes>
        0 -1 961 1568142520 -1108365430 253957136 -7423058 1036433853
        -1150306471 -10485761 -1346392145</internalNodes>
      <leafValues>
        -8.5767053067684174e-02 1.4128296077251434e-01</leafValues></_>
    <_>
      <internalNodes>
        0 -1 856 -4196491 -1073778435 1002389116 -1074021029 -1342178379
        -1090519554 1004234069 -1073745813</internalNodes>
      <leafValues>
        -6.3732229173183441e-02 1.9080619513988495e-01</leafValues></_>
    <_>
      <internalNodes>
        0 -1 0 -1342178449 -286593050 -537924558 -286595908 1073737695
        -1076117751 1605891455 -537406980</internalNodes>
      <leafValues>
        -1.0409263521432877e-01 1.1770284920930862e-01</leafValues></_>
    <_>
      <internalNodes>
        0 -1 593 -335872157 -71631233 -1107456082 -1078141747 984255392
        -70336770 785011935 -808762041</internalNodes>
      <leafValues>
        -7.6643131673336029e-02 1.6071137785911560e-01</leafValues></_>
    <_>
      <internalNodes>
        0 -1 446 49160356 667860879 240987949 500621246 1006511709
        1073192879 805269245 244866797</internalNodes>
      <leafValues>
        -2.7615007758140564e-01 4.3483547866344452e-02</leafValues></_>
    <_>
      <internalNodes>
        0 -1 950 -268770012 -574676513 -168821763 -4645 -80740552
        -536870915 -4458007 -475287773</internalNodes>
      <leafValues>
        -6.9446876645088196e-02 1.7579294741153717e-01</leafValues></_>
    <_>
      <internalNodes>
        0 -1 12 -327161229 -386224603 -553740545 -1432032026 1331636102
        -340017181 1314788669 -29561074</internalNodes>
      <leafValues>
        -1.0882404446601868e-01 1.1043131351470947e-01</leafValues></_>
    <_>
      <internalNodes>
        0 -1 738 -1364558475 -4310209 -272729193 -1376060433 -1430448283
        -33723397 -34047983 -272949931</internalNodes>
      <leafValues>
        -1.3197113573551178e-01 9.1767914593219757e-02</leafValues></_>
    <_>
      <internalNodes>
        0 -1 114 575286570 184576300 -486570496 -1495085464 2134343534
        1182127686 -2132363 -169740429</internalNodes>
      <leafValues>
        -2.1309202909469604e-01 5.7181503623723984e-02</leafValues></_>
    <_>
      <internalNodes>
        0 -1 420 945456128 1909253620 -33558564 -33692204 2146942125
        1207529097 2135621093 1439433793</internalNodes>
      <leafValues>
        -1.7783115804195404e-01 6.9933257997035980e-02</leafValues></_>
    <_>
      <internalNodes>
        0 -1 626 -17298588 851058260 867319784 789610453 -1086386408
        -16810118 -1078805832 -34120331</internalNodes>
      <leafValues>
        -1.3032434880733490e-01 9.2780709266662598e-02</leafValues></_>
    <_>
      <internalNodes>
        0 -1 562 -922753308 635309135 -898843153 733670895 1643296085
        -310614696 -27988516 1245470525</internalNodes>
      <leafValues>
        -1.2215166538953781e-01 9.4929039478302002e-02</leafValues></_>
    <_>
      <internalNodes>
        0 -1 1088 -220214195 1298091081 -660680977 135944415 -340772
        -1183072118 -90378580 -1442779361</internalNodes>
      <leafValues>
        -1.3968129456043243e-01 8.4774225950241089e-02</leafValues></_>
    <_>
      <internalNodes>
        0 -1 78 -1546655185 -269567318 -185146770 -235209510 1862735679
        1134360052 1987802483 1977087479</internalNodes>
      <leafValues>
        -1.1163909733295441e-01 9.9908672273159027e-02</leafValues></_>
    <_>
      <internalNodes>
        0 -1 896 98312236 365691144 -1353647342 900255020 436186069
        -1378574946 -1108484419 767864192</internalNodes>
      <leafValues>
        -2.3927402496337891e-01 4.6630997210741043e-02</leafValues></_>
    <_>
      <internalNodes>
        0 -1 63 735755175 -1173424321 -319627331 451538411 -1623331049
        1325331070 -462264483 -840612515</internalNodes>
      <leafValues>
        -9.3669347465038300e-02 1.2288224697113037e-01</leafValues></_>
    <_>
      <internalNodes>
        0 -1 858 -1494608044 -1665503505 -271581313 -1394950197 -377939
        -541344800 -1650639003 -1439025355</internalNodes>
      <leafValues>
        -1.6755384206771851e-01 6.8688593804836273e-02</leafValues></_>
    <_>
      <internalNodes>
        0 -1 979 81200197 506792519 -321991185 707309407 -489354672
        -531492028 2028599137 709951284</internalNodes>
      <leafValues>
        -2.3458327353000641e-01 4.5285865664482117e-02</leafValues></_>
    <_>
      <internalNodes>
        0 -1 1119 -33569629 1505738751 -637811280 -67439617 2134373287
        66571097 -218368518 -100668481</internalNodes>
      <leafValues>
        -4.6452485024929047e-02 2.4232533574104309e-01</leafValues></_>
    <_>
      <internalNodes>
        0 -1 277 1856682803 -340854404 -75502102 -339096 -1425286337
        -588252679 1184593271 -706751371</internalNodes>
      <leafValues>
        -1.0302295535802841e-01 1.0406985878944397e-01</leafValues></_>
    <_>
      <internalNodes>
        0 -1 1000 1924911808 1943897711 -3801346 293272031 -285558327
        -103943303 -68161232 -527829401</internalNodes>
      <leafValues>
        -9.2049472033977509e-02 1.1719767004251480e-01</leafValues></_>
    <_>
      <internalNodes>
        0 -1 702 -405888530 849260491 -1074790406 1001324143 -1141011479
        853540781 -7389399 231599439</internalNodes>
      <leafValues>
        -1.1502719670534134e-01 9.1107554733753204e-02</leafValues></_>
    <_>
      <internalNodes>
        0 -1 843 -2424924 -71668 -1187042308 -169673219 -8212
        -1073746161 -1074020867 -268477617</internalNodes>
      <leafValues>
        -4.9278117716312408e-02 2.3148794472217560e-01</leafValues></_>
    <_>
      <internalNodes>
        0 -1 348 712511047 725234543 1062873634 706379627 802901554
        792678259 -15528096 -272944341</internalNodes>
      <leafValues>
        -2.3429659008979797e-01 4.5290600508451462e-02</leafValues></_>
    <_>
      <internalNodes>
        0 -1 121 -485299638 587470691 845064737 1929444482 2145909759
        2070609519 1904178431 -143525898</internalNodes>
      <leafValues>
        -8.9907005429267883e-02 1.2321697175502777e-01</leafValues></_>
    <_>
      <internalNodes>
        0 -1 56 -1736772364 -597111576 -1654722713 -456863764
        -1245766224 -188762713 -51106700 351564516</internalNodes>
      <leafValues>
        -1.9217880070209503e-01 5.9124037623405457e-02</leafValues></_>
    <_>
      <internalNodes>
        0 -1 723 -21302283 -562138435 -1342861449 -1371905971
        -1344569355 -642 -1351934871 -272925597</internalNodes>
      <leafValues>
        -5.7607080787420273e-02 1.7926517128944397e-01</leafValues></_>
    <_>
      <internalNodes>
        0 -1 1113 -1023473652 159203420 -1050182 137514703 -403007028
        1542448970 -97742424 -265028021</internalNodes>
      <leafValues>
        -1.1614085733890533e-01 8.8261358439922333e-02</leafValues></_>
    <_>
      <internalNodes>
        0 -1 1095 6225920 1531403621 715889442 863158143 -1342360191
        -1141673169 -1094787400 -257889489</internalNodes>
      <leafValues>
        -1.1983579397201538e-01 9.0622439980506897e-02</leafValues></_>
    <_>
      <internalNodes>
        0 -1 1010 498087728 -1884418755 1474104624 -1612043888 791567697
        -1384402040 280974641 -1879109572</internalNodes>
      <leafValues>
        -2.0830649137496948e-01 5.0140589475631714e-02</leafValues></_>
    <_>
      <internalNodes>
        0 -1 481 -285304459 -16843137 -1343836631 805199333 -1347731548
        -1610629249 -293061333 -1076163317</internalNodes>
      <leafValues>
        -7.3342867195606232e-02 1.3993459939956665e-01</leafValues></_>
    <_>
      <internalNodes>
        0 -1 1078 541353297 392111205 -419973145 689052751 -28126595
        -18494544 -16844068 -1431803772</internalNodes>
      <leafValues>
        -1.8925966322422028e-01 5.5829331278800964e-02</leafValues></_>
    <_>
      <internalNodes>
        0 -1 7 -147849197 -1071192918 -839463147 -992285086 674824315
        1172273077 729756830 1346401250</internalNodes>
      <leafValues>
        -1.4229762554168701e-01 7.0835389196872711e-02</leafValues></_>
    <_>
      <internalNodes>
        0 -1 701 2147266240 518301685 395259462 2130704383 1861500584
        2147213239 -1107382641 64882433</internalNodes>
      <leafValues>
        -1.4927649497985840e-01 6.9054596126079559e-02</leafValues></_>
    <_>
      <internalNodes>
        0 -1 1120 -846201565 261092848 2101334960 -167838468 1089704872
        1202683886 -302059036 -855640834</internalNodes>
      <leafValues>
        -8.6188822984695435e-02 1.1851771175861359e-01</leafValues></_>
    <_>
      <internalNodes>
        0 -1 307 -1960117463 799715364 -338184564 -295637768 773467130
        -341147432 1836265921 -841002763</internalNodes>
      <leafValues>
        -1.2766227126121521e-01 7.8570477664470673e-02</leafValues></_></weakClassifiers></stage11>
</opencv_storage>
