<?xml version="1.0"?>
<opencv_storage>
<stage16>
  <maxWeakCount>100</maxWeakCount>
  <stageThreshold>-2.0244874954223633e+00</stageThreshold>
  <weakClassifiers>
    <_>
      <internalNodes>
        0 -1 532 -84174134 -10485761 305269274 2139095039 -68437334 -513
        -1 -33</internalNodes>
      <leafValues>
        -4.7276607155799866e-01 3.8854748010635376e-01</leafValues></_>
    <_>
      <internalNodes>
        0 -1 956 -806375766 -537948241 -5242881 1596977151 -1 -67114497
        -7340033 -5246977</internalNodes>
      <leafValues>
        -2.2853994369506836e-01 3.9687064290046692e-01</leafValues></_>
    <_>
      <internalNodes>
        0 -1 873 1903261013 1431650645 -2105345 492666335 -97485776
        -71493807 -1156513989 991133551</internalNodes>
      <leafValues>
        -2.6268187165260315e-01 2.3337560892105103e-01</leafValues></_>
    <_>
      <internalNodes>
        0 -1 184 -577537 -40948438 -39880961 -3987677 2138259391
        -2392170 2147188735 -688129</internalNodes>
      <leafValues>
        -2.5834083557128906e-01 1.7434532940387726e-01</leafValues></_>
    <_>
      <internalNodes>
        0 -1 514 -5571038 2146095128 -262145 -536947504 -1356154198
        -5578512 -1426015297 -547385195</internalNodes>
      <leafValues>
        -1.4366613328456879e-01 2.4300663173198700e-01</leafValues></_>
    <_>
      <internalNodes>
        0 -1 532 117730324 815803908 723530432 -2144327840 204885341
        141436166 184745984 1414268164</internalNodes>
      <leafValues>
        -4.5634678006172180e-01 2.8076846152544022e-02</leafValues></_>
    <_>
      <internalNodes>
        0 -1 626 -8716578 1060245840 168837119 2139062271 -1074098552
        -1342210187 -1087718470 -8705</internalNodes>
      <leafValues>
        -7.6692163944244385e-02 3.6292785406112671e-01</leafValues></_>
    <_>
      <internalNodes>
        0 -1 901 -168297099 24464725 -335685768 32636895 -33687300
        -1460028172 -50463491 -1459749637</internalNodes>
      <leafValues>
        -1.8833063542842865e-01 1.2342051416635513e-01</leafValues></_>
    <_>
      <internalNodes>
        0 -1 700 -201402676 -704719121 2011168766 -134283283 -226499959
        -203461633 -12845107 -2110897</internalNodes>
      <leafValues>
        -6.7947305738925934e-02 3.2964760065078735e-01</leafValues></_>
    <_>
      <internalNodes>
        0 -1 201 -349716569 -269549830 -142296353 -272695598 1863040911
        -10554672 1196783439 -547522729</internalNodes>
      <leafValues>
        -1.5415289998054504e-01 1.4801183342933655e-01</leafValues></_>
    <_>
      <internalNodes>
        0 -1 1100 -538968065 275912567 -11535361 49446873 -263169
        -641750161 -1 -1465843717</internalNodes>
      <leafValues>
        -2.2823207080364227e-01 8.7563976645469666e-02</leafValues></_>
    <_>
      <internalNodes>
        0 -1 329 -67163646 998193952 991436834 2134799808 1006579627
        2080339780 2011108805 2012042565</internalNodes>
      <leafValues>
        -2.6094749569892883e-01 8.0761134624481201e-02</leafValues></_>
    <_>
      <internalNodes>
        0 -1 45 -269484033 -292618502 -23833 -1125148 791674879
        -16715532 2003261167 -2108177</internalNodes>
      <leafValues>
        -1.0385777801275253e-01 1.9484941661357880e-01</leafValues></_>
    <_>
      <internalNodes>
        0 -1 956 808547141 624649298 39533162 -1594738841 212403212
        214242156 -1467458231 148684621</internalNodes>
      <leafValues>
        -2.1476541459560394e-01 9.1462023556232452e-02</leafValues></_>
    <_>
      <internalNodes>
        0 -1 1103 -1342194789 1040024877 -207094305 436053843
        -1078988390 -1614287706 -147326022 206962487</internalNodes>
      <leafValues>
        -2.0372799038887024e-01 9.4939403235912323e-02</leafValues></_>
    <_>
      <internalNodes>
        0 -1 891 -16777867 2103394629 -138439751 -1617707145 -1048900
        -83916632 -1345520837 -1442054337</internalNodes>
      <leafValues>
        -8.6337052285671234e-02 2.0447798073291779e-01</leafValues></_>
    <_>
      <internalNodes>
        0 -1 18 -621084705 -293148200 -33751041 -322113794 -67134477
        -19005513 -62089 -305169289</internalNodes>
      <leafValues>
        -1.0830315202474594e-01 1.5057030320167542e-01</leafValues></_>
    <_>
      <internalNodes>
        0 -1 968 141841489 1576810207 -1 1035360735 -69141040 -1122305
        -71630855 -1413849089</internalNodes>
      <leafValues>
        -1.5323452651500702e-01 1.1245770752429962e-01</leafValues></_>
    <_>
      <internalNodes>
        0 -1 1002 -29408 -1615879878 -314192 -536986952 -336244235
        -1879082129 -16819851 -977752531</internalNodes>
      <leafValues>
        -1.2599082291126251e-01 1.2954720854759216e-01</leafValues></_>
    <_>
      <internalNodes>
        0 -1 126 658181739 1244079659 -427069834 -286548441 796861295
        1328250419 -274503809 -574609</internalNodes>
      <leafValues>
        -2.2225055098533630e-01 6.8875513970851898e-02</leafValues></_>
    <_>
      <internalNodes>
        0 -1 992 -103513952 1490815373 -136708105 1356197863 -12015171
        -1074418212 -1142379013 142640621</internalNodes>
      <leafValues>
        -1.9576311111450195e-01 7.6989993453025818e-02</leafValues></_>
    <_>
      <internalNodes>
        0 -1 938 -268435611 -67154819 -218105857 -1073817413 -262215
        -14337 -344197 -1424291541</internalNodes>
      <leafValues>
        -7.4701428413391113e-02 2.0304299890995026e-01</leafValues></_>
    <_>
      <internalNodes>
        0 -1 24 -273944597 -326436630 -346833664 -4004640 1065350079
        -1544618826 536311285 -526859</internalNodes>
      <leafValues>
        -1.1203829199075699e-01 1.3295264542102814e-01</leafValues></_>
    <_>
      <internalNodes>
        0 -1 607 2136878248 1072657901 -4395313 -729748 1073724557
        2147476934 -16859988 298704076</internalNodes>
      <leafValues>
        -1.8062610924243927e-01 7.8377068042755127e-02</leafValues></_>
    <_>
      <internalNodes>
        0 -1 897 -307043072 -981670816 -134221598 -538974723 -79824632
        -541078341 -206569687 -351559157</internalNodes>
      <leafValues>
        -7.3980361223220825e-02 1.8728658556938171e-01</leafValues></_>
    <_>
      <internalNodes>
        0 -1 873 -1895857504 -1164047377 805244527 -471597201 635406273
        1022807262 1873501904 -286482619</internalNodes>
      <leafValues>
        -1.2108169496059418e-01 1.1319797486066818e-01</leafValues></_>
    <_>
      <internalNodes>
        0 -1 566 -1364584587 -35726081 -1049153 -107299 -1343348743
        -268436737 -1680122371 -1879110595</internalNodes>
      <leafValues>
        -1.3476520776748657e-01 1.0196699202060699e-01</leafValues></_>
    <_>
      <internalNodes>
        0 -1 81 732098306 -374412766 -278942154 -338960288 1060191991
        -105158046 1065189366 2110022884</internalNodes>
      <leafValues>
        -1.9587378203868866e-01 6.5698988735675812e-02</leafValues></_>
    <_>
      <internalNodes>
        0 -1 295 -274810077 -68882 -76042245 -1879388080 1326361450
        -15810310 1447499615 -807579361</internalNodes>
      <leafValues>
        -8.9057385921478271e-02 1.4815467596054077e-01</leafValues></_>
    <_>
      <internalNodes>
        0 -1 211 -337728982 -139821234 -2244894 -289736094 2133790219
        1864307744 1717528327 -271198393</internalNodes>
      <leafValues>
        -1.9126515090465546e-01 6.8132400512695313e-02</leafValues></_>
    <_>
      <internalNodes>
        0 -1 777 -67440978 -536937997 -1104630086 -4194561 -276906310
        -8947201 -349272 -30969</internalNodes>
      <leafValues>
        -5.2475836127996445e-02 2.6060366630554199e-01</leafValues></_>
    <_>
      <internalNodes>
        0 -1 1032 -117686187 -604045231 -33 408575447 -341145448
        -340017000 -81076232 -1442132641</internalNodes>
      <leafValues>
        -1.2545304000377655e-01 1.0639993846416473e-01</leafValues></_>
    <_>
      <internalNodes>
        0 -1 626 -1433138911 -386040227 -352260898 -1078919683
        1869969914 2147479546 1894923517 -1644986379</internalNodes>
      <leafValues>
        -1.5444518625736237e-01 8.1783875823020935e-02</leafValues></_>
    <_>
      <internalNodes>
        0 -1 954 -1072088 -540039391 -34622990 -549804714 -266837
        -1611927825 -804353 -202661589</internalNodes>
      <leafValues>
        -5.5133458226919174e-02 2.3438306152820587e-01</leafValues></_>
    <_>
      <internalNodes>
        0 -1 1077 -1079529181 -1086375680 268375600 -1656811485
        154023091 -1077936707 531584273 -1347431297</internalNodes>
      <leafValues>
        -1.2454825639724731e-01 1.0200465470552444e-01</leafValues></_>
    <_>
      <internalNodes>
        0 -1 360 -292157936 -16900241 -81923 -1901417362 -1354945740
        -19460 2111767373 -349567739</internalNodes>
      <leafValues>
        -1.5846712887287140e-01 7.8493677079677582e-02</leafValues></_>
    <_>
      <internalNodes>
        0 -1 1023 -598215329 408886623 -169000961 408614879 -386014896
        -90178533 -102171976 -363200689</internalNodes>
      <leafValues>
        -1.2252866476774216e-01 1.0000275075435638e-01</leafValues></_>
    <_>
      <internalNodes>
        0 -1 1053 1438634400 369097007 297742352 1475345663 89629864
        162051502 85967309 -805306385</internalNodes>
      <leafValues>
        -1.0418136417865753e-01 1.1895630508661270e-01</leafValues></_>
    <_>
      <internalNodes>
        0 -1 742 -1393892220 -849083055 -805636097 -120687266 -17369660
        -22057 -822150924 -1063104511</internalNodes>
      <leafValues>
        -1.8422684073448181e-01 6.5554648637771606e-02</leafValues></_>
    <_>
      <internalNodes>
        0 -1 514 116932061 -432279472 -18882567 -1410740743 -89067591
        -1074857218 1512828741 769674574</internalNodes>
      <leafValues>
        -1.1477909982204437e-01 1.0959707945585251e-01</leafValues></_>
    <_>
      <internalNodes>
        0 -1 702 -137367572 854036419 -808478018 2076114925 -67261459
        849346551 -7520956 550371279</internalNodes>
      <leafValues>
        -1.4467760920524597e-01 7.9901494085788727e-02</leafValues></_>
    <_>
      <internalNodes>
        0 -1 129 -348913677 707791478 1871395667 224879971 1065058167
        -296897 2138532727 -295065</internalNodes>
      <leafValues>
        -1.2674404680728912e-01 9.1793246567249298e-02</leafValues></_>
    <_>
      <internalNodes>
        0 -1 1004 2113907114 1475325903 -604030216 871362031 301720821
        -1141899634 -72352259 -1429602325</internalNodes>
      <leafValues>
        -9.4011530280113220e-02 1.2630911171436310e-01</leafValues></_>
    <_>
      <internalNodes>
        0 -1 136 -1372669005 -492142866 -738754320 -828726176 237972479
        -1343603714 83690769 -807922684</internalNodes>
      <leafValues>
        -1.9060143828392029e-01 6.1936903744935989e-02</leafValues></_>
    <_>
      <internalNodes>
        0 -1 855 -1088914588 -1076331280 -16793729 -1095092000
        -1145102372 -1074020450 -1107616343 -1349895072</internalNodes>
      <leafValues>
        -1.4482058584690094e-01 8.0608338117599487e-02</leafValues></_>
    <_>
      <internalNodes>
        0 -1 784 -17105312 983363744 808521376 536850942 1049657308
        -1145515336 -142885073 -1141052689</internalNodes>
      <leafValues>
        -8.4673315286636353e-02 1.3736250996589661e-01</leafValues></_>
    <_>
      <internalNodes>
        0 -1 532 659973419 1876704096 -9830427 -1108841886 627478403
        2003713804 894178436 -1602142108</internalNodes>
      <leafValues>
        -1.4244289696216583e-01 7.9294599592685699e-02</leafValues></_>
    <_>
      <internalNodes>
        0 -1 1101 -578960035 1566137429 -12583973 420544349 -353926946
        -1124737975 -1057813 -1744765057</internalNodes>
      <leafValues>
        -1.4080078899860382e-01 7.8222833573818207e-02</leafValues></_>
    <_>
      <internalNodes>
        0 -1 848 209649696 534753071 95618080 -1347421250 1040002765
        1073688491 -269619281 618512045</internalNodes>
      <leafValues>
        -2.7974233031272888e-01 3.8269437849521637e-02</leafValues></_>
    <_>
      <internalNodes>
        0 -1 856 -5245067 -1077956464 -1073804007 -1912914823
        -1417678347 -1075849224 737875269 -1879092117</internalNodes>
      <leafValues>
        -7.0590905845165253e-02 1.6909658908843994e-01</leafValues></_>
    <_>
      <internalNodes>
        0 -1 25 -1356140637 1827335748 -12644506 -354110496 1060468594
        1965225652 1428386295 -705300489</internalNodes>
      <leafValues>
        -9.9484480917453766e-02 1.0867197811603546e-01</leafValues></_>
    <_>
      <internalNodes>
        0 -1 399 -268965938 896741199 1845341070 738180975 -557139
        -191371347 1339911948 1225780815</internalNodes>
      <leafValues>
        -9.1801539063453674e-02 1.1600559949874878e-01</leafValues></_>
    <_>
      <internalNodes>
        0 -1 180 -956892944 -1530611196 -537460899 -136384549
        -1132872796 -1147814411 -180796 98383169</internalNodes>
      <leafValues>
        -1.8541540205478668e-01 6.3242308795452118e-02</leafValues></_>
    <_>
      <internalNodes>
        0 -1 1121 565162016 128941834 -839057120 -1927295806 22755111
        86924791 134173699 1342174427</internalNodes>
      <leafValues>
        -2.2892431914806366e-01 4.7252118587493896e-02</leafValues></_>
    <_>
      <internalNodes>
        0 -1 792 -1931476896 787119965 -306268161 788168687 -1079189768
        -285281361 -550077059 716838709</internalNodes>
      <leafValues>
        -1.9605670869350433e-01 5.2220635116100311e-02</leafValues></_>
    <_>
      <internalNodes>
        0 -1 786 -401593024 -1140977548 488259542 494548343 -1095230856
        -311320 -1095099736 -114935</internalNodes>
      <leafValues>
        -1.1931020766496658e-01 8.4928356111049652e-02</leafValues></_>
    <_>
      <internalNodes>
        0 -1 420 -117262720 1874903158 -43321635 -285292605 2146483969
        1845020670 2137833389 1976303949</internalNodes>
      <leafValues>
        -1.4438146352767944e-01 7.1907654404640198e-02</leafValues></_>
    <_>
      <internalNodes>
        0 -1 102 778757675 1262445346 -16785270 -340069344 928087915
        668434246 2113632113 1969747319</internalNodes>
      <leafValues>
        -1.4918471872806549e-01 6.8262055516242981e-02</leafValues></_>
    <_>
      <internalNodes>
        0 -1 457 721029243 800993149 -526735758 997883767 804417535
        -23134209 -268804740 1870757755</internalNodes>
      <leafValues>
        -2.0141083002090454e-01 4.8938307911157608e-02</leafValues></_>
    <_>
      <internalNodes>
        0 -1 115 -1422938590 590293798 -82631550 778042338 1006616559
        1071333201 -68257865 -5245033</internalNodes>
      <leafValues>
        -1.0836537927389145e-01 9.7080610692501068e-02</leafValues></_>
    <_>
      <internalNodes>
        0 -1 650 -201858362 341791599 -810033170 737859311 -453513088
        -1869258140 -321798167 1783688820</internalNodes>
      <leafValues>
        -1.1576791107654572e-01 8.6584351956844330e-02</leafValues></_>
    <_>
      <internalNodes>
        0 -1 569 -298172624 -16887987 -1142871 -1371628193 -1345372368
        -805323841 -1880488935 -830858233</internalNodes>
      <leafValues>
        -1.2490940093994141e-01 8.2994498312473297e-02</leafValues></_>
    <_>
      <internalNodes>
        0 -1 1113 1795129420 192741387 -905981194 37404895 1660125832
        -890262515 -84496312 -1207763089</internalNodes>
      <leafValues>
        -1.5213963389396667e-01 6.9393239915370941e-02</leafValues></_>
    <_>
      <internalNodes>
        0 -1 590 715807760 1610521676 -1344308483 -1359296036
        -1886741848 -17114370 42605733 -561048511</internalNodes>
      <leafValues>
        -1.4430926740169525e-01 6.7098833620548248e-02</leafValues></_>
    <_>
      <internalNodes>
        0 -1 604 -344559001 -337729538 -690025217 -4259873 -349190229
        -68227350 -68182129 -1428175537</internalNodes>
      <leafValues>
        -5.1742874085903168e-02 1.8914641439914703e-01</leafValues></_>
    <_>
      <internalNodes>
        0 -1 416 615784580 233098364 667885967 -1369919761 1071611389
        1023012332 1071566527 785354661</internalNodes>
      <leafValues>
        -2.1463128924369812e-01 4.5604117214679718e-02</leafValues></_>
    <_>
      <internalNodes>
        0 -1 988 1756236913 -554039212 -134488071 -1663165089 1873461000
        -336934232 -357930640 -1417017343</internalNodes>
      <leafValues>
        -1.3480196893215179e-01 7.3201932013034821e-02</leafValues></_>
    <_>
      <internalNodes>
        0 -1 265 -1371915469 -285575503 2096883447 -287834016 1309294113
        -879858717 1155401047 -853801979</internalNodes>
      <leafValues>
        -1.6452516615390778e-01 5.7182073593139648e-02</leafValues></_>
    <_>
      <internalNodes>
        0 -1 962 -514 -66340 -421676 -2191276 -1107969554 -1073817649
        -117581396 -2622737</internalNodes>
      <leafValues>
        -3.4769494086503983e-02 2.8385338187217712e-01</leafValues></_>
    <_>
      <internalNodes>
        0 -1 1061 -1428125483 987365461 -404752385 -1879748363 -92747624
        -67396451 -357499139 -1442784035</internalNodes>
      <leafValues>
        -1.5423770248889923e-01 6.0802616178989410e-02</leafValues></_>
    <_>
      <internalNodes>
        0 -1 1093 -889288182 -738237891 578023422 1364905983 -123631480
        -88166806 -1432703576 -67502129</internalNodes>
      <leafValues>
        -5.6234464049339294e-02 1.7129857838153839e-01</leafValues></_>
    <_>
      <internalNodes>
        0 -1 706 -25809394 1966548862 2146450170 800258812 -1879699960
        -1470660753 -1083263096 -1982509732</internalNodes>
      <leafValues>
        -1.2641812860965729e-01 7.2921045124530792e-02</leafValues></_>
    <_>
      <internalNodes>
        0 -1 1117 -268460032 436202509 281008306 836695038 1875875978
        1605316556 -105014824 -117964833</internalNodes>
      <leafValues>
        -8.0660074949264526e-02 1.1021589487791061e-01</leafValues></_>
    <_>
      <internalNodes>
        0 -1 1078 141955159 1027550265 -981501957 725228035 -336208067
        -576688 -67176195 -1439553004</internalNodes>
      <leafValues>
        -1.5637557208538055e-01 5.6963965296745300e-02</leafValues></_>
    <_>
      <internalNodes>
        0 -1 0 -72352833 1827327562 -562059346 -330022 872398719
        -58982445 939489247 -2049</internalNodes>
      <leafValues>
        -5.4810740053653717e-02 1.6755799949169159e-01</leafValues></_>
    <_>
      <internalNodes>
        0 -1 61 1862414082 1896397088 -33557965 -99554080 1577088851
        1845900216 929594843 -638225035</internalNodes>
      <leafValues>
        -1.3765133917331696e-01 6.8833023309707642e-02</leafValues></_>
    <_>
      <internalNodes>
        0 -1 666 -340066999 -268640291 -301990273 -33882881 -1371897927
        -208669254 -1078233751 -828437493</internalNodes>
      <leafValues>
        -6.4691364765167236e-02 1.4072595536708832e-01</leafValues></_>
    <_>
      <internalNodes>
        0 -1 796 -321847179 745823603 -269484049 -1469387137 -1162344864
        -1677844908 -98018527 -1440060380</internalNodes>
      <leafValues>
        -1.4747276902198792e-01 6.0161821544170380e-02</leafValues></_>
    <_>
      <internalNodes>
        0 -1 1120 -905977310 1877985196 536302880 -135069774 22008243
        665837234 1711007212 -503319077</internalNodes>
      <leafValues>
        -7.1949720382690430e-02 1.2515150010585785e-01</leafValues></_>
    <_>
      <internalNodes>
        0 -1 965 280432928 497859684 153882672 -1914164764 19935585
        -1382825374 1012866365 -1879049105</internalNodes>
      <leafValues>
        -1.5745417773723602e-01 5.7042844593524933e-02</leafValues></_>
    <_>
      <internalNodes>
        0 -1 461 2013246702 921679534 -838885240 144684682 905926651
        654047231 1055617515 1342043179</internalNodes>
      <leafValues>
        -1.2887893617153168e-01 7.0340648293495178e-02</leafValues></_>
    <_>
      <internalNodes>
        0 -1 1075 -861985760 2140093245 460796656 -126710050 138158513
        -1077981979 -1644545603 -1179336813</internalNodes>
      <leafValues>
        -9.1744698584079742e-02 9.9614806473255157e-02</leafValues></_>
    <_>
      <internalNodes>
        0 -1 509 2107305344 1043260915 -207684194 -18555923 1105567104
        1257765229 -70467964 567032837</internalNodes>
      <leafValues>
        -1.7674070596694946e-01 4.8277266323566437e-02</leafValues></_>
    <_>
      <internalNodes>
        0 -1 822 -272958164 -553929427 -1107384322 -1347519107 -3409143
        -614809682 -279282087 -1416951805</internalNodes>
      <leafValues>
        -7.2125308215618134e-02 1.3042923808097839e-01</leafValues></_>
    <_>
      <internalNodes>
        0 -1 138 -545024541 -537919582 -537942225 -286792480 -1156859118
        -680609417 2138544031 -2271929</internalNodes>
      <leafValues>
        -7.0468306541442871e-02 1.2402753531932831e-01</leafValues></_>
    <_>
      <internalNodes>
        0 -1 994 -26547196 -74634897 -536873102 2066677183 -100009544
        -74457905 -72680965 -368401145</internalNodes>
      <leafValues>
        -7.8791297972202301e-02 1.1190360039472580e-01</leafValues></_>
    <_>
      <internalNodes>
        0 -1 972 74802245 5328726 -138413057 135323631 -119521259
        -327191231 1516367828 -1437567131</internalNodes>
      <leafValues>
        -2.0130009949207306e-01 4.2844898998737335e-02</leafValues></_>
    <_>
      <internalNodes>
        0 -1 92 -805346549 -336660566 -35658878 -1364525472 728735675
        1866950256 1978095079 -807603481</internalNodes>
      <leafValues>
        -1.0683126747608185e-01 8.0241374671459198e-02</leafValues></_>
    <_>
      <internalNodes>
        0 -1 747 -1363669248 1866223224 -543246600 -1364263209
        -1886707908 -75499111 -1346761760 -1903558656</internalNodes>
      <leafValues>
        -1.8325395882129669e-01 4.5200023800134659e-02</leafValues></_>
    <_>
      <internalNodes>
        0 -1 909 -4282844 -1649742232 1073718008 -68486 -100700951
        -1074298882 -1359496391 -167925457</internalNodes>
      <leafValues>
        -6.0601785778999329e-02 1.3774260878562927e-01</leafValues></_>
    <_>
      <internalNodes>
        0 -1 232 705831427 20069685 -46677044 611498848 519984959
        -559079450 1693414708 -50987161</internalNodes>
      <leafValues>
        -2.1569035947322845e-01 4.0427844971418381e-02</leafValues></_>
    <_>
      <internalNodes>
        0 -1 1100 1760940253 -284319892 -15758593 -1473733506 1297937375
        850662109 -8388611 907738988</internalNodes>
      <leafValues>
        -1.4479827880859375e-01 5.6824374943971634e-02</leafValues></_>
    <_>
      <internalNodes>
        0 -1 825 1337652832 -587487979 -43106516 33297889 -2187395
        -83906931 -1346491527 -1471346623</internalNodes>
      <leafValues>
        -1.1995591968297958e-01 7.1079559624195099e-02</leafValues></_>
    <_>
      <internalNodes>
        0 -1 1044 729752192 836752333 2105490330 15580639 2041262217
        -1141016337 -604268196 -389222583</internalNodes>
      <leafValues>
        -1.2059143185615540e-01 6.8280711770057678e-02</leafValues></_>
    <_>
      <internalNodes>
        0 -1 1042 -739972896 -537057945 -16386 1932930879 -90441008
        -170830 -68431439 -83655889</internalNodes>
      <leafValues>
        -5.0286866724491119e-02 1.6947339475154877e-01</leafValues></_>
    <_>
      <internalNodes>
        0 -1 770 779922656 217549254 -268442433 -1343379667 366783981
        2127949716 -270603045 97324293</internalNodes>
      <leafValues>
        -1.7926138639450073e-01 4.7527980059385300e-02</leafValues></_>
    <_>
      <internalNodes>
        0 -1 442 2087911409 1070508902 1829899345 -33632796 2147434159
        1073721312 2080337805 1607288207</internalNodes>
      <leafValues>
        -8.6237818002700806e-02 9.4153918325901031e-02</leafValues></_>
    <_>
      <internalNodes>
        0 -1 723 -17369099 -1103465751 -1409938962 -1347732233
        -1613070347 -16881668 -1074897579 -268742560</internalNodes>
      <leafValues>
        -6.0901287943124771e-02 1.4636042714118958e-01</leafValues></_>
    <_>
      <internalNodes>
        0 -1 1010 522727729 -1079362264 503140408 -1721237456 773985781
        -1622245420 251401588 -1884334915</internalNodes>
      <leafValues>
        -1.7019525170326233e-01 4.7480579465627670e-02</leafValues></_>
    <_>
      <internalNodes>
        0 -1 356 -487918507 -295297299 1442103287 -1912820481
        -1373914206 -268522193 263128975 -1892808666</internalNodes>
      <leafValues>
        -8.2509160041809082e-02 1.0043968260288239e-01</leafValues></_></weakClassifiers></stage16>
</opencv_storage>
