<?xml version="1.0"?>
<opencv_storage>
<stage12>
  <maxWeakCount>100</maxWeakCount>
  <stageThreshold>-2.0664680004119873e+00</stageThreshold>
  <weakClassifiers>
    <_>
      <internalNodes>
        0 -1 953 -21846 -20993 -2097153 -1 -20481 -16385 -16385 -1</internalNodes>
      <leafValues>
        -4.8102957010269165e-01 4.0926668047904968e-01</leafValues></_>
    <_>
      <internalNodes>
        0 -1 83 -75498497 -2049 -1 -3073 2139077567 -1033 2147450879
        2147448799</internalNodes>
      <leafValues>
        -3.0316007137298584e-01 3.1148889660835266e-01</leafValues></_>
    <_>
      <internalNodes>
        0 -1 572 -269013504 -33606273 -808678131 -2109617 -4380416
        -186307 -1895036147 252645135</internalNodes>
      <leafValues>
        -3.1426095962524414e-01 2.2949598729610443e-01</leafValues></_>
    <_>
      <internalNodes>
        0 -1 698 -361566718 -8392589 -8389121 -10787 -365253110 -8692945
        -1421890131 -12833</internalNodes>
      <leafValues>
        -1.5361012518405914e-01 3.8926798105239868e-01</leafValues></_>
    <_>
      <internalNodes>
        0 -1 901 -167772675 436063357 -655363 33161215 -118621956
        -1191333644 -318898947 -1459749633</internalNodes>
      <leafValues>
        -2.3442313075065613e-01 2.0553205907344818e-01</leafValues></_>
    <_>
      <internalNodes>
        0 -1 602 -368382432 -4402980 -671612929 -537144876 -1423791446
        -72691492 799719357 1608188945</internalNodes>
      <leafValues>
        -1.7823053896427155e-01 1.9080984592437744e-01</leafValues></_>
    <_>
      <internalNodes>
        0 -1 953 145511765 534598272 1271768114 233672070 216062088
        751660749 -1538470420 147623309</internalNodes>
      <leafValues>
        -3.0058482289314270e-01 9.5636926591396332e-02</leafValues></_>
    <_>
      <internalNodes>
        0 -1 962 -328452 -359176 -1871701808 -570457860 -1350568978
        -1610613777 -1077937939 -13825</internalNodes>
      <leafValues>
        -5.5608782917261124e-02 4.4870686531066895e-01</leafValues></_>
    <_>
      <internalNodes>
        0 -1 31 -1372913677 -288424450 -269488145 -285432092 790795139
        -359698 1733777239 -807599033</internalNodes>
      <leafValues>
        -2.1982568502426147e-01 1.3076773285865784e-01</leafValues></_>
    <_>
      <internalNodes>
        0 -1 1101 -587213603 4196437 -4203553 22857 -74017 -19407771
        -136314881 134283231</internalNodes>
      <leafValues>
        -2.9385635256767273e-01 1.1672136187553406e-01</leafValues></_>
    <_>
      <internalNodes>
        0 -1 91 791359275 757149472 -178822145 -282921184 1064665071
        1542280053 2147188735 -1738889</internalNodes>
      <leafValues>
        -2.5572437047958374e-01 1.1010757088661194e-01</leafValues></_>
    <_>
      <internalNodes>
        0 -1 439 -84804886 2071951231 840054970 2139026037 -1145324886
        2146170932 1944835533 -2763451</internalNodes>
      <leafValues>
        -1.3962997496128082e-01 2.1759891510009766e-01</leafValues></_>
    <_>
      <internalNodes>
        0 -1 1060 1490047061 391906399 -1310977 995982559 -50791208
        -67199043 -12911624 -1153761281</internalNodes>
      <leafValues>
        -1.6241356730461121e-01 1.5220443904399872e-01</leafValues></_>
    <_>
      <internalNodes>
        0 -1 613 2138385056 2146955239 931016682 -437268500 2138061802
        2147449343 -1074053237 131335173</internalNodes>
      <leafValues>
        -2.7830523252487183e-01 8.8852398097515106e-02</leafValues></_>
    <_>
      <internalNodes>
        0 -1 891 -1675 -572569527 -138954053 -1615069193 -67110152
        -67139448 -1414758597 -1442054817</internalNodes>
      <leafValues>
        -9.8147727549076080e-02 2.3870393633842468e-01</leafValues></_>
    <_>
      <internalNodes>
        0 -1 1055 20951299 126875403 37159168 -1879057105 268146603
        113243903 123696483 -1879048305</internalNodes>
      <leafValues>
        -2.4524161219596863e-01 8.7525054812431335e-02</leafValues></_>
    <_>
      <internalNodes>
        0 -1 250 -290541840 -318882049 -19350019 -1359020818 195899319
        -53249 1341985629 -805501947</internalNodes>
      <leafValues>
        -1.8542407453060150e-01 1.1143830418586731e-01</leafValues></_>
    <_>
      <internalNodes>
        0 -1 209 -79691805 2142165090 -293022 -1387296 728711151
        254173216 1199003607 -807418553</internalNodes>
      <leafValues>
        -1.4399646222591400e-01 1.3823570311069489e-01</leafValues></_>
    <_>
      <internalNodes>
        0 -1 581 -269549571 -268563329 -3166977 -1879094065 -274022471
        -1097733 -275898501 -1882257393</internalNodes>
      <leafValues>
        -7.4433952569961548e-02 2.6479688286781311e-01</leafValues></_>
    <_>
      <internalNodes>
        0 -1 237 -1434767761 1744768307 -326407946 -352616837 804749039
        -6325249 -268488833 -262785</internalNodes>
      <leafValues>
        -1.7370939254760742e-01 1.1225931346416473e-01</leafValues></_>
    <_>
      <internalNodes>
        0 -1 83 1068643888 -135595017 1872176738 1727268087 -1079881886
        1876297338 1073579520 -993752987</internalNodes>
      <leafValues>
        -1.4577239751815796e-01 1.2592646479606628e-01</leafValues></_>
    <_>
      <internalNodes>
        0 -1 818 -7951224 -8610668 -2106049 -35326828 -21335 -545678467
        -64337 82248773</internalNodes>
      <leafValues>
        -2.3221704363822937e-01 8.2661099731922150e-02</leafValues></_>
    <_>
      <internalNodes>
        0 -1 998 -269489888 -847380162 -109053060 -612422357 -335941319
        219113847 -18153991 -341053633</internalNodes>
      <leafValues>
        -9.8600648343563080e-02 1.9080390036106110e-01</leafValues></_>
    <_>
      <internalNodes>
        0 -1 42 -273678353 -877986230 -101325342 -403784520 455538687
        -811925513 670005171 -2569</internalNodes>
      <leafValues>
        -1.0046897083520889e-01 1.8669004738330841e-01</leafValues></_>
    <_>
      <internalNodes>
        0 -1 1100 -538976801 1058478693 -2105377 543178597 -269746241
        1069162305 -1 -1203699714</internalNodes>
      <leafValues>
        -1.8859247863292694e-01 9.3987256288528442e-02</leafValues></_>
    <_>
      <internalNodes>
        0 -1 405 -290783631 -71938 -293625985 -1359034156 -1425359958
        -1384278 1598052141 -841150203</internalNodes>
      <leafValues>
        -1.5827013552188873e-01 1.1570890992879868e-01</leafValues></_>
    <_>
      <internalNodes>
        0 -1 1038 -386219796 -629341971 2138439679 1397971455 -349517672
        -71646840 -81068567 -350056465</internalNodes>
      <leafValues>
        -9.8728045821189880e-02 1.7908859252929688e-01</leafValues></_>
    <_>
      <internalNodes>
        0 -1 558 -321475468 251294847 -17891873 700120831 -274351628
        -35684873 -825656067 711622499</internalNodes>
      <leafValues>
        -1.3696187734603882e-01 1.2357652932405472e-01</leafValues></_>
    <_>
      <internalNodes>
        0 -1 877 -187453708 5574020 -335544450 13752319 -325736972
        -35863276 -320015196 4313045</internalNodes>
      <leafValues>
        -2.3147426545619965e-01 6.9880694150924683e-02</leafValues></_>
    <_>
      <internalNodes>
        0 -1 964 -4661904 -1107419908 -134611459 -1073750787 738147832
        -1343506625 -1076003715 -1073742721</internalNodes>
      <leafValues>
        -8.1999905407428741e-02 1.9226354360580444e-01</leafValues></_>
    <_>
      <internalNodes>
        0 -1 242 -1365593093 -320145812 -469762823 -69536516 536592383
        -1363165281 401569787 -537964163</internalNodes>
      <leafValues>
        -1.1233841627836227e-01 1.3828824460506439e-01</leafValues></_>
    <_>
      <internalNodes>
        0 -1 1116 228565282 1029685103 321911072 771750907 1135915176
        1610088035 2107106096 548464155</internalNodes>
      <leafValues>
        -2.1350677311420441e-01 7.1092858910560608e-02</leafValues></_>
    <_>
      <internalNodes>
        0 -1 862 7605316 215815503 -62193665 215506895 -394740656
        -33933219 -131269252 709392173</internalNodes>
      <leafValues>
        -2.3819328844547272e-01 6.0103166848421097e-02</leafValues></_>
    <_>
      <internalNodes>
        0 -1 1001 1576993928 2113911727 -73654983 2147483503 492310941
        -33570897 -419569889 -1431654483</internalNodes>
      <leafValues>
        -1.2806087732315063e-01 1.1538890004158020e-01</leafValues></_>
    <_>
      <internalNodes>
        0 -1 572 922669431 662562437 -20980018 3813039 73569841
        1858001602 2027911174 -119450283</internalNodes>
      <leafValues>
        -1.3842146098613739e-01 1.0609547048807144e-01</leafValues></_>
    <_>
      <internalNodes>
        0 -1 614 -681575638 867871530 -6381892 -459410 -1281381500
        871351271 -1115892 734919759</internalNodes>
      <leafValues>
        -1.2705807387828827e-01 1.1695134639739990e-01</leafValues></_>
    <_>
      <internalNodes>
        0 -1 131 -269487134 586081023 132064591 804250383 2013225907
        1073726459 1945859964 1877996575</internalNodes>
      <leafValues>
        -1.7067353427410126e-01 8.2007020711898804e-02</leafValues></_>
    <_>
      <internalNodes>
        0 -1 726 -1372978063 -21094437 -166405 -1428609 -268820504
        -70689 -1146462727 -1363539680</internalNodes>
      <leafValues>
        -1.7694848775863647e-01 7.7121429145336151e-02</leafValues></_>
    <_>
      <internalNodes>
        0 -1 678 1793741776 2147413468 -570443778 -1342245539 -272985928
        -10306 -270879747 -343212021</internalNodes>
      <leafValues>
        -8.5333600640296936e-02 1.6481456160545349e-01</leafValues></_>
    <_>
      <internalNodes>
        0 -1 578 -284526831 1874785496 -2099269 -268640932 -1347799239
        -272695586 -1096041203 -811693027</internalNodes>
      <leafValues>
        -1.3408426940441132e-01 1.0296760499477386e-01</leafValues></_>
    <_>
      <internalNodes>
        0 -1 437 -1359335900 983710050 -539300176 1001061856 1073430527
        -1413865532 2113814388 -571014667</internalNodes>
      <leafValues>
        -1.8195523321628571e-01 7.4204869568347931e-02</leafValues></_>
    <_>
      <internalNodes>
        0 -1 958 -33626884 -87078 -168032040 -33885964 737654777
        -1610676369 1073690989 -203953409</internalNodes>
      <leafValues>
        -5.7054124772548676e-02 2.3362414538860321e-01</leafValues></_>
    <_>
      <internalNodes>
        0 -1 64 -50141405 -272437854 -88086617 -604117308 723689283
        -114853261 2134734847 -588941865</internalNodes>
      <leafValues>
        -1.1288244277238846e-01 1.1724869161844254e-01</leafValues></_>
    <_>
      <internalNodes>
        0 -1 852 712778852 -1073998628 1043793644 797850748 -1079493588
        -4491320 804404792 -1342481028</internalNodes>
      <leafValues>
        -2.2937406599521637e-01 5.7598233222961426e-02</leafValues></_>
    <_>
      <internalNodes>
        0 -1 1091 -86046707 1532690461 -90207494 322851295 -340549496
        -88555374 -89457576 -1164919186</internalNodes>
      <leafValues>
        -1.1990071833133698e-01 1.0877402871847153e-01</leafValues></_>
    <_>
      <internalNodes>
        0 -1 765 -277680504 -268514868 -536953122 -268516899 -811020388
        -1648365634 -273760851 -807435249</internalNodes>
      <leafValues>
        -6.4609594643115997e-02 1.9994449615478516e-01</leafValues></_>
    <_>
      <internalNodes>
        0 -1 0 -1048577 -269549726 2071980003 -4267034 -1074790417
        -131617 1998583803 -2561</internalNodes>
      <leafValues>
        -4.8285227268934250e-02 2.5810727477073669e-01</leafValues></_>
    <_>
      <internalNodes>
        0 -1 710 478030692 318736072 1604171944 -1378173180 996121484
        853474184 -67633683 9284943</internalNodes>
      <leafValues>
        -1.8196599185466766e-01 6.9267138838768005e-02</leafValues></_>
    <_>
      <internalNodes>
        0 -1 126 -276091349 1797990191 -1561655782 1647013703 -11573393
        2136726323 -5282257 -8945809</internalNodes>
      <leafValues>
        -1.3079807162284851e-01 9.4438776373863220e-02</leafValues></_>
    <_>
      <internalNodes>
        0 -1 251 -1361136943 -84525123 -8589345 -34822593 -1358258416
        -536895521 1197295573 -1413542905</internalNodes>
      <leafValues>
        -1.0985285043716431e-01 1.1466799676418304e-01</leafValues></_>
    <_>
      <internalNodes>
        0 -1 1108 -338327487 696060253 -858783746 252808965 1609924748
        -68191804 -75498276 -2013204897</internalNodes>
      <leafValues>
        -1.5339426696300507e-01 8.1124752759933472e-02</leafValues></_>
    <_>
      <internalNodes>
        0 -1 759 -1466552988 -827430881 -268988498 -1900217873
        -1366315487 -117526447 -1427210931 -2004264955</internalNodes>
      <leafValues>
        -1.6318555176258087e-01 7.4408099055290222e-02</leafValues></_>
    <_>
      <internalNodes>
        0 -1 618 -335630626 -491523 -344097 2142953455 -1409372792
        -8683522 -268517720 -570454577</internalNodes>
      <leafValues>
        -5.7881180197000504e-02 2.2171305119991302e-01</leafValues></_>
    <_>
      <internalNodes>
        0 -1 1121 -2117 268387507 -738237120 -2359845 790351287
        228260567 98562995 -268435461</internalNodes>
      <leafValues>
        -7.3857374489307404e-02 1.6060984134674072e-01</leafValues></_>
    <_>
      <internalNodes>
        0 -1 634 774909296 1027305469 -1094832328 790249273 803109684
        -1089667 -915088 792344880</internalNodes>
      <leafValues>
        -3.1918564438819885e-01 3.6945108324289322e-02</leafValues></_>
    <_>
      <internalNodes>
        0 -1 1012 5656645 1024466781 -172359697 706377567 -475152
        -29361991 -556072963 -1439531491</internalNodes>
      <leafValues>
        -1.7311289906501770e-01 6.5492913126945496e-02</leafValues></_>
    <_>
      <internalNodes>
        0 -1 216 573710370 753853126 1836985717 -941053918 1073035040
        1055902374 1073483525 770987104</internalNodes>
      <leafValues>
        -3.2027873396873474e-01 3.5054966807365417e-02</leafValues></_>
    <_>
      <internalNodes>
        0 -1 941 -303041465 1029690975 -268525617 526384991 -131856
        -70280760 -269975685 -1421086865</internalNodes>
      <leafValues>
        -6.2625959515571594e-02 1.9054333865642548e-01</leafValues></_>
    <_>
      <internalNodes>
        0 -1 1066 1256046665 1507524621 -738197509 147998045 -277682040
        -19251071 -91161048 -1440175269</internalNodes>
      <leafValues>
        -1.4230139553546906e-01 8.4730848670005798e-02</leafValues></_>
    <_>
      <internalNodes>
        0 -1 901 632762118 -940360277 1324850950 -1695879174 -1914321663
        -939534081 535495514 1206815536</internalNodes>
      <leafValues>
        -1.2175479531288147e-01 1.0007195919752121e-01</leafValues></_>
    <_>
      <internalNodes>
        0 -1 8 -16385 -16895233 1601941503 -289740114 638526207 -2188305
        1742485439 -146129</internalNodes>
      <leafValues>
        -6.8541809916496277e-02 1.6718855500221252e-01</leafValues></_>
    <_>
      <internalNodes>
        0 -1 155 -274546829 -288442818 -616908979 -102156 722444251
        -404051793 1696544101 -808565691</internalNodes>
      <leafValues>
        -1.2578673660755157e-01 9.2001669108867645e-02</leafValues></_>
    <_>
      <internalNodes>
        0 -1 907 2096963616 366835319 -1421885442 167706623 -1225740568
        -1597387040 -11936264 -1463419283</internalNodes>
      <leafValues>
        -1.2924470007419586e-01 8.9046113193035126e-02</leafValues></_>
    <_>
      <internalNodes>
        0 -1 786 -297503132 -68274092 1033518040 -1117118091 -1086440592
        -84262935 -1409664599 -115165</internalNodes>
      <leafValues>
        -1.0187200456857681e-01 1.0943511873483658e-01</leafValues></_>
    <_>
      <internalNodes>
        0 -1 921 -1086672608 -1112656136 -131459844 -1143073296
        -1074063367 -66696 1069090924 802772444</internalNodes>
      <leafValues>
        -1.2896727025508881e-01 9.2071853578090668e-02</leafValues></_>
    <_>
      <internalNodes>
        0 -1 813 -1433780928 -1410444209 -589417832 -1370867209
        -13927952 -67175923 -1079494352 780795908</internalNodes>
      <leafValues>
        -2.1763509511947632e-01 5.0529155880212784e-02</leafValues></_>
    <_>
      <internalNodes>
        0 -1 967 1433875232 -1623248854 1567817730 -1649427368 519910839
        -1342258207 2145010999 -805307025</internalNodes>
      <leafValues>
        -1.1692868173122406e-01 9.3571126461029053e-02</leafValues></_>
    <_>
      <internalNodes>
        0 -1 665 -990589716 -2131959732 -657008914 -1001602080
        -1897659199 148673476 1493107950 12584388</internalNodes>
      <leafValues>
        -2.8963890671730042e-01 3.7404060363769531e-02</leafValues></_>
    <_>
      <internalNodes>
        0 -1 687 -1594726848 1207378967 1207799466 32440271 -805337311
        -1402377900 -5341920 141545318</internalNodes>
      <leafValues>
        -1.5266308188438416e-01 7.2783492505550385e-02</leafValues></_>
    <_>
      <internalNodes>
        0 -1 538 -1439554048 720897045 714096304 503870804 733101940
        -1075889166 771370528 -34269995</internalNodes>
      <leafValues>
        -2.0764409005641937e-01 5.1820069551467896e-02</leafValues></_>
    <_>
      <internalNodes>
        0 -1 1016 1953874143 206387831 -75505681 675479439 -522788784
        -27445401 -218669123 704704868</internalNodes>
      <leafValues>
        -2.0407195389270782e-01 5.0144217908382416e-02</leafValues></_>
    <_>
      <internalNodes>
        0 -1 1097 -371294174 1373577638 -1359667152 -1812273257 59774393
        901690599 -1245990616 -1174667521</internalNodes>
      <leafValues>
        -7.9778984189033508e-02 1.3726937770843506e-01</leafValues></_>
    <_>
      <internalNodes>
        0 -1 1115 -352354296 1635770973 -1684027190 42657638 -338853432
        -1617177267 -1564751672 -525075921</internalNodes>
      <leafValues>
        -1.1518873274326324e-01 9.2286229133605957e-02</leafValues></_>
    <_>
      <internalNodes>
        0 -1 807 -355553692 748049679 -1943099506 297446735 -17052808
        -1091610183 -293060796 -1441050761</internalNodes>
      <leafValues>
        -1.0821426659822464e-01 9.8742887377738953e-02</leafValues></_>
    <_>
      <internalNodes>
        0 -1 490 748830517 768540216 -47186519 -277161520 713194551
        -273695841 28989933 -1716633315</internalNodes>
      <leafValues>
        -1.4931949973106384e-01 7.0262126624584198e-02</leafValues></_>
    <_>
      <internalNodes>
        0 -1 78 -418127317 1806346786 -948454482 -203232320 1055342431
        -747209249 912487767 -707275273</internalNodes>
      <leafValues>
        -1.0211927443742752e-01 1.0277042537927628e-01</leafValues></_>
    <_>
      <internalNodes>
        0 -1 320 -43342320 1063806624 -301456544 -813774940 1006583730
        2147479123 1878994863 1842086344</internalNodes>
      <leafValues>
        -1.4000634849071503e-01 7.3479801416397095e-02</leafValues></_>
    <_>
      <internalNodes>
        0 -1 28 -12939061 -219235122 -1345340689 -184622360 1060500351
        -153432732 1316976095 -570686051</internalNodes>
      <leafValues>
        -8.6525835096836090e-02 1.1495216935873032e-01</leafValues></_>
    <_>
      <internalNodes>
        0 -1 370 -218825474 -729243636 -302212626 -2056737862 1742013169
        -573753864 -1375928082 587544165</internalNodes>
      <leafValues>
        -1.6037097573280334e-01 6.5890394151210785e-02</leafValues></_>
    <_>
      <internalNodes>
        0 -1 698 1877936332 1638151676 1006384544 -910630298 602228149
        31447737 -588821228 21313056</internalNodes>
      <leafValues>
        -1.9287905097007751e-01 5.3078729659318924e-02</leafValues></_>
    <_>
      <internalNodes>
        0 -1 954 -1859296 -545971162 -49420 -107829645 -641634
        -1912932683 -37767043 -67656593</internalNodes>
      <leafValues>
        -5.7396117597818375e-02 1.9266800582408905e-01</leafValues></_>
    <_>
      <internalNodes>
        0 -1 963 1440723168 393185518 -1719723760 -1628984897 851310037
        -1343760481 -268625411 -1935867905</internalNodes>
      <leafValues>
        -9.8839148879051208e-02 1.0010518878698349e-01</leafValues></_>
    <_>
      <internalNodes>
        0 -1 128 35785250 141568 560145920 186786305 791875426 722613867
        1254298948 2134324802</internalNodes>
      <leafValues>
        -4.7268995642662048e-01 2.0713811740279198e-02</leafValues></_>
    <_>
      <internalNodes>
        0 -1 792 -354795423 -1393659525 -39849042 -1364577049
        -1161937448 -67175553 -277055395 -1431691717</internalNodes>
      <leafValues>
        -1.1045006662607193e-01 8.8943079113960266e-02</leafValues></_>
    <_>
      <internalNodes>
        0 -1 689 84214948 498380717 -1362100443 -1745945153 802979805
        232545445 1442830063 650501524</internalNodes>
      <leafValues>
        -2.0814788341522217e-01 4.6100590378046036e-02</leafValues></_>
    <_>
      <internalNodes>
        0 -1 1008 -272894672 -1078319904 489562224 -84772 801073529
        -4477193 -1073794595 -1342191507</internalNodes>
      <leafValues>
        -7.4733145534992218e-02 1.3391055166721344e-01</leafValues></_>
    <_>
      <internalNodes>
        0 -1 693 2131369088 457093346 -1073812724 1073520600 1878863012
        1600110311 -85218940 809763332</internalNodes>
      <leafValues>
        -2.3628781735897064e-01 4.0884748101234436e-02</leafValues></_>
    <_>
      <internalNodes>
        0 -1 24 -1549098198 696964616 -705214076 -365366548 662647635
        399177460 1568223297 1979049072</internalNodes>
      <leafValues>
        -1.8481680750846863e-01 5.1407240331172943e-02</leafValues></_>
    <_>
      <internalNodes>
        0 -1 602 563101582 -944767804 -41943100 -290009767 -355733704
        -1142821644 -25492189 -1514356338</internalNodes>
      <leafValues>
        -8.8447250425815582e-02 1.0905265063047409e-01</leafValues></_>
    <_>
      <internalNodes>
        0 -1 756 -1346473628 -67147443 -19626 -1142927 732826344
        -1116706 1539180556 -896662523</internalNodes>
      <leafValues>
        -1.3650473952293396e-01 7.0177234709262848e-02</leafValues></_>
    <_>
      <internalNodes>
        0 -1 994 -570514396 -67638929 -604373125 -168391233 -256136551
        -209133842 -22282949 -1431590389</internalNodes>
      <leafValues>
        -6.9912359118461609e-02 1.4127048850059509e-01</leafValues></_>
    <_>
      <internalNodes>
        0 -1 891 1752630986 69054755 -399133763 144113471 -86185963
        -356572423 -1165248399 -1948197343</internalNodes>
      <leafValues>
        -1.2580646574497223e-01 7.5651496648788452e-02</leafValues></_>
    <_>
      <internalNodes>
        0 -1 1121 791617824 632262186 1085748496 89897302 127534433
        85883463 374034736 33535787</internalNodes>
      <leafValues>
        -2.8908213973045349e-01 3.2523658126592636e-02</leafValues></_>
    <_>
      <internalNodes>
        0 -1 439 708061186 -1074479570 995231782 -1422173464 1807208387
        -1153468208 -1238487549 1419261634</internalNodes>
      <leafValues>
        -1.4154922962188721e-01 6.5846137702465057e-02</leafValues></_>
    <_>
      <internalNodes>
        0 -1 1085 218038341 185428565 1205854207 710071647 -289493736
        -6349992 -84903608 -1441726705</internalNodes>
      <leafValues>
        -1.6382530331611633e-01 5.6106951087713242e-02</leafValues></_>
    <_>
      <internalNodes>
        0 -1 837 -8396800 -262318 -100978438 -388749 -79982567 -25192597
        -807683656 -272645797</internalNodes>
      <leafValues>
        -4.9542568624019623e-02 1.8775330483913422e-01</leafValues></_>
    <_>
      <internalNodes>
        0 -1 706 786435630 1035165548 -268910610 728922878 -1624895796
        964656911 -303122520 -1912666675</internalNodes>
      <leafValues>
        -1.3391575217247009e-01 7.0761822164058685e-02</leafValues></_>
    <_>
      <internalNodes>
        0 -1 833 -1059364508 -1048829462 1040158440 1200551274
        -1415780151 -235042747 -288596627 147587333</internalNodes>
      <leafValues>
        -1.6695389151573181e-01 5.6079756468534470e-02</leafValues></_>
    <_>
      <internalNodes>
        0 -1 915 -33567712 -86856 -1428673396 -573142840 -1342231652
        -1682014599 -12644280 -1377363713</internalNodes>
      <leafValues>
        -5.8878529816865921e-02 1.5612421929836273e-01</leafValues></_>
    <_>
      <internalNodes>
        0 -1 115 708521474 170789664 -99546624 -495305760 796745477
        384401235 1937708385 1961711015</internalNodes>
      <leafValues>
        -3.2781749963760376e-01 2.7567908167839050e-02</leafValues></_></weakClassifiers></stage12>
</opencv_storage>
