<?xml version="1.0"?>
<opencv_storage>
<stage10>
  <maxWeakCount>100</maxWeakCount>
  <stageThreshold>-2.0251040458679199e+00</stageThreshold>
  <weakClassifiers>
    <_>
      <internalNodes>
        0 -1 532 -67388790 -32769 976366138 2139095039 -1145066870 -1 -1
        -1</internalNodes>
      <leafValues>
        -4.8909974098205566e-01 4.1737744212150574e-01</leafValues></_>
    <_>
      <internalNodes>
        0 -1 960 -654333782 -536891393 -1711603536 -1 -1 -1 -1 -1048577</internalNodes>
      <leafValues>
        -2.3758913576602936e-01 4.2736607789993286e-01</leafValues></_>
    <_>
      <internalNodes>
        0 -1 559 -112 -49803 -2 -16385 -67125328 -15 -1179656 -32897</internalNodes>
      <leafValues>
        -2.2966432571411133e-01 3.2434344291687012e-01</leafValues></_>
    <_>
      <internalNodes>
        0 -1 105 2134585215 2134322978 -805359809 -39422 2147450879
        -1344556 2147450879 -34953</internalNodes>
      <leafValues>
        -3.3909782767295837e-01 1.3975068926811218e-01</leafValues></_>
    <_>
      <internalNodes>
        0 -1 676 -50463500 -715795203 -33751042 -570556929 -33686019
        -1392659979 -302137857 15597055</internalNodes>
      <leafValues>
        -2.6530420780181885e-01 1.7848949134349823e-01</leafValues></_>
    <_>
      <internalNodes>
        0 -1 80 -274202641 -282397534 -661530 -273746720 727971831
        -553488272 1702328183 -11012617</internalNodes>
      <leafValues>
        -2.2097849845886230e-01 2.1461342275142670e-01</leafValues></_>
    <_>
      <internalNodes>
        0 -1 1016 -243278497 273897055 -2097153 6487903 -69207471
        -75670159 -262147 -1437532289</internalNodes>
      <leafValues>
        -2.9007264971733093e-01 1.4630702137947083e-01</leafValues></_>
    <_>
      <internalNodes>
        0 -1 532 641092989 979943236 -148316201 -1146060992 1869241853
        1065301807 790563721 2010989828</internalNodes>
      <leafValues>
        -2.6502206921577454e-01 1.6017079353332520e-01</leafValues></_>
    <_>
      <internalNodes>
        0 -1 1049 96436642 1073721279 859648307 1073741759 98238907
        532676607 1333526527 -1360007189</internalNodes>
      <leafValues>
        -2.5271710753440857e-01 1.6917058825492859e-01</leafValues></_>
    <_>
      <internalNodes>
        0 -1 387 -1347747853 -1364528904 -2099201 -318848772 730528767
        -809510977 520844793 1337922781</internalNodes>
      <leafValues>
        -2.3637507855892181e-01 1.2745440006256104e-01</leafValues></_>
    <_>
      <internalNodes>
        0 -1 610 -92606970 -67437452 -67108865 -67076 -1434538194
        -1149239810 -1434473537 -570437283</internalNodes>
      <leafValues>
        -1.1565923690795898e-01 2.4498602747917175e-01</leafValues></_>
    <_>
      <internalNodes>
        0 -1 3 -818729437 -1917253854 -270573705 -274651870 1599279219
        -101222690 1595373567 -42632585</internalNodes>
      <leafValues>
        -2.0861159265041351e-01 1.3025180995464325e-01</leafValues></_>
    <_>
      <internalNodes>
        0 -1 1104 1216302175 139479839 -570556673 537952119 -50405928
        -92371075 -519 -1473183873</internalNodes>
      <leafValues>
        -2.9413032531738281e-01 9.7859315574169159e-02</leafValues></_>
    <_>
      <internalNodes>
        0 -1 27 -273678337 -290537490 -167800841 -66436 254492671
        -273694722 2012694527 -43665</internalNodes>
      <leafValues>
        -1.3077065348625183e-01 2.3023134469985962e-01</leafValues></_>
    <_>
      <internalNodes>
        0 -1 996 -243799227 1400760647 -12582913 288489471 -84303704
        -1163353944 -357893976 -1433797809</internalNodes>
      <leafValues>
        -1.3455396890640259e-01 2.0242047309875488e-01</leafValues></_>
    <_>
      <internalNodes>
        0 -1 845 -20832 536710688 -1072982 -536891442 -17 1073733115
        -268444227 552430373</internalNodes>
      <leafValues>
        -1.8699257075786591e-01 1.3672910630702972e-01</leafValues></_>
    <_>
      <internalNodes>
        0 -1 1020 -522431403 1040013919 -131073 1073405823 -92733456
        -2425379 -71761992 -1438975105</internalNodes>
      <leafValues>
        -1.7996837198734283e-01 1.3990148901939392e-01</leafValues></_>
    <_>
      <internalNodes>
        0 -1 14 -621085473 -83951905 -1073741825 -956498217 -1103914207
        -33 -277398153 -838897833</internalNodes>
      <leafValues>
        -1.2995006144046783e-01 1.8801549077033997e-01</leafValues></_>
    <_>
      <internalNodes>
        0 -1 666 716847168 -268509219 -306184705 -268542723 -1883611143
        -4456449 -1078313863 263919625</internalNodes>
      <leafValues>
        -2.0778857171535492e-01 1.1080694943666458e-01</leafValues></_>
    <_>
      <internalNodes>
        0 -1 519 2135075488 1071677919 -5316641 -1650737 2147265444
        2063593423 -213003 2009867079</internalNodes>
      <leafValues>
        -1.9887915253639221e-01 1.1850892007350922e-01</leafValues></_>
    <_>
      <internalNodes>
        0 -1 994 -474847451 -610596529 -8650881 1395788087 -72700616
        -73157110 -83169483 -1440612059</internalNodes>
      <leafValues>
        -1.7767550051212311e-01 1.2358937412500381e-01</leafValues></_>
    <_>
      <internalNodes>
        0 -1 126 780086831 574039663 -363337138 -1434825120 1877962623
        1610055291 -35719 1710750535</internalNodes>
      <leafValues>
        -3.0734604597091675e-01 7.3486864566802979e-02</leafValues></_>
    <_>
      <internalNodes>
        0 -1 1035 -570430897 1574768989 -540016641 8126431 -660236088
        -656570232 -87401256 -2013135029</internalNodes>
      <leafValues>
        -1.7128075659275055e-01 1.2918063998222351e-01</leafValues></_>
    <_>
      <internalNodes>
        0 -1 650 -453785788 358512455 -2773009 804184014 -1317668496
        -246062988 -17432728 712015444</internalNodes>
      <leafValues>
        -1.9393396377563477e-01 1.1317566782236099e-01</leafValues></_>
    <_>
      <internalNodes>
        0 -1 1006 -570500748 -1112926040 -570876424 -25444 234626548
        -1377833473 -1394659211 -1375740419</internalNodes>
      <leafValues>
        -1.1156537383794785e-01 1.9341827929019928e-01</leafValues></_>
    <_>
      <internalNodes>
        0 -1 1121 62859041 96204334 2113873184 -1514212398 134166307
        85717351 360662320 33551611</internalNodes>
      <leafValues>
        -3.6254596710205078e-01 5.8223683387041092e-02</leafValues></_>
    <_>
      <internalNodes>
        0 -1 0 -1410416661 1854598954 -822632286 -285546528 595542015
        905968638 1778350071 -33558027</internalNodes>
      <leafValues>
        -1.7052812874317169e-01 1.2793040275573730e-01</leafValues></_>
    <_>
      <internalNodes>
        0 -1 427 -1359335933 -341127392 -537007242 -100991904 253902831
        -1144120784 729249637 -805485451</internalNodes>
      <leafValues>
        -2.0020957291126251e-01 1.0234873741865158e-01</leafValues></_>
    <_>
      <internalNodes>
        0 -1 569 -285327756 -285339937 -354865 -1933947778 -337691207
        -17489 -1073800913 -1908538289</internalNodes>
      <leafValues>
        -1.4225329458713531e-01 1.4025504887104034e-01</leafValues></_>
    <_>
      <internalNodes>
        0 -1 968 217600085 226253949 -2105345 254828125 -17433104
        -296097 -127337095 -1439662224</internalNodes>
      <leafValues>
        -2.8536716103553772e-01 7.0430122315883636e-02</leafValues></_>
    <_>
      <internalNodes>
        0 -1 725 -403704798 1001384879 -1376153844 -1913653778 903722943
        1069278639 602882445 268431151</internalNodes>
      <leafValues>
        -1.7196656763553619e-01 1.1444871872663498e-01</leafValues></_>
    <_>
      <internalNodes>
        0 -1 841 1668554788 83593037 -203472904 31120191 -117572171
        2147280885 -319832195 551415679</internalNodes>
      <leafValues>
        -2.3373919725418091e-01 7.9693727195262909e-02</leafValues></_>
    <_>
      <internalNodes>
        0 -1 825 -285280988 1245539329 -35702993 -1993724053 -537925511
        -280423 -1364313223 -1433416657</internalNodes>
      <leafValues>
        -1.1950330436229706e-01 1.7151732742786407e-01</leafValues></_>
    <_>
      <internalNodes>
        0 -1 1109 163416960 368904449 -269418533 1071232373 -1882020710
        -536911529 -1117005318 3205125</internalNodes>
      <leafValues>
        -2.6588767766952515e-01 7.1122691035270691e-02</leafValues></_>
    <_>
      <internalNodes>
        0 -1 765 -282007776 -370480694 -17666 -134293251 -282869843
        -79757329 -272646723 -339803125</internalNodes>
      <leafValues>
        -9.2735618352890015e-02 2.0962090790271759e-01</leafValues></_>
    <_>
      <internalNodes>
        0 -1 681 -352407964 -120713 -217089 -1078133011 -75841552
        -1410339905 -307740803 -1999878907</internalNodes>
      <leafValues>
        -1.8163572251796722e-01 1.0334108769893646e-01</leafValues></_>
    <_>
      <internalNodes>
        0 -1 1100 1039635933 523574361 -1029 570597239 -1613242371
        -71827611 -1048577 537984893</internalNodes>
      <leafValues>
        -2.4794028699398041e-01 7.3002040386199951e-02</leafValues></_>
    <_>
      <internalNodes>
        0 -1 638 -1399178156 2063497199 -170917889 -1346462339
        -1363296771 -16897 -1246872131 -4258751</internalNodes>
      <leafValues>
        -1.5163193643093109e-01 1.1481703817844391e-01</leafValues></_>
    <_>
      <internalNodes>
        0 -1 1093 -1057029620 1409105935 326627054 270192639 -354318134
        -72393138 -89462616 -1464271025</internalNodes>
      <leafValues>
        -1.4739245176315308e-01 1.1780903488397598e-01</leafValues></_>
    <_>
      <internalNodes>
        0 -1 436 586096752 268340918 -1348710516 -1393495386 1073688565
        1055391661 -33951836 769519517</internalNodes>
      <leafValues>
        -2.6381903886795044e-01 6.7829795181751251e-02</leafValues></_>
    <_>
      <internalNodes>
        0 -1 329 -67653974 2071428641 -13062526 2134293952 1879027631
        1064269662 2141132741 -943467321</internalNodes>
      <leafValues>
        -1.2890620529651642e-01 1.3599887490272522e-01</leafValues></_>
    <_>
      <internalNodes>
        0 -1 158 -289489101 -16997634 -70657 -289513280 252147623 -897
        1327301711 -275841018</internalNodes>
      <leafValues>
        -1.2009570002555847e-01 1.3949754834175110e-01</leafValues></_>
    <_>
      <internalNodes>
        0 -1 559 -420548497 -1604534017 -1090588721 226258031 -362946467
        -856173409 -53058553 170119381</internalNodes>
      <leafValues>
        -1.1361493915319443e-01 1.5096734464168549e-01</leafValues></_>
    <_>
      <internalNodes>
        0 -1 1010 -1623199439 -1087448788 -1073769166 -1649932104
        468868533 -1088448609 1051676949 -1343236739</internalNodes>
      <leafValues>
        -1.3227744400501251e-01 1.2955330312252045e-01</leafValues></_>
    <_>
      <internalNodes>
        0 -1 217 -1422250202 -1356126428 -53321 -374147552 796880767
        -1636354074 1794856817 -17345163</internalNodes>
      <leafValues>
        -2.2404505312442780e-01 7.4224859476089478e-02</leafValues></_>
    <_>
      <internalNodes>
        0 -1 903 -409549792 -1880430845 1591178684 -543771267 -6294227
        -1914702353 -2691 -341841045</internalNodes>
      <leafValues>
        -8.1054233014583588e-02 2.0529197156429291e-01</leafValues></_>
    <_>
      <internalNodes>
        0 -1 960 804149076 934247086 -454739122 468495432 -1325536884
        -1075069753 -22323992 -1474760922</internalNodes>
      <leafValues>
        -1.4016069471836090e-01 1.1638604104518890e-01</leafValues></_>
    <_>
      <internalNodes>
        0 -1 538 -1368256768 679089525 -1367851078 238184915 787950373
        -1897988258 -1636156124 -1644882511</internalNodes>
      <leafValues>
        -2.3954667150974274e-01 6.4160466194152832e-02</leafValues></_>
    <_>
      <internalNodes>
        0 -1 1049 1481603097 1202673176 930616816 1471130215 388274453
        -268455949 -1141164502 999274795</internalNodes>
      <leafValues>
        -1.1792936176061630e-01 1.3009877502918243e-01</leafValues></_>
    <_>
      <internalNodes>
        0 -1 73 -1597329200 -735385691 402436094 -320540938 978919344
        737655603 -33734748 1168405605</internalNodes>
      <leafValues>
        -2.4971698224544525e-01 6.0984134674072266e-02</leafValues></_>
    <_>
      <internalNodes>
        0 -1 128 -352669841 674836030 -1388108182 455299840 724250495
        2143246175 2146385789 -13144245</internalNodes>
      <leafValues>
        -1.7802506685256958e-01 8.6509808897972107e-02</leafValues></_>
    <_>
      <internalNodes>
        0 -1 80 -1140936798 -1763180950 -9459671 -1124338626 -1758646517
        804237542 376653769 1107117420</internalNodes>
      <leafValues>
        -1.1818447709083557e-01 1.2785910069942474e-01</leafValues></_>
    <_>
      <internalNodes>
        0 -1 82 -835715281 -4524818 -67139873 -2426114 795795343
        -289221408 1733760479 -526377</internalNodes>
      <leafValues>
        -9.2719979584217072e-02 1.7251268029212952e-01</leafValues></_>
    <_>
      <internalNodes>
        0 -1 985 1089932357 492120133 -536895633 135974863 -604145648
        -31847344 -18849968 167837523</internalNodes>
      <leafValues>
        -2.2212302684783936e-01 6.6783353686332703e-02</leafValues></_>
    <_>
      <internalNodes>
        0 -1 714 -270913676 -1368901640 -1106100229 1068507637
        -1414002184 -5547142 -1373066056 -4910689</internalNodes>
      <leafValues>
        -1.2058560550212860e-01 1.2383651733398438e-01</leafValues></_>
    <_>
      <internalNodes>
        0 -1 60 -342167569 1808718818 -1116734670 -39665694 1870903227
        1852043111 -227060399 -134752777</internalNodes>
      <leafValues>
        -1.0015200823545456e-01 1.4845338463783264e-01</leafValues></_>
    <_>
      <internalNodes>
        0 -1 578 750419284 650038908 -2245 -1359159815 -1347736783
        -268537946 -1466278611 -1903289339</internalNodes>
      <leafValues>
        -2.0625986158847809e-01 7.2417415678501129e-02</leafValues></_>
    <_>
      <internalNodes>
        0 -1 783 -1149195260 -1158145924 -1087882550 -1293278020
        -1430647896 -1421115555 -1431159112 -1510273703</internalNodes>
      <leafValues>
        -1.3306386768817902e-01 1.0887355357408524e-01</leafValues></_>
    <_>
      <internalNodes>
        0 -1 950 -318849024 -734173907 -33556611 1172242931 -338764036
        -536938258 -49613719 -357572573</internalNodes>
      <leafValues>
        -8.7192378938198090e-02 1.6183295845985413e-01</leafValues></_>
    <_>
      <internalNodes>
        0 -1 635 706756468 1052386332 -1347843530 724712572 511469344
        -4301843 -1342560928 -1074122464</internalNodes>
      <leafValues>
        -2.3576581478118896e-01 6.0905143618583679e-02</leafValues></_>
    <_>
      <internalNodes>
        0 -1 105 -1487740253 -1490533819 502483658 2057491441
        -1082740938 911847257 -67384533 1973646008</internalNodes>
      <leafValues>
        -9.8916999995708466e-02 1.4232338964939117e-01</leafValues></_>
    <_>
      <internalNodes>
        0 -1 261 2088697854 315116 -184565793 -993202578 -1258309130
        -1112965220 1761487599 619979268</internalNodes>
      <leafValues>
        -2.3683762550354004e-01 6.1732240021228790e-02</leafValues></_>
    <_>
      <internalNodes>
        0 -1 816 -285489564 1499321451 -294736178 -1818558469 -285590927
        -536891457 -18202819 -1425326293</internalNodes>
      <leafValues>
        -1.0018680989742279e-01 1.4440192282199860e-01</leafValues></_>
    <_>
      <internalNodes>
        0 -1 1078 1282671941 186138429 -262209553 -1424835191 -285292067
        -22429833 -17303236 -1438976244</internalNodes>
      <leafValues>
        -1.7451950907707214e-01 8.0258272588253021e-02</leafValues></_>
    <_>
      <internalNodes>
        0 -1 132 -335872045 -1576208402 -4720645 -123168784 781712175
        -419593478 1442002169 2147370484</internalNodes>
      <leafValues>
        -1.2950617074966431e-01 1.0242041200399399e-01</leafValues></_>
    <_>
      <internalNodes>
        0 -1 918 -281773036 -1073869700 447721468 -1074127624
        -1883423423 -1078314001 -1477502791 -1342239489</internalNodes>
      <leafValues>
        -1.0419568419456482e-01 1.2745797634124756e-01</leafValues></_>
    <_>
      <internalNodes>
        0 -1 792 -488212619 -1459684481 -4525129 -1359415825 -270617099
        -71336961 -826573443 -1430647001</internalNodes>
      <leafValues>
        -1.2039228528738022e-01 1.1043777316808701e-01</leafValues></_>
    <_>
      <internalNodes>
        0 -1 102 -300423377 2072210249 -8402270 -67962646 1667594218
        259519852 -297691 -34245129</internalNodes>
      <leafValues>
        -1.0849933326244354e-01 1.2450802326202393e-01</leafValues></_>
    <_>
      <internalNodes>
        0 -1 902 80027680 80035813 -56819977 610651800 500542941
        501845445 -605057601 8767268</internalNodes>
      <leafValues>
        -2.7060315012931824e-01 4.7202542424201965e-02</leafValues></_>
    <_>
      <internalNodes>
        0 -1 998 -134353120 -715179229 -578848772 -214503053 -337907733
        -1757960205 -71631367 -341055569</internalNodes>
      <leafValues>
        -6.1361752450466156e-02 2.1246948838233948e-01</leafValues></_>
    <_>
      <internalNodes>
        0 -1 1032 -1429323691 1140787281 -526385 -1821745681 -357909848
        -1078000879 -357900424 -1433743755</internalNodes>
      <leafValues>
        -1.3638025522232056e-01 9.4491392374038696e-02</leafValues></_>
    <_>
      <internalNodes>
        0 -1 1011 2071982507 529527855 461309232 -1107298135 1065301927
        -1888496898 128939351 -805316273</internalNodes>
      <leafValues>
        -9.4135753810405731e-02 1.3132558763027191e-01</leafValues></_>
    <_>
      <internalNodes>
        0 -1 962 -1449262028 -1375858472 402200772 -1073870616 248984677
        -1946275457 -1444079496 213126181</internalNodes>
      <leafValues>
        -2.2257508337497711e-01 5.6711796671152115e-02</leafValues></_>
    <_>
      <internalNodes>
        0 -1 8 -1361006685 -1427462546 1868475068 -2131171102 102043431
        -1881529601 67065093 -814996478</internalNodes>
      <leafValues>
        -2.0784795284271240e-01 5.8980077505111694e-02</leafValues></_>
    <_>
      <internalNodes>
        0 -1 1119 617545728 71255090 572720432 711125994 354357504
        46130448 817607056 546371567</internalNodes>
      <leafValues>
        -3.2592540979385376e-01 3.6803215742111206e-02</leafValues></_>
    <_>
      <internalNodes>
        0 -1 690 -286331867 2145385804 1870127091 -34417187 -433090910
        -553922626 -147151441 -538983073</internalNodes>
      <leafValues>
        -5.8041773736476898e-02 2.1700257062911987e-01</leafValues></_>
    <_>
      <internalNodes>
        0 -1 747 -1564848528 2129547457 1069484791 -1292473029 -7716932
        -67375399 -1883632144 -276149248</internalNodes>
      <leafValues>
        -1.6523216664791107e-01 7.2871483862400055e-02</leafValues></_>
    <_>
      <internalNodes>
        0 -1 502 -269811725 -65826 -268697861 -2368300 -1349862725
        -67110150 931871229 -807435105</internalNodes>
      <leafValues>
        -5.3840715438127518e-02 2.2125808894634247e-01</leafValues></_>
    <_>
      <internalNodes>
        0 -1 116 728933154 2135584550 588460578 2120939364 2132750262
        2066706278 2080338407 -2132073</internalNodes>
      <leafValues>
        -1.4846405386924744e-01 8.0275230109691620e-02</leafValues></_>
    <_>
      <internalNodes>
        0 -1 630 -1434702272 739784465 -1083166722 -1099939841 737697652
        -4227246 -1099285400 -5224587</internalNodes>
      <leafValues>
        -1.9671882688999176e-01 6.1372388154268265e-02</leafValues></_>
    <_>
      <internalNodes>
        0 -1 972 -520629793 30430791 2130164719 1005912047 -127250031
        -1343627 -244122755 -1166582939</internalNodes>
      <leafValues>
        -9.2543944716453552e-02 1.2817303836345673e-01</leafValues></_>
    <_>
      <internalNodes>
        0 -1 42 648209450 572713988 -1409456350 -1563890496 690126351
        186276400 24204341 1173640516</internalNodes>
      <leafValues>
        -2.9491621255874634e-01 4.0096323937177658e-02</leafValues></_>
    <_>
      <internalNodes>
        0 -1 94 -294469854 -1110705174 -293768606 -273516700 1845919503
        -3219388 2004297597 -841649821</internalNodes>
      <leafValues>
        -1.3477082550525665e-01 8.3823494613170624e-02</leafValues></_>
    <_>
      <internalNodes>
        0 -1 837 -293681856 -546381502 -201641732 -268791452 -9495233
        -16878110 -346080851 -68276223</internalNodes>
      <leafValues>
        -1.0144829750061035e-01 1.1545205116271973e-01</leafValues></_>
    <_>
      <internalNodes>
        0 -1 696 -307060480 57862471 -2745566 633265406 -1241536004
        -1090587571 -271730372 210040951</internalNodes>
      <leafValues>
        -1.5358819067478180e-01 7.5895331799983978e-02</leafValues></_>
    <_>
      <internalNodes>
        0 -1 1120 -268705246 797947191 1618387507 -856336 96408498
        262657775 132723172 -302253094</internalNodes>
      <leafValues>
        -1.0024518519639969e-01 1.1627537012100220e-01</leafValues></_>
    <_>
      <internalNodes>
        0 -1 1101 -310858667 121900572 -603981893 202395473 -814429992
        -277034439 -939663445 -2011103396</internalNodes>
      <leafValues>
        -2.2005848586559296e-01 5.2137073129415512e-02</leafValues></_>
    <_>
      <internalNodes>
        0 -1 120 721825326 1751793450 -335625588 -6104224 1700623359
        2137513559 -4295324 -34209802</internalNodes>
      <leafValues>
        -1.6107513010501862e-01 6.7762501537799835e-02</leafValues></_>
    <_>
      <internalNodes>
        0 -1 532 1218736100 1822997026 -807288884 -2116505914 1333189985
        -1955842105 1467356416 -1943633783</internalNodes>
      <leafValues>
        -1.2449287623167038e-01 8.9255146682262421e-02</leafValues></_>
    <_>
      <internalNodes>
        0 -1 430 -692387854 1063800359 -80576840 -167938332 2130688955
        -268537896 2143764457 1960584655</internalNodes>
      <leafValues>
        -9.2563785612583160e-02 1.2372481822967529e-01</leafValues></_>
    <_>
      <internalNodes>
        0 -1 706 1048194658 468467560 993541818 731002620 -820637746
        -1074823193 -1343312472 -438319763</internalNodes>
      <leafValues>
        -1.2614408135414124e-01 9.0583004057407379e-02</leafValues></_>
    <_>
      <internalNodes>
        0 -1 796 -1897265835 -1929622037 -805830673 154443759 -288096187
        -1409287970 -274179651 -1438958547</internalNodes>
      <leafValues>
        -1.1383320391178131e-01 9.6106939017772675e-02</leafValues></_>
    <_>
      <internalNodes>
        0 -1 470 -529600523 -16796689 -553734401 -1457324050 -71598699
        -269503065 -318943361 -1421187822</internalNodes>
      <leafValues>
        -8.2598909735679626e-02 1.3695740699768066e-01</leafValues></_>
    <_>
      <internalNodes>
        0 -1 839 -545263730 1598014786 -16598 1597701931 -75964515
        -1074805773 -1366295171 -1431311761</internalNodes>
      <leafValues>
        -6.5837614238262177e-02 1.6209585964679718e-01</leafValues></_>
    <_>
      <internalNodes>
        0 -1 130 779821826 45261667 786506242 648692066 268134243
        2112716662 670789937 1342121831</internalNodes>
      <leafValues>
        -4.1384562849998474e-01 2.6336738839745522e-02</leafValues></_>
    <_>
      <internalNodes>
        0 -1 622 986319532 1895409391 1737168424 -1179713561 714738318
        853199629 -1092618680 633684039</internalNodes>
      <leafValues>
        -1.6379733383655548e-01 6.7302517592906952e-02</leafValues></_>
    <_>
      <internalNodes>
        0 -1 1071 -337663444 1941913638 -97911298 1903835967 -872940632
        -392165 -1159004424 -349648882</internalNodes>
      <leafValues>
        -8.3193369209766388e-02 1.3122144341468811e-01</leafValues></_>
    <_>
      <internalNodes>
        0 -1 1117 1206617632 167765375 333172032 854917102 -304664956
        229064662 -100679216 -256770049</internalNodes>
      <leafValues>
        -1.1976599693298340e-01 9.3739047646522522e-02</leafValues></_>
    <_>
      <internalNodes>
        0 -1 767 -216797076 1097785958 -136331813 -3221505 -203836660
        -8656464 -2097907 -1427117225</internalNodes>
      <leafValues>
        -7.2597019374370575e-02 1.4501170814037323e-01</leafValues></_>
    <_>
      <internalNodes>
        0 -1 988 1823261949 -18084667 -272385 -608296975 -335831143
        -85259093 -273942179 -1433728741</internalNodes>
      <leafValues>
        -7.4290066957473755e-02 1.4502409100532532e-01</leafValues></_></weakClassifiers></stage10>
</opencv_storage>
