<?xml version="1.0"?>
<opencv_storage>
<stage7>
  <maxWeakCount>100</maxWeakCount>
  <stageThreshold>-1.6756075620651245e+00</stageThreshold>
  <weakClassifiers>
    <_>
      <internalNodes>
        0 -1 15243 9.2032970860600471e-03</internalNodes>
      <leafValues>
        -2.2850851714611053e-01 3.2930549979209900e-01</leafValues></_>
    <_>
      <internalNodes>
        0 -1 13 1.1970685794949532e-02</internalNodes>
      <leafValues>
        -2.4208912253379822e-01 2.2490419447422028e-01</leafValues></_>
    <_>
      <internalNodes>
        0 -1 11234 -6.5803378820419312e-02</internalNodes>
      <leafValues>
        5.2984255552291870e-01 -8.4189899265766144e-02</leafValues></_>
    <_>
      <internalNodes>
        0 -1 18254 1.8663339316844940e-02</internalNodes>
      <leafValues>
        -1.7198535799980164e-01 3.7578758597373962e-01</leafValues></_>
    <_>
      <internalNodes>
        0 -1 31191 -1.6807116568088531e-02</internalNodes>
      <leafValues>
        1.3606096804141998e-01 -3.0838066339492798e-01</leafValues></_>
    <_>
      <internalNodes>
        0 -1 32409 1.8836293020285666e-04</internalNodes>
      <leafValues>
        -2.0209658145904541e-01 1.7698290944099426e-01</leafValues></_>
    <_>
      <internalNodes>
        0 -1 1785 -1.9266195595264435e-03</internalNodes>
      <leafValues>
        1.6042906045913696e-01 -1.9930677115917206e-01</leafValues></_>
    <_>
      <internalNodes>
        0 -1 8162 6.1529010534286499e-02</internalNodes>
      <leafValues>
        -9.0292111039161682e-02 3.3468857407569885e-01</leafValues></_>
    <_>
      <internalNodes>
        0 -1 18729 5.4381810128688812e-02</internalNodes>
      <leafValues>
        -1.0589335113763809e-01 2.9058334231376648e-01</leafValues></_>
    <_>
      <internalNodes>
        0 -1 18459 3.6331120878458023e-02</internalNodes>
      <leafValues>
        -7.2239890694618225e-02 4.3482369184494019e-01</leafValues></_>
    <_>
      <internalNodes>
        0 -1 7973 1.9512351602315903e-02</internalNodes>
      <leafValues>
        -1.2525768578052521e-01 2.7335420250892639e-01</leafValues></_>
    <_>
      <internalNodes>
        0 -1 21502 1.7677627503871918e-02</internalNodes>
      <leafValues>
        -9.5649644732475281e-02 3.6166843771934509e-01</leafValues></_>
    <_>
      <internalNodes>
        0 -1 32132 1.7562520224601030e-04</internalNodes>
      <leafValues>
        -3.0135524272918701e-01 1.0640277713537216e-01</leafValues></_>
    <_>
      <internalNodes>
        0 -1 21806 -6.2389117665588856e-03</internalNodes>
      <leafValues>
        -6.0528659820556641e-01 5.1444247364997864e-02</leafValues></_>
    <_>
      <internalNodes>
        0 -1 18818 1.0157266631722450e-02</internalNodes>
      <leafValues>
        5.6609932333230972e-02 -4.4144761562347412e-01</leafValues></_>
    <_>
      <internalNodes>
        0 -1 2269 -1.6864886856637895e-04</internalNodes>
      <leafValues>
        8.6441092193126678e-02 -2.6309502124786377e-01</leafValues></_>
    <_>
      <internalNodes>
        0 -1 3892 1.5985131263732910e-02</internalNodes>
      <leafValues>
        -1.1429745703935623e-01 1.9178360700607300e-01</leafValues></_>
    <_>
      <internalNodes>
        0 -1 11718 5.1080301403999329e-02</internalNodes>
      <leafValues>
        -1.0059735178947449e-01 2.1629510819911957e-01</leafValues></_>
    <_>
      <internalNodes>
        0 -1 11765 -2.0134907215833664e-02</internalNodes>
      <leafValues>
        -4.4138783216476440e-01 5.8506958186626434e-02</leafValues></_>
    <_>
      <internalNodes>
        0 -1 21857 8.9645132422447205e-02</internalNodes>
      <leafValues>
        -6.3188180327415466e-02 3.8780426979064941e-01</leafValues></_>
    <_>
      <internalNodes>
        0 -1 8785 3.3061377704143524e-02</internalNodes>
      <leafValues>
        4.2970314621925354e-02 -5.4169893264770508e-01</leafValues></_>
    <_>
      <internalNodes>
        0 -1 1 2.6920330710709095e-03</internalNodes>
      <leafValues>
        -1.3603083789348602e-01 1.4987419545650482e-01</leafValues></_>
    <_>
      <internalNodes>
        0 -1 11588 8.6779566481709480e-03</internalNodes>
      <leafValues>
        4.3581236153841019e-02 -3.9157080650329590e-01</leafValues></_>
    <_>
      <internalNodes>
        0 -1 28319 -2.3657076060771942e-02</internalNodes>
      <leafValues>
        -2.4388946592807770e-01 7.7449582517147064e-02</leafValues></_>
    <_>
      <internalNodes>
        0 -1 5276 -1.7097664996981621e-02</internalNodes>
      <leafValues>
        -3.5850691795349121e-01 4.7887898981571198e-02</leafValues></_>
    <_>
      <internalNodes>
        0 -1 12445 2.4629699066281319e-02</internalNodes>
      <leafValues>
        -7.0593118667602539e-02 2.8431931138038635e-01</leafValues></_>
    <_>
      <internalNodes>
        0 -1 7470 4.6514205634593964e-02</internalNodes>
      <leafValues>
        -6.4495757222175598e-02 2.5385519862174988e-01</leafValues></_>
    <_>
      <internalNodes>
        0 -1 7034 3.1017923727631569e-02</internalNodes>
      <leafValues>
        -8.6515307426452637e-02 2.5079467892646790e-01</leafValues></_>
    <_>
      <internalNodes>
        0 -1 13102 4.6528451144695282e-02</internalNodes>
      <leafValues>
        -1.0885997861623764e-01 1.9088417291641235e-01</leafValues></_>
    <_>
      <internalNodes>
        0 -1 2504 -1.2698295526206493e-02</internalNodes>
      <leafValues>
        -5.7870364189147949e-01 3.0422894284129143e-02</leafValues></_>
    <_>
      <internalNodes>
        0 -1 32880 -1.5188811812549829e-04</internalNodes>
      <leafValues>
        1.2383354455232620e-01 -1.2342757731676102e-01</leafValues></_>
    <_>
      <internalNodes>
        0 -1 12423 -8.9664142578840256e-03</internalNodes>
      <leafValues>
        -3.3604061603546143e-01 4.4868838042020798e-02</leafValues></_>
    <_>
      <internalNodes>
        0 -1 20702 1.9496560096740723e-02</internalNodes>
      <leafValues>
        -7.5087748467922211e-02 2.1510171890258789e-01</leafValues></_>
    <_>
      <internalNodes>
        0 -1 21327 -1.5399913303554058e-02</internalNodes>
      <leafValues>
        -6.7520332336425781e-01 2.5180205702781677e-02</leafValues></_>
    <_>
      <internalNodes>
        0 -1 17947 1.9971832633018494e-02</internalNodes>
      <leafValues>
        -8.2124955952167511e-02 1.8872304260730743e-01</leafValues></_>
    <_>
      <internalNodes>
        0 -1 229 2.0515275001525879e-01</internalNodes>
      <leafValues>
        -6.2306709587574005e-02 2.5789040327072144e-01</leafValues></_>
    <_>
      <internalNodes>
        0 -1 3982 1.9286971073597670e-03</internalNodes>
      <leafValues>
        -9.5516636967658997e-02 1.5648724138736725e-01</leafValues></_>
    <_>
      <internalNodes>
        0 -1 32145 -2.8532527387142181e-02</internalNodes>
      <leafValues>
        -6.0856741666793823e-01 2.4574410170316696e-02</leafValues></_>
    <_>
      <internalNodes>
        0 -1 32890 1.7036672215908766e-03</internalNodes>
      <leafValues>
        -2.0237575471401215e-01 7.1987442672252655e-02</leafValues></_>
    <_>
      <internalNodes>
        0 -1 2758 -5.0518959760665894e-03</internalNodes>
      <leafValues>
        -3.5958364605903625e-01 3.7716444581747055e-02</leafValues></_>
    <_>
      <internalNodes>
        0 -1 2454 -1.3708873302675784e-04</internalNodes>
      <leafValues>
        9.8990730941295624e-02 -1.5490175783634186e-01</leafValues></_>
    <_>
      <internalNodes>
        0 -1 15093 2.0175013691186905e-02</internalNodes>
      <leafValues>
        -6.8876199424266815e-02 2.1392746269702911e-01</leafValues></_>
    <_>
      <internalNodes>
        0 -1 3310 8.6452122777700424e-03</internalNodes>
      <leafValues>
        -7.9153880476951599e-02 1.7799606919288635e-01</leafValues></_>
    <_>
      <internalNodes>
        0 -1 50 -7.7299207448959351e-02</internalNodes>
      <leafValues>
        -3.3547016978263855e-01 4.3793812394142151e-02</leafValues></_>
    <_>
      <internalNodes>
        0 -1 2756 -1.6999979561660439e-04</internalNodes>
      <leafValues>
        1.0130092501640320e-01 -1.5046882629394531e-01</leafValues></_>
    <_>
      <internalNodes>
        0 -1 24368 -1.0428005829453468e-02</internalNodes>
      <leafValues>
        -4.5146590471267700e-01 3.0300516635179520e-02</leafValues></_>
    <_>
      <internalNodes>
        0 -1 18565 -7.1892938576638699e-03</internalNodes>
      <leafValues>
        -5.2995342016220093e-01 2.2530077025294304e-02</leafValues></_>
    <_>
      <internalNodes>
        0 -1 32282 1.6024902462959290e-02</internalNodes>
      <leafValues>
        -6.7131511867046356e-02 2.0810656249523163e-01</leafValues></_>
    <_>
      <internalNodes>
        0 -1 15298 7.4366740882396698e-02</internalNodes>
      <leafValues>
        -6.4851559698581696e-02 2.3791606724262238e-01</leafValues></_>
    <_>
      <internalNodes>
        0 -1 18773 -2.0876571536064148e-02</internalNodes>
      <leafValues>
        -3.4726122021675110e-01 4.2406588792800903e-02</leafValues></_>
    <_>
      <internalNodes>
        0 -1 20668 7.1444317698478699e-02</internalNodes>
      <leafValues>
        -6.1851009726524353e-02 2.3767983913421631e-01</leafValues></_>
    <_>
      <internalNodes>
        0 -1 18697 -2.9623579233884811e-02</internalNodes>
      <leafValues>
        2.3472811281681061e-01 -6.0742188245058060e-02</leafValues></_>
    <_>
      <internalNodes>
        0 -1 27033 -1.7417950555682182e-02</internalNodes>
      <leafValues>
        -3.4363436698913574e-01 4.7041330486536026e-02</leafValues></_>
    <_>
      <internalNodes>
        0 -1 8042 -1.4423034735955298e-04</internalNodes>
      <leafValues>
        1.0977658629417419e-01 -1.1982265114784241e-01</leafValues></_>
    <_>
      <internalNodes>
        0 -1 29669 1.6678807139396667e-01</internalNodes>
      <leafValues>
        2.2717809304594994e-02 -5.5733996629714966e-01</leafValues></_>
    <_>
      <internalNodes>
        0 -1 33038 -6.5356297418475151e-03</internalNodes>
      <leafValues>
        -4.2742884159088135e-01 2.5624779984354973e-02</leafValues></_>
    <_>
      <internalNodes>
        0 -1 18523 -1.7379062250256538e-02</internalNodes>
      <leafValues>
        1.8956819176673889e-01 -6.2829948961734772e-02</leafValues></_>
    <_>
      <internalNodes>
        0 -1 32870 1.0647397721186280e-04</internalNodes>
      <leafValues>
        -1.0654948651790619e-01 1.1278946697711945e-01</leafValues></_>
    <_>
      <internalNodes>
        0 -1 33125 4.9812477082014084e-03</internalNodes>
      <leafValues>
        4.5332338660955429e-02 -2.9851990938186646e-01</leafValues></_>
    <_>
      <internalNodes>
        0 -1 21528 -6.2903970479965210e-02</internalNodes>
      <leafValues>
        3.8193440437316895e-01 -3.2718051224946976e-02</leafValues></_>
    <_>
      <internalNodes>
        0 -1 31560 1.2515650689601898e-01</internalNodes>
      <leafValues>
        2.1618235856294632e-02 -5.4844540357589722e-01</leafValues></_>
    <_>
      <internalNodes>
        0 -1 24078 -4.3779678642749786e-02</internalNodes>
      <leafValues>
        3.3456438779830933e-01 -3.5926669836044312e-02</leafValues></_>
    <_>
      <internalNodes>
        0 -1 8121 2.8844478074461222e-03</internalNodes>
      <leafValues>
        -1.0684818774461746e-01 1.0916931927204132e-01</leafValues></_>
    <_>
      <internalNodes>
        0 -1 15214 -1.2657897546887398e-02</internalNodes>
      <leafValues>
        2.1110028028488159e-01 -7.3630616068840027e-02</leafValues></_>
    <_>
      <internalNodes>
        0 -1 8045 -1.4948757365345955e-02</internalNodes>
      <leafValues>
        -3.8208574056625366e-01 3.4958858042955399e-02</leafValues></_>
    <_>
      <internalNodes>
        0 -1 20422 1.9864212721586227e-02</internalNodes>
      <leafValues>
        -5.8723367750644684e-02 2.1687851846218109e-01</leafValues></_>
    <_>
      <internalNodes>
        0 -1 13726 -4.1462577879428864e-02</internalNodes>
      <leafValues>
        2.7411198616027832e-01 -4.4394511729478836e-02</leafValues></_>
    <_>
      <internalNodes>
        0 -1 2961 -2.1771293878555298e-01</internalNodes>
      <leafValues>
        2.2827394306659698e-01 -5.2168857306241989e-02</leafValues></_>
    <_>
      <internalNodes>
        0 -1 2192 -1.6824878752231598e-02</internalNodes>
      <leafValues>
        -6.0665762424468994e-01 1.8971590325236320e-02</leafValues></_>
    <_>
      <internalNodes>
        0 -1 513 6.7958394065499306e-03</internalNodes>
      <leafValues>
        3.6224298179149628e-02 -2.8319564461708069e-01</leafValues></_>
    <_>
      <internalNodes>
        0 -1 8490 1.1977948248386383e-02</internalNodes>
      <leafValues>
        -7.0950292050838470e-02 1.6790135204792023e-01</leafValues></_>
    <_>
      <internalNodes>
        0 -1 12045 -3.2215990126132965e-02</internalNodes>
      <leafValues>
        3.2853424549102783e-01 -3.9734032005071640e-02</leafValues></_>
    <_>
      <internalNodes>
        0 -1 21343 3.2799549400806427e-02</internalNodes>
      <leafValues>
        1.8897658213973045e-02 -6.4656162261962891e-01</leafValues></_>
    <_>
      <internalNodes>
        0 -1 14371 2.6209732517600060e-02</internalNodes>
      <leafValues>
        -7.6721675693988800e-02 1.5213298797607422e-01</leafValues></_>
    <_>
      <internalNodes>
        0 -1 18638 -1.1200228706002235e-02</internalNodes>
      <leafValues>
        1.7152552306652069e-01 -7.1726284921169281e-02</leafValues></_>
    <_>
      <internalNodes>
        0 -1 14702 2.2837515920400620e-02</internalNodes>
      <leafValues>
        3.1081698834896088e-02 -4.1542679071426392e-01</leafValues></_>
    <_>
      <internalNodes>
        0 -1 23828 -1.5821773558855057e-02</internalNodes>
      <leafValues>
        -5.5045044422149658e-01 1.6121895983815193e-02</leafValues></_>
    <_>
      <internalNodes>
        0 -1 15878 2.0245308987796307e-03</internalNodes>
      <leafValues>
        -1.3498945534229279e-01 7.3367379605770111e-02</leafValues></_>
    <_>
      <internalNodes>
        0 -1 4194 2.2088902071118355e-02</internalNodes>
      <leafValues>
        -8.5537992417812347e-02 1.3253480195999146e-01</leafValues></_>
    <_>
      <internalNodes>
        0 -1 31170 1.4573976397514343e-02</internalNodes>
      <leafValues>
        -5.1437828689813614e-02 2.0712713897228241e-01</leafValues></_>
    <_>
      <internalNodes>
        0 -1 32510 -1.3122893869876862e-02</internalNodes>
      <leafValues>
        -4.9648293852806091e-01 2.4295050650835037e-02</leafValues></_>
    <_>
      <internalNodes>
        0 -1 32135 1.7129353363998234e-04</internalNodes>
      <leafValues>
        -1.0024490952491760e-01 1.0639411211013794e-01</leafValues></_>
    <_>
      <internalNodes>
        0 -1 18523 5.8798059821128845e-02</internalNodes>
      <leafValues>
        -2.3369815200567245e-02 4.3263787031173706e-01</leafValues></_>
    <_>
      <internalNodes>
        0 -1 3898 6.6677518188953400e-03</internalNodes>
      <leafValues>
        3.2283123582601547e-02 -3.4727573394775391e-01</leafValues></_>
    <_>
      <internalNodes>
        0 -1 7784 2.5283988565206528e-02</internalNodes>
      <leafValues>
        -6.4953736960887909e-02 1.6204746067523956e-01</leafValues></_>
    <_>
      <internalNodes>
        0 -1 18105 1.4180986210703850e-02</internalNodes>
      <leafValues>
        -6.2961056828498840e-02 1.7680732905864716e-01</leafValues></_>
    <_>
      <internalNodes>
        0 -1 446 4.7468617558479309e-03</internalNodes>
      <leafValues>
        -1.6839492321014404e-01 6.3380643725395203e-02</leafValues></_>
    <_>
      <internalNodes>
        0 -1 15345 1.8770199269056320e-02</internalNodes>
      <leafValues>
        3.7152994424104691e-02 -2.6075083017349243e-01</leafValues></_>
    <_>
      <internalNodes>
        0 -1 8135 -1.7548553645610809e-02</internalNodes>
      <leafValues>
        1.8362216651439667e-01 -5.8627076447010040e-02</leafValues></_>
    <_>
      <internalNodes>
        0 -1 18687 -8.5234707221388817e-03</internalNodes>
      <leafValues>
        1.4533899724483490e-01 -9.0945594012737274e-02</leafValues></_>
    <_>
      <internalNodes>
        0 -1 25656 1.2769903987646103e-02</internalNodes>
      <leafValues>
        -6.2890097498893738e-02 1.7195299267768860e-01</leafValues></_>
    <_>
      <internalNodes>
        0 -1 30906 4.5203771442174911e-03</internalNodes>
      <leafValues>
        3.5573955625295639e-02 -3.2995811104774475e-01</leafValues></_>
    <_>
      <internalNodes>
        0 -1 1051 -1.5992317348718643e-02</internalNodes>
      <leafValues>
        1.4490443468093872e-01 -7.2902970016002655e-02</leafValues></_>
    <_>
      <internalNodes>
        0 -1 30930 2.0391348749399185e-02</internalNodes>
      <leafValues>
        2.7260201051831245e-02 -3.9468756318092346e-01</leafValues></_>
    <_>
      <internalNodes>
        0 -1 29038 1.2084106856491417e-04</internalNodes>
      <leafValues>
        -1.0969640314579010e-01 9.4424448907375336e-02</leafValues></_>
    <_>
      <internalNodes>
        0 -1 15138 -3.5484025720506907e-03</internalNodes>
      <leafValues>
        -2.8336820006370544e-01 3.6151509732007980e-02</leafValues></_>
    <_>
      <internalNodes>
        0 -1 14750 -3.6772154271602631e-02</internalNodes>
      <leafValues>
        3.0091792345046997e-01 -3.7447694689035416e-02</leafValues></_>
    <_>
      <internalNodes>
        0 -1 3800 2.3091849870979786e-03</internalNodes>
      <leafValues>
        -7.5813777744770050e-02 1.3214783370494843e-01</leafValues></_>
    <_>
      <internalNodes>
        0 -1 30930 -2.4909507483243942e-02</internalNodes>
      <leafValues>
        -4.5270872116088867e-01 2.2523138672113419e-02</leafValues></_>
    <_>
      <internalNodes>
        0 -1 7033 1.5779979526996613e-02</internalNodes>
      <leafValues>
        -7.0054978132247925e-02 1.4656648039817810e-01</leafValues></_></weakClassifiers></stage7>
</opencv_storage>
