<?xml version="1.0"?>
<opencv_storage>
<stage4>
  <maxWeakCount>74</maxWeakCount>
  <stageThreshold>-1.6625133752822876e+00</stageThreshold>
  <weakClassifiers>
    <_>
      <internalNodes>
        0 -1 15298 5.0082016736268997e-02</internalNodes>
      <leafValues>
        -2.1858580410480499e-01 4.3605870008468628e-01</leafValues></_>
    <_>
      <internalNodes>
        0 -1 13 5.5489987134933472e-03</internalNodes>
      <leafValues>
        -4.1928651928901672e-01 2.3161303997039795e-01</leafValues></_>
    <_>
      <internalNodes>
        0 -1 32993 -2.6598363183438778e-03</internalNodes>
      <leafValues>
        1.5403138101100922e-01 -4.5718538761138916e-01</leafValues></_>
    <_>
      <internalNodes>
        0 -1 29231 2.6582018472254276e-03</internalNodes>
      <leafValues>
        -3.2291758060455322e-01 1.9289563596248627e-01</leafValues></_>
    <_>
      <internalNodes>
        0 -1 11360 -5.5486932396888733e-02</internalNodes>
      <leafValues>
        4.8922148346900940e-01 -1.1821051687002182e-01</leafValues></_>
    <_>
      <internalNodes>
        0 -1 11356 3.3649154007434845e-02</internalNodes>
      <leafValues>
        -1.3400501012802124e-01 4.6271058917045593e-01</leafValues></_>
    <_>
      <internalNodes>
        0 -1 8174 8.1722021102905273e-02</internalNodes>
      <leafValues>
        -1.1617764085531235e-01 4.9126371741294861e-01</leafValues></_>
    <_>
      <internalNodes>
        0 -1 21863 7.7097050845623016e-02</internalNodes>
      <leafValues>
        -1.1265935748815536e-01 5.0659692287445068e-01</leafValues></_>
    <_>
      <internalNodes>
        0 -1 30930 1.7070312052965164e-02</internalNodes>
      <leafValues>
        1.4605304598808289e-01 -5.5878090858459473e-01</leafValues></_>
    <_>
      <internalNodes>
        0 -1 1125 -1.7204042524099350e-02</internalNodes>
      <leafValues>
        6.1184406280517578e-02 -3.6977434158325195e-01</leafValues></_>
    <_>
      <internalNodes>
        0 -1 15872 -8.1022996455430984e-03</internalNodes>
      <leafValues>
        -5.0494360923767090e-01 8.4697566926479340e-02</leafValues></_>
    <_>
      <internalNodes>
        0 -1 11240 -6.7877694964408875e-02</internalNodes>
      <leafValues>
        4.7431591153144836e-01 -7.9975880682468414e-02</leafValues></_>
    <_>
      <internalNodes>
        0 -1 14805 1.9110810011625290e-02</internalNodes>
      <leafValues>
        -1.2623158097267151e-01 3.4185656905174255e-01</leafValues></_>
    <_>
      <internalNodes>
        0 -1 2509 -7.1827326901257038e-03</internalNodes>
      <leafValues>
        2.3798465728759766e-01 -1.3198158144950867e-01</leafValues></_>
    <_>
      <internalNodes>
        0 -1 4266 1.3172575831413269e-01</internalNodes>
      <leafValues>
        -1.4731025695800781e-01 2.5307628512382507e-01</leafValues></_>
    <_>
      <internalNodes>
        0 -1 235 7.3991809040307999e-04</internalNodes>
      <leafValues>
        -3.0143490433692932e-01 1.3221813738346100e-01</leafValues></_>
    <_>
      <internalNodes>
        0 -1 11872 2.5071134790778160e-02</internalNodes>
      <leafValues>
        4.5697778463363647e-02 -6.2815856933593750e-01</leafValues></_>
    <_>
      <internalNodes>
        0 -1 3774 3.4016285091638565e-02</internalNodes>
      <leafValues>
        -1.5642406046390533e-01 2.1390113234519958e-01</leafValues></_>
    <_>
      <internalNodes>
        0 -1 15406 1.6678681969642639e-01</internalNodes>
      <leafValues>
        -1.0347661375999451e-01 2.9480847716331482e-01</leafValues></_>
    <_>
      <internalNodes>
        0 -1 29982 1.5792194753885269e-02</internalNodes>
      <leafValues>
        -1.2446254491806030e-01 2.5397330522537231e-01</leafValues></_>
    <_>
      <internalNodes>
        0 -1 18818 -1.2292049825191498e-02</internalNodes>
      <leafValues>
        -4.7330889105796814e-01 6.2744744122028351e-02</leafValues></_>
    <_>
      <internalNodes>
        0 -1 11563 1.1130535975098610e-02</internalNodes>
      <leafValues>
        -1.2277874350547791e-01 2.0160955190658569e-01</leafValues></_>
    <_>
      <internalNodes>
        0 -1 32914 1.2112253170926124e-04</internalNodes>
      <leafValues>
        -2.1442298591136932e-01 1.1352333426475525e-01</leafValues></_>
    <_>
      <internalNodes>
        0 -1 32136 -1.3539144769310951e-02</internalNodes>
      <leafValues>
        -5.2435564994812012e-01 4.4425141066312790e-02</leafValues></_>
    <_>
      <internalNodes>
        0 -1 21554 -9.9299903959035873e-03</internalNodes>
      <leafValues>
        -5.3954207897186279e-01 3.8787674158811569e-02</leafValues></_>
    <_>
      <internalNodes>
        0 -1 1471 3.2954081892967224e-02</internalNodes>
      <leafValues>
        -8.7874621152877808e-02 2.7967709302902222e-01</leafValues></_>
    <_>
      <internalNodes>
        0 -1 505 5.2374629303812981e-03</internalNodes>
      <leafValues>
        6.5134488046169281e-02 -4.0842995047569275e-01</leafValues></_>
    <_>
      <internalNodes>
        0 -1 18525 2.2752165794372559e-02</internalNodes>
      <leafValues>
        -8.6681976914405823e-02 2.7764654159545898e-01</leafValues></_>
    <_>
      <internalNodes>
        0 -1 11701 1.8598187714815140e-02</internalNodes>
      <leafValues>
        -1.1101581901311874e-01 1.9646504521369934e-01</leafValues></_>
    <_>
      <internalNodes>
        0 -1 15027 1.9589032977819443e-02</internalNodes>
      <leafValues>
        -9.0392306447029114e-02 2.4501760303974152e-01</leafValues></_>
    <_>
      <internalNodes>
        0 -1 3778 7.2006089612841606e-03</internalNodes>
      <leafValues>
        4.8598065972328186e-02 -4.8027306795120239e-01</leafValues></_>
    <_>
      <internalNodes>
        0 -1 11081 -6.3657537102699280e-02</internalNodes>
      <leafValues>
        4.2960703372955322e-01 -5.5699080228805542e-02</leafValues></_>
    <_>
      <internalNodes>
        0 -1 14248 -3.5332296043634415e-02</internalNodes>
      <leafValues>
        3.0549758672714233e-01 -7.7526420354843140e-02</leafValues></_>
    <_>
      <internalNodes>
        0 -1 11754 -1.3764449954032898e-01</internalNodes>
      <leafValues>
        4.6335506439208984e-01 -5.6008871644735336e-02</leafValues></_>
    <_>
      <internalNodes>
        0 -1 21805 -5.9125511907041073e-03</internalNodes>
      <leafValues>
        2.0410229265689850e-01 -1.0440416634082794e-01</leafValues></_>
    <_>
      <internalNodes>
        0 -1 18773 -2.9420267790555954e-02</internalNodes>
      <leafValues>
        -5.3620511293411255e-01 4.0534365922212601e-02</leafValues></_>
    <_>
      <internalNodes>
        0 -1 4148 -3.5576485097408295e-02</internalNodes>
      <leafValues>
        2.3259417712688446e-01 -9.5095708966255188e-02</leafValues></_>
    <_>
      <internalNodes>
        0 -1 18489 -8.2663148641586304e-03</internalNodes>
      <leafValues>
        -4.1354838013648987e-01 5.2784677594900131e-02</leafValues></_>
    <_>
      <internalNodes>
        0 -1 18708 -3.1332582235336304e-02</internalNodes>
      <leafValues>
        2.5526607036590576e-01 -8.1964455544948578e-02</leafValues></_>
    <_>
      <internalNodes>
        0 -1 11765 -3.4045957028865814e-02</internalNodes>
      <leafValues>
        -6.5021091699600220e-01 3.5195570439100266e-02</leafValues></_>
    <_>
      <internalNodes>
        0 -1 17499 -4.1005913168191910e-02</internalNodes>
      <leafValues>
        3.1851246953010559e-01 -7.1343272924423218e-02</leafValues></_>
    <_>
      <internalNodes>
        0 -1 33019 6.8811420351266861e-03</internalNodes>
      <leafValues>
        4.1481617838144302e-02 -5.0565296411514282e-01</leafValues></_>
    <_>
      <internalNodes>
        0 -1 31171 1.5277613885700703e-02</internalNodes>
      <leafValues>
        -9.7291499376296997e-02 2.0382635295391083e-01</leafValues></_>
    <_>
      <internalNodes>
        0 -1 23994 -1.1867737397551537e-02</internalNodes>
      <leafValues>
        -3.9431992173194885e-01 5.3791515529155731e-02</leafValues></_>
    <_>
      <internalNodes>
        0 -1 29038 9.6213290817104280e-05</internalNodes>
      <leafValues>
        -1.4836877584457397e-01 1.3881170749664307e-01</leafValues></_>
    <_>
      <internalNodes>
        0 -1 23839 -1.9822776317596436e-02</internalNodes>
      <leafValues>
        -6.3169753551483154e-01 3.0257372185587883e-02</leafValues></_>
    <_>
      <internalNodes>
        0 -1 29070 -2.9896216467022896e-02</internalNodes>
      <leafValues>
        -4.7096022963523865e-01 3.3963516354560852e-02</leafValues></_>
    <_>
      <internalNodes>
        0 -1 17726 1.5234461054205894e-02</internalNodes>
      <leafValues>
        -7.9922795295715332e-02 2.3004615306854248e-01</leafValues></_>
    <_>
      <internalNodes>
        0 -1 17216 1.8464852124452591e-02</internalNodes>
      <leafValues>
        -8.3201318979263306e-02 2.2848898172378540e-01</leafValues></_>
    <_>
      <internalNodes>
        0 -1 33039 7.6308296993374825e-03</internalNodes>
      <leafValues>
        3.9059720933437347e-02 -5.6836575269699097e-01</leafValues></_>
    <_>
      <internalNodes>
        0 -1 33058 5.9216078370809555e-03</internalNodes>
      <leafValues>
        4.0796443819999695e-02 -3.9354145526885986e-01</leafValues></_>
    <_>
      <internalNodes>
        0 -1 21604 -2.0855793729424477e-02</internalNodes>
      <leafValues>
        2.4139198660850525e-01 -7.7359862625598907e-02</leafValues></_>
    <_>
      <internalNodes>
        0 -1 3778 -2.3572265636175871e-03</internalNodes>
      <leafValues>
        -2.2687271237373352e-01 8.0741032958030701e-02</leafValues></_>
    <_>
      <internalNodes>
        0 -1 152 9.7245007753372192e-02</internalNodes>
      <leafValues>
        -7.3104709386825562e-02 2.6934346556663513e-01</leafValues></_>
    <_>
      <internalNodes>
        0 -1 27998 -1.3142023235559464e-02</internalNodes>
      <leafValues>
        2.4224729835987091e-01 -7.5653828680515289e-02</leafValues></_>
    <_>
      <internalNodes>
        0 -1 6986 1.7421567440032959e-01</internalNodes>
      <leafValues>
        -8.0417931079864502e-02 2.7059903740882874e-01</leafValues></_>
    <_>
      <internalNodes>
        0 -1 17 7.2423927485942841e-03</internalNodes>
      <leafValues>
        -1.4455078542232513e-01 1.2615044414997101e-01</leafValues></_>
    <_>
      <internalNodes>
        0 -1 29056 1.9070688635110855e-02</internalNodes>
      <leafValues>
        4.6992015093564987e-02 -3.5693123936653137e-01</leafValues></_>
    <_>
      <internalNodes>
        0 -1 9927 6.3821198418736458e-03</internalNodes>
      <leafValues>
        6.0711808502674103e-02 -2.7400812506675720e-01</leafValues></_>
    <_>
      <internalNodes>
        0 -1 17928 1.7532080411911011e-02</internalNodes>
      <leafValues>
        -8.2234315574169159e-02 2.1636968851089478e-01</leafValues></_>
    <_>
      <internalNodes>
        0 -1 4962 -2.4925097823143005e-01</internalNodes>
      <leafValues>
        5.7178986072540283e-01 -2.6353912428021431e-02</leafValues></_>
    <_>
      <internalNodes>
        0 -1 2100 6.2219388782978058e-03</internalNodes>
      <leafValues>
        -1.1521963030099869e-01 1.4166110754013062e-01</leafValues></_>
    <_>
      <internalNodes>
        0 -1 17471 1.3716697692871094e-02</internalNodes>
      <leafValues>
        -8.5245169699192047e-02 1.9762712717056274e-01</leafValues></_>
    <_>
      <internalNodes>
        0 -1 2192 -1.2070979923009872e-02</internalNodes>
      <leafValues>
        -4.6434903144836426e-01 3.8725484162569046e-02</leafValues></_>
    <_>
      <internalNodes>
        0 -1 32387 3.9996368286665529e-05</internalNodes>
      <leafValues>
        -1.2272245436906815e-01 1.3192452490329742e-01</leafValues></_>
    <_>
      <internalNodes>
        0 -1 7751 -1.0929021239280701e-01</internalNodes>
      <leafValues>
        2.7282878756523132e-01 -5.9157680720090866e-02</leafValues></_>
    <_>
      <internalNodes>
        0 -1 13725 2.0411919802427292e-02</internalNodes>
      <leafValues>
        -6.8435654044151306e-02 2.3969756066799164e-01</leafValues></_>
    <_>
      <internalNodes>
        0 -1 18518 -3.1064216047525406e-02</internalNodes>
      <leafValues>
        3.5711520910263062e-01 -4.1547868400812149e-02</leafValues></_>
    <_>
      <internalNodes>
        0 -1 32996 6.6803791560232639e-03</internalNodes>
      <leafValues>
        4.1167020797729492e-02 -3.8836416602134705e-01</leafValues></_>
    <_>
      <internalNodes>
        0 -1 4915 2.5161867961287498e-02</internalNodes>
      <leafValues>
        -1.3257461786270142e-01 1.1394998431205750e-01</leafValues></_>
    <_>
      <internalNodes>
        0 -1 27320 1.1010447517037392e-02</internalNodes>
      <leafValues>
        -6.7468829452991486e-02 2.3279361426830292e-01</leafValues></_>
    <_>
      <internalNodes>
        0 -1 31088 2.2692468017339706e-02</internalNodes>
      <leafValues>
        5.3065121173858643e-02 -3.1902208924293518e-01</leafValues></_>
    <_>
      <internalNodes>
        0 -1 12462 -1.2883048504590988e-02</internalNodes>
      <leafValues>
        1.9548663496971130e-01 -8.0211907625198364e-02</leafValues></_>
    <_>
      <internalNodes>
        0 -1 8586 2.0415630191564560e-02</internalNodes>
      <leafValues>
        -8.8787466287612915e-02 1.8097344040870667e-01</leafValues></_></weakClassifiers></stage4>
</opencv_storage>
