<?xml version="1.0"?>
<opencv_storage>
<stage6>
  <maxWeakCount>100</maxWeakCount>
  <stageThreshold>-1.7761642932891846e+00</stageThreshold>
  <weakClassifiers>
    <_>
      <internalNodes>
        0 -1 10960 -3.1603956222534180e-01</internalNodes>
      <leafValues>
        5.0993913412094116e-01 -2.9916700720787048e-01</leafValues></_>
    <_>
      <internalNodes>
        0 -1 14094 -3.0002605170011520e-02</internalNodes>
      <leafValues>
        4.9137938022613525e-01 -9.0278245508670807e-02</leafValues></_>
    <_>
      <internalNodes>
        0 -1 21619 7.4983023107051849e-02</internalNodes>
      <leafValues>
        -1.5562863647937775e-01 4.0805783867835999e-01</leafValues></_>
    <_>
      <internalNodes>
        0 -1 3348 -1.9584081019274890e-04</internalNodes>
      <leafValues>
        1.2562064826488495e-01 -4.0536266565322876e-01</leafValues></_>
    <_>
      <internalNodes>
        0 -1 24293 -2.4021353572607040e-02</internalNodes>
      <leafValues>
        3.9381444454193115e-01 -1.1067347228527069e-01</leafValues></_>
    <_>
      <internalNodes>
        0 -1 15410 -9.3422576785087585e-02</internalNodes>
      <leafValues>
        4.6396625041961670e-01 -2.3945534601807594e-02</leafValues></_>
    <_>
      <internalNodes>
        0 -1 18482 2.3899221792817116e-02</internalNodes>
      <leafValues>
        -1.4390960335731506e-01 3.1376430392265320e-01</leafValues></_>
    <_>
      <internalNodes>
        0 -1 34641 -4.3873439426533878e-04</internalNodes>
      <leafValues>
        1.0866127163171768e-01 -2.6233062148094177e-01</leafValues></_>
    <_>
      <internalNodes>
        0 -1 24414 -1.7533045262098312e-02</internalNodes>
      <leafValues>
        3.1401202082633972e-01 -1.0286658257246017e-01</leafValues></_>
    <_>
      <internalNodes>
        0 -1 6 6.8172230385243893e-04</internalNodes>
      <leafValues>
        9.4784602522850037e-02 -3.4603723883628845e-01</leafValues></_>
    <_>
      <internalNodes>
        0 -1 3743 2.7383029460906982e-02</internalNodes>
      <leafValues>
        -9.1944627463817596e-02 3.1767615675926208e-01</leafValues></_>
    <_>
      <internalNodes>
        0 -1 3221 -1.0481593199074268e-03</internalNodes>
      <leafValues>
        -2.8913861513137817e-01 9.5891997218132019e-02</leafValues></_>
    <_>
      <internalNodes>
        0 -1 3250 7.2659976780414581e-02</internalNodes>
      <leafValues>
        3.9116829633712769e-02 -6.7055153846740723e-01</leafValues></_>
    <_>
      <internalNodes>
        0 -1 1 7.2838098276406527e-04</internalNodes>
      <leafValues>
        6.3078373670578003e-02 -3.7338241934776306e-01</leafValues></_>
    <_>
      <internalNodes>
        0 -1 12288 7.9813599586486816e-03</internalNodes>
      <leafValues>
        3.2648690044879913e-02 -5.1342242956161499e-01</leafValues></_>
    <_>
      <internalNodes>
        0 -1 15435 -3.0177053064107895e-02</internalNodes>
      <leafValues>
        3.1763032078742981e-01 -6.7508891224861145e-02</leafValues></_>
    <_>
      <internalNodes>
        0 -1 358 -1.9988241791725159e-01</internalNodes>
      <leafValues>
        1.5595717728137970e-01 -1.3416114449501038e-01</leafValues></_>
    <_>
      <internalNodes>
        0 -1 28498 4.1288379579782486e-03</internalNodes>
      <leafValues>
        -1.4580452442169189e-01 1.4416110515594482e-01</leafValues></_>
    <_>
      <internalNodes>
        0 -1 17218 9.3422988429665565e-03</internalNodes>
      <leafValues>
        -7.4622429907321930e-02 2.5862076878547668e-01</leafValues></_>
    <_>
      <internalNodes>
        0 -1 10298 1.1929519474506378e-02</internalNodes>
      <leafValues>
        4.8254448920488358e-02 -4.5435959100723267e-01</leafValues></_>
    <_>
      <internalNodes>
        0 -1 4916 2.3045556619763374e-02</internalNodes>
      <leafValues>
        -8.4784239530563354e-02 2.5291442871093750e-01</leafValues></_>
    <_>
      <internalNodes>
        0 -1 19140 -2.7890112251043320e-02</internalNodes>
      <leafValues>
        3.8298961520195007e-01 -4.8657178878784180e-02</leafValues></_>
    <_>
      <internalNodes>
        0 -1 0 7.1354000829160213e-04</internalNodes>
      <leafValues>
        5.7521414011716843e-02 -3.4535729885101318e-01</leafValues></_>
    <_>
      <internalNodes>
        0 -1 33121 -2.5774091482162476e-03</internalNodes>
      <leafValues>
        -5.3667843341827393e-01 2.5764439254999161e-02</leafValues></_>
    <_>
      <internalNodes>
        0 -1 35218 -6.9265824276953936e-04</internalNodes>
      <leafValues>
        -2.6247233152389526e-01 6.1670593917369843e-02</leafValues></_>
    <_>
      <internalNodes>
        0 -1 12335 -4.8501912504434586e-02</internalNodes>
      <leafValues>
        -5.0067609548568726e-01 3.2366249710321426e-02</leafValues></_>
    <_>
      <internalNodes>
        0 -1 3181 -4.6828463673591614e-03</internalNodes>
      <leafValues>
        1.2750506401062012e-01 -1.2791509926319122e-01</leafValues></_>
    <_>
      <internalNodes>
        0 -1 17533 -1.3001630082726479e-02</internalNodes>
      <leafValues>
        -5.1771265268325806e-01 3.1583726406097412e-02</leafValues></_>
    <_>
      <internalNodes>
        0 -1 31777 1.0331578552722931e-02</internalNodes>
      <leafValues>
        3.8975112140178680e-02 -3.5729017853736877e-01</leafValues></_>
    <_>
      <internalNodes>
        0 -1 31694 2.5161048397421837e-03</internalNodes>
      <leafValues>
        -1.3297195732593536e-01 1.1751762777566910e-01</leafValues></_>
    <_>
      <internalNodes>
        0 -1 2186 -7.6891928911209106e-03</internalNodes>
      <leafValues>
        2.1278212964534760e-01 -7.4765212833881378e-02</leafValues></_>
    <_>
      <internalNodes>
        0 -1 22698 -3.1668014824390411e-02</internalNodes>
      <leafValues>
        -4.3482318520545959e-01 3.9067793637514114e-02</leafValues></_>
    <_>
      <internalNodes>
        0 -1 11550 -5.3517273627221584e-03</internalNodes>
      <leafValues>
        1.8095433712005615e-01 -7.6586917042732239e-02</leafValues></_>
    <_>
      <internalNodes>
        0 -1 34011 -1.8082786351442337e-02</internalNodes>
      <leafValues>
        -3.3748093247413635e-01 4.2186170816421509e-02</leafValues></_>
    <_>
      <internalNodes>
        0 -1 1001 -1.1074461508542299e-04</internalNodes>
      <leafValues>
        8.7155133485794067e-02 -1.5220969915390015e-01</leafValues></_>
    <_>
      <internalNodes>
        0 -1 3057 1.8709551542997360e-02</internalNodes>
      <leafValues>
        -5.9402566403150558e-02 2.1625839173793793e-01</leafValues></_>
    <_>
      <internalNodes>
        0 -1 10960 -3.1442624330520630e-01</internalNodes>
      <leafValues>
        -1.9642153382301331e-01 8.6239434778690338e-02</leafValues></_>
    <_>
      <internalNodes>
        0 -1 20120 1.7464959993958473e-02</internalNodes>
      <leafValues>
        -1.5593844652175903e-01 1.4170807600021362e-01</leafValues></_>
    <_>
      <internalNodes>
        0 -1 1796 1.1457671411335468e-02</internalNodes>
      <leafValues>
        -9.6710607409477234e-02 1.5893973410129547e-01</leafValues></_>
    <_>
      <internalNodes>
        0 -1 2912 6.5554655157029629e-03</internalNodes>
      <leafValues>
        3.9129342883825302e-02 -3.6005038022994995e-01</leafValues></_>
    <_>
      <internalNodes>
        0 -1 34739 -7.2587822796776891e-04</internalNodes>
      <leafValues>
        -2.1646772325038910e-01 5.7332668453454971e-02</leafValues></_>
    <_>
      <internalNodes>
        0 -1 2714 9.5652714371681213e-03</internalNodes>
      <leafValues>
        -4.4316329061985016e-02 2.7939924597740173e-01</leafValues></_>
    <_>
      <internalNodes>
        0 -1 3350 -4.3979033827781677e-02</internalNodes>
      <leafValues>
        -3.5053539276123047e-01 3.5686898976564407e-02</leafValues></_>
    <_>
      <internalNodes>
        0 -1 15622 1.2807295657694340e-02</internalNodes>
      <leafValues>
        3.9386186748743057e-02 -2.8778627514839172e-01</leafValues></_>
    <_>
      <internalNodes>
        0 -1 963 4.1216187179088593e-02</internalNodes>
      <leafValues>
        -4.2601183056831360e-02 2.8264889121055603e-01</leafValues></_>
    <_>
      <internalNodes>
        0 -1 4148 -2.8214104473590851e-02</internalNodes>
      <leafValues>
        2.5085258483886719e-01 -4.7330215573310852e-02</leafValues></_>
    <_>
      <internalNodes>
        0 -1 2447 -1.5106970444321632e-02</internalNodes>
      <leafValues>
        -3.4232309460639954e-01 3.5693075507879257e-02</leafValues></_>
    <_>
      <internalNodes>
        0 -1 3087 -3.3973536919802427e-03</internalNodes>
      <leafValues>
        -2.7828526496887207e-01 4.8475503921508789e-02</leafValues></_>
    <_>
      <internalNodes>
        0 -1 19520 -1.1915426701307297e-02</internalNodes>
      <leafValues>
        2.2546155750751495e-01 -5.0865963101387024e-02</leafValues></_>
    <_>
      <internalNodes>
        0 -1 14582 -9.1658032033592463e-05</internalNodes>
      <leafValues>
        1.1736090481281281e-01 -1.1217468231916428e-01</leafValues></_>
    <_>
      <internalNodes>
        0 -1 22097 -7.5799319893121719e-03</internalNodes>
      <leafValues>
        2.3993170261383057e-01 -5.5492479354143143e-02</leafValues></_>
    <_>
      <internalNodes>
        0 -1 28706 9.6353553235530853e-03</internalNodes>
      <leafValues>
        3.6022625863552094e-02 -3.1044068932533264e-01</leafValues></_>
    <_>
      <internalNodes>
        0 -1 35075 -2.6773265562951565e-03</internalNodes>
      <leafValues>
        1.1965855956077576e-01 -9.0792343020439148e-02</leafValues></_>
    <_>
      <internalNodes>
        0 -1 23624 -2.3491480387747288e-03</internalNodes>
      <leafValues>
        -3.3727002143859863e-01 3.1579203903675079e-02</leafValues></_>
    <_>
      <internalNodes>
        0 -1 8604 -7.8804455697536469e-03</internalNodes>
      <leafValues>
        2.6208713650703430e-01 -4.4460594654083252e-02</leafValues></_>
    <_>
      <internalNodes>
        0 -1 23020 -1.1106203601229936e-04</internalNodes>
      <leafValues>
        1.0357908904552460e-01 -1.0821501165628433e-01</leafValues></_>
    <_>
      <internalNodes>
        0 -1 448 5.2587103843688965e-01</internalNodes>
      <leafValues>
        2.1585581824183464e-02 -4.9983322620391846e-01</leafValues></_>
    <_>
      <internalNodes>
        0 -1 34989 5.7445047423243523e-03</internalNodes>
      <leafValues>
        -6.9503322243690491e-02 1.5752568840980530e-01</leafValues></_>
    <_>
      <internalNodes>
        0 -1 28678 -1.6978632193058729e-03</internalNodes>
      <leafValues>
        -2.7484384179115295e-01 4.1431605815887451e-02</leafValues></_>
    <_>
      <internalNodes>
        0 -1 9896 1.2832457199692726e-02</internalNodes>
      <leafValues>
        3.0885307118296623e-02 -3.1166723370552063e-01</leafValues></_>
    <_>
      <internalNodes>
        0 -1 2692 -2.8439722955226898e-02</internalNodes>
      <leafValues>
        1.4874419569969177e-01 -6.3750013709068298e-02</leafValues></_>
    <_>
      <internalNodes>
        0 -1 21893 1.7225377261638641e-02</internalNodes>
      <leafValues>
        -5.5099479854106903e-02 2.0125126838684082e-01</leafValues></_>
    <_>
      <internalNodes>
        0 -1 30293 1.9829380325973034e-03</internalNodes>
      <leafValues>
        3.0344337224960327e-02 -3.3788180351257324e-01</leafValues></_>
    <_>
      <internalNodes>
        0 -1 34205 9.9081691587343812e-05</internalNodes>
      <leafValues>
        -8.4538497030735016e-02 1.0830528289079666e-01</leafValues></_>
    <_>
      <internalNodes>
        0 -1 33431 -8.8116875849664211e-04</internalNodes>
      <leafValues>
        -2.1096847951412201e-01 4.7171905636787415e-02</leafValues></_>
    <_>
      <internalNodes>
        0 -1 34460 1.1220706073800102e-04</internalNodes>
      <leafValues>
        -7.8418135643005371e-02 1.0880699008703232e-01</leafValues></_>
    <_>
      <internalNodes>
        0 -1 34873 1.1024830746464431e-04</internalNodes>
      <leafValues>
        -1.1063101142644882e-01 8.5506930947303772e-02</leafValues></_>
    <_>
      <internalNodes>
        0 -1 18905 -1.3725904864259064e-04</internalNodes>
      <leafValues>
        8.3765879273414612e-02 -9.9832922220230103e-02</leafValues></_>
    <_>
      <internalNodes>
        0 -1 23484 7.6490327715873718e-02</internalNodes>
      <leafValues>
        2.2105254232883453e-02 -4.3878135085105896e-01</leafValues></_>
    <_>
      <internalNodes>
        0 -1 24785 1.6662041889503598e-03</internalNodes>
      <leafValues>
        3.3760625869035721e-02 -2.3988759517669678e-01</leafValues></_>
    <_>
      <internalNodes>
        0 -1 26077 -1.0016810148954391e-02</internalNodes>
      <leafValues>
        1.9222930073738098e-01 -4.9165479838848114e-02</leafValues></_>
    <_>
      <internalNodes>
        0 -1 26552 8.9341257989872247e-05</internalNodes>
      <leafValues>
        -8.0917485058307648e-02 1.0866839438676834e-01</leafValues></_>
    <_>
      <internalNodes>
        0 -1 28025 -5.4475823417305946e-03</internalNodes>
      <leafValues>
        1.5465216338634491e-01 -6.9986209273338318e-02</leafValues></_>
    <_>
      <internalNodes>
        0 -1 12592 -2.1622636914253235e-01</internalNodes>
      <leafValues>
        1.4403457939624786e-01 -6.5130770206451416e-02</leafValues></_>
    <_>
      <internalNodes>
        0 -1 33801 1.2494871043600142e-04</internalNodes>
      <leafValues>
        -1.1101721227169037e-01 8.9657418429851532e-02</leafValues></_>
    <_>
      <internalNodes>
        0 -1 24784 -1.6187494620680809e-03</internalNodes>
      <leafValues>
        -2.0197007060050964e-01 4.5796692371368408e-02</leafValues></_>
    <_>
      <internalNodes>
        0 -1 22508 -1.6356710344552994e-02</internalNodes>
      <leafValues>
        2.2109197080135345e-01 -4.6686265617609024e-02</leafValues></_>
    <_>
      <internalNodes>
        0 -1 4981 -1.0985892266035080e-02</internalNodes>
      <leafValues>
        1.8361765146255493e-01 -4.4556919485330582e-02</leafValues></_>
    <_>
      <internalNodes>
        0 -1 23895 1.2090755626559258e-03</internalNodes>
      <leafValues>
        4.6768456697463989e-02 -1.9572181999683380e-01</leafValues></_>
    <_>
      <internalNodes>
        0 -1 20316 -1.9741505384445190e-02</internalNodes>
      <leafValues>
        2.2794704139232635e-01 -4.2592633515596390e-02</leafValues></_>
    <_>
      <internalNodes>
        0 -1 9338 2.6282244361937046e-03</internalNodes>
      <leafValues>
        3.4205585718154907e-02 -3.0048051476478577e-01</leafValues></_>
    <_>
      <internalNodes>
        0 -1 1416 2.5683240965008736e-02</internalNodes>
      <leafValues>
        -5.2070248872041702e-02 1.7568449676036835e-01</leafValues></_>
    <_>
      <internalNodes>
        0 -1 1416 -3.8424000144004822e-02</internalNodes>
      <leafValues>
        2.3244629800319672e-01 -3.5398427397012711e-02</leafValues></_>
    <_>
      <internalNodes>
        0 -1 2700 4.5637423172593117e-03</internalNodes>
      <leafValues>
        2.3172965273261070e-02 -4.0164065361022949e-01</leafValues></_>
    <_>
      <internalNodes>
        0 -1 12060 -9.2346360906958580e-04</internalNodes>
      <leafValues>
        -1.8526366353034973e-01 4.2959008365869522e-02</leafValues></_>
    <_>
      <internalNodes>
        0 -1 34947 7.9342415556311607e-03</internalNodes>
      <leafValues>
        -5.2011687308549881e-02 1.4822466671466827e-01</leafValues></_>
    <_>
      <internalNodes>
        0 -1 34515 -3.3912248909473419e-02</internalNodes>
      <leafValues>
        1.4738397300243378e-01 -6.3936620950698853e-02</leafValues></_>
    <_>
      <internalNodes>
        0 -1 20281 -1.3090434484183788e-02</internalNodes>
      <leafValues>
        -3.1402009725570679e-01 2.5725634768605232e-02</leafValues></_>
    <_>
      <internalNodes>
        0 -1 26803 -9.2946771474089473e-05</internalNodes>
      <leafValues>
        9.4783172011375427e-02 -8.3214931190013885e-02</leafValues></_>
    <_>
      <internalNodes>
        0 -1 22522 -7.4672047048807144e-05</internalNodes>
      <leafValues>
        9.4827421009540558e-02 -9.3511521816253662e-02</leafValues></_>
    <_>
      <internalNodes>
        0 -1 34858 8.4247469902038574e-02</internalNodes>
      <leafValues>
        3.4219883382320404e-02 -2.3954826593399048e-01</leafValues></_>
    <_>
      <internalNodes>
        0 -1 33971 7.9239893238991499e-04</internalNodes>
      <leafValues>
        -9.4039812684059143e-02 8.1099666655063629e-02</leafValues></_>
    <_>
      <internalNodes>
        0 -1 11923 1.4184665633365512e-04</internalNodes>
      <leafValues>
        -1.1153548955917358e-01 6.7024052143096924e-02</leafValues></_>
    <_>
      <internalNodes>
        0 -1 14420 -5.8815624564886093e-02</internalNodes>
      <leafValues>
        -3.5494160652160645e-01 2.4309469386935234e-02</leafValues></_>
    <_>
      <internalNodes>
        0 -1 18431 -1.7434780299663544e-01</internalNodes>
      <leafValues>
        2.5252774357795715e-01 -3.0401118099689484e-02</leafValues></_>
    <_>
      <internalNodes>
        0 -1 31866 -1.8690456636250019e-03</internalNodes>
      <leafValues>
        -1.2221127003431320e-01 7.0770859718322754e-02</leafValues></_>
    <_>
      <internalNodes>
        0 -1 24223 -4.4946931302547455e-02</internalNodes>
      <leafValues>
        4.7080790996551514e-01 -1.6701580956578255e-02</leafValues></_>
    <_>
      <internalNodes>
        0 -1 34654 2.0898608490824699e-03</internalNodes>
      <leafValues>
        2.7565049007534981e-02 -2.7976056933403015e-01</leafValues></_>
    <_>
      <internalNodes>
        0 -1 28742 -7.5168311595916748e-03</internalNodes>
      <leafValues>
        -2.4042350053787231e-01 2.7667837217450142e-02</leafValues></_>
    <_>
      <internalNodes>
        0 -1 33071 -8.7356463074684143e-02</internalNodes>
      <leafValues>
        3.1504100561141968e-01 -2.3257369175553322e-02</leafValues></_></weakClassifiers></stage6>
</opencv_storage>
