<?xml version="1.0"?>
<opencv_storage>
<stage15>
  <maxWeakCount>100</maxWeakCount>
  <stageThreshold>-1.5704534053802490e+00</stageThreshold>
  <weakClassifiers>
    <_>
      <internalNodes>
        0 -1 23882 -3.0267196893692017e-01</internalNodes>
      <leafValues>
        4.4853481650352478e-01 -1.9802515208721161e-01</leafValues></_>
    <_>
      <internalNodes>
        0 -1 16791 -3.5218223929405212e-02</internalNodes>
      <leafValues>
        4.0803754329681396e-01 -6.7040018737316132e-02</leafValues></_>
    <_>
      <internalNodes>
        0 -1 23870 5.8805495500564575e-02</internalNodes>
      <leafValues>
        -1.1726098507642746e-01 2.6803311705589294e-01</leafValues></_>
    <_>
      <internalNodes>
        0 -1 26242 -1.7369903624057770e-02</internalNodes>
      <leafValues>
        2.9160705208778381e-01 -9.5726534724235535e-02</leafValues></_>
    <_>
      <internalNodes>
        0 -1 165 -3.9789624512195587e-02</internalNodes>
      <leafValues>
        1.2004164606332779e-01 -2.2760246694087982e-01</leafValues></_>
    <_>
      <internalNodes>
        0 -1 1 4.8606368363834918e-04</internalNodes>
      <leafValues>
        7.2738617658615112e-02 -3.5278165340423584e-01</leafValues></_>
    <_>
      <internalNodes>
        0 -1 16506 -3.3774290233850479e-02</internalNodes>
      <leafValues>
        3.5307288169860840e-01 -7.8774541616439819e-02</leafValues></_>
    <_>
      <internalNodes>
        0 -1 35084 -4.8986391630023718e-04</internalNodes>
      <leafValues>
        -2.3692768812179565e-01 1.1999587714672089e-01</leafValues></_>
    <_>
      <internalNodes>
        0 -1 3258 6.0128164477646351e-04</internalNodes>
      <leafValues>
        5.4861161857843399e-02 -2.6361337304115295e-01</leafValues></_>
    <_>
      <internalNodes>
        0 -1 22071 -1.8643897026777267e-02</internalNodes>
      <leafValues>
        2.6951628923416138e-01 -5.2179329097270966e-02</leafValues></_>
    <_>
      <internalNodes>
        0 -1 6696 1.7982114106416702e-02</internalNodes>
      <leafValues>
        -7.9960927367210388e-02 2.3070555925369263e-01</leafValues></_>
    <_>
      <internalNodes>
        0 -1 20637 -2.8579942882061005e-02</internalNodes>
      <leafValues>
        3.0264988541603088e-01 -6.3105478882789612e-02</leafValues></_>
    <_>
      <internalNodes>
        0 -1 12440 -1.6328351572155952e-02</internalNodes>
      <leafValues>
        -3.4021311998367310e-01 5.1586776971817017e-02</leafValues></_>
    <_>
      <internalNodes>
        0 -1 8153 -8.7098054587841034e-02</internalNodes>
      <leafValues>
        1.2104757130146027e-01 -1.2729507684707642e-01</leafValues></_>
    <_>
      <internalNodes>
        0 -1 992 8.1947125727310777e-04</internalNodes>
      <leafValues>
        3.3584903925657272e-02 -3.8976511359214783e-01</leafValues></_>
    <_>
      <internalNodes>
        0 -1 3251 5.2093055099248886e-02</internalNodes>
      <leafValues>
        4.2424023151397705e-02 -3.3077871799468994e-01</leafValues></_>
    <_>
      <internalNodes>
        0 -1 26991 -2.6000004261732101e-02</internalNodes>
      <leafValues>
        -3.4927669167518616e-01 3.5870857536792755e-02</leafValues></_>
    <_>
      <internalNodes>
        0 -1 3074 -2.7773324400186539e-03</internalNodes>
      <leafValues>
        -3.2356688380241394e-01 4.7433655709028244e-02</leafValues></_>
    <_>
      <internalNodes>
        0 -1 20427 -3.4822933375835419e-02</internalNodes>
      <leafValues>
        -4.0388834476470947e-01 2.7395157143473625e-02</leafValues></_>
    <_>
      <internalNodes>
        0 -1 22618 3.1924527138471603e-03</internalNodes>
      <leafValues>
        5.2335575222969055e-02 -2.3638458549976349e-01</leafValues></_>
    <_>
      <internalNodes>
        0 -1 2186 -5.7492787018418312e-03</internalNodes>
      <leafValues>
        1.6658087074756622e-01 -8.0470561981201172e-02</leafValues></_>
    <_>
      <internalNodes>
        0 -1 8844 -6.4775114879012108e-03</internalNodes>
      <leafValues>
        2.3847091197967529e-01 -4.9566011875867844e-02</leafValues></_>
    <_>
      <internalNodes>
        0 -1 35170 -1.6963927075266838e-02</internalNodes>
      <leafValues>
        3.1534537672996521e-01 -4.2370393872261047e-02</leafValues></_>
    <_>
      <internalNodes>
        0 -1 3076 2.9880893416702747e-03</internalNodes>
      <leafValues>
        4.7945059835910797e-02 -2.4527728557586670e-01</leafValues></_>
    <_>
      <internalNodes>
        0 -1 11904 -4.1462101042270660e-02</internalNodes>
      <leafValues>
        1.6985850036144257e-01 -7.2918139398097992e-02</leafValues></_>
    <_>
      <internalNodes>
        0 -1 22249 1.1341458186507225e-02</internalNodes>
      <leafValues>
        -2.2168189287185669e-02 4.3478426337242126e-01</leafValues></_>
    <_>
      <internalNodes>
        0 -1 3316 -1.2812852859497070e-02</internalNodes>
      <leafValues>
        -4.5129722356796265e-01 2.4579837918281555e-02</leafValues></_>
    <_>
      <internalNodes>
        0 -1 26404 1.4556865789927542e-04</internalNodes>
      <leafValues>
        -9.5723524689674377e-02 1.1135865002870560e-01</leafValues></_>
    <_>
      <internalNodes>
        0 -1 24846 9.6595101058483124e-03</internalNodes>
      <leafValues>
        3.0242793262004852e-02 -3.5885947942733765e-01</leafValues></_>
    <_>
      <internalNodes>
        0 -1 5785 -3.5215187817811966e-03</internalNodes>
      <leafValues>
        1.4596281945705414e-01 -7.1983009576797485e-02</leafValues></_>
    <_>
      <internalNodes>
        0 -1 14879 -9.8951710388064384e-03</internalNodes>
      <leafValues>
        -3.5010588169097900e-01 3.2995011657476425e-02</leafValues></_>
    <_>
      <internalNodes>
        0 -1 19150 1.8355846405029297e-02</internalNodes>
      <leafValues>
        -6.3251882791519165e-02 1.6664242744445801e-01</leafValues></_>
    <_>
      <internalNodes>
        0 -1 34721 3.4150369465351105e-02</internalNodes>
      <leafValues>
        -6.4461648464202881e-02 1.6950491070747375e-01</leafValues></_>
    <_>
      <internalNodes>
        0 -1 3252 7.4487214442342520e-04</internalNodes>
      <leafValues>
        3.5976201295852661e-02 -3.0131688714027405e-01</leafValues></_>
    <_>
      <internalNodes>
        0 -1 20226 -2.4166725575923920e-02</internalNodes>
      <leafValues>
        2.1546003222465515e-01 -4.7076333314180374e-02</leafValues></_>
    <_>
      <internalNodes>
        0 -1 1813 2.1453928202390671e-03</internalNodes>
      <leafValues>
        3.5755287855863571e-02 -2.7520155906677246e-01</leafValues></_>
    <_>
      <internalNodes>
        0 -1 28606 8.3512011915445328e-03</internalNodes>
      <leafValues>
        -1.4475458860397339e-01 6.7489571869373322e-02</leafValues></_>
    <_>
      <internalNodes>
        0 -1 23882 -3.0258625745773315e-01</internalNodes>
      <leafValues>
        -1.6957043111324310e-01 5.4352026432752609e-02</leafValues></_>
    <_>
      <internalNodes>
        0 -1 12682 6.9722965359687805e-02</internalNodes>
      <leafValues>
        -7.9643845558166504e-02 1.5455722808837891e-01</leafValues></_>
    <_>
      <internalNodes>
        0 -1 20298 8.6090685799717903e-03</internalNodes>
      <leafValues>
        -6.2274836003780365e-02 2.4147103726863861e-01</leafValues></_>
    <_>
      <internalNodes>
        0 -1 34224 -1.3656416907906532e-02</internalNodes>
      <leafValues>
        -3.0158913135528564e-01 3.9479497820138931e-02</leafValues></_>
    <_>
      <internalNodes>
        0 -1 7393 4.0383055806159973e-02</internalNodes>
      <leafValues>
        -5.4320223629474640e-02 2.0762005448341370e-01</leafValues></_>
    <_>
      <internalNodes>
        0 -1 34739 -1.5002432046458125e-03</internalNodes>
      <leafValues>
        -2.8358766436576843e-01 3.4201785922050476e-02</leafValues></_>
    <_>
      <internalNodes>
        0 -1 32665 7.6349289156496525e-03</internalNodes>
      <leafValues>
        -1.0841991007328033e-01 8.7087444961071014e-02</leafValues></_>
    <_>
      <internalNodes>
        0 -1 28022 -1.3989794068038464e-02</internalNodes>
      <leafValues>
        2.3932752013206482e-01 -4.2947161942720413e-02</leafValues></_>
    <_>
      <internalNodes>
        0 -1 9883 5.3641088306903839e-03</internalNodes>
      <leafValues>
        3.3029604703187943e-02 -2.8537106513977051e-01</leafValues></_>
    <_>
      <internalNodes>
        0 -1 9448 -3.3882856369018555e-02</internalNodes>
      <leafValues>
        -2.7584826946258545e-01 3.4669421613216400e-02</leafValues></_>
    <_>
      <internalNodes>
        0 -1 28553 4.4785961508750916e-03</internalNodes>
      <leafValues>
        -6.6720716655254364e-02 1.4289242029190063e-01</leafValues></_>
    <_>
      <internalNodes>
        0 -1 34739 2.3132537025958300e-03</internalNodes>
      <leafValues>
        2.3384351283311844e-02 -3.6783790588378906e-01</leafValues></_>
    <_>
      <internalNodes>
        0 -1 11765 -3.4346338361501694e-03</internalNodes>
      <leafValues>
        1.4269278943538666e-01 -6.3033312559127808e-02</leafValues></_>
    <_>
      <internalNodes>
        0 -1 11553 1.0109448805451393e-02</internalNodes>
      <leafValues>
        -4.3920092284679413e-02 2.3194809257984161e-01</leafValues></_>
    <_>
      <internalNodes>
        0 -1 24785 -1.6248152824118733e-03</internalNodes>
      <leafValues>
        -2.4278604984283447e-01 4.0170926600694656e-02</leafValues></_>
    <_>
      <internalNodes>
        0 -1 24785 1.9931376446038485e-03</internalNodes>
      <leafValues>
        3.0814595520496368e-02 -2.7997633814811707e-01</leafValues></_>
    <_>
      <internalNodes>
        0 -1 29994 -8.5424408316612244e-03</internalNodes>
      <leafValues>
        2.0992903411388397e-01 -3.9855316281318665e-02</leafValues></_>
    <_>
      <internalNodes>
        0 -1 33770 2.6184124872088432e-03</internalNodes>
      <leafValues>
        -5.6886993348598480e-02 1.5418088436126709e-01</leafValues></_>
    <_>
      <internalNodes>
        0 -1 5760 -3.6257207393646240e-02</internalNodes>
      <leafValues>
        1.5170115232467651e-01 -5.7826861739158630e-02</leafValues></_>
    <_>
      <internalNodes>
        0 -1 140 -1.2885624542832375e-02</internalNodes>
      <leafValues>
        1.3348419964313507e-01 -7.0361986756324768e-02</leafValues></_>
    <_>
      <internalNodes>
        0 -1 549 -1.7442188982386142e-04</internalNodes>
      <leafValues>
        6.3006520271301270e-02 -1.4005345106124878e-01</leafValues></_>
    <_>
      <internalNodes>
        0 -1 5312 -1.1439372610766441e-04</internalNodes>
      <leafValues>
        8.5416086018085480e-02 -9.1460287570953369e-02</leafValues></_>
    <_>
      <internalNodes>
        0 -1 1436 -1.2664447538554668e-02</internalNodes>
      <leafValues>
        -2.6034116744995117e-01 3.5254839807748795e-02</leafValues></_>
    <_>
      <internalNodes>
        0 -1 20995 -3.1873054802417755e-02</internalNodes>
      <leafValues>
        2.4235545098781586e-01 -3.3560145646333694e-02</leafValues></_>
    <_>
      <internalNodes>
        0 -1 13077 2.2460170090198517e-02</internalNodes>
      <leafValues>
        -5.3588565438985825e-02 1.6144207119941711e-01</leafValues></_>
    <_>
      <internalNodes>
        0 -1 17836 1.9976574927568436e-02</internalNodes>
      <leafValues>
        2.3724667727947235e-02 -3.6906933784484863e-01</leafValues></_>
    <_>
      <internalNodes>
        0 -1 34011 -2.2690080106258392e-02</internalNodes>
      <leafValues>
        -3.4902727603912354e-01 2.0979419350624084e-02</leafValues></_>
    <_>
      <internalNodes>
        0 -1 3757 1.0519271017983556e-04</internalNodes>
      <leafValues>
        -7.6509244740009308e-02 1.0258746147155762e-01</leafValues></_>
    <_>
      <internalNodes>
        0 -1 3757 -8.8493143266532570e-05</internalNodes>
      <leafValues>
        1.0218771547079086e-01 -7.8299961984157562e-02</leafValues></_>
    <_>
      <internalNodes>
        0 -1 14537 9.6815153956413269e-03</internalNodes>
      <leafValues>
        -4.5425765216350555e-02 1.6592766344547272e-01</leafValues></_>
    <_>
      <internalNodes>
        0 -1 18848 3.0472110956907272e-02</internalNodes>
      <leafValues>
        -7.1274630725383759e-02 1.0640120506286621e-01</leafValues></_>
    <_>
      <internalNodes>
        0 -1 2893 -5.7177417911589146e-03</internalNodes>
      <leafValues>
        -3.2891613245010376e-01 2.4800909683108330e-02</leafValues></_>
    <_>
      <internalNodes>
        0 -1 17651 1.2893306091427803e-02</internalNodes>
      <leafValues>
        1.3018398545682430e-02 -4.7695526480674744e-01</leafValues></_>
    <_>
      <internalNodes>
        0 -1 20165 -1.4110750635154545e-04</internalNodes>
      <leafValues>
        6.9993093609809875e-02 -1.1377236247062683e-01</leafValues></_>
    <_>
      <internalNodes>
        0 -1 13381 -4.2024847120046616e-02</internalNodes>
      <leafValues>
        1.8401581048965454e-01 -4.1642863303422928e-02</leafValues></_>
    <_>
      <internalNodes>
        0 -1 15124 1.6161149367690086e-02</internalNodes>
      <leafValues>
        3.1105125322937965e-02 -3.1277620792388916e-01</leafValues></_>
    <_>
      <internalNodes>
        0 -1 12695 -6.8669629399664700e-05</internalNodes>
      <leafValues>
        8.3456389605998993e-02 -8.9408233761787415e-02</leafValues></_>
    <_>
      <internalNodes>
        0 -1 6803 2.9060037340968847e-03</internalNodes>
      <leafValues>
        3.6261942237615585e-02 -1.9867762923240662e-01</leafValues></_>
    <_>
      <internalNodes>
        0 -1 191 -1.7256017774343491e-02</internalNodes>
      <leafValues>
        1.4949789643287659e-01 -4.7784730792045593e-02</leafValues></_>
    <_>
      <internalNodes>
        0 -1 24223 -4.4356450438499451e-02</internalNodes>
      <leafValues>
        4.0566763281822205e-01 -1.5850817784667015e-02</leafValues></_>
    <_>
      <internalNodes>
        0 -1 17257 -1.4225323684513569e-04</internalNodes>
      <leafValues>
        8.1091813743114471e-02 -8.3370149135589600e-02</leafValues></_>
    <_>
      <internalNodes>
        0 -1 17742 1.4471869915723801e-02</internalNodes>
      <leafValues>
        -3.5523533821105957e-02 2.2020027041435242e-01</leafValues></_>
    <_>
      <internalNodes>
        0 -1 20236 -1.3509730342775583e-04</internalNodes>
      <leafValues>
        8.6190827190876007e-02 -8.7172232568264008e-02</leafValues></_>
    <_>
      <internalNodes>
        0 -1 17836 -1.5618912875652313e-02</internalNodes>
      <leafValues>
        -2.3210188746452332e-01 2.9810326173901558e-02</leafValues></_>
    <_>
      <internalNodes>
        0 -1 24886 -9.8676513880491257e-03</internalNodes>
      <leafValues>
        1.4202681183815002e-01 -4.9188733100891113e-02</leafValues></_>
    <_>
      <internalNodes>
        0 -1 20163 -1.5466156182810664e-03</internalNodes>
      <leafValues>
        -2.2201240062713623e-01 3.1855683773756027e-02</leafValues></_>
    <_>
      <internalNodes>
        0 -1 26349 9.5095038414001465e-02</internalNodes>
      <leafValues>
        2.2463621571660042e-02 -2.8582885861396790e-01</leafValues></_>
    <_>
      <internalNodes>
        0 -1 3201 -4.6838312409818172e-03</internalNodes>
      <leafValues>
        -2.3908144235610962e-01 2.6486180722713470e-02</leafValues></_>
    <_>
      <internalNodes>
        0 -1 9034 8.1140510737895966e-03</internalNodes>
      <leafValues>
        -2.7089025825262070e-02 2.4442790448665619e-01</leafValues></_>
    <_>
      <internalNodes>
        0 -1 2716 -1.5890337526798248e-02</internalNodes>
      <leafValues>
        1.8814232945442200e-01 -3.7577826529741287e-02</leafValues></_>
    <_>
      <internalNodes>
        0 -1 3065 -1.2451258953660727e-03</internalNodes>
      <leafValues>
        -2.0803512632846832e-01 3.0180359259247780e-02</leafValues></_>
    <_>
      <internalNodes>
        0 -1 2463 1.0115604847669601e-02</internalNodes>
      <leafValues>
        -3.8181632757186890e-02 1.7328746616840363e-01</leafValues></_>
    <_>
      <internalNodes>
        0 -1 7397 1.7570546269416809e-01</internalNodes>
      <leafValues>
        2.4969017133116722e-02 -2.7084776759147644e-01</leafValues></_>
    <_>
      <internalNodes>
        0 -1 34821 2.2681392729282379e-02</internalNodes>
      <leafValues>
        2.6831494644284248e-02 -2.3418529331684113e-01</leafValues></_>
    <_>
      <internalNodes>
        0 -1 11436 6.2932871282100677e-02</internalNodes>
      <leafValues>
        1.2259143404662609e-02 -5.0670665502548218e-01</leafValues></_>
    <_>
      <internalNodes>
        0 -1 33648 9.7710816189646721e-03</internalNodes>
      <leafValues>
        -4.7723140567541122e-02 1.3530437648296356e-01</leafValues></_>
    <_>
      <internalNodes>
        0 -1 32476 -4.4939751387573779e-04</internalNodes>
      <leafValues>
        -1.2881924211978912e-01 5.0173971801996231e-02</leafValues></_>
    <_>
      <internalNodes>
        0 -1 760 -8.1088900566101074e-02</internalNodes>
      <leafValues>
        1.2080720067024231e-01 -5.9993132948875427e-02</leafValues></_>
    <_>
      <internalNodes>
        0 -1 6283 -1.0513294255360961e-03</internalNodes>
      <leafValues>
        -2.0479086041450500e-01 3.1766444444656372e-02</leafValues></_>
    <_>
      <internalNodes>
        0 -1 7618 2.7961071580648422e-02</internalNodes>
      <leafValues>
        -4.7320209443569183e-02 1.4891409873962402e-01</leafValues></_>
    <_>
      <internalNodes>
        0 -1 16181 -2.7304653078317642e-02</internalNodes>
      <leafValues>
        1.8817467987537384e-01 -3.5401295870542526e-02</leafValues></_>
    <_>
      <internalNodes>
        0 -1 27744 3.2686765771359205e-03</internalNodes>
      <leafValues>
        2.8077976778149605e-02 -2.3036329448223114e-01</leafValues></_>
    <_>
      <internalNodes>
        0 -1 24788 -1.2821713462471962e-02</internalNodes>
      <leafValues>
        -2.8467831015586853e-01 2.1577585488557816e-02</leafValues></_></weakClassifiers></stage15>
</opencv_storage>
