<?xml version="1.0"?>
<opencv_storage>
<stage13>
  <maxWeakCount>100</maxWeakCount>
  <stageThreshold>-1.4855458736419678e+00</stageThreshold>
  <weakClassifiers>
    <_>
      <internalNodes>
        0 -1 146 -2.1943591535091400e-02</internalNodes>
      <leafValues>
        2.5219872593879700e-01 -2.7972581982612610e-01</leafValues></_>
    <_>
      <internalNodes>
        0 -1 10828 -8.2042586803436279e-01</internalNodes>
      <leafValues>
        3.9221891760826111e-01 -1.2792089581489563e-01</leafValues></_>
    <_>
      <internalNodes>
        0 -1 1425 -1.3711722567677498e-04</internalNodes>
      <leafValues>
        1.3503931462764740e-01 -2.4749919772148132e-01</leafValues></_>
    <_>
      <internalNodes>
        0 -1 9 -1.0201025288552046e-03</internalNodes>
      <leafValues>
        1.2125959992408752e-01 -2.2793439030647278e-01</leafValues></_>
    <_>
      <internalNodes>
        0 -1 663 -1.1303422972559929e-02</internalNodes>
      <leafValues>
        1.8152749538421631e-01 -2.0187990367412567e-01</leafValues></_>
    <_>
      <internalNodes>
        0 -1 9954 -1.8365751951932907e-02</internalNodes>
      <leafValues>
        -4.3484577536582947e-01 1.2041874974966049e-01</leafValues></_>
    <_>
      <internalNodes>
        0 -1 24987 1.3471519574522972e-02</internalNodes>
      <leafValues>
        -1.1878766119480133e-01 2.4825020134449005e-01</leafValues></_>
    <_>
      <internalNodes>
        0 -1 13256 -2.6869807392358780e-02</internalNodes>
      <leafValues>
        1.6782750189304352e-01 -1.5460146963596344e-01</leafValues></_>
    <_>
      <internalNodes>
        0 -1 33973 2.9685529880225658e-03</internalNodes>
      <leafValues>
        -1.6590546071529388e-01 1.2471237778663635e-01</leafValues></_>
    <_>
      <internalNodes>
        0 -1 17995 -1.1796843260526657e-02</internalNodes>
      <leafValues>
        1.7785041034221649e-01 -1.0830721259117126e-01</leafValues></_>
    <_>
      <internalNodes>
        0 -1 22035 1.3698662631213665e-02</internalNodes>
      <leafValues>
        -7.2523847222328186e-02 2.3410874605178833e-01</leafValues></_>
    <_>
      <internalNodes>
        0 -1 21601 -1.3911241292953491e-01</internalNodes>
      <leafValues>
        3.4585511684417725e-01 -4.6519272029399872e-02</leafValues></_>
    <_>
      <internalNodes>
        0 -1 5 -5.6658764369785786e-03</internalNodes>
      <leafValues>
        -4.6187272667884827e-01 2.5917639955878258e-02</leafValues></_>
    <_>
      <internalNodes>
        0 -1 33882 1.0245669633150101e-02</internalNodes>
      <leafValues>
        -1.2957210838794708e-01 1.3066878914833069e-01</leafValues></_>
    <_>
      <internalNodes>
        0 -1 1 -1.3562044478021562e-04</internalNodes>
      <leafValues>
        9.9542304873466492e-02 -1.5078860521316528e-01</leafValues></_>
    <_>
      <internalNodes>
        0 -1 1431 6.3277623848989606e-04</internalNodes>
      <leafValues>
        5.5256586521863937e-02 -2.4216680228710175e-01</leafValues></_>
    <_>
      <internalNodes>
        0 -1 10296 1.2117130681872368e-02</internalNodes>
      <leafValues>
        4.0266517549753189e-02 -3.7169599533081055e-01</leafValues></_>
    <_>
      <internalNodes>
        0 -1 33547 2.0220883190631866e-02</internalNodes>
      <leafValues>
        -5.8860477060079575e-02 2.2543734312057495e-01</leafValues></_>
    <_>
      <internalNodes>
        0 -1 32906 -3.3578777220100164e-05</internalNodes>
      <leafValues>
        -2.0391744375228882e-01 7.2810374200344086e-02</leafValues></_>
    <_>
      <internalNodes>
        0 -1 2476 -3.0990088358521461e-02</internalNodes>
      <leafValues>
        -3.7338089942932129e-01 3.3231873065233231e-02</leafValues></_>
    <_>
      <internalNodes>
        0 -1 1001 -4.6477385330945253e-04</internalNodes>
      <leafValues>
        8.2854479551315308e-02 -1.4114046096801758e-01</leafValues></_>
    <_>
      <internalNodes>
        0 -1 1532 -1.3214018195867538e-02</internalNodes>
      <leafValues>
        1.5525594353675842e-01 -9.7867548465728760e-02</leafValues></_>
    <_>
      <internalNodes>
        0 -1 2623 2.2071391344070435e-01</internalNodes>
      <leafValues>
        2.8411788865923882e-02 -3.9749208092689514e-01</leafValues></_>
    <_>
      <internalNodes>
        0 -1 5954 6.5592821920290589e-04</internalNodes>
      <leafValues>
        -1.3226635754108429e-01 9.1221183538436890e-02</leafValues></_>
    <_>
      <internalNodes>
        0 -1 22971 1.3665545266121626e-03</internalNodes>
      <leafValues>
        4.0189359337091446e-02 -2.7280169725418091e-01</leafValues></_>
    <_>
      <internalNodes>
        0 -1 22971 -1.4942749403417110e-03</internalNodes>
      <leafValues>
        -2.7806231379508972e-01 3.9075467735528946e-02</leafValues></_>
    <_>
      <internalNodes>
        0 -1 20981 -1.4278686605393887e-02</internalNodes>
      <leafValues>
        2.0052854716777802e-01 -5.9931695461273193e-02</leafValues></_>
    <_>
      <internalNodes>
        0 -1 20638 1.1991622857749462e-02</internalNodes>
      <leafValues>
        -8.3966553211212158e-02 1.4845257997512817e-01</leafValues></_>
    <_>
      <internalNodes>
        0 -1 15372 -1.3742414303123951e-02</internalNodes>
      <leafValues>
        1.9346445798873901e-01 -6.4731866121292114e-02</leafValues></_>
    <_>
      <internalNodes>
        0 -1 2083 -1.5917330980300903e-01</internalNodes>
      <leafValues>
        1.0798006504774094e-01 -1.0287533700466156e-01</leafValues></_>
    <_>
      <internalNodes>
        0 -1 6283 -1.8831933848559856e-03</internalNodes>
      <leafValues>
        -3.6203059554100037e-01 2.9984079301357269e-02</leafValues></_>
    <_>
      <internalNodes>
        0 -1 132 -8.6859520524740219e-03</internalNodes>
      <leafValues>
        1.5987789630889893e-01 -6.9564633071422577e-02</leafValues></_>
    <_>
      <internalNodes>
        0 -1 22741 3.2720230519771576e-03</internalNodes>
      <leafValues>
        -7.2489157319068909e-02 1.6670700907707214e-01</leafValues></_>
    <_>
      <internalNodes>
        0 -1 9825 -1.8295934423804283e-03</internalNodes>
      <leafValues>
        -3.7326967716217041e-01 3.1535718590021133e-02</leafValues></_>
    <_>
      <internalNodes>
        0 -1 23868 1.9666066393256187e-02</internalNodes>
      <leafValues>
        -7.1571491658687592e-02 1.5915888547897339e-01</leafValues></_>
    <_>
      <internalNodes>
        0 -1 33032 -3.3478769473731518e-03</internalNodes>
      <leafValues>
        1.1748087406158447e-01 -9.0760789811611176e-02</leafValues></_>
    <_>
      <internalNodes>
        0 -1 34666 1.0418412275612354e-02</internalNodes>
      <leafValues>
        3.3050287514925003e-02 -3.4446248412132263e-01</leafValues></_>
    <_>
      <internalNodes>
        0 -1 25778 4.3291095644235611e-03</internalNodes>
      <leafValues>
        2.3648519068956375e-02 -4.0670725703239441e-01</leafValues></_>
    <_>
      <internalNodes>
        0 -1 2186 -5.7651824317872524e-03</internalNodes>
      <leafValues>
        1.5099316835403442e-01 -7.1666397154331207e-02</leafValues></_>
    <_>
      <internalNodes>
        0 -1 6352 -1.5114354901015759e-02</internalNodes>
      <leafValues>
        -3.9473074674606323e-01 2.6848012581467628e-02</leafValues></_>
    <_>
      <internalNodes>
        0 -1 8350 -6.9791842252016068e-03</internalNodes>
      <leafValues>
        1.6537956893444061e-01 -6.3920423388481140e-02</leafValues></_>
    <_>
      <internalNodes>
        0 -1 14431 -1.4812366105616093e-02</internalNodes>
      <leafValues>
        1.3232757151126862e-01 -7.2593100368976593e-02</leafValues></_>
    <_>
      <internalNodes>
        0 -1 24223 -4.0987759828567505e-02</internalNodes>
      <leafValues>
        4.4079822301864624e-01 -2.7423266321420670e-02</leafValues></_>
    <_>
      <internalNodes>
        0 -1 24785 1.6007118392735720e-03</internalNodes>
      <leafValues>
        4.2315576225519180e-02 -2.7340936660766602e-01</leafValues></_>
    <_>
      <internalNodes>
        0 -1 24785 -1.5777692897245288e-03</internalNodes>
      <leafValues>
        -2.5273805856704712e-01 4.2150121182203293e-02</leafValues></_>
    <_>
      <internalNodes>
        0 -1 5788 -3.9776749908924103e-03</internalNodes>
      <leafValues>
        1.3997098803520203e-01 -7.1264058351516724e-02</leafValues></_>
    <_>
      <internalNodes>
        0 -1 33121 1.6394986305385828e-03</internalNodes>
      <leafValues>
        3.3511519432067871e-02 -2.8436401486396790e-01</leafValues></_>
    <_>
      <internalNodes>
        0 -1 19168 -3.2372757792472839e-02</internalNodes>
      <leafValues>
        2.4051061272621155e-01 -3.9646878838539124e-02</leafValues></_>
    <_>
      <internalNodes>
        0 -1 11770 -5.7239867746829987e-03</internalNodes>
      <leafValues>
        1.4843395352363586e-01 -6.3951753079891205e-02</leafValues></_>
    <_>
      <internalNodes>
        0 -1 24794 -1.6387365758419037e-04</internalNodes>
      <leafValues>
        1.1041885614395142e-01 -8.7851017713546753e-02</leafValues></_>
    <_>
      <internalNodes>
        0 -1 24794 1.1773611186072230e-04</internalNodes>
      <leafValues>
        -7.7183745801448822e-02 1.2964461743831635e-01</leafValues></_>
    <_>
      <internalNodes>
        0 -1 3224 -3.5498953366186470e-05</internalNodes>
      <leafValues>
        -2.0197711884975433e-01 4.6580150723457336e-02</leafValues></_>
    <_>
      <internalNodes>
        0 -1 37 -7.9345060512423515e-03</internalNodes>
      <leafValues>
        9.1316983103752136e-02 -1.0525969415903091e-01</leafValues></_>
    <_>
      <internalNodes>
        0 -1 2931 -1.5986818820238113e-02</internalNodes>
      <leafValues>
        -3.5277283191680908e-01 3.1557090580463409e-02</leafValues></_>
    <_>
      <internalNodes>
        0 -1 34915 -4.3981306953355670e-04</internalNodes>
      <leafValues>
        -1.6944247484207153e-01 5.1959201693534851e-02</leafValues></_>
    <_>
      <internalNodes>
        0 -1 17692 -1.0416450910270214e-02</internalNodes>
      <leafValues>
        -3.9381852746009827e-01 2.1591262891888618e-02</leafValues></_>
    <_>
      <internalNodes>
        0 -1 4924 -2.1028573974035680e-04</internalNodes>
      <leafValues>
        -7.4051231145858765e-02 1.2643529474735260e-01</leafValues></_>
    <_>
      <internalNodes>
        0 -1 17523 1.1333506554365158e-02</internalNodes>
      <leafValues>
        -6.2745437026023865e-02 1.5579302608966827e-01</leafValues></_>
    <_>
      <internalNodes>
        0 -1 13549 1.4617734588682652e-02</internalNodes>
      <leafValues>
        2.4795597419142723e-02 -3.9249768853187561e-01</leafValues></_>
    <_>
      <internalNodes>
        0 -1 21293 -5.2209630608558655e-02</internalNodes>
      <leafValues>
        2.2646678984165192e-01 -4.4220559298992157e-02</leafValues></_>
    <_>
      <internalNodes>
        0 -1 34391 1.4028981328010559e-02</internalNodes>
      <leafValues>
        2.0047243684530258e-02 -4.6157768368721008e-01</leafValues></_>
    <_>
      <internalNodes>
        0 -1 24515 -8.0124698579311371e-03</internalNodes>
      <leafValues>
        1.4386539161205292e-01 -6.5067373216152191e-02</leafValues></_>
    <_>
      <internalNodes>
        0 -1 24129 -1.3697551912628114e-04</internalNodes>
      <leafValues>
        9.7643360495567322e-02 -9.6665091812610626e-02</leafValues></_>
    <_>
      <internalNodes>
        0 -1 24129 1.2861865980084985e-04</internalNodes>
      <leafValues>
        -7.7327892184257507e-02 1.1579673737287521e-01</leafValues></_>
    <_>
      <internalNodes>
        0 -1 31757 -3.6427341401576996e-03</internalNodes>
      <leafValues>
        -4.8546975851058960e-01 1.8655193969607353e-02</leafValues></_>
    <_>
      <internalNodes>
        0 -1 2983 3.2064385712146759e-02</internalNodes>
      <leafValues>
        1.6293821856379509e-02 -4.8309752345085144e-01</leafValues></_>
    <_>
      <internalNodes>
        0 -1 33744 -2.3081351071596146e-02</internalNodes>
      <leafValues>
        2.8717035055160522e-01 -2.9732629656791687e-02</leafValues></_>
    <_>
      <internalNodes>
        0 -1 31156 -4.6134568750858307e-02</internalNodes>
      <leafValues>
        2.0888094604015350e-01 -4.2920671403408051e-02</leafValues></_>
    <_>
      <internalNodes>
        0 -1 28099 1.0529956966638565e-01</internalNodes>
      <leafValues>
        2.0211914554238319e-02 -4.1753891110420227e-01</leafValues></_>
    <_>
      <internalNodes>
        0 -1 31757 1.9722988363355398e-03</internalNodes>
      <leafValues>
        2.8792357072234154e-02 -3.0144527554512024e-01</leafValues></_>
    <_>
      <internalNodes>
        0 -1 30924 3.6103082820773125e-03</internalNodes>
      <leafValues>
        -6.2300186604261398e-02 1.3324427604675293e-01</leafValues></_>
    <_>
      <internalNodes>
        0 -1 27063 -1.9973482191562653e-01</internalNodes>
      <leafValues>
        -5.0010788440704346e-01 2.0390767604112625e-02</leafValues></_>
    <_>
      <internalNodes>
        0 -1 277 -5.8208477497100830e-01</internalNodes>
      <leafValues>
        -6.8756490945816040e-01 9.5441667363047600e-03</leafValues></_>
    <_>
      <internalNodes>
        0 -1 9381 2.2524897940456867e-03</internalNodes>
      <leafValues>
        3.7158362567424774e-02 -2.1312633156776428e-01</leafValues></_>
    <_>
      <internalNodes>
        0 -1 6789 -1.5447849000338465e-04</internalNodes>
      <leafValues>
        1.0486049950122833e-01 -8.2005158066749573e-02</leafValues></_>
    <_>
      <internalNodes>
        0 -1 30933 -5.8151027187705040e-03</internalNodes>
      <leafValues>
        1.1112905293703079e-01 -7.2459757328033447e-02</leafValues></_>
    <_>
      <internalNodes>
        0 -1 31866 -1.3395946007221937e-03</internalNodes>
      <leafValues>
        -1.3455681502819061e-01 7.3360882699489594e-02</leafValues></_>
    <_>
      <internalNodes>
        0 -1 22102 -6.1282054521143436e-03</internalNodes>
      <leafValues>
        1.2801820039749146e-01 -6.2360685318708420e-02</leafValues></_>
    <_>
      <internalNodes>
        0 -1 28324 2.4413173086941242e-03</internalNodes>
      <leafValues>
        -7.3620766401290894e-02 1.0824508219957352e-01</leafValues></_>
    <_>
      <internalNodes>
        0 -1 8735 -4.4543266994878650e-04</internalNodes>
      <leafValues>
        -1.0167372971773148e-01 9.8179124295711517e-02</leafValues></_>
    <_>
      <internalNodes>
        0 -1 2617 3.0658618925372139e-05</internalNodes>
      <leafValues>
        8.7632700800895691e-02 -1.1216158419847488e-01</leafValues></_>
    <_>
      <internalNodes>
        0 -1 2617 -2.8067524544894695e-04</internalNodes>
      <leafValues>
        -9.1135255992412567e-02 9.1951750218868256e-02</leafValues></_>
    <_>
      <internalNodes>
        0 -1 26023 1.4187820488587022e-04</internalNodes>
      <leafValues>
        -8.1659704446792603e-02 1.0401415824890137e-01</leafValues></_>
    <_>
      <internalNodes>
        0 -1 3616 -3.0037302523851395e-02</internalNodes>
      <leafValues>
        1.7446430027484894e-01 -5.1443085074424744e-02</leafValues></_>
    <_>
      <internalNodes>
        0 -1 9593 -1.1547472327947617e-02</internalNodes>
      <leafValues>
        1.2274818867444992e-01 -8.5902355611324310e-02</leafValues></_>
    <_>
      <internalNodes>
        0 -1 34208 -1.0671139461919665e-03</internalNodes>
      <leafValues>
        -2.1864233911037445e-01 3.9276625961065292e-02</leafValues></_>
    <_>
      <internalNodes>
        0 -1 32937 9.1256033629179001e-03</internalNodes>
      <leafValues>
        2.8037542477250099e-02 -2.8525474667549133e-01</leafValues></_>
    <_>
      <internalNodes>
        0 -1 7393 4.8314422369003296e-02</internalNodes>
      <leafValues>
        -3.9906501770019531e-02 2.2796867787837982e-01</leafValues></_>
    <_>
      <internalNodes>
        0 -1 33114 2.2607353329658508e-01</internalNodes>
      <leafValues>
        2.3279033601284027e-02 -3.8138520717620850e-01</leafValues></_>
    <_>
      <internalNodes>
        0 -1 16224 3.4114103764295578e-03</internalNodes>
      <leafValues>
        2.4033335968852043e-02 -3.3551225066184998e-01</leafValues></_>
    <_>
      <internalNodes>
        0 -1 34372 -1.5562232583761215e-02</internalNodes>
      <leafValues>
        2.4972701072692871e-01 -3.2546624541282654e-02</leafValues></_>
    <_>
      <internalNodes>
        0 -1 33801 1.5339008532464504e-03</internalNodes>
      <leafValues>
        -9.1078445315361023e-02 8.9813917875289917e-02</leafValues></_>
    <_>
      <internalNodes>
        0 -1 33980 1.3795885024592280e-04</internalNodes>
      <leafValues>
        -7.5834043323993683e-02 9.9378436803817749e-02</leafValues></_>
    <_>
      <internalNodes>
        0 -1 33980 -1.5037212870083749e-04</internalNodes>
      <leafValues>
        1.1033179610967636e-01 -8.1835806369781494e-02</leafValues></_>
    <_>
      <internalNodes>
        0 -1 2193 5.0810282118618488e-03</internalNodes>
      <leafValues>
        3.2195743173360825e-02 -2.2077775001525879e-01</leafValues></_>
    <_>
      <internalNodes>
        0 -1 2125 -3.4567184746265411e-02</internalNodes>
      <leafValues>
        1.7186322808265686e-01 -3.9861410856246948e-02</leafValues></_>
    <_>
      <internalNodes>
        0 -1 3240 -8.4419790655374527e-03</internalNodes>
      <leafValues>
        1.1988784372806549e-01 -6.0453910380601883e-02</leafValues></_>
    <_>
      <internalNodes>
        0 -1 3085 1.7996137961745262e-02</internalNodes>
      <leafValues>
        -4.7377716749906540e-02 1.8428939580917358e-01</leafValues></_>
    <_>
      <internalNodes>
        0 -1 14567 -3.6518637090921402e-02</internalNodes>
      <leafValues>
        1.5226677060127258e-01 -4.9565389752388000e-02</leafValues></_>
    <_>
      <internalNodes>
        0 -1 2702 6.2522906810045242e-03</internalNodes>
      <leafValues>
        1.6548683866858482e-02 -4.0616717934608459e-01</leafValues></_></weakClassifiers></stage13>
</opencv_storage>
