<?xml version="1.0"?>
<opencv_storage>
<stage19>
  <maxWeakCount>100</maxWeakCount>
  <stageThreshold>-1.4952037334442139e+00</stageThreshold>
  <weakClassifiers>
    <_>
      <internalNodes>
        0 -1 23880 -2.1256114542484283e-01</internalNodes>
      <leafValues>
        4.0848484635353088e-01 -1.4964987337589264e-01</leafValues></_>
    <_>
      <internalNodes>
        0 -1 599 -1.6519010532647371e-03</internalNodes>
      <leafValues>
        1.0715049505233765e-01 -2.7887457609176636e-01</leafValues></_>
    <_>
      <internalNodes>
        0 -1 29796 -3.0243417248129845e-02</internalNodes>
      <leafValues>
        2.0034348964691162e-01 -1.2360947579145432e-01</leafValues></_>
    <_>
      <internalNodes>
        0 -1 22756 -3.2417576760053635e-02</internalNodes>
      <leafValues>
        2.2812843322753906e-01 -1.1711923778057098e-01</leafValues></_>
    <_>
      <internalNodes>
        0 -1 20996 1.9285293295979500e-02</internalNodes>
      <leafValues>
        -3.7112992256879807e-02 3.0899828672409058e-01</leafValues></_>
    <_>
      <internalNodes>
        0 -1 94 -1.1107648722827435e-02</internalNodes>
      <leafValues>
        1.1830737441778183e-01 -1.4913561940193176e-01</leafValues></_>
    <_>
      <internalNodes>
        0 -1 9 -1.5406915917992592e-03</internalNodes>
      <leafValues>
        7.2187930345535278e-02 -2.0816870033740997e-01</leafValues></_>
    <_>
      <internalNodes>
        0 -1 24395 -1.5938354656100273e-02</internalNodes>
      <leafValues>
        2.4208231270313263e-01 -6.0645285993814468e-02</leafValues></_>
    <_>
      <internalNodes>
        0 -1 12666 1.5869146212935448e-02</internalNodes>
      <leafValues>
        -7.8574433922767639e-02 1.9071650505065918e-01</leafValues></_>
    <_>
      <internalNodes>
        0 -1 281 -1.4341954886913300e-01</internalNodes>
      <leafValues>
        1.0593795031309128e-01 -1.5515702962875366e-01</leafValues></_>
    <_>
      <internalNodes>
        0 -1 34846 1.9937034696340561e-02</internalNodes>
      <leafValues>
        -6.1702765524387360e-02 2.1103717386722565e-01</leafValues></_>
    <_>
      <internalNodes>
        0 -1 34901 -2.7327563613653183e-02</internalNodes>
      <leafValues>
        3.0761089920997620e-01 -2.9969420284032822e-02</leafValues></_>
    <_>
      <internalNodes>
        0 -1 32922 -4.1298518772237003e-04</internalNodes>
      <leafValues>
        -2.5997120141983032e-01 4.5557256788015366e-02</leafValues></_>
    <_>
      <internalNodes>
        0 -1 998 1.3165725395083427e-03</internalNodes>
      <leafValues>
        3.7017412483692169e-02 -3.3394977450370789e-01</leafValues></_>
    <_>
      <internalNodes>
        0 -1 15338 -1.0472768917679787e-02</internalNodes>
      <leafValues>
        1.7840442061424255e-01 -7.5539350509643555e-02</leafValues></_>
    <_>
      <internalNodes>
        0 -1 22567 1.7251480603590608e-03</internalNodes>
      <leafValues>
        2.8984235599637032e-02 -3.6029237508773804e-01</leafValues></_>
    <_>
      <internalNodes>
        0 -1 22971 -9.3998352531343699e-04</internalNodes>
      <leafValues>
        -2.2509697079658508e-01 5.5164147168397903e-02</leafValues></_>
    <_>
      <internalNodes>
        0 -1 34435 6.3496576622128487e-03</internalNodes>
      <leafValues>
        -6.5185651183128357e-02 1.6469238698482513e-01</leafValues></_>
    <_>
      <internalNodes>
        0 -1 9415 9.4541981816291809e-03</internalNodes>
      <leafValues>
        2.5079108774662018e-02 -3.6016136407852173e-01</leafValues></_>
    <_>
      <internalNodes>
        0 -1 25169 1.2897155829705298e-04</internalNodes>
      <leafValues>
        -9.1622449457645416e-02 1.1632584035396576e-01</leafValues></_>
    <_>
      <internalNodes>
        0 -1 3761 -1.3476922176778316e-03</internalNodes>
      <leafValues>
        -2.9532662034034729e-01 4.4188696891069412e-02</leafValues></_>
    <_>
      <internalNodes>
        0 -1 2183 -4.4676782563328743e-03</internalNodes>
      <leafValues>
        1.3675148785114288e-01 -7.7746205031871796e-02</leafValues></_>
    <_>
      <internalNodes>
        0 -1 6299 2.1862215362489223e-03</internalNodes>
      <leafValues>
        -8.9374758303165436e-02 1.2121887505054474e-01</leafValues></_>
    <_>
      <internalNodes>
        0 -1 3061 -2.3269674275070429e-03</internalNodes>
      <leafValues>
        -3.6209425330162048e-01 3.1835597008466721e-02</leafValues></_>
    <_>
      <internalNodes>
        0 -1 3063 1.7878049984574318e-03</internalNodes>
      <leafValues>
        4.2360018938779831e-02 -2.5128981471061707e-01</leafValues></_>
    <_>
      <internalNodes>
        0 -1 26334 -3.4271210432052612e-02</internalNodes>
      <leafValues>
        2.6807838678359985e-01 -3.7564601749181747e-02</leafValues></_>
    <_>
      <internalNodes>
        0 -1 12340 -4.5247912406921387e-02</internalNodes>
      <leafValues>
        -3.4625115990638733e-01 3.0625626444816589e-02</leafValues></_>
    <_>
      <internalNodes>
        0 -1 21784 4.6022869646549225e-02</internalNodes>
      <leafValues>
        -2.5466857478022575e-02 4.2003366351127625e-01</leafValues></_>
    <_>
      <internalNodes>
        0 -1 4185 1.0153107577934861e-03</internalNodes>
      <leafValues>
        -1.4691144227981567e-01 6.7492477595806122e-02</leafValues></_>
    <_>
      <internalNodes>
        0 -1 15072 1.2421946041285992e-02</internalNodes>
      <leafValues>
        -7.1835465729236603e-02 1.5170559287071228e-01</leafValues></_>
    <_>
      <internalNodes>
        0 -1 15030 -9.3670971691608429e-03</internalNodes>
      <leafValues>
        2.0119650661945343e-01 -4.9473073333501816e-02</leafValues></_>
    <_>
      <internalNodes>
        0 -1 17533 -1.3447983190417290e-02</internalNodes>
      <leafValues>
        -4.7309774160385132e-01 2.0346531644463539e-02</leafValues></_>
    <_>
      <internalNodes>
        0 -1 32170 -2.0667444914579391e-03</internalNodes>
      <leafValues>
        -3.4164208173751831e-01 2.5211181491613388e-02</leafValues></_>
    <_>
      <internalNodes>
        0 -1 31509 -5.0480086356401443e-03</internalNodes>
      <leafValues>
        1.2784162163734436e-01 -6.6791050136089325e-02</leafValues></_>
    <_>
      <internalNodes>
        0 -1 34556 8.5834795609116554e-03</internalNodes>
      <leafValues>
        -4.8632446676492691e-02 1.7639248073101044e-01</leafValues></_>
    <_>
      <internalNodes>
        0 -1 33431 9.7875075880438089e-04</internalNodes>
      <leafValues>
        5.1344901323318481e-02 -1.7262460291385651e-01</leafValues></_>
    <_>
      <internalNodes>
        0 -1 33431 -8.3284417632967234e-04</internalNodes>
      <leafValues>
        -1.9922433793544769e-01 4.7913018614053726e-02</leafValues></_>
    <_>
      <internalNodes>
        0 -1 24785 -3.4276596270501614e-03</internalNodes>
      <leafValues>
        -3.8231810927391052e-01 2.0623899996280670e-02</leafValues></_>
    <_>
      <internalNodes>
        0 -1 416 6.6710925102233887e-01</internalNodes>
      <leafValues>
        1.0989895090460777e-02 -6.5677648782730103e-01</leafValues></_>
    <_>
      <internalNodes>
        0 -1 418 -1.9441477954387665e-01</internalNodes>
      <leafValues>
        1.0542302578687668e-01 -8.1378452479839325e-02</leafValues></_>
    <_>
      <internalNodes>
        0 -1 9292 -5.2147859241813421e-04</internalNodes>
      <leafValues>
        -1.8782816827297211e-01 4.7127064317464828e-02</leafValues></_>
    <_>
      <internalNodes>
        0 -1 19159 2.1889362484216690e-02</internalNodes>
      <leafValues>
        -5.6675557047128677e-02 1.5522059798240662e-01</leafValues></_>
    <_>
      <internalNodes>
        0 -1 34873 1.8325950950384140e-02</internalNodes>
      <leafValues>
        2.7859229594469070e-02 -3.3115544915199280e-01</leafValues></_>
    <_>
      <internalNodes>
        0 -1 18792 -9.8106153309345245e-02</internalNodes>
      <leafValues>
        2.4854625761508942e-01 -3.7360999733209610e-02</leafValues></_>
    <_>
      <internalNodes>
        0 -1 26832 1.4001579256728292e-04</internalNodes>
      <leafValues>
        -8.3314858376979828e-02 1.0403630137443542e-01</leafValues></_>
    <_>
      <internalNodes>
        0 -1 31479 2.5012367404997349e-03</internalNodes>
      <leafValues>
        -7.5351648032665253e-02 1.1852742731571198e-01</leafValues></_>
    <_>
      <internalNodes>
        0 -1 21267 1.5259081497788429e-02</internalNodes>
      <leafValues>
        -7.2174876928329468e-02 1.1494965106248856e-01</leafValues></_>
    <_>
      <internalNodes>
        0 -1 20298 -4.4561913236975670e-03</internalNodes>
      <leafValues>
        2.1180295944213867e-01 -4.6976819634437561e-02</leafValues></_>
    <_>
      <internalNodes>
        0 -1 17836 1.8330685794353485e-02</internalNodes>
      <leafValues>
        2.6816839352250099e-02 -3.7669864296913147e-01</leafValues></_>
    <_>
      <internalNodes>
        0 -1 1009 -2.8048274107277393e-03</internalNodes>
      <leafValues>
        7.9808369278907776e-02 -1.0165711492300034e-01</leafValues></_>
    <_>
      <internalNodes>
        0 -1 18574 -9.9899852648377419e-03</internalNodes>
      <leafValues>
        1.6656981408596039e-01 -4.8684537410736084e-02</leafValues></_>
    <_>
      <internalNodes>
        0 -1 9825 -2.2953026928007603e-03</internalNodes>
      <leafValues>
        -4.0300324559211731e-01 2.0183652639389038e-02</leafValues></_>
    <_>
      <internalNodes>
        0 -1 8871 -1.7232712358236313e-02</internalNodes>
      <leafValues>
        1.3115130364894867e-01 -6.3428908586502075e-02</leafValues></_>
    <_>
      <internalNodes>
        0 -1 5788 -4.9720956012606621e-03</internalNodes>
      <leafValues>
        1.4466398954391479e-01 -6.0481108725070953e-02</leafValues></_>
    <_>
      <internalNodes>
        0 -1 24784 2.6311059482395649e-03</internalNodes>
      <leafValues>
        2.5696290656924248e-02 -3.3331686258316040e-01</leafValues></_>
    <_>
      <internalNodes>
        0 -1 9034 4.1125272400677204e-03</internalNodes>
      <leafValues>
        -3.9523333311080933e-02 2.2277045249938965e-01</leafValues></_>
    <_>
      <internalNodes>
        0 -1 18956 -2.1170381456613541e-02</internalNodes>
      <leafValues>
        -3.4444239735603333e-01 2.4464745074510574e-02</leafValues></_>
    <_>
      <internalNodes>
        0 -1 27386 -1.0039052926003933e-02</internalNodes>
      <leafValues>
        1.6898109018802643e-01 -4.5313447713851929e-02</leafValues></_>
    <_>
      <internalNodes>
        0 -1 34804 1.8096661369781941e-04</internalNodes>
      <leafValues>
        -1.0690388083457947e-01 8.2772642374038696e-02</leafValues></_>
    <_>
      <internalNodes>
        0 -1 30003 1.2373883510008454e-04</internalNodes>
      <leafValues>
        -1.1359407007694244e-01 7.8993991017341614e-02</leafValues></_>
    <_>
      <internalNodes>
        0 -1 12993 -1.5283119864761829e-02</internalNodes>
      <leafValues>
        1.1849218606948853e-01 -7.2980172932147980e-02</leafValues></_>
    <_>
      <internalNodes>
        0 -1 33796 -2.5368647184222937e-03</internalNodes>
      <leafValues>
        1.2463048845529556e-01 -6.9606356322765350e-02</leafValues></_>
    <_>
      <internalNodes>
        0 -1 29005 2.2311247885227203e-03</internalNodes>
      <leafValues>
        2.5371635332703590e-02 -3.3693560957908630e-01</leafValues></_>
    <_>
      <internalNodes>
        0 -1 3145 -5.3211528575047851e-04</internalNodes>
      <leafValues>
        -1.6847488284111023e-01 4.7005392611026764e-02</leafValues></_>
    <_>
      <internalNodes>
        0 -1 24351 -7.4026258662343025e-03</internalNodes>
      <leafValues>
        1.3002921640872955e-01 -6.0242254287004471e-02</leafValues></_>
    <_>
      <internalNodes>
        0 -1 24785 -1.0335888946428895e-03</internalNodes>
      <leafValues>
        -1.6665938496589661e-01 4.4656891375780106e-02</leafValues></_>
    <_>
      <internalNodes>
        0 -1 31523 7.1238963864743710e-03</internalNodes>
      <leafValues>
        -5.1322322338819504e-02 1.6686919331550598e-01</leafValues></_>
    <_>
      <internalNodes>
        0 -1 6168 -4.0051748510450125e-04</internalNodes>
      <leafValues>
        -1.2447897344827652e-01 7.4201047420501709e-02</leafValues></_>
    <_>
      <internalNodes>
        0 -1 17228 -2.1147623658180237e-01</internalNodes>
      <leafValues>
        5.0087654590606689e-01 -1.8023528158664703e-02</leafValues></_>
    <_>
      <internalNodes>
        0 -1 2225 8.3293709903955460e-03</internalNodes>
      <leafValues>
        3.1887266784906387e-02 -2.4722759425640106e-01</leafValues></_>
    <_>
      <internalNodes>
        0 -1 2253 -7.8684184700250626e-03</internalNodes>
      <leafValues>
        -1.6766029596328735e-01 4.2212706059217453e-02</leafValues></_>
    <_>
      <internalNodes>
        0 -1 35088 7.7756978571414948e-03</internalNodes>
      <leafValues>
        1.9770232960581779e-02 -3.6058259010314941e-01</leafValues></_>
    <_>
      <internalNodes>
        0 -1 32931 1.6596014029346406e-04</internalNodes>
      <leafValues>
        -7.8944914042949677e-02 9.4488948583602905e-02</leafValues></_>
    <_>
      <internalNodes>
        0 -1 34666 1.1959465220570564e-02</internalNodes>
      <leafValues>
        2.1241258829832077e-02 -3.7311336398124695e-01</leafValues></_>
    <_>
      <internalNodes>
        0 -1 23580 -1.1076012626290321e-02</internalNodes>
      <leafValues>
        1.5637047588825226e-01 -5.3286820650100708e-02</leafValues></_>
    <_>
      <internalNodes>
        0 -1 7619 2.0711218938231468e-02</internalNodes>
      <leafValues>
        -6.5416142344474792e-02 1.0939279943704605e-01</leafValues></_>
    <_>
      <internalNodes>
        0 -1 6325 8.2881894195452332e-04</internalNodes>
      <leafValues>
        3.7526238709688187e-02 -1.9313843548297882e-01</leafValues></_>
    <_>
      <internalNodes>
        0 -1 19442 -2.4412777565885335e-04</internalNodes>
      <leafValues>
        -7.9855576157569885e-02 9.2713043093681335e-02</leafValues></_>
    <_>
      <internalNodes>
        0 -1 2425 -2.0718075335025787e-02</internalNodes>
      <leafValues>
        1.3273420929908752e-01 -6.7593477666378021e-02</leafValues></_>
    <_>
      <internalNodes>
        0 -1 1 6.2304176390171051e-04</internalNodes>
      <leafValues>
        3.4422788769006729e-02 -2.1637630462646484e-01</leafValues></_>
    <_>
      <internalNodes>
        0 -1 73 -2.3148583713918924e-03</internalNodes>
      <leafValues>
        1.0397383570671082e-01 -7.5185663998126984e-02</leafValues></_>
    <_>
      <internalNodes>
        0 -1 6600 -5.7243499904870987e-02</internalNodes>
      <leafValues>
        1.6293884813785553e-01 -5.0776541233062744e-02</leafValues></_>
    <_>
      <internalNodes>
        0 -1 6383 -4.6999484300613403e-02</internalNodes>
      <leafValues>
        -3.8589432835578918e-01 2.1163167431950569e-02</leafValues></_>
    <_>
      <internalNodes>
        0 -1 7408 8.6496122181415558e-02</internalNodes>
      <leafValues>
        -3.7815090268850327e-02 2.3729440569877625e-01</leafValues></_>
    <_>
      <internalNodes>
        0 -1 4587 7.7426596544682980e-04</internalNodes>
      <leafValues>
        4.4784508645534515e-02 -1.7705477774143219e-01</leafValues></_>
    <_>
      <internalNodes>
        0 -1 1156 -5.0340794026851654e-02</internalNodes>
      <leafValues>
        9.3046374619007111e-02 -7.4220508337020874e-02</leafValues></_>
    <_>
      <internalNodes>
        0 -1 191 2.9538990929722786e-02</internalNodes>
      <leafValues>
        -4.4429931789636612e-02 1.8157461285591125e-01</leafValues></_>
    <_>
      <internalNodes>
        0 -1 24794 -1.3584291446022689e-04</internalNodes>
      <leafValues>
        1.0392872244119644e-01 -8.1622831523418427e-02</leafValues></_>
    <_>
      <internalNodes>
        0 -1 31009 -7.4262550333514810e-04</internalNodes>
      <leafValues>
        -1.6124711930751801e-01 4.5751098543405533e-02</leafValues></_>
    <_>
      <internalNodes>
        0 -1 21995 8.2065835595130920e-03</internalNodes>
      <leafValues>
        -4.7476034611463547e-02 1.5007688105106354e-01</leafValues></_>
    <_>
      <internalNodes>
        0 -1 34970 1.7320392653346062e-02</internalNodes>
      <leafValues>
        2.7514161542057991e-02 -2.7077245712280273e-01</leafValues></_>
    <_>
      <internalNodes>
        0 -1 6286 8.8839326053857803e-03</internalNodes>
      <leafValues>
        2.0043136551976204e-02 -3.4242013096809387e-01</leafValues></_>
    <_>
      <internalNodes>
        0 -1 30293 -1.8382704583927989e-03</internalNodes>
      <leafValues>
        -2.7516365051269531e-01 2.2927407175302505e-02</leafValues></_>
    <_>
      <internalNodes>
        0 -1 30291 1.1949233885388821e-04</internalNodes>
      <leafValues>
        -8.2490935921669006e-02 9.2561170458793640e-02</leafValues></_>
    <_>
      <internalNodes>
        0 -1 21683 -6.1782891862094402e-03</internalNodes>
      <leafValues>
        1.3144785165786743e-01 -5.4044194519519806e-02</leafValues></_>
    <_>
      <internalNodes>
        0 -1 2897 1.2219101190567017e-03</internalNodes>
      <leafValues>
        -9.2779569327831268e-02 8.0670274794101715e-02</leafValues></_>
    <_>
      <internalNodes>
        0 -1 23895 2.2038538008928299e-03</internalNodes>
      <leafValues>
        2.9306113719940186e-02 -2.4775345623493195e-01</leafValues></_>
    <_>
      <internalNodes>
        0 -1 28473 -3.4662992693483829e-03</internalNodes>
      <leafValues>
        1.2806096673011780e-01 -5.4391775280237198e-02</leafValues></_>
    <_>
      <internalNodes>
        0 -1 30084 3.6440170370042324e-03</internalNodes>
      <leafValues>
        -5.0504989922046661e-02 1.4183363318443298e-01</leafValues></_>
    <_>
      <internalNodes>
        0 -1 26953 1.7462218180298805e-02</internalNodes>
      <leafValues>
        2.3884490132331848e-02 -2.9913455247879028e-01</leafValues></_></weakClassifiers></stage19>
</opencv_storage>
