<?xml version="1.0"?>
<opencv_storage>
<stage18>
  <maxWeakCount>100</maxWeakCount>
  <stageThreshold>-1.5289032459259033e+00</stageThreshold>
  <weakClassifiers>
    <_>
      <internalNodes>
        0 -1 7927 -2.8583216667175293e-01</internalNodes>
      <leafValues>
        3.9400520920753479e-01 -2.0780509710311890e-01</leafValues></_>
    <_>
      <internalNodes>
        0 -1 11236 -4.3441887944936752e-02</internalNodes>
      <leafValues>
        4.0716561675071716e-01 -5.9854961931705475e-02</leafValues></_>
    <_>
      <internalNodes>
        0 -1 34687 -5.8946688659489155e-04</internalNodes>
      <leafValues>
        -4.0753567218780518e-01 3.9236512035131454e-02</leafValues></_>
    <_>
      <internalNodes>
        0 -1 15234 -4.0107313543558121e-02</internalNodes>
      <leafValues>
        1.1038013547658920e-01 -1.7693646252155304e-01</leafValues></_>
    <_>
      <internalNodes>
        0 -1 22071 -2.2152127698063850e-02</internalNodes>
      <leafValues>
        2.8300902247428894e-01 -5.6453447788953781e-02</leafValues></_>
    <_>
      <internalNodes>
        0 -1 5929 -4.5659456402063370e-02</internalNodes>
      <leafValues>
        2.1627067029476166e-01 -8.0837719142436981e-02</leafValues></_>
    <_>
      <internalNodes>
        0 -1 35086 2.8043542988598347e-04</internalNodes>
      <leafValues>
        6.7905753850936890e-02 -2.7646818757057190e-01</leafValues></_>
    <_>
      <internalNodes>
        0 -1 20669 2.2773005068302155e-02</internalNodes>
      <leafValues>
        -6.4141921699047089e-02 2.8778702020645142e-01</leafValues></_>
    <_>
      <internalNodes>
        0 -1 3691 -3.8663744926452637e-02</internalNodes>
      <leafValues>
        3.0876722931861877e-01 -7.3807902634143829e-02</leafValues></_>
    <_>
      <internalNodes>
        0 -1 4556 -2.6178592443466187e-01</internalNodes>
      <leafValues>
        2.8660315275192261e-01 -5.5526740849018097e-02</leafValues></_>
    <_>
      <internalNodes>
        0 -1 19517 -1.5175178647041321e-02</internalNodes>
      <leafValues>
        3.4325298666954041e-01 -6.4272537827491760e-02</leafValues></_>
    <_>
      <internalNodes>
        0 -1 30280 -4.7800033353269100e-03</internalNodes>
      <leafValues>
        -3.4261715412139893e-01 5.8020677417516708e-02</leafValues></_>
    <_>
      <internalNodes>
        0 -1 14995 1.6305808676406741e-03</internalNodes>
      <leafValues>
        8.4951765835285187e-02 -1.6030381619930267e-01</leafValues></_>
    <_>
      <internalNodes>
        0 -1 15017 -3.9704754948616028e-02</internalNodes>
      <leafValues>
        -3.7789288163185120e-01 4.2170315980911255e-02</leafValues></_>
    <_>
      <internalNodes>
        0 -1 34397 -2.2699854162055999e-04</internalNodes>
      <leafValues>
        9.4854041934013367e-02 -1.4501966536045074e-01</leafValues></_>
    <_>
      <internalNodes>
        0 -1 20378 8.2547133788466454e-03</internalNodes>
      <leafValues>
        3.0847050249576569e-02 -4.3253836035728455e-01</leafValues></_>
    <_>
      <internalNodes>
        0 -1 19728 8.6666820570826530e-03</internalNodes>
      <leafValues>
        -5.0434466451406479e-02 2.8834661841392517e-01</leafValues></_>
    <_>
      <internalNodes>
        0 -1 17795 -3.5425551235675812e-02</internalNodes>
      <leafValues>
        -4.3478378653526306e-01 3.1805869191884995e-02</leafValues></_>
    <_>
      <internalNodes>
        0 -1 35131 3.8990124594420195e-03</internalNodes>
      <leafValues>
        3.4844297915697098e-02 -3.4629195928573608e-01</leafValues></_>
    <_>
      <internalNodes>
        0 -1 3169 -4.1925549157895148e-04</internalNodes>
      <leafValues>
        -2.1511900424957275e-01 5.2905473858118057e-02</leafValues></_>
    <_>
      <internalNodes>
        0 -1 13421 -4.2997892946004868e-02</internalNodes>
      <leafValues>
        2.8677287697792053e-01 -4.3827094137668610e-02</leafValues></_>
    <_>
      <internalNodes>
        0 -1 24942 -5.1196206361055374e-02</internalNodes>
      <leafValues>
        -4.9317109584808350e-01 2.9298035427927971e-02</leafValues></_>
    <_>
      <internalNodes>
        0 -1 31504 -6.5375105477869511e-03</internalNodes>
      <leafValues>
        2.0962873101234436e-01 -5.8191496878862381e-02</leafValues></_>
    <_>
      <internalNodes>
        0 -1 14195 -9.1698234900832176e-03</internalNodes>
      <leafValues>
        1.1135187745094299e-01 -1.0023737698793411e-01</leafValues></_>
    <_>
      <internalNodes>
        0 -1 28210 -1.3347914442420006e-02</internalNodes>
      <leafValues>
        2.3727844655513763e-01 -4.8828329890966415e-02</leafValues></_>
    <_>
      <internalNodes>
        0 -1 34131 -1.6520110890269279e-02</internalNodes>
      <leafValues>
        -3.0320230126380920e-01 3.6330465227365494e-02</leafValues></_>
    <_>
      <internalNodes>
        0 -1 33099 -3.3334601670503616e-02</internalNodes>
      <leafValues>
        2.2527466714382172e-01 -5.4286491125822067e-02</leafValues></_>
    <_>
      <internalNodes>
        0 -1 28714 1.8769938033074141e-03</internalNodes>
      <leafValues>
        4.0831778198480606e-02 -2.8140386939048767e-01</leafValues></_>
    <_>
      <internalNodes>
        0 -1 12255 -1.7413701862096786e-02</internalNodes>
      <leafValues>
        1.8900266289710999e-01 -5.2179131656885147e-02</leafValues></_>
    <_>
      <internalNodes>
        0 -1 3761 8.2114536780864000e-04</internalNodes>
      <leafValues>
        4.9587350338697433e-02 -2.1010057628154755e-01</leafValues></_>
    <_>
      <internalNodes>
        0 -1 14330 -2.9394213110208511e-02</internalNodes>
      <leafValues>
        1.9147981703281403e-01 -5.0793062895536423e-02</leafValues></_>
    <_>
      <internalNodes>
        0 -1 1885 -1.9020726904273033e-02</internalNodes>
      <leafValues>
        1.0607305169105530e-01 -8.9908301830291748e-02</leafValues></_>
    <_>
      <internalNodes>
        0 -1 9550 -1.9807949662208557e-02</internalNodes>
      <leafValues>
        -3.1043329834938049e-01 3.4239564090967178e-02</leafValues></_>
    <_>
      <internalNodes>
        0 -1 7927 -2.8571474552154541e-01</internalNodes>
      <leafValues>
        -1.6135549545288086e-01 6.2725044786930084e-02</leafValues></_>
    <_>
      <internalNodes>
        0 -1 2687 -4.9451977014541626e-02</internalNodes>
      <leafValues>
        1.5237754583358765e-01 -7.2727084159851074e-02</leafValues></_>
    <_>
      <internalNodes>
        0 -1 6543 2.0280612807255238e-04</internalNodes>
      <leafValues>
        -1.3496799767017365e-01 7.3068328201770782e-02</leafValues></_>
    <_>
      <internalNodes>
        0 -1 34594 -4.1349250823259354e-03</internalNodes>
      <leafValues>
        1.3799436390399933e-01 -6.9441020488739014e-02</leafValues></_>
    <_>
      <internalNodes>
        0 -1 35208 -2.7252886444330215e-02</internalNodes>
      <leafValues>
        -3.3936467766761780e-01 3.5131055861711502e-02</leafValues></_>
    <_>
      <internalNodes>
        0 -1 24785 2.9007634148001671e-03</internalNodes>
      <leafValues>
        2.2029044106602669e-02 -3.7487781047821045e-01</leafValues></_>
    <_>
      <internalNodes>
        0 -1 24785 -1.4095758087933064e-03</internalNodes>
      <leafValues>
        -2.2287243604660034e-01 4.0903437882661819e-02</leafValues></_>
    <_>
      <internalNodes>
        0 -1 24351 -6.2132198363542557e-03</internalNodes>
      <leafValues>
        1.3250562548637390e-01 -7.3563016951084137e-02</leafValues></_>
    <_>
      <internalNodes>
        0 -1 32802 -4.7672931104898453e-03</internalNodes>
      <leafValues>
        1.5688517689704895e-01 -6.1429403722286224e-02</leafValues></_>
    <_>
      <internalNodes>
        0 -1 29875 -7.4669308960437775e-03</internalNodes>
      <leafValues>
        1.9133314490318298e-01 -5.5250268429517746e-02</leafValues></_>
    <_>
      <internalNodes>
        0 -1 34665 -5.8735848870128393e-04</internalNodes>
      <leafValues>
        -1.9123446941375732e-01 5.1244016736745834e-02</leafValues></_>
    <_>
      <internalNodes>
        0 -1 33799 -8.8555589318275452e-03</internalNodes>
      <leafValues>
        1.7147009074687958e-01 -5.3445562720298767e-02</leafValues></_>
    <_>
      <internalNodes>
        0 -1 28765 -1.4266373589634895e-02</internalNodes>
      <leafValues>
        -3.2934495806694031e-01 2.8873382136225700e-02</leafValues></_>
    <_>
      <internalNodes>
        0 -1 35215 -1.0141558013856411e-03</internalNodes>
      <leafValues>
        -2.1656200289726257e-01 4.0932007133960724e-02</leafValues></_>
    <_>
      <internalNodes>
        0 -1 1229 9.8286353051662445e-02</internalNodes>
      <leafValues>
        -3.1116096302866936e-02 2.7989766001701355e-01</leafValues></_>
    <_>
      <internalNodes>
        0 -1 4128 -3.7739142775535583e-02</internalNodes>
      <leafValues>
        2.4714571237564087e-01 -4.0046818554401398e-02</leafValues></_>
    <_>
      <internalNodes>
        0 -1 7168 1.8873995169997215e-02</internalNodes>
      <leafValues>
        -6.6597953438758850e-02 1.8014760315418243e-01</leafValues></_>
    <_>
      <internalNodes>
        0 -1 17704 1.0118346661329269e-02</internalNodes>
      <leafValues>
        2.8458535671234131e-02 -3.4905704855918884e-01</leafValues></_>
    <_>
      <internalNodes>
        0 -1 34803 -5.9917580801993608e-04</internalNodes>
      <leafValues>
        -1.7645433545112610e-01 5.0877060741186142e-02</leafValues></_>
    <_>
      <internalNodes>
        0 -1 15876 -6.3265236094594002e-03</internalNodes>
      <leafValues>
        -3.3885660767555237e-01 2.5134276598691940e-02</leafValues></_>
    <_>
      <internalNodes>
        0 -1 35216 1.3573607429862022e-03</internalNodes>
      <leafValues>
        4.3101139366626740e-02 -1.7621771991252899e-01</leafValues></_>
    <_>
      <internalNodes>
        0 -1 12709 6.4261984080076218e-03</internalNodes>
      <leafValues>
        2.5518598034977913e-02 -3.0014929175376892e-01</leafValues></_>
    <_>
      <internalNodes>
        0 -1 24414 7.2191958315670490e-03</internalNodes>
      <leafValues>
        -4.5626424252986908e-02 1.6481684148311615e-01</leafValues></_>
    <_>
      <internalNodes>
        0 -1 17222 6.0315996408462524e-02</internalNodes>
      <leafValues>
        -9.5413997769355774e-02 8.3361014723777771e-02</leafValues></_>
    <_>
      <internalNodes>
        0 -1 7965 -2.3429130669683218e-04</internalNodes>
      <leafValues>
        -7.2935767471790314e-02 1.1121991276741028e-01</leafValues></_>
    <_>
      <internalNodes>
        0 -1 18855 1.7567802220582962e-02</internalNodes>
      <leafValues>
        -5.8980196714401245e-02 1.5683920681476593e-01</leafValues></_>
    <_>
      <internalNodes>
        0 -1 34011 1.5852019190788269e-02</internalNodes>
      <leafValues>
        2.7664855122566223e-02 -3.2072573900222778e-01</leafValues></_>
    <_>
      <internalNodes>
        0 -1 35098 -3.7966025993227959e-03</internalNodes>
      <leafValues>
        6.9806866347789764e-02 -1.1836511641740799e-01</leafValues></_>
    <_>
      <internalNodes>
        0 -1 3074 1.4455102384090424e-02</internalNodes>
      <leafValues>
        1.9337067380547523e-02 -3.9570578932762146e-01</leafValues></_>
    <_>
      <internalNodes>
        0 -1 27146 -1.4979797601699829e-01</internalNodes>
      <leafValues>
        -3.1778630614280701e-01 2.4293009191751480e-02</leafValues></_>
    <_>
      <internalNodes>
        0 -1 10354 2.5840274989604950e-02</internalNodes>
      <leafValues>
        2.1128438413143158e-02 -3.6306983232498169e-01</leafValues></_>
    <_>
      <internalNodes>
        0 -1 35193 4.6175736933946609e-03</internalNodes>
      <leafValues>
        2.1716270595788956e-02 -2.8734186291694641e-01</leafValues></_>
    <_>
      <internalNodes>
        0 -1 34051 1.2974576093256474e-02</internalNodes>
      <leafValues>
        -3.6927539855241776e-02 1.8758833408355713e-01</leafValues></_>
    <_>
      <internalNodes>
        0 -1 26845 3.4684832207858562e-03</internalNodes>
      <leafValues>
        1.8544403836131096e-02 -3.6570844054222107e-01</leafValues></_>
    <_>
      <internalNodes>
        0 -1 11006 -8.0249188467860222e-03</internalNodes>
      <leafValues>
        1.5041895210742950e-01 -4.4692795723676682e-02</leafValues></_>
    <_>
      <internalNodes>
        0 -1 15008 8.6846277117729187e-03</internalNodes>
      <leafValues>
        2.9873685911297798e-02 -2.6406103372573853e-01</leafValues></_>
    <_>
      <internalNodes>
        0 -1 13828 4.3812883086502552e-03</internalNodes>
      <leafValues>
        -5.8606937527656555e-02 1.2149682641029358e-01</leafValues></_>
    <_>
      <internalNodes>
        0 -1 10319 -8.5784621536731720e-02</internalNodes>
      <leafValues>
        1.7817726731300354e-01 -4.1977941989898682e-02</leafValues></_>
    <_>
      <internalNodes>
        0 -1 19228 1.4748252928256989e-02</internalNodes>
      <leafValues>
        -4.2368024587631226e-02 1.5774144232273102e-01</leafValues></_>
    <_>
      <internalNodes>
        0 -1 2441 8.9369248598814011e-03</internalNodes>
      <leafValues>
        1.4966000802814960e-02 -4.5993325114250183e-01</leafValues></_>
    <_>
      <internalNodes>
        0 -1 13102 2.8590771835297346e-03</internalNodes>
      <leafValues>
        1.5301986597478390e-02 -3.8358977437019348e-01</leafValues></_>
    <_>
      <internalNodes>
        0 -1 1003 1.5669859945774078e-02</internalNodes>
      <leafValues>
        2.5132799521088600e-02 -2.4856559932231903e-01</leafValues></_>
    <_>
      <internalNodes>
        0 -1 1804 2.6572495698928833e-02</internalNodes>
      <leafValues>
        -5.2221395075321198e-02 1.3959373533725739e-01</leafValues></_>
    <_>
      <internalNodes>
        0 -1 7037 -9.5070630311965942e-02</internalNodes>
      <leafValues>
        1.3158430159091949e-01 -5.6954950094223022e-02</leafValues></_>
    <_>
      <internalNodes>
        0 -1 32931 1.4556142268702388e-03</internalNodes>
      <leafValues>
        4.0892437100410461e-02 -1.7172060906887054e-01</leafValues></_>
    <_>
      <internalNodes>
        0 -1 1136 1.1773623526096344e-02</internalNodes>
      <leafValues>
        -5.6062325835227966e-02 1.2844766676425934e-01</leafValues></_>
    <_>
      <internalNodes>
        0 -1 9252 -2.0730715245008469e-02</internalNodes>
      <leafValues>
        1.4370810985565186e-01 -4.8410505056381226e-02</leafValues></_>
    <_>
      <internalNodes>
        0 -1 32889 -1.0940777137875557e-02</internalNodes>
      <leafValues>
        -2.4364508688449860e-01 2.9411895200610161e-02</leafValues></_>
    <_>
      <internalNodes>
        0 -1 9251 -2.8343818848952651e-04</internalNodes>
      <leafValues>
        -1.6896019876003265e-01 4.4928558170795441e-02</leafValues></_>
    <_>
      <internalNodes>
        0 -1 34491 -4.0490115061402321e-03</internalNodes>
      <leafValues>
        1.1984213441610336e-01 -5.7812213897705078e-02</leafValues></_>
    <_>
      <internalNodes>
        0 -1 30262 -1.5916468692012131e-04</internalNodes>
      <leafValues>
        8.2357987761497498e-02 -8.0345116555690765e-02</leafValues></_>
    <_>
      <internalNodes>
        0 -1 6281 6.6589182242751122e-03</internalNodes>
      <leafValues>
        1.2454225681722164e-02 -4.3014949560165405e-01</leafValues></_>
    <_>
      <internalNodes>
        0 -1 10918 -1.5324262902140617e-02</internalNodes>
      <leafValues>
        1.2721431255340576e-01 -4.6425830572843552e-02</leafValues></_>
    <_>
      <internalNodes>
        0 -1 13102 -1.4645990449935198e-03</internalNodes>
      <leafValues>
        -2.1339316666126251e-01 3.1759969890117645e-02</leafValues></_>
    <_>
      <internalNodes>
        0 -1 29086 7.0445165038108826e-03</internalNodes>
      <leafValues>
        2.1380616351962090e-02 -2.6537805795669556e-01</leafValues></_>
    <_>
      <internalNodes>
        0 -1 22322 1.1105673387646675e-02</internalNodes>
      <leafValues>
        -4.0153935551643372e-02 1.4081449806690216e-01</leafValues></_>
    <_>
      <internalNodes>
        0 -1 28414 -3.9530979120172560e-04</internalNodes>
      <leafValues>
        -9.3981906771659851e-02 6.4798317849636078e-02</leafValues></_>
    <_>
      <internalNodes>
        0 -1 34405 -1.9869882613420486e-02</internalNodes>
      <leafValues>
        -2.6912942528724670e-01 2.6492560282349586e-02</leafValues></_>
    <_>
      <internalNodes>
        0 -1 32718 -4.5627439394593239e-03</internalNodes>
      <leafValues>
        1.4056734740734100e-01 -4.7424841672182083e-02</leafValues></_>
    <_>
      <internalNodes>
        0 -1 8379 -1.0244168806821108e-03</internalNodes>
      <leafValues>
        6.0494437813758850e-02 -9.7192026674747467e-02</leafValues></_>
    <_>
      <internalNodes>
        0 -1 392 5.5833011865615845e-02</internalNodes>
      <leafValues>
        -6.0445725917816162e-02 1.3100622594356537e-01</leafValues></_>
    <_>
      <internalNodes>
        0 -1 15673 -3.5001169890165329e-03</internalNodes>
      <leafValues>
        1.0736221820116043e-01 -7.0559166371822357e-02</leafValues></_>
    <_>
      <internalNodes>
        0 -1 6 3.6910249036736786e-04</internalNodes>
      <leafValues>
        4.6714883297681808e-02 -1.2737099826335907e-01</leafValues></_>
    <_>
      <internalNodes>
        0 -1 6297 -7.1871038526296616e-03</internalNodes>
      <leafValues>
        1.3336639106273651e-01 -4.9525316804647446e-02</leafValues></_>
    <_>
      <internalNodes>
        0 -1 542 1.6495925956405699e-04</internalNodes>
      <leafValues>
        -7.3988370597362518e-02 9.2309646308422089e-02</leafValues></_>
    <_>
      <internalNodes>
        0 -1 12202 -2.6410380378365517e-02</internalNodes>
      <leafValues>
        -3.9210405945777893e-01 1.4801443554461002e-02</leafValues></_>
    <_>
      <internalNodes>
        0 -1 1848 -6.6320449113845825e-03</internalNodes>
      <leafValues>
        1.4002093672752380e-01 -4.5073118060827255e-02</leafValues></_></weakClassifiers></stage18>
</opencv_storage>
